{"dimensions":[4],"layers":[{"type":"relu","size":10,"weights":{"W":[[0.8130144302112498,1.5827997430835368,-1.0535645582198334,-1.174422253938764],[1.287259191783941,0.548178247018921,-1.380281964199016,-0.999181707173401],[0.9848656532702511,0.08612782949554204,-0.6598699989282267,-0.3420251270053499],[1.6999251129566948,0.8986770669868913,-1.526335056200105,-1.2353528825518785],[0.8287453835770697,-0.7627002421055287,1.2045146599271221,0.06810101114100695],[0.5479696462430574,0.2594989672722374,1.463345731489214,1.3782621957507575],[-0.7072228751664157,0.564767382840466,0.4463410699694611,-0.07024382953024581],[-0.15639366510101724,1.1762910268410642,-0.2974677629161222,-0.9413003069447129],[-0.15742987406447795,-0.5580440970768787,-0.04562731236835434,-0.2631109013271632],[0.09462336770542827,0.6690955233147168,-0.5514699294252269,-0.19025748769489473]],"b":[[5.377828137294845e-54],[6.231198870315191e-55],[-1.0192726298467718e-53],[-4.299242973676794e-54],[6.236230709748035e-54],[2.4626657105580307e-54],[2.5229341661741136e-54],[-2.088918445425764e-54],[-7.612846125909783e-54],[2.772750251465663e-54]]}},{"type":"relu","size":10,"weights":{"W":[[0.8888493485257088,1.2659381727344547,0.9819445733555303,1.844968060341497,-0.02551019558288141,-0.4491549221613331,0.11809606617269748,0.7923424702112525,0.6735431484330601,-0.17957677383873152],[1.4532583404421526,1.168641062534793,0.21980110392165497,1.2033612872325914,-1.0817923103076093,-0.5842738827074784,0.18147490309671285,0.873836874783838,0.03680609184597845,0.09708398429671995],[0.632745933629038,0.6271483686076206,-0.46104768288412434,0.6978343553015371,0.2680697364598756,-0.2670906200148913,-0.5622796311986108,0.33428481856388603,0.7991974286827412,0.4457880261474941],[0.20194073440987817,0.6078860587530361,-0.7738308079473037,0.08734944027471933,-0.5940758310512314,-0.5053967894992792,-0.315525644208681,-0.8211935656480643,0.670213145268937,-0.7959898176624044],[0.81888980114273,1.0064389835504293,-0.3675048164438657,0.2827928464278036,-0.04149264128205634,-0.4908664197863168,-0.28552335606805274,0.35757055864717685,-0.748945129604524,0.5496044241272711],[-0.6098639249197416,0.2534493637749837,0.6455217362328203,0.26069598227147456,0.04712364920769717,-0.5419859562694092,0.45867500608938105,0.6928144144170371,-0.21334961845145015,-0.5031598366332223],[1.3083176318900898,0.12151646144968854,0.5954939901852797,1.620540854017843,0.022178058159635253,-0.3910588659971425,0.14200785016539597,-0.8980057846401593,0.7937944615432774,-0.4211342329853221],[0.21395911867032102,-0.47396940302722596,-0.04960531206572388,-0.1200100180050135,-0.7881648074264768,0.1459797639775222,0.19742634049464608,-0.5429708133554639,-0.7511012286688019,0.30684182125572845],[-0.38177271556581593,-0.9667723225732626,0.09775238941860719,0.1624504406361694,1.302592250620072,1.7144885892035988,-0.8155070743115683,-0.7978721894974435,0.22230818753796353,-0.6346529836175127],[-0.8194057964125332,-0.3090185015958185,0.5850919028085079,0.13073602174355628,-0.4269790444880391,0.23221150072580224,0.47186543694540345,0.784598568367727,-0.38288991475791057,-0.15696626194184357]],"b":[[8.573940669926797e-54],[9.150683672396692e-54],[3.2141395782280976e-54],[8.390490194555352e-54],[5.336499560474997e-54],[7.367820962104552e-54],[8.92416936326851e-54],[6.418908361787538e-54],[1.0286016715076226e-53],[4.232858453814847e-54]]}},{"type":"logistic","size":3,"weights":{"W":[[0.9946476916238822,0.7781599569486151,0.2521596254696422,-0.33478783259227723,1.0295447713765185,0.11761716760948702,-0.09704282481538826,-0.33254065083168133,-1.9446398544861014,0.527891328445065],[0.7073886215414938,-2.3043175584530946,-0.5284654653681644,0.22363448904319294,-0.8273052570543107,0.47901149101616336,1.3266756965087143,0.021092902747167,-0.41305258186958177,0.3965902651583406],[-2.134963046881436,-0.2984493547504521,-1.0447871280343204,-0.15280002793271338,0.18779773920181916,-0.018780435847726307,-1.7609265887862509,-0.20014581940949963,0.8402388540503501,0.298282402064732]],"b":[[4.028905918488258e-54],[8.550949862623673e-54],[-6.583752848378833e-54]]}}]}