{"dimensions":[4],"layers":[{"type":"relu","size":10,"weights":{"W":[[-0.7272245696305587,-1.357613977796167,2.5604352245884447,1.8336865212670697],[-1.307004098714342,-0.8730013297330463,-0.7169221353649755,-0.5953031584888037],[1.2913584340470066,-0.5740272657586549,1.7508527236515623,0.9324075239554647],[-0.5279826214720011,-0.11649429229218679,-1.1009993621089766,-0.300753127618905],[-0.11321224210453905,-1.3199062484349247,-0.005440539308389207,0.8693343227252532],[-0.9205908841957552,-0.6504580422365693,-0.5592454735710747,0.5811513878477862],[-0.8553059267123208,0.15630244719261271,-1.1830202127108014,-0.8284910021926326],[-0.2615794631144557,-0.6497700007901569,-1.4775146613754977,-0.6009252583808855],[-0.8904962467546739,-1.721951290202877,0.7924847938277915,0.22828371682454437],[1.8136522757720626,2.050905206095064,-1.997412363524558,-1.5629972456246939]],"b":[[8.3555012433025e-54],[-8.148787182280834e-54],[-4.5328218349278366e-54],[-3.107374243937359e-54],[3.0450550053026666e-54],[-8.44033763603585e-54],[7.032545466408851e-54],[2.6856344235452415e-54],[7.456635577166827e-54],[-4.570664605827086e-54]]}},{"type":"relu","size":10,"weights":{"W":[[-1.1431987059739785,0.7326975227667861,-1.074466584353995,0.6803891256519606,-0.07815145588731533,0.18190918111144977,0.7935560935069947,0.4574692736769123,0.26904308867520493,0.27901345089869106],[-0.38602351898024495,-0.4709142857115435,-1.4898078198236553,-0.23174765999390587,-0.8097787450858667,-0.17593098219615583,-0.10682777488869401,0.27116456137700934,-0.8171541800120851,1.5889977303914826],[2.0248227470880393,-0.09204221903333033,0.49376350729271123,-0.738086408649131,-0.8104103617534791,-0.16771752546795515,-0.09530258614141954,0.32308572315011547,0.43501768959423326,-2.533214961156632],[-0.9549715293173975,-0.43430987091624274,0.10303232646367742,0.07804011806331362,-0.797664818983358,-0.7730206165108667,0.1301494128242463,-0.581959466456594,-0.819120004297649,1.2959145375963463],[0.1397183047517888,0.30826578348852857,-0.14155946040053666,-0.803942737169289,-0.4186868935451403,0.4278724066602971,0.17622400954413947,0.42269984170655245,0.577237224315815,0.7760095783910459],[0.40859932108528474,-0.7885292089444,-0.5302302659474973,0.6885706576554916,-0.69984229053442,-0.06819471397445813,-0.3399313294241684,-0.2591118780150608,0.49939476412172074,-0.4833984573284366],[-0.5407868367764092,-0.7320852370397946,0.2901327672162652,0.10980366192366754,-0.6420101318494988,-0.6679709904643648,-0.6970908899587704,-0.7702773767503482,0.1090103858707666,1.8153240400507136],[0.05678641080165643,-0.6944533148167534,-0.44489977780730405,-0.4514970510558724,0.779853918124844,0.1307700999423727,0.5714785340412493,0.6903298853588785,-0.34795330078846604,0.06950385460400402],[1.2969635674137943,0.34211926600433545,1.4518889620308804,-0.6971448243851761,0.5821565719520376,0.029536195915410214,-0.5809642070592319,-0.20066797172759956,0.08636758146062276,-0.7398914760425996],[0.3411235664388396,-0.06309487878519991,-0.3986128428932972,-0.5205485758612474,0.6638699266071277,0.14620904786445468,-0.13388159535566607,-0.7135152417380285,-0.08635800155699833,-0.5804879675828826]],"b":[[-7.809838440741469e-54],[2.0478982625461766e-55],[-7.393772105880049e-54],[-6.554921252462966e-54],[-9.306568048481218e-54],[6.405365639128377e-54],[-5.735838819838536e-54],[-5.117797967733171e-54],[4.1364862897758706e-54],[-8.332419750457362e-54]]}},{"type":"logistic","size":3,"weights":{"W":[[0.7680328762199673,1.244805215546133,-1.7051356184813242,0.8078733508038809,0.3842388543657048,-0.14985118844385323,0.26341813237891076,0.026557339876077366,-1.8172057375673596,0.013417443318750244],[-0.26885993199980224,-1.3859963308108085,-2.469607864753474,-0.07146276418505204,0.24744175876761249,0.36901246767477797,-0.43654290822921266,-0.7884610320393045,0.8903691461435148,0.4461094161504911],[-0.15595208347892106,-0.5558389174670568,1.8671868355921855,-1.3605198997544017,-0.45048849724218204,0.302971615742021,-2.085759275067921,-0.5176108069996446,0.16708801307439367,0.6366317928137636]],"b":[[8.315053492210599e-54],[8.333005165607559e-54],[6.854957107667606e-54]]}}]}