<<<<<<< Updated upstream
{"dimensions":[4],"layers":[{"type":"logistic","size":20,"weights":{"W":[[-0.901479422990358,0.4642717989301884,-0.24352287476946458,-0.15307591122783945],[-1.0244280489717101,-0.3694749627815544,-0.36210054742623626,0.03348479069701098],[-0.3283313579098301,-0.4828818310903644,-0.9634980071639788,-0.04989117617570249],[-0.05560397436521588,-0.7701576830294078,-0.7196770939682744,-0.3638659339295575],[-0.43285803622788394,-0.27025533976280625,-0.40652508407882554,0.3697806654209687],[-0.9199683845854285,-0.5070548043556389,-0.026299130519288005,0.11756260878281127],[-0.26296531825780095,-0.5538181185353879,-0.49073829223539817,0.16070052739362903],[-0.8704859601388941,0.23431907820648049,0.29368539335277793,-0.6845748152713299],[-0.024210787691726608,-0.12773186818710175,-0.8377530205050226,-0.661808362558078],[-0.4964881589945739,-0.16469961041668932,-0.7639934641376883,-0.5748219214553989],[-0.344092047321977,-0.5239979309366888,-0.778305232068716,0.1911296153951716],[-0.3197176405802054,-0.32205883243067707,-0.8452891990714867,0.07650624219445364],[-0.7874886812166345,0.048873456514858284,-0.1029681717375336,-0.1358313982594235],[-0.5457373052630331,-0.10927100034645731,-0.5197825702117389,-0.6543790738509355],[-0.5328674475518292,-0.5222889598233896,-0.6155106065493668,-0.36151301828446586],[-0.5546175451797094,-0.06350750628915479,-0.02724834365709268,0.02991412139083264],[-0.8664078892567614,-0.36629046845895097,-0.3176533034175426,0.18693638875145951],[-0.4726865450969879,-0.5400168173354207,-0.15832609484394933,-0.17955277342112702],[-0.8421864546065786,-0.43928202830229723,-0.1114009727527601,-0.5857122999872592],[-1.0098884312491503,-0.008906644030775004,-0.1110687423437988,0.1297153740550449]],"b":[[-0.8990900283357456],[-0.2991925639136936],[-0.5194961007947666],[-0.7659271662279381],[-0.8091141070956464],[-0.6405712069352284],[-0.9179820013327599],[-0.978443414654406],[-0.9184275750361601],[-0.5822305713081787],[-0.5384336789545515],[-0.5403135488979426],[-0.8269973407376121],[-0.69741868934335],[-0.6143435017098613],[-0.9320118756870365],[-0.44871582887668116],[-0.8980575892775032],[-0.41845078216410175],[-0.6874836947376096]]}},{"type":"logistic","size":10,"weights":{"W":[[0.1326705825424033,-0.6537734710705381,-0.5452338698724222,-0.5864473437618261,0.30368945655976026,0.3136655992479342,-0.4185000847182096,0.11242710275394215,0.18642212174222347,0.4018420054537275,0.36214401651209394,-0.3541114382603704,-0.31570997217620295,-0.7782391221835719,-0.23260226526630992,0.0794996860020378,0.381148036218754,-0.5206371741927512,0.21727569035117084,0.13875617257819808],[-0.024752237082758713,0.2220385498247734,-0.2724421301227736,-0.780937449021744,-0.05420078877411299,-0.2722174007276627,-0.6471087423085704,0.006359117473059355,-0.40009407045093853,0.018871824896526154,-0.16259522556000813,-0.3288496048337518,0.12115710807544935,0.1628997554528778,-0.6864046175432991,0.2496490745139345,-0.236920614224936,-0.7408024029845711,-0.24911551788836286,0.2240317785249291],[0.28606066819166337,0.481419441828767,-0.1737098923337963,-0.6091705321063065,-0.13124972873200305,-0.2784647984114068,-0.6836373045481965,0.5081177523849224,-0.43967896805367385,-0.20088271810108382,-0.7468289826561971,-0.24395140173719487,0.26212272349164567,-0.1738067586741005,0.44753021087322026,-0.5595308558916775,-0.12350724475461827,-0.3580112789298382,-0.5264950876130341,-0.14721803671747974],[-0.10382726197180331,-0.31272349837549696,-0.04424320752685547,-0.711878227653064,0.1459639469584331,0.22250243877541906,-0.6912059735142789,-0.6048009543964445,0.1352163861237408,0.08087772337712192,-0.0010495612863107226,0.055309277293094455,0.0874598718387621,-0.55642146130568,-0.23415539799048993,-0.21912266257885427,0.10894380555331246,0.08361158473237339,0.30805249436177967,0.4084879806637921],[-0.17689596505672558,-0.2513486662547569,-0.33518233384305596,-0.721768536790448,-0.4293089510172819,-0.6982133487877046,0.21772847187750066,0.34483377293555945,0.13889419504502964,-0.371196559586621,0.022435995696923103,-0.0036485907628911914,0.2718852911779216,-0.16778221331104598,0.13268394608580825,0.14497452810820383,0.4127470345877644,0.04887189125592511,-0.4666436085817113,-0.27845297371604816],[-0.47981869758667833,-0.43476088544768354,0.11892396192653089,-0.24403624876145036,-0.14744541072248762,-0.5257349403733304,-0.2663743386686232,-0.36373205068833986,-0.11111389651223588,-0.6009876202302431,-0.18925652946401705,-0.6850162282158745,-0.224933516871376,0.2670633010785583,-0.10269826056822645,-0.6735203261925609,0.038189898352123386,-0.627393822731185,0.02854520654137631,-0.3249280157884508],[0.30391922330228754,-0.1005291770928778,-0.7928589607788399,-0.2716094362711071,-0.001804167707818231,-0.5445595684808219,-0.3875180814824862,0.2849283602481503,-0.5259158279705965,0.2247363956769903,0.431132784741567,-0.1327258161280239,0.16674459750416765,0.31234238489587735,-0.14712113745416144,0.08283175946962255,-0.21454345422914775,-0.5664214507824548,-0.014055560739628522,-0.7841079708602089],[0.16073654120077782,0.03690807113779024,0.09460710608532162,0.30709844504362244,-0.16230760104800188,-0.06173322908285745,0.1495572592270275,-0.3146017183656305,-0.6083399066934289,-0.16654412663463208,-0.07909732550160502,0.15329049461327984,0.0686800195198841,-0.9257580092090929,-0.8891234980922829,0.16913709799921617,-0.587581251992995,-0.13570955356151365,-0.7719172398491314,-0.11614545593187665],[-0.46731420072486773,-0.15279785323656517,-0.5277187388781365,0.377557736705348,0.01270808445358503,-0.7403342466282083,-0.4549074117532257,-0.549530243206045,-0.5732099335077349,-0.638388098534811,0.3868747265063258,0.12036176155470571,0.4949092200830015,-0.7242672305907264,-0.7029460325891068,-0.03866981063194263,-0.6554822352747594,-0.20755085491248532,-0.5659203595561404,-0.4801130760638709],[-0.6059301033319638,0.21156039454079903,-0.1623554397133737,-0.19773859140840402,0.08960814870728837,0.23778478312492954,-0.3140284194636973,-0.5766020465452795,-0.4059259889922934,0.27968764639373256,-0.430868992450425,-0.4767537181531984,-0.5118344675602705,-0.13151092553975716,-0.13741359446560444,-0.09353950551252391,-0.6899434852589104,-0.4269416786408012,0.03376367915559723,-0.3619471512829034]],"b":[[-1.0786508044672247],[-0.5400398509648072],[-0.7363333582116586],[-1.2007813959239748],[-0.9426551242684307],[-0.14658410620888762],[-0.9898899337361342],[-0.5247898456589445],[-0.057111383190058554],[-0.46823692300251474]]}},{"type":"logistic","size":3,"weights":{"W":[[0.5513408884007021,-0.6828078029449498,-0.5332960819676649,0.09131156536627076,0.5201436484311678,-0.12207498430401806,-1.0407535520281028,-0.33365707473466544,0.31828007497390304,-0.4511590534466792],[-0.2718077793136174,0.4918924379872607,-0.529519410028954,-0.5946931069069447,0.6191752372841685,-0.06729502667592463,-0.6948270878773233,0.3064002513558298,-0.9935501497628899,-0.03908250287289007],[0.32280312157282376,-0.9100199778456227,-0.5551908446207116,-0.788821443019148,0.6476833038244317,-0.2707447198375858,-0.05866327598046127,-0.20911864265809338,0.6020951904890646,-0.290248575615321]],"b":[[-0.9483999156955029],[-0.9855330720297282],[-1.0802537212781738]]}}]}
=======
{"dimensions":[4],"layers":[{"type":"logistic","size":10,"weights":{"W":[[-1.0853456605803014,-1.1312634488186661,-1.2679272246145221,-2.044230231271336],[-1.2210097784441116,-1.416496460617034,-2.090477260734221,-1.2660035650468122],[-0.9297354030398235,-2.249231649717814,-1.787819952971793,-1.4868094667065443],[-1.3149421465012325,-0.973479727307894,-0.6247807744338028,-0.7587306192435552],[-2.4543930522708104,-0.8445984655633042,-0.7326311920704184,-0.5113155018280727],[-1.7799229841143545,-1.62731477296043,-1.63344784988985,-0.7514926431992245],[-1.0117017454705475,-2.3928269423325865,-1.8937471197715148,-1.3564709994879571],[-1.8802689603934628,-1.1983609206094388,-2.1636683393051426,-0.45565948102985415],[-1.3372408208906512,-1.3458728547072312,-2.024207196184981,-1.686119445658742],[-1.8890443215857153,-2.219499053148295,-1.5961691071744675,-0.28362505378806596]],"b":[[-1.5374840239457084],[-1.0738999793270916],[-1.3783382216287667],[-2.3650061250348235],[-1.1988558374316796],[-1.654173827682262],[-1.10399615802191],[-0.9172150732471284],[-1.320077344406454],[-1.4881951827280309]]}},{"type":"logistic","size":3,"weights":{"W":[[-0.9714434444694623,-1.2892434045094974,-0.7601480906102106,-1.288945927521769,-1.1747978699373325,-0.6130319765063705,-1.8419310529302226,-1.5618853199952722,-0.13931873755054497,-0.10839827481140292],[-0.9306165938008528,-1.3964611955118895,-0.27425275043694797,-1.6077529450812194,-0.5937363187938565,-1.3716994362412274,-0.6608351435225466,-0.4798749789532833,-0.8266401790606022,-1.8099256129211143],[-0.2337798746704186,-1.5730752131030008,-0.8489221118782567,-0.4677503699058928,-1.5969349580660113,-1.5926003168397334,-1.0251507327129117,-1.0758011505576701,-0.9225405804034562,-0.9780722261745558]],"b":[[-2.926646231843151],[-2.748171574852151],[-3.537857781946133]]}}]}
>>>>>>> Stashed changes
