{"dimensions":[4],"layers":[{"type":"relu","size":100,"weights":{"W":[[0.10830968445482825,-0.27351991460129543,0.25687822993311465,0.027882923869242723],[-0.01061112215434277,-0.17375388375145423,0.39996884516163994,0.35952421487120434],[-0.23104718493605403,-0.21482940209756798,0.12829499317890244,-0.0957560256088761],[-0.22778112911276455,-0.18755658207845405,0.0835328354333659,-0.19530784910663412],[0.007074478784909592,-0.24201618682391984,-0.25703740717604756,-0.061128219876657126],[0.4598954583283031,0.378410781549711,0.14025526659857404,-0.17028818559484804],[-0.024112602591459937,0.04927207302133133,0.5450915221058321,0.26800058267534466],[-0.06342868434861738,-0.09648155684551074,0.42942287206790813,0.2594452799485889],[0.12780080927232418,0.23355513751069984,-0.14140201157069052,-0.2479184720262134],[-0.18957903167336576,-0.1442956602090175,0.11270961735472676,0.23074228865150004],[0.2454036204856466,0.2815842292975653,0.20274487787390286,-0.038799469805329],[0.23945669664945896,0.10453502659190832,0.03353170742295378,-0.062496486532312406],[0.2306816011315874,0.01706661330428305,0.1860495022423724,-0.18803745133457594],[-0.030060734026195034,-0.15047584883259174,0.46786831844990723,-0.06702160193696241],[0.307558724798665,0.12855580447618795,0.1674988570859842,0.1581565208867251],[0.22177144397241264,0.3810112972487158,-0.35019643591456395,-0.23845730546778535],[0.5260659596274101,-0.09161296451252147,0.15356184503792894,-0.23860040543750602],[0.1337421072063833,0.38202904198471405,-0.1922624618689429,-0.37140266810486905],[-0.07999437020908999,-0.16794379502323406,-0.2258825658952061,0.2554234539807967],[-0.07053523556559996,0.06748139083111032,-0.08329441683896831,-0.22764533562404446],[-0.35115982734442946,0.11911960260669675,0.36832127549577226,0.26912624771966265],[-0.005716395098457987,-0.1898830225299609,-0.09340219098071999,0.03492229503939623],[-0.08761835210547786,-0.2399216177025913,-0.2346981716694484,0.05718875014619391],[0.4405684507904683,0.35505781509037115,-0.5096655540604674,-0.43420049508347247],[-0.053629680316439686,-0.1671620424980178,0.014096726833479895,-0.008852169394325283],[0.2047559259852736,-0.010335158145837665,0.1440938228543746,-0.23615313155109618],[-0.18362140203175698,0.08488791644188692,0.2252482514550196,0.33374626797095686],[0.06853385059040368,0.18265500390962872,0.2636818816251272,-0.026552222957873836],[0.3544878894676472,-0.2379142363998087,0.5479653747798416,0.19124274992942733],[-0.1715121738471816,-0.17567710189962082,-0.20780873079176954,-0.09528009861382589],[0.48798076489388337,0.11737023193970936,0.19126860351061623,-0.16092397094380576],[-0.23587415606009124,0.007496631268479941,0.2758649042036044,0.24673789851621444],[0.36615865969099526,0.16464315996430004,-0.291123335440873,-0.0723071189712525],[-0.23209986859523138,0.003039969065107542,-0.13433200168019235,0.18371272477720896],[0.13717388997888147,0.5338718544837604,-0.24021491715641605,-0.46139591794279156],[0.016037889061928552,-0.028916890948604713,0.2532473911384033,-0.22031604461651957],[-0.293919308400346,0.1366720376484449,0.31784590179924876,0.12876381377110446],[-0.22033279701598227,0.10765600865642624,0.3978142624131826,0.4519834637145798],[-0.10249270315541018,-0.2816320401312632,0.17501585780658846,0.1871447959271644],[-0.07187092481937342,-0.13558458257073205,0.0641908200844638,0.12374714787692682],[-0.24900378612741061,0.2180879416963792,0.10170446861930162,0.10241477763534766],[0.05455903065543024,0.1360251084374763,0.15187315354821954,-0.24259247965111866],[0.34967052400602416,0.3285442842099093,-0.3365936953910973,-0.41399437662207145],[0.43360463646359343,0.18097904050977442,0.40830721039220064,0.13785529271859204],[0.04951964578266767,0.07274554268339338,0.08063217226460942,0.29279093944217166],[0.17461475331303053,-0.2047674958944754,0.1241785804465355,0.1152987923297882],[-0.26099690816150006,0.19036142318635016,-0.2620654762696659,-0.1250588674015685],[-0.19249476068892563,-0.2476803746159838,0.1416993154887269,-0.24233095502582258],[0.2196800877466411,0.09180410444963333,0.22482515816865542,-0.002887172380646444],[-0.15947763848341118,0.15834324476013015,-0.022326836342405145,0.12806755028837954],[0.2785122694259017,-0.10235406425528758,0.3205766396163859,0.17959961460040721],[-0.07733736344859699,0.0868344258423548,-0.2461063131656921,0.0951636381228887],[0.23039099289922488,0.1473290343784007,-0.10360495356627877,-0.13671636148232966],[-0.11676892230188261,0.12204255560290683,0.07664803425223188,-0.07664799811561894],[-0.19517396159131178,-0.05118931989174813,-0.2048816670711042,-0.14596646501145863],[-0.055436401836178144,-0.16155025793136601,0.5142715378841726,0.4551992727721345],[0.13850145645180914,-0.2866435458504412,0.14097781253782524,0.29778048515808747],[0.32591055157013166,0.29378465050546876,-0.19191930823788486,-0.29434946981746746],[-0.267363136354189,0.04882757548207733,-0.11590803019726341,-0.2684222213668396],[-0.25667730640480196,-0.21301796841790172,-0.09537305176233746,-0.1431678885097818],[-0.06143511868897514,0.016902860603425468,-0.14447426375837027,-0.2561371705105597],[0.45972166863070923,0.07920773355706341,0.18775452086160768,-0.3112236141006908],[-0.14403719442044838,0.09022062721517422,-0.2070884481037904,0.038103867199923036],[0.2907381007231576,0.15897674129177733,-0.09064552665002852,0.019778683523869845],[0.2966771019419074,0.18867529107316028,0.0883028816631681,0.04305936887413116],[-0.13066146417203525,-0.005656875476791043,-0.26393056190549175,-0.2229208185505397],[-0.23183966842292472,0.03991283973869887,-0.019250146709666526,-0.08597183633135155],[0.3877285846654383,0.4445445150941603,-0.5877127196839885,-0.13956554335499557],[0.09790881746479826,-0.019858683562766346,0.12433406282186452,0.13219981110707066],[-0.09726188158785624,-0.17865500410192567,0.11571993311712733,-0.01707215882683631],[-0.18305748578847045,-0.13094918567873493,0.20793040372373098,0.044514425497488616],[0.219682875870082,0.022396867170692697,0.1855797438732247,-0.2776010554874329],[-0.015416371089421496,-0.2808692643398376,0.49249463122768916,0.49097029860923275],[0.4792024361666952,0.4929716318473326,-0.5640884196683018,-0.3284522929320958],[-0.032591832448828476,0.016734780715413615,0.4937559029861703,0.1589564880593455],[0.18166535501707093,-0.25267269396730024,-0.1734777366079485,0.08390403671913098],[0.0556166896510102,-0.161658083760298,-0.12187251945838674,-0.11222076208266475],[0.4173818237488636,0.3138036077866798,0.4045900505628176,0.3406882889999906],[-0.1732319434139264,0.20549859758540134,0.017903054990939662,0.04237354115071733],[-0.050520580012585775,-0.21650805963123565,0.5810809135991526,0.009049245613053977],[-0.03663197536591383,-0.07455319170557508,-0.0657423165183695,0.024236609402672506],[0.48862689210132126,-0.09313375783968929,-0.36349465857164387,-0.32724287960762316],[0.13368851741909893,0.2386386217143607,-0.1690814945273353,-0.2820871382751367],[-0.12039895075930673,-0.06260136249615128,0.5489114754196531,0.2806461587455791],[0.20339180326404632,-0.2549428176141495,-0.15575259324762677,-0.2180425318398713],[0.31590951884012164,-0.06152849158061295,0.05482150136918289,-0.283045029021231],[0.508565256775434,0.41891990688135683,-0.43137893885860823,-0.47255202673366614],[0.0813461045527839,-0.20890301079833437,0.20232124453184475,0.24812710371501143],[0.3712342492967765,0.41828013328761054,-0.022570845196573756,-0.23952454284677577],[0.3734980263246752,0.3938667912904998,-0.24784220598399712,-0.1769320255655184],[0.08465494054371006,-0.1695505615558265,0.047478799106622296,0.13189594410247962],[-0.13377241591490893,-0.11203754929577005,0.652811771772883,0.522586995732837],[-0.04372791313945205,-0.009555718651566718,-0.010716111583681914,0.07433271870677177],[-0.16718964989234378,0.023643540406987767,-0.05846510290868239,0.14947419113809152],[-0.0530703064072144,0.048431214658302524,0.06944979673975084,-0.22330564108939102],[0.041949606308227375,-0.29611623860336767,0.08910979259430371,-0.053626988916234776],[0.05932134086063938,-0.02458726366579679,-0.2469397192717461,-0.15768894170531667],[0.3834010311419926,0.44156207536966086,-0.43414988022944984,-0.3230587946228122],[-0.15443287057524763,-0.19642797062848752,-0.2523822929233914,0.07031649775265308],[0.10200729999288773,-0.36009878461860406,0.5222131656955361,0.35990943047928586]],"b":[[-2.1038403768008683e-35],[-6.921625142373927e-35],[3.8536556089054243e-35],[5.864035862940611e-35],[-5.262941856311482e-35],[1.4745483376981142e-35],[-5.798223355621594e-35],[-6.022032344756015e-35],[-2.456379850427283e-35],[7.728010431886066e-35],[9.299617317148493e-35],[-1.0593526212793114e-34],[1.0471424789358678e-34],[-5.001052548349844e-35],[8.101725421850373e-35],[1.0368746161617222e-34],[7.369599258529994e-35],[-7.790397003128658e-35],[-5.199433673198438e-35],[9.837647883392755e-35],[-5.127250558383371e-35],[6.129745398789357e-35],[2.978233330786629e-35],[1.782775878395173e-35],[1.3476868533166578e-35],[8.858829964360903e-35],[-2.0651897253621187e-35],[-8.647509469467543e-35],[-1.855783580599338e-35],[-8.751170607066572e-35],[4.347201289117425e-35],[-6.162679747085814e-35],[-4.058789329157001e-35],[3.527100338238836e-35],[3.0342721832310115e-35],[4.273427472954144e-35],[-5.887265683077539e-35],[8.278134546124711e-35],[-6.15978448863614e-35],[9.404116203149048e-35],[-9.436809345191634e-35],[8.830451632683623e-35],[-2.1731789601760972e-35],[-5.717695440665708e-35],[2.479097258181558e-35],[-1.0801565565976509e-34],[-9.680806570563068e-35],[7.016503224952332e-35],[9.887832740909787e-36],[-4.316594320629379e-35],[-6.967225248766566e-36],[-6.716935703117861e-35],[-5.258064494766433e-35],[5.432175666174331e-35],[-6.932167446227972e-35],[7.929383997839288e-35],[3.414352727550772e-35],[-9.027769660300492e-35],[-1.8010620253445927e-35],[-1.3342872342494787e-35],[-7.329167281553954e-35],[7.370229082561922e-35],[9.484550694474754e-35],[1.3619902842753956e-35],[9.512372583478501e-35],[4.0944175474957255e-35],[5.932662720174535e-35],[4.864118626622278e-35],[6.956451083897087e-35],[-8.768063014402203e-36],[1.4485010759658156e-35],[-2.3627482395110797e-36],[2.793229535523073e-35],[7.126366085364766e-35],[-2.0128049610715228e-36],[-2.8025708989342626e-36],[-6.976847690599849e-35],[7.555002151251474e-35],[-1.0190407364233065e-34],[2.5843012960127987e-35],[1.7437071502021837e-35],[-9.7703052703728e-35],[6.929958589627192e-35],[-5.048509118598255e-35],[-4.974843843870067e-35],[-3.600453182299106e-35],[-5.315882871342729e-35],[-9.773640858342207e-35],[7.747272463502638e-35],[-5.639378351069935e-35],[-4.0824255807102845e-35],[2.9628373079975272e-36],[8.878995881624041e-35],[1.0663170486382005e-35],[6.538158977711925e-36],[9.908702167468512e-35],[2.0403853326089952e-35],[8.866816594392519e-35],[5.279693205009588e-35],[-4.7469930637615655e-35]]}},{"type":"relu","size":50,"weights":{"W":[[0.31861460903411004,0.0651798105052543,0.18958762523733963,0.24395731679960656,0.20522537207899302,0.14734271643208763,0.389684688391919,0.29179920573278867,-0.16278717570241885,-0.04034458231547878,0.31773225320950066,0.10729437236117353,-0.10280585057643075,0.2527927207348483,0.002625655131207456,-0.222466233796903,0.2667633172609528,-0.29426643578577627,0.05767214137713329,0.16103990153525144,0.026451623583615212,-0.10406640127079007,0.04423541527755521,-0.24796549827086944,-0.15916318834615342,-0.04998219414927742,0.2136060161995472,0.19725182140227346,0.3802932264207234,0.10395521751917364,-0.01818229474214897,-0.20285668084703598,-0.15353076575523705,0.10401409333805876,-0.15208231569768496,0.16237090913372723,0.16973660167194407,0.27829592959781746,0.26193392430058043,-0.09272681993677608,0.006939887970877969,0.11378110160646743,-0.20228465659106637,0.09348021027494915,0.012125158703976863,0.2587849559894232,-0.23532838282429197,0.04357793374981395,0.3229159064673774,0.20625355124851724,0.2663286511946892,-0.053675679004647425,-0.11247322718880316,0.22326768708792635,0.19957715579941043,0.007591556194598733,0.0025180748457956964,-0.025472461726340063,-0.1483008893682526,-0.23430736856544104,0.15743014583523432,0.051230119113923105,-0.06446263667907572,-0.2322133065702914,0.08505245872671553,-0.0851663519022276,0.009562403455042515,-0.23956043420835355,0.25936832233824014,-0.06890621383494756,0.14855482298923556,0.17423517102453706,0.4411542751494743,-0.33637181523324083,0.23329583263858444,-0.07754680014413609,-0.13197735136566086,0.3995174305079255,-0.14337045015823988,0.05146728935489659,-0.04600093701825577,-0.22552147801588426,-0.2421743235166109,0.3864989406272137,0.03536790611356088,-0.0348447647902272,0.016401065884209864,-0.10108992832575384,-0.0498822940594762,-0.2836975438788345,0.22178685887413757,0.37607462447159373,-0.1321013974057085,-0.17737785483948362,-0.0592949025591656,-0.1945584619481433,-0.07538740859690433,-0.26164560520097263,0.037442759858089626,0.11595564969997187],[0.0053809957799247285,-0.22354552018174143,-0.10822943222480066,0.051379127269269236,0.24959362058454287,0.10219058067214692,0.23815429194574653,0.11053619939014504,-0.21879173757185388,-0.2654972919605811,-0.0914838101133273,0.20193335790134845,-0.21241151548456083,0.26733134894846006,-0.0003677054726320303,0.002748541964827715,-0.09387865440495224,-0.08469791368795242,0.08270644741786509,-0.22078085553207905,0.06849595679719081,0.15077521372099956,-0.038907589521939,0.045083692853017575,-0.024578863960288588,-0.15257152948713004,-0.09974745779899973,-0.1257840044760975,0.10251893345811723,-0.2150896390027569,-0.1838700894835064,-0.010652914224242789,-0.008083943439827716,0.136582733016437,0.013569284946650967,0.10432064503360984,-0.21680929773114338,-0.00531879371393315,0.008311897158922091,-0.18838947165914507,0.13274572801172368,0.24463619619389715,-0.11942789219748907,0.2798224071728188,-0.05522555947204509,-0.2564357856662564,-0.03470571070365499,0.09988765523414399,-0.14435232674597454,0.06604562134156657,-0.2423078536327053,0.006692300952695611,0.04297835181784942,0.22574069597567548,-0.1780974150284306,0.17848971154114676,-0.011326386800124558,0.2286238033778478,-0.08691317952108799,0.06819489850348294,-0.19922671110647575,0.21287600775775192,-0.23748997729243063,0.2072451412844287,-0.12841465897658197,-0.1665289558403969,-0.05473683478736581,-0.1945586176438267,-0.12471305040505822,0.13996867620866937,0.01036547340531408,0.07813508330055104,0.16200078141234583,0.232907216723925,0.12087386925079081,-0.09306024407333313,-0.26333736242454303,0.11952050423513486,0.011833162746586644,0.283580045358396,0.02765362137507889,0.1509851480468201,-0.24714066452912614,-0.11471286230001145,0.06974370667747179,-0.1044122793149482,0.09595178674902535,0.04185394277555302,0.14588502843471388,0.14945874351144445,0.08552521606002143,0.022199789070941157,-0.019603187462517373,-0.18227275947490532,0.13401551342088872,0.04757241234021353,0.019323633011722078,-0.02549377358948996,-0.12267108947211267,0.21851379646960645],[-0.2506966297670044,0.15328792761664878,-0.2618665650553,-0.16480477077562256,-0.20059579678333922,0.03317670162845407,0.1561710553526648,-0.08384633717462514,-0.20101998790708145,-0.1857864732928908,0.24144436519646933,-0.24289350134032214,0.22328083817777447,0.19966124069033345,-0.2396043233918236,0.1785704511768215,-0.004379273957866665,0.1300328618387355,0.23338314408990732,0.22786001161768119,0.11214564448067435,-0.19049857174919882,0.15857030811517475,0.23924108698583668,0.019085294704138344,-0.24194993808668186,0.02670227618429627,0.09577271271931141,0.03860211902777473,-0.19325193740098423,-0.11582033462630556,0.18405408743604706,-0.16030635508031746,0.21640104023926948,0.18372683192795633,0.2132497892709594,-0.004761029096395326,-0.053387292855162735,-0.00493479504539129,0.030727348483215823,0.007245774915310601,-0.20179055049491648,0.20524068235644097,-0.16908088568818572,0.1375200530215692,-0.07421425545974684,0.04376750215369133,0.2516962076275534,0.18867459226238897,-0.08474025359183143,0.1380521607662995,0.1816195210860889,-0.21883037915924333,-0.06981236498350432,-0.2546353441715648,-0.09912914177690965,-0.25787843994483806,0.002941855911933804,-0.09002015827022851,0.06876319706744918,0.05714621528882662,-0.09694898506961148,0.07997900573702679,-0.08765625947183049,-0.04897560866228577,-0.2666093654011579,-0.021613559665902185,0.030695942066203512,-0.1525823763733395,0.036196090447672094,0.07703929347586909,-0.25839488861480264,-0.0734387750690867,-0.22394972876015082,0.030581813429694817,-0.221695106899212,-0.24586360990318548,0.029200286007885986,-0.05255615989265583,0.04140554380588315,0.13990828521691462,-0.0732462047352381,0.2254952485415015,-0.22275011245241005,0.19330147481867763,0.2561467226589873,-0.0028583253561801536,-0.21980549154613152,0.06753167809845806,0.09945462713714034,0.20299951182672,-0.03211612148161365,0.008227507214248678,-0.1930543846426298,0.016871452742925765,-0.2116315413788278,-0.09668776053793153,-0.21865709696993474,-0.11776081633903301,0.09555537375889474],[-0.28275870906301265,-0.06989534939703412,-0.025815465572726706,-0.09323389478320211,0.041964270852551555,0.034597715403474255,-0.0783403975531826,-0.2474356805242829,0.18256469575703377,-0.1644560029113322,0.11644221778628154,0.05000099402962226,0.27750841472998883,-0.03271859047579424,-0.055257244186046744,0.157235466057068,0.14651875583904572,0.38569546208680006,-0.22962530040476276,-0.12213980712499085,-0.2672476437181245,0.09715657466939316,0.2460306503629937,0.37809041995414494,0.2536149763315945,-0.08263644865237364,-0.18453153304619513,0.1688631422755507,-0.35872197285990004,-0.19505453783590132,0.09228973140851743,-0.17707988211380155,0.2968713458151213,-0.20696745541492909,0.43510440950233903,-0.26596194877693385,-0.316243811066652,-0.17616558316359968,-0.16894952262436636,0.00018475130995592007,-0.23653126189444354,0.1281048850657127,-0.005569676730453732,0.00048769440611525465,0.023725406264089907,-0.11154531339330724,0.11243825437076883,-0.050160668203328915,0.28395047512529337,-0.028584518700650964,-0.24117562752723737,-0.03314567752896906,-0.002691449159302328,-0.17564589123888125,0.002215642132924559,-0.21900504772836923,-0.10539552469703858,0.22856486379628238,-0.022899529166920885,-0.0649667788079643,-0.11959120391421992,0.21918419871643446,0.05056568966260617,0.10409768833702987,0.3007700815479294,-0.10175488796607782,-0.15106764485926974,0.3181699564340403,0.24498963992968256,0.20579556079799255,0.10162324155209977,0.20138097793279489,0.10003958949320099,0.3455261323287643,-0.2656244221296761,-0.09210520588658866,0.10667013954858307,0.2347094676436639,0.1757433208879016,-0.3223941338051144,-0.11700994085901921,0.12462407157664655,0.24046470041683507,-0.24246864045428068,0.18334887063682448,0.2594349133386856,0.3975260723020102,0.10679079243680438,-0.06361645714753543,0.41966385987093086,-0.07869647602395058,-0.3874323921061433,0.03967245224014946,-0.21430240077975554,0.006330285197628096,0.12422276564822719,0.13592511305842134,0.46058059904091736,0.13402001820234258,-0.2377292340403826],[0.034802101349931405,0.21946458381620548,-0.15426235841981487,0.0724845527734523,0.2602061568584694,-0.1391220823881538,0.13913983283418796,-0.0039252196879125635,-0.06672235122227856,0.010450763644258997,-0.19935443090128735,0.2542067341684544,0.1637406296533684,0.21661748234260922,0.09202407140335653,-0.16009890883582992,0.13561184685524452,-0.2838798824274265,-0.1029046066832773,0.024728647145877348,-0.04712470090956289,-0.15348369795940905,0.05031646564422583,-0.29111924735319855,-0.20771657311320127,0.06901935301275745,0.28127187728266473,0.008831274690164584,-0.026137804160244492,-0.04352585126396033,0.05533765354775812,0.02462540196162382,-0.15524008987743426,-0.030824853458046968,-0.12047811053142472,0.27289795393142907,0.0896517249537908,-0.1251825699707694,-0.11186520211637198,0.00014847348917015893,-0.0431101546373217,0.14498319022932943,-0.34870849007445975,0.16303277891291565,0.2839574349284434,-0.13591247097089995,0.15617000954546334,0.10522887765393488,-0.057483556401487494,0.15711180492767055,0.028612962855185897,0.12732826755226437,0.1087545308142139,-0.07739570314864386,-0.24841969941499883,0.27398785655315055,0.2193276172852044,-0.025789564106088392,-0.18564715560325296,0.1712564738249646,-0.07186304460212287,-0.25657610913932266,-0.01113472870563687,-0.2619208512312122,0.10529979461684756,0.21367093541974902,-0.024764982604598775,-0.32977995162213697,0.20263204219650824,-0.16803888730201985,-0.020667242520232398,-0.11746113978519462,-0.028832345446582665,-0.1731145552920293,0.3484331375585718,-0.08825496055062375,0.04734712169873733,0.3054314188157449,0.05366561559497549,0.1260315257656951,0.07277978298961378,-0.3248174378685196,-0.19627646242739358,0.16875375159739428,0.03854176792177344,-0.12682518082406236,0.049152561030860666,-0.15899787644254543,0.013452835938089696,-0.025179600501817875,0.2889135342205334,0.31895014618636963,-0.197837990420644,0.2264599121927288,0.0599181010874282,-0.15154344417017712,-0.06929879504933968,-0.33084354212998157,0.1387752275778871,0.3192949908093162],[-0.2070836269777229,0.191203148544573,0.008648011760318673,-0.03215192540330002,0.169092429645744,0.2924734158441307,0.27366082805312836,-0.0415722295271637,0.2690365983790314,0.17760475348245966,-0.06196994919406601,0.16627146598616363,0.04068643774720414,-0.23055488418639367,0.0476889540862946,0.30524753599355564,0.2670567076848388,0.2633392670725471,0.024064559263131072,0.13200680764429146,-0.20946903909404632,-0.004207618758912226,0.09372765782744469,-0.005542644439501844,-0.09847460387399332,0.2799023219699706,-0.032727732034149505,-0.16685522839920752,0.29478085028002093,0.20077858741674462,0.2692987567494454,0.20070509667386113,0.0011712346892053583,0.2090354953861487,0.11146008295013361,0.051532068007655876,-0.20009667979164766,-0.2261023319716895,-0.11415408200722027,0.07851551716868889,-0.06281457280314906,-0.086554588082829,0.10114285491040571,0.28880403255218356,0.22361405350889754,0.20077569704518175,-0.2340257365284219,-0.08900332889063486,0.22376003224767937,0.16416755870476532,0.10051296789778941,-0.1921877422147411,-0.1453959582602359,0.19453506590129033,-0.01733704208779031,-0.08714925822196969,-0.03846077910654058,0.19436633613063403,-0.1560053427188733,-0.24063109052188658,-0.12995700531155688,0.008707993254320244,-0.19933073925967504,0.1783636541941134,0.22941365177585374,-0.06511001830267144,-0.16526965914256256,-0.1985406561961747,0.1613262802400403,0.22954002148614466,-0.16271482916773553,-0.13271022235742408,0.06645612698420518,0.10329220438089368,0.012363599991382479,-0.2122840374456916,-0.09884050031039246,-0.017646325172121197,-0.07986836830487982,-0.12735706669944558,-0.048307919873509624,0.23965220044091606,-0.08730019066095536,-0.11445338014301897,-0.17326079589957602,0.12343704959147644,0.2375667941211279,-0.179290580740313,0.313105747057469,-0.1788612262075373,-0.1184659508842006,-0.19961299632530877,0.11667734355309456,-0.18928748027223974,-0.006681073763461929,-0.10983368405951721,-0.13232374018985296,0.06476743462666555,-0.02417660549634818,-0.016795125554943724],[-0.06709322982391845,0.06602974973594473,-0.20337895058622615,0.18771000143470995,0.15347510318374907,0.07553890650927679,-0.019113514898848865,-0.13395826878867476,0.18066901477962558,-0.23510348080997082,0.10798692321323576,-0.07217646832638985,-0.04651290167651719,-0.01703424064389408,-0.06028769248068184,-0.19022083278338614,0.018290101487887282,0.03176688174148539,0.183401982019422,0.020214698368741554,0.06416566834267179,0.12295015368531724,-0.26352760026664407,0.06852823133797925,-0.046065804000529016,0.1224723838607303,-0.21587227330626557,0.20393278181554958,0.2503165554925446,-0.18212336556078454,-0.040241520352148744,0.08321798092330265,-0.15474396525997616,-0.18085111883632315,0.18557815890557705,-0.2165764673263913,-0.06768923853222995,0.1729301927799787,-0.052650244392483454,-0.048186185225859324,0.13913746895047252,0.08514501834740687,-0.0701675259565101,0.24313705338056196,-0.23311987959792954,0.1427420978511122,0.17541023822489776,0.12157854624753231,-0.17621471491212712,-0.01136540445595644,-0.231946595988002,0.1299862097835495,0.20374673144378894,0.09829704691079752,-0.08455194489135226,0.1680857996609721,0.24664455166050206,-0.1963501415697584,-0.06462320328692542,0.01410557846554445,-0.06302469158965707,-0.25206564639671647,0.08156660314777732,0.16108406418996996,0.000725187813627759,0.2203214781719244,0.18571668032150657,0.17452500504047624,-0.19508802097000444,0.22905418155549875,0.032879159240283846,-0.04163019145603077,0.12830320044155247,0.03885633058227882,-0.2154068664213382,0.08034934509210721,0.19102905386628727,0.07414424440617443,-0.18915054640519469,-0.007891857401654502,0.21218649658556135,-0.19770102881872223,-0.08008044365468431,-0.0037481750330357194,0.06477979080979569,-0.09560373397241446,-0.10564875585954683,0.10103900826542128,0.16203490120190722,-0.0713765904520954,-0.06420083751361445,0.2301250842239756,-0.18371500582582187,0.2525558134766975,-0.002743771552040765,0.11214855099574446,-0.08338672671679727,-0.2772027041757715,-0.19091500737399084,-0.1479438537655809],[0.1861621895617476,-0.17748946936220938,0.1454783440041008,0.21385303239430375,0.23890808501459695,0.14926332174334486,-0.11605642429202372,0.177708734825993,0.12146635183884656,0.15964592814364179,0.1122208921068178,-0.04275430750911034,-0.033029148714989756,0.2428431310496585,0.0010228099037003695,0.2040178714342222,0.08819039041130827,-0.03349263561634701,-0.016519174207354693,-0.05944207646769085,0.15458911247540355,0.1388921595681961,0.043893779298654435,-0.037440695370549344,0.2669847656157282,-0.15543882496761147,0.0777998355226478,-0.20710065866982136,-0.2629351764805165,-0.1957212316344906,-0.1955851283419647,-0.20748248437501637,-0.007658188950265622,-0.21902381394450604,0.1560612524733073,0.18760600155388144,-0.05651502477560748,-0.1283559505964162,-0.07663315282255338,0.14879217206665848,-0.02369504782683898,0.22121708462857204,0.1602305340705804,-0.19235184643885342,-0.11483943649570882,0.05082850326019091,0.05171104604959206,-0.08326163096985739,0.05212241833021848,0.05289140165771052,0.14498509660691053,-0.0572126927130789,-0.19781250441880519,-0.11482292405211986,0.02915508432994416,-0.1264129321235634,-0.2645562713672489,-0.08999178873735388,-0.20259178530707816,0.2047317591899774,0.21713615984587128,-0.08591028798923472,-0.2497218576681504,-0.0007374146860840453,-0.08535133100161466,-0.2420267409785375,0.07816781404868314,0.2283886730461141,-0.03858711895355787,0.03494607364682463,-0.13074957742767188,-0.22519438881275108,0.07185654527100464,-0.0005355050364693106,-0.21833428816711303,0.02930550811194086,-0.15492116714997306,-0.26611771915013516,0.22148550461253194,0.01813450094299037,0.13997514284967494,0.07580310154577204,-0.014902790483390356,-0.17367867503323753,-0.2571010546332015,-0.035414766504545246,0.13966564903330922,-0.2636155764764133,-0.025565432442518653,-0.21150320447786952,0.08075532596681041,0.2359026164880241,0.02718214122090773,-0.12549931948374543,0.20965827282520558,0.24519751076868115,-0.13935512905779532,0.13920696514617983,0.24447078209988538,-0.12917776030674386],[0.28096194316492107,0.32206534488121724,0.23233311971300225,-0.1748992920688169,0.027070299526182964,-0.08821721955041673,-0.11725197926803507,0.06195429750276701,-0.12876007027239955,0.19808302365514138,0.029258079446614658,-0.18085410023127818,-0.2244950863124137,-0.24474350952459803,-0.06898737046203623,-0.18066663216599113,-0.18137182644756575,-0.20178261920060017,-0.10654902800412838,-0.004221814295121239,0.1945364667111087,0.04371112345309129,0.12304304854078807,-0.13765045404671358,0.2285307513097242,-0.01100418503552689,-0.052801321480473805,0.10886152133445698,-0.042405419587073404,-0.20848766138344996,0.17639349713765404,0.2727137075993927,-0.24734845342307976,-0.18396636372202468,-0.09074846328152411,0.0931961589659944,0.22583561546686448,0.3288848845028234,0.24247671509043217,0.12613874338281278,0.10738444732873755,-0.15813529522338343,-0.11195930455978534,0.26320988670138096,0.057636590363783796,-0.15956291035044362,0.251342767088063,0.07108229819658554,0.1574181886295066,-0.21402632040702468,-0.01943288672032458,-0.23590853441616128,-0.11087274731017957,0.042630862676788776,0.18012163493568145,0.16259430195186572,-0.04761992507442022,0.006600491411702989,0.22347405096947578,-0.1361770031771583,0.12552463498630947,-0.07148308709903481,0.11494961305425691,0.11692663491569652,0.07180873599195677,-0.011682193285014969,0.20100843100143143,-0.05418818147670148,0.24673632878073304,0.2664008796318733,0.17577250434977068,0.22279877634462497,-0.053389273565954486,-0.22798636647034548,-0.07809965087522322,0.19156956392858804,0.24342836781534558,0.027286218994397794,0.12035483406860065,-0.1995314101263505,0.15013504319725438,-0.25718556391734676,0.13526747805872502,0.06177971588897281,0.20276457071766998,0.03395335556614743,-0.2552497928224516,-0.13801137721693,-0.0495273450896505,0.024422679969133942,-0.05161970606830512,-0.13945169588816847,-0.10828180654613435,0.26788381316305254,0.05217746788561649,-0.07021728572195976,0.14136959603989654,0.10054230389253853,0.11039529184234455,0.3365946156211583],[-0.10493133312262076,0.2029092337655234,0.027064772416143766,-0.1809771919769245,-0.05211253321953074,-0.07134157104286981,0.07983942043918571,-0.2431352750436852,0.017444711944168797,-0.03819918139321886,0.1518371310132733,0.20521580542731263,0.15817756589189616,0.16329315954655124,0.06491234049169559,0.29311043555323346,0.30415183286255437,-0.04112983563899297,-0.015723167147604293,0.145385619081206,0.1753432054650487,-0.22581922786968547,0.11858228931429761,0.26129514305193646,0.24007732351420402,-0.12166644936110835,0.054180393622727925,-0.07298986353193014,0.06561451511397508,0.22233930823574732,0.18758323225715842,-0.24762133657149957,0.24746520678662984,0.15754074347426553,0.08863954265626851,-0.2193019922851826,-0.02819282154443899,-0.12728165333416933,0.16191976512007186,0.2376270410994048,0.2583522446966788,0.16295533998175563,-0.043332119087576615,0.0298773239457964,-0.05569273256214632,-0.15133878156600164,-0.048563815031158156,0.1404530731698622,0.17422822709757677,0.12177518882061521,0.03229463696432705,-0.24849131299030985,-0.13626304981210693,-0.12681242329771714,0.13558114845494423,0.2327799011641732,-0.1306221906044569,-0.06639394120685346,-0.08045453529755443,-0.24993159205121415,0.15335736531035837,0.16630289289601732,-0.014263067923528444,0.1308489872083386,0.22775987538571946,0.1896047078007422,-0.16325602160475194,0.3022385551224383,0.14197427225612425,-0.13007375073424343,-0.053871910958967664,0.2666818465708817,-0.12706115751646424,-0.19912742445550835,-0.004443900249470301,-0.046804266711118786,-0.07265377368161943,-0.22294822882664136,0.2105932388632841,-0.25477783386768643,-0.13035059303649896,-0.08905046486440049,0.13148605724347381,0.0043894635258862735,0.12727614575869697,0.22292570032038886,-0.02597651731802211,0.2167677032523588,0.09660372026429251,-0.01608642998108645,0.05302920464432629,-0.19115145216237392,0.012507230280630244,0.23755283512505224,0.25643741089969746,0.07147676016223325,-0.07668023770592294,0.25433373253687913,0.06948610011549694,-0.009485416593572523],[-0.13709305021567836,0.2536058894534448,-0.2152863175710114,-0.14149467604902424,-0.09629411476676021,0.07762424176088148,-0.02753872086449013,-0.06126731729804438,0.21535962435857928,0.2152758242925395,-0.05021835207338645,-0.12123910556323954,0.21251945921976045,0.25061740568280655,0.07106276536191394,-0.1547032616924762,-0.22040152262042842,0.2567362650527012,-0.20576267220588634,0.03580469605222361,0.007568114050959206,0.09471922919351443,0.014500131294633466,-0.2235519113192199,0.0433484347699812,0.22307631568291728,-0.04774217794904464,0.08820390571873839,-0.20257452939437606,0.1880957121780666,0.1960072710808206,0.1671808652625909,0.18537265027361605,-0.25364385423134117,0.06685533449390495,0.2112781074485122,-0.11730805938835384,0.21149419031619252,0.19219786145555756,0.09424399939104475,0.08604782876597677,0.17228927236526437,0.06361777672469315,-0.23605756557803145,0.09772954413760099,-0.01751477222030578,0.03510196602505958,-0.22144936071620533,0.2410381640847244,-0.036304904248991764,0.056517858883229806,-0.10215698330015763,-0.09680709654684011,0.2236343644490949,0.19476350735254602,-0.03079069181981406,0.2311220242444136,-0.11137797460022106,0.11028094097854867,0.029951556899275318,-0.018278016325195358,0.14074830243576622,-0.1203189915637169,0.006199935009062113,0.05230787249223203,-0.11217251901062619,0.021585836738154545,-0.011047791795025177,-0.19213390822354223,-0.08865973358725956,-0.2378314115273375,-0.058882962708551846,0.002081876433272029,-0.1613982238967086,-0.2649664634777375,0.2575529386354353,0.060597720280914084,-0.24505239797578843,0.006889932134704498,0.044721905093276865,-0.009347785757739514,-0.1954908473942366,-0.07852466396314725,0.14584837181636578,-0.16641800041681776,0.219010252156527,-0.017258490470463926,-0.03086413138425941,-0.23201894247385044,0.08040088428819417,-0.06299493137240837,-0.22727976734824407,-0.17111799407835285,-0.09455697531474008,-0.11601603663163218,0.18838454752926104,-0.03922383986059606,-0.1683611795768179,-0.16825842853358902,-0.050409243933744026],[-0.0962835776104186,0.07776623327108118,-0.1209882175407003,-0.0857817140465189,0.093862928121648,-0.12978527041508245,0.18521054359655095,-0.1598810674635834,0.03391200157808033,-0.03485313444834782,-0.1362828800285721,-0.06633522721287911,-0.018911275442285807,-0.09805654008310481,0.13230642377958238,-0.06590452678089426,-0.05328897432515881,-0.22781717299476203,0.03178732320730896,-0.023367646721283403,-0.2330176332853558,0.23220557385055762,0.04608839530409512,0.021674181210881955,-0.2567359486820524,0.2624723741331612,-0.1964266704180319,0.18493566636153963,0.2592313689801488,-0.21876403732618624,-0.058755321417650046,0.06999867370642925,0.057863877443080455,0.09272362011818487,-0.12032194827266016,-0.22519155228096693,-0.15868418289410424,0.02538963200884195,0.12133651109533446,0.10606695954851583,-0.13450093162371674,0.036034396207507445,-0.2310287304113851,0.13261282633970542,-0.04015711846606012,-0.041600982715738345,-0.05880157971605447,-0.1511371557026431,0.11725559740043706,0.2631106273779341,0.0973170108581324,-0.24391249377022314,-0.13029143549601535,0.2418920901192976,0.23850399269466313,-0.14000505186068876,0.26638802603577694,-0.09464176980872453,0.1216729623249238,-0.08883262683873455,-0.13140585971755647,-0.2654301789433378,0.20596631165555396,0.2537975587454304,-0.12355936945383199,0.24612598268443858,0.012559427645654828,0.043862493248443234,0.17315240192727574,-0.0966537422291366,0.09668313774833269,0.046520290532306934,0.026534385388957235,-0.26054045058870196,0.09702567599853407,-0.19303002753098306,0.11691506644611298,-0.1849020685092506,0.16957020013685004,0.09973271628580835,-0.011842837109807736,-0.1391061304986866,0.14571288123046272,-0.13574296073363434,0.10560906896067236,-0.047354875398885866,0.10521522047033663,0.00016353121440387211,-0.04519171276198129,-0.20004464084606827,0.07132643921546554,0.022605588584074566,-0.17574821402303994,-0.13090236275037898,-0.10636827550255226,0.15247972991100614,0.195835000242749,0.0032397981580644655,-0.032616401291281974,-0.2234047060122738],[-0.08862700432260615,-0.4404821521840877,-0.15323683439650923,0.16555020695293066,0.04874648089894977,0.14846790173381838,-0.34839304070066535,-0.14538971636869694,0.10361302843082651,-0.03062983642336994,0.2742414376596422,0.1224070492176137,-0.04418974925897354,-0.30367902874575803,0.19462362763013166,0.24741960190099574,0.2718605409115159,0.009616387178641795,0.1037473495144772,-0.12875746200380062,-0.2634508927307306,0.16994068713057522,-0.18179669609373197,0.49206656335531807,0.20599109609417318,0.2623252229692099,-0.05299766602398844,-0.017905248500297847,0.011040542407541931,0.051258795094665285,0.0961528359347718,0.05097527077665524,0.35753738671541924,-0.1461979157142918,0.368199927141371,0.24994691559168453,-0.20627305462309992,-0.3220209852172913,0.032071879264389425,0.1595007661336851,0.14518030303905902,0.06828125086660138,0.24647235581550422,0.19453419346342513,-0.003941034730426966,0.12616021142288772,0.1555530831250327,-0.04700986978849465,-0.21558106858062678,-0.10742803037361508,-0.023993648356321933,0.18663418259216738,0.2979337889427009,-0.03428670016002728,-0.02862518843122196,-0.37983371029522417,-0.0789801020569155,-0.0011258308573557914,0.016077320118050416,0.19561991455039962,-0.20460847447878508,0.10044789636628336,-0.12404014808581974,-0.010475578444847866,0.1746288692943455,-0.07345021340115487,-0.2292931726843861,0.47754063671128233,0.17347172581833784,0.09424061581717727,0.17039026246608685,-0.07745810283841108,-0.45375410141442585,0.3572210011192927,-0.036232001911463814,-0.2530379266679714,0.11329478588142752,0.2889532761905395,-0.2680514957911457,-0.34282751076925416,0.039180524072706245,0.20907304058754544,-0.031149876317106633,-0.08225256618169849,-0.08498711331315253,0.12965113504275583,0.46501950493527916,-0.4013330498736679,0.2328456399002788,0.22319318735396612,0.06333200905021581,-0.44190194105192804,0.04408851653153764,-0.07496170243757896,-0.22111210139246135,-0.17204362995621472,-0.153118633493671,0.42595066497968737,-0.17576169980607634,-0.20903064162620677],[0.16692285869704282,-0.11753289007230196,0.045422559480098365,0.17253292597065542,0.11455286873951218,-0.20456794499496317,-0.1348891279127457,0.27366944992767156,-0.24966940664562334,-0.2524769136636933,0.0938924933784104,-0.10820354110181983,0.1344550856233785,0.13459580490329973,0.1256752147830946,-0.22864333525106745,0.2154253827190224,-0.1719945102158818,-0.008649993940875433,-0.2625952460994034,-0.24281375629073207,-0.2435480161517959,-0.24437186288902932,0.19067034195041221,-0.19252735427492554,-0.12558625324580844,-0.0510249303658905,-0.16036166051331194,0.2583871241905404,0.050986646488024555,-0.1177581051637306,0.2288351762719427,-0.10873505671463088,0.15354863900210375,-0.16322167573166357,0.18827233172684069,-0.06138748502343866,0.16915599399321377,0.04243668908822714,-0.05100802112624729,0.056437299644334075,-0.08873181680484035,0.06985839967893974,0.23313096785782028,0.17530547699717652,-0.05242937953611577,0.0333319692037535,-0.01708083586201544,-0.10019242893323506,0.08318285483285869,0.18636183806270382,-0.2676202345703844,-0.030868331817612647,0.08220819405289899,0.0672940579323645,0.23032852726316855,0.2528029623608666,-0.21662308814208475,0.0835169781491219,-0.25134802444091514,-0.09051561189618391,-0.1423215746604863,-0.26614132089393083,-0.16248913710662088,0.10833747439065614,-0.15064223327051138,0.2553624863278965,-0.2538005278006683,0.19668762897847644,0.019726798426859603,0.2611622023766369,-0.1366010704122656,-0.031846523846205156,-0.04581118239846986,0.17726053911069492,-0.0462113682085645,-0.10346670843347582,0.3197593774102063,-0.1871223018492952,-0.1788785222577427,-0.06934404989558475,-0.15610323197080408,-0.05224300952525976,0.2364110005628452,-0.17134534160914436,0.26582453728285205,0.04766383103791675,0.042792637763561285,0.17559427735409605,-0.03548224426289428,0.19247523690779517,-0.16019199024562664,-0.14608447800818797,-0.02099241238879259,0.23912509504245458,-0.2528236616651102,0.03454719418278356,-0.03940022331308512,-0.18648063657718966,0.15643353574253133],[0.18613357920490461,0.05418475798497967,0.14287673200982778,-0.17687530159959886,-0.06512348580518748,-0.12231243711862545,0.07509368305990799,0.18674070885844887,0.0832773037430878,-0.07694689567804347,0.031068758432096343,0.017657923041135396,0.22984155301608244,0.003602833217235283,0.09363496871324203,0.04868532125100058,0.09946588946801074,0.12483772675187994,-0.06206173911350108,0.0702537580838384,-0.15992318886852533,-0.1502386451592336,0.16393391155425752,0.03898509162810513,-0.020099649989936182,-0.18929801319782974,0.04629148580997242,-0.2141906233223447,-0.19556734590428396,0.01755964529874676,0.1972473037921,0.24352728256723533,-0.03043525630767139,-0.21601426887029734,-0.1984702886813465,-0.09136865382504739,0.22135299108342257,0.19023592048938548,-0.12366983903904077,-0.07771724025229887,-0.2616598545309108,-0.039328228788297025,0.20857351217450212,0.21211683764247188,0.13395555638689438,0.14929693718126824,0.016646927824541788,0.14156776618031316,-0.01677897734338746,-0.22815351727876665,0.18392668074749524,-0.035965308108297206,-0.2873344126835155,0.21072584298028585,0.16325308742794298,-0.19447953690014302,0.034699592521813344,-0.0961734954365727,0.07026106158817236,0.04304581297310802,0.04727511167238698,-0.013557107780695174,0.0082491570406168,0.016120838762407705,-0.1145030027009339,0.2198388328501619,-0.0170922386640236,-0.23063432254085703,0.0994605226913274,0.05835034192915304,-0.10091689570287994,-0.1604112509503035,0.2835620927106267,-0.1778701839787483,-0.15721450201734938,0.2081104361086364,0.26388600839579973,0.0004346661504913394,-0.19550537276909927,-0.03240268740682717,0.14780372198965386,-0.15021446324280924,-0.09999474589901186,0.269950573663948,-0.13430225265135168,-0.0771931094015854,0.16306260172378387,0.28338892344604244,0.14261717080790948,0.21279491765407801,-0.17801907593013924,-0.13650773598684673,-0.1492892566939846,0.06824324421563824,0.026978164947505847,0.1118208343079866,0.07870575462458029,0.15878573502620894,0.07006397649309103,0.24615297974409922],[0.19071057791007232,0.25922243591829014,0.18023343391102312,0.1887057824040479,0.053332741507273726,-0.061119963338236764,-0.09492201787586489,-0.1320710694389592,0.25629584368694924,0.002032225487700727,0.02480649783197355,-0.01718874003947163,-0.2548294714802752,-0.02626511780440944,-0.2515098159664709,0.11166077054972251,-0.19925924804991926,-0.01578089848897229,0.07354397270958801,0.11836605970301846,-0.17013830851895295,0.14094643224664571,-0.21557253162966053,-0.10924776274846823,0.19964285152714295,0.22548659002413005,-0.017060013560136023,-0.26136559338400284,-0.07936470414623215,-0.24911121332881628,0.22563946571888244,0.06748308553109764,-0.19342209761970688,-0.17125717827815712,0.003926094992524282,-0.04235367142763355,-0.03477271312737002,0.20941610438589267,0.08242423738285153,-0.06154589225859852,-0.03301400842424517,-0.1982424951470732,0.15800500474179074,-0.1924063832524214,0.19686408604914693,0.07508824875022681,-0.2302758056796181,0.0739706140064229,-0.10697496849556644,-0.10232397232918375,-0.10669662748941043,-0.09669445923104479,-0.014294026432523534,0.03114006837896898,-0.024746363233535906,-0.13064764973826393,-0.1426201077314806,-0.14153185585990985,0.0518331356117488,0.11781759313716984,0.08983223315968585,-0.2689739288604115,-0.06081689544682417,0.020559449187011806,-0.16637141809447267,0.030288886550451845,0.015245609185866652,0.09522544824332936,0.18020463517886415,0.01465756722611135,-0.1129955277658521,0.04177226043882264,-0.20276065035747504,-0.014621007121332425,-0.23026534772827795,0.17367518997285464,-0.16253368134404836,0.16863013181793315,-0.022803438173364974,-0.22215778297076927,-0.16263013314680894,0.04193200618864007,-0.14267985489765145,-0.04365250081684293,0.19629538893848475,0.15140026243981977,-0.13293615010915655,-0.2352333229863163,-0.005626752901248729,-0.0348237421428941,-0.23227423845192094,-0.24537642800648957,0.17287484310128812,0.0758505051846474,-0.16169642620741073,0.022907464439599106,-0.09944583877767127,-0.061387735522932,-0.14552861876153064,-0.25834798667701375],[0.13317267760554788,0.08045028082317845,0.009163304734885948,0.09129046578133596,0.22848524449315594,-0.04029941816208905,-0.2543243606377917,-0.11044838276279274,-0.2616491392149207,-0.014667083667013787,0.18451673882913203,-0.1335374706563033,0.18241142337307267,-0.15066171113760987,-0.008643113994801938,0.26134103927517505,0.016872919230463745,0.244188697016023,-0.1784437401129142,-0.02907727928112397,0.2441939706731899,-0.06737237236913489,-0.1361268180074692,-0.21415684413666955,0.20483619534415165,0.04592496775498824,-0.20516230217552317,-0.13894734380721976,0.1850285272412469,-0.2233936019670817,-0.23038276437050553,0.18169659682056988,0.16012481378690335,-0.020543262690656868,-0.25558311795795474,0.24253987201052885,0.07078844792173505,0.02725507148921947,-0.24642722444911924,-0.05876916590288257,0.2678767528079233,-0.05967332125645863,0.029842524607839635,0.14653795904202144,-0.03220478048427425,0.08755418654894336,0.1637707401040121,0.028543236571378226,0.20936386914464714,-0.14122433526225114,-0.10825734328380304,0.25572447059214715,-0.028643749436867223,0.18112420539469723,-0.04862805236402117,0.04909275274301065,-0.09724481491890988,0.008887524657323823,0.1511550692582165,-0.11650015145723587,-0.21561630314182836,-0.2156732961799708,-0.011667741837215752,0.13555070359889773,0.02180763976690685,0.18024354743914595,-0.12114518289268424,-0.1896914388127666,-0.005026421502943967,0.04176850237477462,-0.14709499678072607,-0.019926883457908152,-0.04560107679748703,-0.1264137195448018,-0.22494593067433818,-0.010080305036918378,-0.2460922151405354,-0.0690355271318199,0.08934193013342516,-0.1960207784265623,0.033179616901993496,0.13647379025064107,0.04332787571062251,0.09851289161718343,-0.238914869387354,0.0029268650383051523,0.1518472064241553,-0.2470259294588033,0.16870891347520323,-0.16962617990813308,-0.268534875256881,-0.12415637432702246,-0.09183457900236416,0.056088517742384124,-0.1484074936539579,0.24730823442015043,0.19106480297266834,-0.16617515171699848,0.22843747221729477,-0.08866073020196268],[-0.13494712991055094,0.025538682869369316,-0.2141719206227762,-0.007078010092055851,-0.18827720852607768,0.25087506762890216,0.019358627653885546,0.20507153516675009,-0.04975237136989937,0.13891904193297072,0.02339095832895004,0.10762048384480265,0.23341000868044395,0.010976702571232398,-0.09689271696080046,-0.14625012949741092,-0.08529009169716457,0.13483113682423026,0.06034964479234805,-0.048737963578464265,0.033014435838913565,0.18597618650242853,0.21835522782925781,-0.1261961566746362,-0.151307540939501,-0.00301396587016264,0.07522738465649402,0.11187206157236106,0.08408065294299255,-0.05582578314406416,0.2689198762109865,0.1682022851174743,0.1526835526434815,0.05410777349530436,-0.041451514263223355,-0.08477913851630382,-0.11421470403797812,0.22001555381442445,0.23114813240940774,0.2521615348046716,-0.024061151796023333,-0.11264290400213119,-0.18312767120431903,0.3030989007054027,-0.2485812123248256,-0.05915625690618129,-0.18523014061323043,-0.13047494968729603,0.01671755544741763,0.003836172460891459,0.07773903297623942,0.22245462994443077,0.07265421178775536,-0.16378430493065466,-0.04117119816238434,-0.21778884247062558,0.19262931868434108,0.28128548454081065,0.08259854740001808,-0.15201138374488907,0.02966275069828279,0.1079424377293234,-0.041017529121710576,0.2158996621624611,-0.0835738466246272,-0.03231751773854693,-0.09234806425800646,0.13866320926640502,-0.07041323715823551,0.06772703994229043,0.23953423043213437,0.23231986688738634,-0.2397742393508141,0.20646119063827026,-0.18389693232973667,0.22569756629178947,-0.2208098713081581,-0.13438678628315082,0.05192185079530266,0.13639436650593975,-0.12896661471487816,-0.20349639621220317,-0.1551902090141922,0.18326329791251444,-0.17631526481680673,-0.058922024435657104,0.014718808172953698,-0.12643881541890578,0.23077885661483666,0.2380089626499117,-0.24959540537467517,-0.12763396528600782,-0.19678740900536576,0.21657330704227387,-0.015755056611857852,0.10466283299341171,0.26317527094795734,0.2262464307707418,-0.1875825200676014,0.22519898972866792],[0.2632317349850068,-0.037549036326010005,-0.15966617867888022,0.26616982970364733,0.09274294186367214,-0.05680884529010411,-0.24312335877650101,0.19533517652747312,-0.07420316775796638,-0.2096076490363305,-0.08206673882201278,0.24839149497879998,0.25175617933994915,0.16292751939161096,0.21220496180622117,-0.21917969073014845,-0.17440859392836583,-0.2653030329793801,-0.05910846058169288,-0.11228911637530554,-0.2557163021311436,0.1484471040590497,-0.03585471864597331,-0.1745190456464404,0.15141020835240945,0.23902830309428819,0.2588612912467049,-0.10512145962166573,-0.2298318459865164,-0.09217275736244443,0.03616112962834259,-0.19172476228091107,-0.043572698287551385,-0.02698527113441969,0.14060197254398027,0.2388649154290591,0.0586396788639471,0.2530037153691438,0.01830497152488495,0.0635789648991031,0.2191252582537133,-0.2529996392591797,-0.17310867798342214,-0.25732672460509187,-0.014892136561633667,0.15218016376007495,-0.05576859755640961,0.232998736365571,0.19223292096789238,-0.2014657140892236,-0.04132336473177774,-0.20963880536589977,-0.23175702007893864,0.028827984476534754,0.2400587765021836,0.01983675393959438,-0.003741001421519297,-0.09372370584604368,0.1441783406904605,-0.2481160319849317,0.007235951994520483,-0.04288732432300157,0.030700048761090566,0.11930497777320073,-0.11721689382243394,0.05631456084876345,0.12898382815241635,-0.06054603120086488,0.22535027426349794,0.18413950204731588,0.14411735525617123,-0.026873387426557864,0.0004590552517139629,-0.052796107346355654,-0.22046095791437165,0.0004904848120662782,-0.16947962386189336,-0.13354493658380148,-0.00409847940995014,0.2602084748310948,-0.14932948431350673,0.213769328670445,0.07296168366044503,-0.2307689025294537,0.1904958073637338,0.2149695677295815,-0.17191307521082783,-0.1578778201856519,-0.2226548937212676,0.11526506689293983,-0.12158071571434573,0.17343783510640218,-0.1786183024122965,0.22835697303471952,-0.0857468104934542,0.05135756280619939,0.2268952655006753,0.0884378330406872,-0.11192435564653828,-0.24806699063559948],[-0.25622172428062295,0.04669025014173125,0.152876190213906,0.04777963068826149,0.2386278865927141,0.19358026789530774,-0.15969238880343262,-0.1563463342230625,-0.2171537424159869,0.248809129524971,0.028461866490356175,0.16037832129717491,0.0983012123503792,-0.240050168736691,0.06810330863437473,-0.2067772225277233,-0.1642970362146694,0.26247075736613923,0.2299193733278262,-0.013168739001065468,0.017583980944954992,0.18750390895270777,-0.029005749600502524,-0.2018503440618969,0.08092248799872254,0.030066344125898297,-0.2740002283834361,-0.10542340169543712,-0.11089709818162555,0.12464220056971329,-0.05039389790182393,-0.20191707514844284,-0.1697077572612165,-0.2171820548837762,0.16518011121318435,0.028666131134865203,-0.2536751544852036,-0.13184236024788815,-0.20631683521901248,0.03606489947560086,-0.16778814984706913,-0.05339807562702131,-0.21657243567493303,0.14889552724148564,0.1546500444044541,0.02353287651916112,-0.1371462388705468,-0.09966989804540595,-0.10937268193535793,-0.013192466232433715,-0.015531580784197417,0.2548158008093347,0.2823047187976538,-0.010945835356901834,-0.010900150669084554,0.030745198187428092,-0.04592754428968941,0.15505494870676015,0.022413297712152523,-0.04308919637318539,0.21831137515636995,0.30243099101402915,0.15003966078935366,0.2659108416450128,0.10791437895774673,-0.09418000414411497,-0.06446682674156035,0.0299052489855842,0.030093751243007734,-0.1444287222546816,0.062075395837911884,0.1372036036041323,-0.19305530881835073,0.15989017306242714,0.08226824659875367,0.02191505440860974,-0.012667536819245227,0.30017198500174674,0.03148347215944215,0.05066296029338836,-0.09797597161592442,-0.15859764013413155,-0.012109883401473676,-0.033874739933505774,-0.05054702701318403,0.0388723268916523,0.02215560324547931,0.21276627415510924,0.2905081945043305,0.3069911008180459,-0.16099108380515298,-0.11074337129949338,0.09713458358478558,0.024487209451187285,-0.20467717992808654,-0.007573611130839938,-0.20654825316087616,0.24077693401674724,0.26347411524078546,0.22271997448031255],[-0.11566757027165901,-0.1321158443937866,0.1484505162571319,0.05092738469427346,0.2566733258372864,-0.0006674881312085778,0.05903927123594381,-0.2195652971160355,-0.0008961708863480884,0.18681835350274587,-0.09250475325482109,-0.09062763747432862,0.23812987891308948,0.1816999353362012,0.029222266244566683,-0.09637518749276842,0.20430284625690256,-0.13127044981314387,-0.2176578694032262,-0.06191311712507921,0.20203560472340457,-0.19133640888397885,-0.24903240449076947,0.025427461836248954,-0.042953049314900626,-0.24555320841135214,0.28744918701137906,-0.21196524929354638,0.1436819818432592,0.25919033312041134,0.12408830626845546,0.1523402835158761,-0.1580382150154518,-0.10719495015885566,-0.2164607410775708,-0.17357170766876437,0.13103612409820795,0.2699358628551048,-0.22932472735420179,0.16975563641547686,-0.20957856643274264,0.0872673699415927,-0.07087753113524019,0.02391182754741316,0.11858394712003564,-0.08782016378778756,-0.10521752292183678,-0.24188947265687752,0.14744751712510204,-0.18399747077082337,-0.08763439418541945,0.19711960842796541,0.17885272329407825,0.060239961868369996,-0.19393770641375652,0.18186347579244283,0.0886409370216358,0.1264950655679026,0.21228611230453506,-0.0495998283472919,-0.226100280842684,0.10273260144619233,0.19285584848569007,0.0453377501282689,-0.04111670284769391,-0.08361152410883804,0.23433992146656774,-0.034638944337884524,-0.17459591757229548,-0.037437579777311464,0.1324722975859932,-0.2062099722282715,0.2748618392213899,-0.26093420704309994,0.17094477256908802,-0.1921900350722742,-0.25454948044605585,-0.17856056554464145,-0.013164866616076196,0.25050313980615724,-0.13004133210686034,-0.05645321042042133,-0.2271465488704642,0.12101069749264395,0.24422489968749694,0.23681583272921009,0.06066854978956388,0.13990620277331647,-0.1549898283895888,-0.1340718053170039,-0.2189234430383317,-0.03799639567172148,0.16211742940724816,-0.07974806202289737,0.08737857601031261,0.06015165002114333,0.06406759297405182,0.0012449312450526276,-0.014906359964012664,0.04391842545043485],[-0.2604659106751517,0.24632874457459883,0.18494644904216861,0.19973499324967384,-0.06292546440218308,-0.16707495082559906,-0.2114758499020086,-0.16926064312961703,0.05009506433780194,0.22527375690195742,-0.13688756786276762,-0.1735535561664448,-0.054920450955985155,0.10757306376717002,-0.1640778738770163,0.17204232022426266,0.052517554653781766,-0.04316388409101743,-0.11437066347527984,0.10712492719486415,-0.20260217747285558,-0.0880420063253736,0.10152711568866887,-0.2132827478821058,-0.16802964985881366,-0.16886472403472044,0.059173357114183346,-0.21446328857905497,0.25469896730493485,-0.000909294492721586,0.16354461965676084,0.09774509537898093,0.17398521681386375,0.03704876941521772,-0.1265341096648204,0.21651761001831782,0.24342344299009935,0.04097728576519113,0.005951612286744471,-0.22124195685193496,-0.19253165835709227,-0.25688272746385077,-0.17572773696206206,0.12153462550157419,-0.17162813561287527,-0.057506235578476145,0.0819528765261908,-0.013563209005617315,-0.2509135948836039,-0.12183529775938916,-0.055750622742289334,0.1883691436176886,-0.24436185512812694,-0.07856617184070748,-0.06345936846539926,-0.18306502469257416,-0.02370092026818522,0.17956988930721282,-0.23582025739704962,-0.1427090209476874,-0.2168100881769388,0.030698267025830908,-0.15617160224068186,0.18237813428548713,0.19991967352783277,-0.17015371128344914,0.21611245705124685,0.1597696923509305,0.26497962850110834,0.08978835585549978,-0.13416093421394917,0.16788485964197242,-0.16932872924712405,-0.22002867774310764,0.09103269034783948,-0.19682219344479943,0.13051479989839526,0.24279044028942795,-0.22086109463129408,0.03721052292167449,-0.003561455091351484,0.045997400637479535,0.2126354439638712,0.11773057066953077,-0.04843554949570522,0.1719623052037407,-0.0024676578989071573,0.233606566557453,-0.25439494090021575,-0.06411680391520035,-0.162882029765337,-0.14900059407084934,0.15564783867660797,0.2306576984147697,-0.005452019593159133,0.15255092597514083,0.10225601066635172,0.09557364184723317,0.16073481607554235,0.03464010178526365],[-0.05817129152075129,0.03825866176460968,-0.07741565840550503,0.17760313490733923,0.07558158464661874,0.032011320891737055,0.021102300251159393,-0.1456258504591241,-0.2243186747205146,-0.053446994029608896,-0.22317887935974126,0.22254511642700234,0.26024179621591953,0.02697621738420037,-0.16095662986072068,0.18910537607501077,0.10905589785302282,0.044735143077198676,-0.024685116004311183,0.210112865920332,0.12994742470412204,0.07579389546997871,-0.08067411326131592,0.25161569085905605,-0.14920036782688953,-0.022022899987790664,-0.13180514474056695,-0.20165366209725877,-0.11669450653892043,-0.14066260751637275,0.0828726599848704,-0.022065608044087217,-0.0034132970390498792,0.16726417856314196,-0.05661821211099089,0.19844793300410246,0.08361619572119888,-0.20437824541683863,-0.21219577550137592,0.017864649761852675,-0.15959221832632417,-0.2657114813566387,0.04664667277209667,-0.19248939506090004,-0.052434798247513535,-0.23882205759279576,-0.053674149840916494,0.12729323157845998,-0.21626307640690817,-0.18425465381933795,-0.2660910691495376,0.15811561039776753,-0.028690840827075105,-0.20921177195662577,0.22129734240216473,0.041671617228517616,-0.15714615850722408,0.17043008831465567,-0.0021577064572819112,0.16451774014472348,0.17062245673986465,-0.1502402033775447,-0.25224701828865,-0.14573946759590067,0.21271526100147423,-0.19466354336494726,0.023825791282629637,0.07845974649735206,-0.1670555828427327,-0.25518230077129567,-0.05549453380499042,0.15566002070694396,0.21798065439054085,0.02955829002253002,-0.14979129893273327,-0.111794335891121,-0.16077208227196435,0.030601133647165123,0.06904856105980975,-0.15858535279502917,-0.047132474584681644,0.26874971970287953,0.03217342609262824,-0.108720119701303,-0.10121250865188805,-0.013315537317142613,-0.21337403994416473,-0.07713684471043948,-0.2555870814611537,0.09316567334419373,-0.14231775207976416,0.13126921947581033,-0.09780357680485305,-0.1313555047095365,0.07438619244669385,0.2581818136306026,0.1315745368839505,0.0029019531265994645,-0.21208675856265868,-0.07812793142717368],[-0.11720261531476744,-0.18883701424348756,0.12052101170023659,0.19405109283634941,-0.17328043450846084,-0.10378802456849183,-0.2650225754479232,0.026816118015530854,0.06457353673484238,-0.24144570713429375,-0.14646555993855048,0.2634946916995752,-0.2306582182195104,-0.10863413830377919,-0.04927307859529728,-0.089633509756405,0.10814589536800341,-0.020424012932728986,-0.2594350448059044,0.07498397708475607,0.25650620747608477,0.0308870885797987,0.2124277406239422,-0.008723411346421942,0.2389539249602691,0.03548945718280526,-0.09620900987689546,-0.004628539551035617,0.06555244505666079,-0.26494107784722554,0.020185424619392062,0.052946549190709735,-0.20372211731247342,0.026128874788317418,0.02519619460696628,-0.1747288599232207,-0.17384669944071895,0.17626907042556397,-0.21390807380136706,0.06501577659335496,0.011566369296045882,-0.0018749000878928292,-0.16558755682323664,0.2180071711307333,-0.021247829076332065,-0.23657307656583546,-0.07650590994257528,0.03329603085133959,0.20118771333030894,0.21958388498237857,-0.018853537865153234,0.147540071392396,0.08117434628685766,0.2115788923633791,-0.0678799973716819,0.06491787741355,-0.08040410027151056,-0.1614945146399831,-0.23421680804904224,-0.2555825354903369,-0.05665723720816423,0.2034008466185255,0.19730792195434133,-0.08552598259211387,-0.0342926841389128,-0.1968490564052134,-0.19696725629669473,-0.21802681538242089,0.12854296991260733,0.040717753081692426,-0.2260441666979254,-0.05092652896937207,-0.026380966044318388,-0.16442828667835854,0.18929263106424918,-0.2660012179099967,0.187736794743806,-0.05797452262078771,0.26457968794804926,0.22642177354506704,-0.20109192992777586,-0.15426132772024997,-0.19553187477732972,-0.1992244425801834,-0.16020734482293328,-0.205684346092585,-0.021817208303378462,-0.2620695458289422,-0.22665392893425368,0.25387324076520845,0.19891810695194403,-0.1276216449413399,0.24003202794298695,-0.25980606877314755,-0.08412585261888919,-0.25531548358683426,0.20280583911998668,-0.04748004555523393,-0.19938946161024546,-0.2289780068122324],[-0.15553796314844887,0.06604373696995355,-0.05626161992915643,0.00928888264044394,-0.1594795662994868,0.30100811805658784,-0.032923661078962836,-0.2808911772221278,0.20440779964249572,0.0825972051758444,0.3108057302935904,-0.09357287434212808,-0.12317587732340084,-0.16542941526656124,-0.12203691942248684,0.009665191268698355,0.0008148976571771545,0.25798040031628244,0.12022718085033646,-0.22589837474213834,-0.2623860714902995,0.23673465265384866,0.04363635281769628,0.04013710167719975,-0.14071221641882167,0.2958453020907724,0.027470286266998677,0.03912453231339657,-0.008352679204868879,-0.02949637305184606,0.22574786209044617,0.14736872581446792,0.06230029407997248,0.24029328848188847,0.0005135047348335344,-0.15805577481514305,0.04372348657702307,-0.1644227980700321,0.1828556388413128,-0.1723171172531398,-0.1672808235393497,0.21611616038038495,0.33382436125157305,0.18681628489208985,-0.22300599486779174,-0.10427063552264625,0.21173574257322075,-0.15386112143910677,0.02612850179456878,-0.0022717204494510047,0.18198644271139364,-0.1766671357728614,0.2768255174859835,-0.23133621114736444,0.05422397565110226,-0.004009876905556762,0.24767537245610688,0.1875811893519004,0.24099288446094227,0.04153898905852063,0.2442735032764826,0.2575414541251241,-0.04430624303402281,0.1070142295374581,0.019896762774296303,0.14027076456849202,-0.04943432183436272,0.17156294448836282,-0.271729592782225,0.21041417582262611,0.2140076482713298,0.13487371495621805,-0.04276677533615964,0.04074416742321679,-0.2429359611232695,0.24024646510880035,0.037528039915423264,-0.012740600333875305,0.07997246135751612,0.19875645998905603,-0.14240095901195787,0.19702520893574565,0.049789703633121525,-0.1255382416026336,-0.23991852726134325,0.09532132617836235,0.09303161962546833,-0.015093383740236528,0.21088985251268846,0.35654471048118275,-0.1267945646632821,-0.2934369906536118,0.1527898530945686,0.141879673528263,0.2093620453227329,0.1193056807420183,-0.08066192373303374,0.3530344903882275,-0.1343652882280992,0.14677861901335076],[0.17292837800051528,-0.040003637233992036,0.02816385488325937,0.1697616044926683,-0.10423933507840681,-0.15714523742593114,-0.14969014395434108,-0.16469314004017693,-0.05715570413807316,-0.046000308564071744,-0.26783867296711916,0.06083387815325839,-0.03291700593821107,-0.041744493308868355,0.09632209264822143,-0.020476852470114392,-0.2536301400904132,0.005557611770370871,-0.2502789773085832,0.2657245797107327,0.13203718263085917,-0.029861519196326236,0.07151897408325361,-0.15395985785745273,0.08735284030488548,-0.06524231874403841,0.02085133524474083,0.1945954329045757,0.24784823786759946,0.2327909217056735,-0.10119571638478927,0.1192344507572331,-0.03620521793414055,-0.1959381918415095,0.2382958700282777,-0.21706361744163283,0.10660314532569733,0.2159111111213207,-0.0853570476513991,0.23427292600200147,0.24923980198212012,0.16351163784903708,0.2150526163992458,0.22153764845513793,-0.2298062762687013,-0.16129336359134935,0.17856063308616826,-0.12767050826288442,-0.1348283740654074,0.01781759240266141,-0.262986430515633,-0.03921512403687018,-0.266481189862902,0.0036144977778887733,-0.1431207232411932,0.08066201282116374,0.10092710537229961,-0.12355504563812397,-0.032175439042434535,0.2474902466203557,0.18078113672553156,0.19195048312325932,0.12731817566687378,0.1329398181220541,-0.23902169595197342,-0.08061550567044955,0.10467052339047224,0.15601490710730154,-0.08839884325917634,-0.09292238399693817,0.15006668258978925,-0.18748170475743947,-0.06091067722408575,-0.0022225871539916027,-0.21936978085324227,0.019217831684345734,-0.1345696747322269,-0.057981444777036754,-0.22924068944296574,0.116540999761427,-0.17610047151739694,0.044570804654796445,-0.15242877718894574,-0.13382562836290812,-0.02427209944221435,0.048390419191134994,0.24725363350047894,-0.03890272268014082,-0.25867896455488293,0.16905237572618434,-0.06472031663497875,-0.05215717380113532,0.17733767967514974,0.008440801818701592,0.16945295354697007,0.10631202110593596,0.12165152307551647,0.08632601547001016,0.06278325060304225,-0.18030777435837378],[-0.062024616378354235,-0.09781888582376101,-0.228865068684566,0.20420818735566398,0.014976916155023124,0.2476286273179529,-0.12367562236167003,0.08762590490004246,0.10565209719447494,-0.05381909406074345,-0.09850067603324553,-0.020384322102750596,0.11206665101474324,0.21415494037517102,0.19416908628946192,0.3912385997316868,0.043996670098931275,-0.08043595581434536,0.1091025705415606,-0.19055185801291513,-0.2663652095202932,-0.0887504826477244,0.2043224352729369,0.4121218567326551,0.24479361125008098,-0.16912684563288147,0.05509009265395455,-0.12247382247140697,-0.1394243499494019,0.0271926628275202,0.32619011778570384,-0.20790950087653798,-0.026077871887178337,0.1685307338858073,-0.08403533492734439,0.14816852303510775,0.07778620469719141,-0.17806191100297467,0.04644540547478345,-0.059999822755934386,0.187492701491433,0.16244659122725538,0.3363875947856904,0.28419656418752215,-0.23453588746614104,-0.19235757808761558,-0.26057624194674717,-0.12276069096551884,0.031575229844892035,-0.12185862737311476,-0.25646558522520735,0.022367077424581393,-0.0447603364016301,-0.09554432115497936,-0.06959769214202512,-0.31201393158404106,-0.24015386768942615,0.3778120611720615,-0.19180712291760518,-0.19101376690859084,-0.15865975564038967,0.004591267245510247,-0.19386751316149592,0.3182961398647481,-0.12369214463162446,0.24331801928255017,-0.24411495199791414,0.37669570090832344,0.17382355188778523,0.2087102417814561,-0.022926730924209823,0.1796454740410717,-0.4118295226711224,0.49052035589040843,0.16318874546040407,-0.08172200255401288,0.2592859090393939,-0.11890321746059215,-0.12975000137245205,-0.1598464796141016,-0.18222850524371925,0.12312206674559237,0.32877452004873986,-0.19143218907931175,0.14141805120637432,-0.05467076644744414,0.4460573797861861,-0.08649107770552013,0.39438471527259356,0.3891190729855269,0.025027172343300888,-0.17641777144973989,0.12401801709156048,0.12416461367126355,0.24804928525005876,-0.121236366624626,0.22255590985613138,0.3902745885084822,0.035202692027814356,-0.26429508592171885],[0.10442253314555074,-0.11720185750378984,0.1284102356560046,-0.19471660180825068,-0.21098181832206803,-0.12397438138839888,0.22969443670217501,-0.21308177598413916,-0.11360070449057891,-0.08522073249043828,0.005380906321696634,-0.24560508355817898,0.08738488350549264,0.08923840121030886,0.04699055843511927,-0.11369228812997004,-0.21970327072697338,-0.16621178848151547,-0.10142484182202148,0.0028491039988609284,-0.210596516253859,-0.2525230373234892,-0.1115218201515068,0.08770946540587146,0.0882966246505786,0.03637522260350054,0.2227104345200395,0.0685383267467109,-0.19157595158576154,0.19242563857480785,0.1565809857729709,0.03501884476983699,-0.044919774313501366,-0.17440943366868586,0.09913846381706325,-0.06888599394519744,0.1258213760165053,0.2462414049418448,0.020097716208818135,-0.1044558292610364,-0.062244667750280314,-0.27036675134618365,-0.2656800463807594,-0.0861448193455189,0.06912835321094288,0.007457330958084888,0.011020976260917912,-0.043421140670257846,0.17939553750049864,-0.1137010154119355,-0.06987853479303704,-0.1623649670055412,-0.03374769881254214,0.15331576671280936,-0.06160081988121814,0.13027529389749765,-0.23054227287588394,-0.16592810451490025,0.04955082580530234,0.1491987620655568,0.12374307354421918,-0.16972753152228326,0.08433131619979585,0.06848837207237103,-0.16700102509541012,0.19355105621777133,0.1686622511022288,0.21680773664919278,-0.18915072810211384,0.10634868623742044,-0.09413875036566272,0.08574319251133847,-0.24955633602206345,-0.2104632286395287,-0.05051031154051267,0.16474068180304716,0.20368333049248927,-0.08402690047986819,-0.08973617620331316,-0.07514805772523049,0.18366370325108436,0.14995523159273288,-0.26856859024865953,-0.07812582378286151,-0.1615597221157924,-0.012602002138480043,-0.2607621355881019,0.25386707907621126,0.1693936403764818,0.05272061547167844,-0.13510655525749665,-0.25643572728035735,0.17570162199367498,0.06422145334388206,-0.2332890785855793,0.21957855934533418,-0.24744577051924538,0.2175887591880811,-0.1616713743529595,-0.20897602502143545],[0.11907731276902107,-0.04555389294117415,0.26823039746685634,0.12220407242215826,-0.022861259603348515,0.32805680234733564,-0.24832138837788978,-0.04858266434946217,-0.019285282890308668,0.18605922681821432,-0.10383175590582074,0.1985619912282615,0.02082878142742795,-0.2238881809542977,-0.03240841582747082,0.34503127580783527,0.05893017237208948,-0.039851267405998085,0.10996799585172984,-0.014231817775039776,-0.04360631743291891,-0.10942765099141205,0.10705115445347854,0.33658825592345104,0.23179165120416786,0.12193480610290226,0.24583623993123752,-0.1284439902217136,-0.24844633062401694,-0.1001031855808158,0.1084356542094098,0.19163600794357752,-0.08793462581880909,0.03039448480772464,0.29787955499608537,0.07140734808415736,0.04254972685948084,-0.24620952177151315,-0.06964845734760189,0.11030050837214256,0.1303540238622621,0.0033219633296454293,-0.07715992170233313,-0.12197642085709355,0.17322733868444884,-0.15627242418341078,-0.07755722028095907,0.23032721044096488,-0.17624884275094949,0.07069123015483304,0.07085548648323563,0.07038520787123763,0.009248610956532143,-0.024543137449057784,-0.10301265298935523,-0.23786980996506227,-0.2994746071463543,-0.07375815406329242,-0.22552247114782126,0.03244159110606719,-0.1701654745820639,-0.021661269270495564,0.1356079830810295,-0.19324968728422204,0.08069395095269435,0.18220909321824008,0.008476793130258188,-0.031370734293395174,-0.05041742379016192,-0.08573198126044099,0.002647419098731628,-0.20089442918227757,-0.07840523120447294,0.3283896749441362,-0.030277353888836393,-0.20133308504081215,0.06778353028738333,0.2548240668137304,0.040322712522499596,0.0338474563729871,0.1139408285716679,-0.11992615159954075,0.29300689390468887,-0.003059622303290413,0.06803531378115646,-0.03281807367505442,0.387138229777952,0.11062013881294633,0.07763329074810374,-0.14235602382420484,-0.030957812594256763,-0.3101643007480603,0.007374033478172708,-0.0851377194401808,-0.012248996949205932,-0.13328229989605617,0.15562823365019998,0.05555358859720478,-0.16719301872813822,-0.049366693308350036],[0.08258569244329476,-0.09841643292860393,-0.14741170747643173,-0.17080696165979437,0.1720181079640106,-0.07596217241105593,0.0280459362479719,0.1476518055036195,0.1877953708158972,0.2018319671018337,-0.06448485335469263,-0.0758881124456621,0.06561386309060985,-0.23449636799294843,-0.011092696232586362,-0.006774274754396179,0.20162796489580745,0.23123857915287774,0.16073634567732872,-0.18821580865701507,-0.10095193209785515,0.06502865576444782,0.040856771337850116,-0.009794766679806517,-0.010677839791556879,0.0801714360372778,0.19760301356615198,0.20889715926024827,0.30116483178438647,-0.2025217433695998,0.3240236586738569,-0.16777687907693323,0.1444642832257107,0.2544109892371338,0.0702720430674738,0.20393690913490037,-0.11708400663667878,-0.04936538163855536,0.03822155614493757,-0.14041959728122036,0.0341614316343202,0.24338449317672933,0.31106828483534965,0.04646636932642211,0.1798328885250617,0.08554665336189717,0.18141428199098072,0.01283724717516495,0.2285195504625364,-0.03290024760570678,0.1742149726540811,0.25402618726143966,-0.16948118537490442,-0.25024189135583813,0.10794920630818071,-0.1763347323007885,0.17863736132387278,0.2321886026769883,-0.2333135977419914,0.08166900204825822,-0.2649573822059745,0.1440355989722481,-0.060016799468951595,0.19580771681999617,0.1243728767932381,0.1299519567967441,0.0912543039363792,-0.016446036347313217,0.228920079780782,-0.1662168453590943,0.15172609869580353,-0.015683607749117583,-0.2428743712391724,-0.1016173605953333,0.19336470512641366,-0.2273044772991799,-0.1724745926783822,0.23004934741867406,-0.11909475578856592,-0.17410340574967323,-0.10013346989077353,-0.022922605724949068,-0.01835831698693031,-0.1573803092159448,0.1798577148815553,0.27687072116335953,0.03480844628629207,0.03808539216248376,0.16492743707169047,-0.17231752780126008,0.17542121536717648,0.09702313850346403,-0.08428116334489331,0.22130770048886636,-0.1888854168712488,0.011960981592206411,0.21659665922894342,-0.08248137819333909,-0.19411958623630166,-0.04543384098209673],[0.15762931276010878,-0.0427848201314003,0.01358716750427742,0.05656068118389388,-0.16473637826395202,0.30363475835032017,-0.0005844976994371448,-0.2099282782011544,0.2559239422476703,0.2022295234428319,0.3136953527294764,0.2249895367307175,0.2962040519089205,-0.08041749558633314,-0.03327609292694044,-0.2235216849277326,0.260430586035427,0.045382543317885785,-0.014708691526878995,0.20943403435089447,-0.2382183883478395,0.11772527785177048,0.13157634312880973,0.1190934017785615,0.16669225487953399,0.17356007870791132,0.15196133799275596,0.15533966067000685,0.09969455006962326,0.1959867420700403,0.16024272001526768,0.13266878410030863,0.05106743877869804,-0.14217339461512454,-0.23807973446559583,-0.1917715819270857,0.12407048164364014,0.23509577993422998,-0.19535653075744194,0.0090658652723151,-0.1291862103592415,0.05424140751695256,0.26377016046145957,0.06060144807186172,0.21880816194503327,0.26214244141421783,0.19925036770095292,-0.17099287482804473,0.09327784315492772,0.03581429522131623,0.21433355069477622,0.16834938822603585,-0.18819906425133717,-0.04027435155062871,0.21218290251231012,0.09162974416949578,-0.2263191257775133,-0.1057871580619051,0.13761283759410026,0.023984535168534393,0.1754937227205579,0.2942272721110927,-0.023142544991883267,0.007437734131798269,0.11492752850961957,0.22837545488341085,0.03779078147834868,-0.06295958266094714,0.06780223547593801,-0.22954284087382593,0.0373843540460451,0.044804407342802374,0.1274202019919077,0.24000521168912395,0.30344269037775284,0.14479571929523205,0.18316747336102482,0.04235047101408481,-0.22768685396879834,0.1325123825316435,0.20813064006850487,0.09356646494141685,0.1464426362668886,0.1330193811670861,0.042069013743139254,0.16763329568645427,-0.12474940158868116,0.04703027206780936,0.1518782361561766,0.024471317576980442,-0.048440840674088353,-0.1866175862267827,0.030417045203958142,0.2455761708526608,0.18302085544704252,0.025515881508066742,0.20796057104462026,-0.08473132134359584,-0.17108507908819,0.20323577972409673],[0.09883665041986049,0.22980595460407674,0.250355723947404,-0.22977386947937586,-0.09956503523989965,-0.02993185709338883,0.1640818493195682,-0.021883465267217794,0.21219023347906021,0.03062731917112815,0.14563166868038957,-0.19678317608359006,0.25381049539665945,0.12824901955948703,0.19271257902238564,-0.02137602114440752,-0.04211941222523759,-0.13651029125206945,0.13801397130346735,-0.13622247954171518,-0.11592455209426071,-0.20834508705839538,0.06327711622656025,-0.08935590126595802,-0.08781196547366009,0.26573823271480096,0.043053816678987236,0.27928496625155,-0.07334830138728775,-0.0772339949516843,0.11727014140252559,0.13514033970454256,-0.18043527940843077,0.08953803290762181,-0.264908805355194,0.0733713046261092,-0.0582803096358116,-0.15035453119217496,-0.25696196134325217,-0.09573329957027703,0.06057704527646873,-0.2540808779046915,-0.17855849739528348,0.26362872406343973,0.13860133014689519,0.13942762982720075,0.22348846902387368,0.23639995905077044,0.0011897808183506146,0.11199398796404206,0.24848492009990517,0.035976121222853624,-0.10904713813180762,-0.07028930987798335,0.17863189280700756,0.33384650802438537,-0.0031692848917641925,-0.10456290370999358,0.16846153414822915,0.2383426032242066,0.17534781266661953,0.22090195693136522,-0.06596881615993265,0.19346894029506667,-0.007082163338201135,0.13464877434933015,-0.20384307822823583,-0.15407455552861463,0.2673949568878084,-0.26216946892010345,0.2059773280142574,-0.23569225467479696,-0.07310630374134251,-0.3057344692731102,-0.032152114141971735,0.26559013190988773,0.01806707267479907,0.3329965784623886,-0.2181103201189615,0.14185611095405598,-0.2528060770726125,-0.16240532014631823,-0.28612413864257047,-0.1277786974646893,0.24286780872519767,0.1501262013999385,-0.14943641128191398,0.27802643169964286,-0.2300382494365801,-0.02836221797865135,0.10561232632109283,0.3076950139013933,0.04122533919968063,-0.23291984983059513,-0.05605010357257843,0.14840084478696602,0.21481148973754718,-0.18679624041826104,0.22240230553041446,0.3465585409168452],[0.19266668869578277,0.1429301161966039,-0.13356131643279218,0.2653205889721034,-0.021236785868918386,-0.2125306937974782,-0.09867457148556337,0.09658471611575278,-0.10348641216884048,-0.22651923334889867,-0.10653710192163797,0.13075826231166418,-0.1395641928529459,-0.14781171360584128,0.08704933490065016,0.23739367815510964,-0.17958888186402766,-0.0016665958857171369,-0.13675597812454285,0.06760081701157213,-0.08851196289898924,0.2056127728032231,0.10592150766645801,-0.188659766983052,0.060950949739314926,-0.18144369928994777,0.20460874167270776,0.125140767144845,-0.20686635860227534,-0.26451567912808177,-0.11452236108796908,-0.1552989675185111,0.14825929195083296,0.027146128767518728,-0.120434029595241,0.05021628473900603,-0.2242871409422099,0.11409566881277756,-0.11228409581599913,-0.2099790989958578,0.2350698395338298,0.1882720978265653,0.20999153396852957,0.17289527146702832,0.1922099001879678,-0.15582419857492708,-0.11921849285297947,-0.23635728267457207,0.1970076896246561,0.00905411531922896,-0.10517547797289115,-0.1417887184128202,-0.26163462793939546,0.2091622566520908,-0.0232341794750144,-0.12154301847679487,-0.17620862633444123,-0.2649877519116864,0.0711534785147285,-0.12489611106474444,-0.16865277668982184,0.20843708815008868,0.06845954401395221,-0.09355387324721037,0.22232491586786027,-0.20164682872903064,-0.11927355079609964,0.026417831062997815,0.03373432021107021,-0.03469875729204874,0.2541892704024804,-0.13058740828370513,-0.07828008199832183,0.010090027749042371,-0.010776979363347006,0.08146541554561677,-0.1762023349482344,-0.03663056178430039,-0.17828791886778633,0.04358468131418544,0.23232705173680449,-0.1420526561667618,0.2395286965238364,0.21523610984388375,-0.2134816037332895,0.18342509916819094,0.13113540557361097,0.25517621930830753,-0.11852190103890847,-0.15662137778668597,-0.16020094369956323,0.17532318089166685,-0.036565517433690416,0.10846958548331963,0.06599843737621612,0.14767775199762107,0.07660300480033326,0.1403516367076319,0.1872197608326289,0.0039642168199563455],[0.0874836949173253,-0.016990273259297743,-0.12564490754088053,0.2648782561189769,0.11966127293901986,0.14930942918644763,-0.04940295154715004,0.13923475258545687,-0.23559920931650372,-0.11712444863069282,-0.2521727507014501,-0.22051286648393162,-0.05804591656874712,-0.24411653368604863,-0.008943291851715891,0.22214138476118048,-0.2509372489475272,-0.14801217369188946,0.05841805399517619,0.19572100400377165,0.1670874746139013,-0.07252525635770836,-0.059715754200229294,-0.1638714838461924,0.21370399936732784,0.15545704342727917,-0.15501068588653064,0.1619710289126633,0.1146655718964142,-0.0033604168922958064,-0.17911810037986486,-0.10719120615204998,0.17017306646565333,0.17056459215322528,0.07694935238255118,0.11095854881468653,-0.19628477423555907,-0.1655712000816132,0.14323910875214887,-0.027375534073890023,-0.14208867250846108,-0.09042516101360264,-0.02745094392375791,-0.11048485013909688,-0.01971463554487269,0.04377741873337985,-0.25513288653382116,0.06266899718814707,0.14003171736685302,-0.06963773339767505,-0.041665442655523674,-0.2421187845041634,0.05955435098793141,0.011610447532936368,-0.09384554281568509,0.08925954988791268,-0.17687348823815716,-0.14738898080423585,-0.21187187453559117,-0.1814302070402975,-0.043991411347164354,0.05014493320988709,0.2191827198256054,-0.18208039031007425,-0.14273652226713623,0.01433298443466054,0.22053717042873122,0.049182635997789034,0.1230747515702624,-0.051482842613785613,-0.17091762496660282,-0.02048441266112077,-0.14436628013427294,-0.19719967791115556,0.011927287691212887,0.03479097119070438,-0.021994056563780284,0.1551796719371309,0.17746851261529,0.26112419952048355,0.17576155713636554,0.22068854807456184,-0.17866466649914373,-0.16862152922652252,-0.1094986216255592,0.051546748622666526,0.033201968274113695,0.024613691919051012,-0.1639233027402618,0.21006014035484152,0.14420538600119026,-0.10662139186934728,0.24715341132256452,0.09777855451054596,0.005607490994204159,0.22782971352303458,-0.04966294015621874,-0.027168069215292495,-0.18255294535871214,-0.20594655893403466],[-0.08147801216690649,-0.07233182176737388,0.1588654732666581,-0.04106708040038831,0.21532747711436934,0.07815801729479303,-0.23664019356334495,-0.05494019253073609,-0.07343991883734288,-0.01822377138882745,0.006133342550789812,0.16458976415284451,-0.09375481472395106,0.05760431934853678,-0.01278315652079768,0.18999101136022706,0.005453133636189805,-0.10461888820703431,-0.10415527517253556,0.15295084969743586,0.03966126053883962,0.23685638398101244,0.2573739261136511,-0.20002524718646003,-0.2561849495242268,-0.17713307295750233,-0.1532604588063933,-0.059724773372177034,-0.2625310043001336,-0.22208749484596924,0.07242812344975912,0.08924584604620188,0.18130372547297566,0.05639252962911363,0.14006804231538567,0.20925218714080862,-0.160694625456264,-0.1085468429237267,-0.03118948015204064,0.2057518284518087,-0.1486988686442481,-0.17999290872527363,-0.12436261122389414,0.09166914671461596,-0.04972070030230575,0.1528430071340419,-0.20778335282108604,0.2595610052557632,-0.17813420523518605,0.0710511594793103,-0.11269340307301264,0.018332007898691677,-0.1112582794894499,0.1065275964414275,-0.13005378569107498,0.14762608930935914,-0.2078103928608428,-0.021378959469449912,0.2679772692062426,0.09138486246431868,0.22185363061999744,0.23084884003853598,-0.09977128764433724,-0.08934586420335232,-0.20232255219608214,0.003806487717396468,-0.06152810290921435,0.030123225110209012,-0.11923221250008982,-0.08437552999360505,-0.02276279510262223,0.1989646041608137,0.25920504131679895,-0.1500248675461556,0.08441350578825305,0.24804979659241114,-0.2402619431051975,-0.23723632712902393,-0.006620745814967024,-0.2463715249937299,0.14407498780845432,0.11538603174684103,0.17019315147042083,0.1802213573453827,0.00794734944956884,-0.12460308018594018,0.25710005293085736,-0.06895309745831653,0.0778207377008852,0.21920258611637952,-0.009702143612207729,-0.026825363033252468,-0.060852089031845316,0.18291876924855424,0.2160068623983377,0.2250896546866141,-0.2437742389397486,-0.27035946992463494,0.011214433783295577,-0.11650533681050089],[-0.05208589505272923,-0.12790343821497063,0.13887904118549485,0.08358322708622065,0.16684908293853523,-0.05374631851532108,-0.19413997656469792,0.26455552026887286,0.16787275241864363,0.10028205981472905,-0.021182013230800652,0.25007837621889134,-0.07652847289584087,-0.16010994430974473,-0.015602831111208143,-0.10173665386962669,0.1594785640645123,0.17100886741780585,-0.030648576294577668,0.11444785787720774,0.19426049202153395,0.20471443669069414,-0.23432305308744059,0.22292487453210783,-0.24617155088651932,0.06374198964752013,-0.2528209993593389,-0.0878190801093804,0.23127613440207606,0.04286844157192866,-0.2144894452510752,-0.16170852044416362,-0.07755781994268368,0.11653927616259631,-0.0434398502105767,-0.048563285182574085,0.22622129382505188,0.26133391384455773,0.07729072592432615,-0.16436064342349707,0.18447215643883236,0.08747780491955373,-0.266162907767695,-0.018545799363269465,0.23671940693322252,-0.26332801895931585,-0.12966018730961276,0.012658571794237239,0.1630181333656834,-0.212264624285989,-0.04648598082878472,-0.16444187870869967,0.04165838332815009,0.0029880896792519778,0.08102562990795845,-0.10497111592027676,0.26508198961431834,0.037174390670199085,0.05527068209198818,-0.1323757728194514,0.02340300543667349,-0.01061362993500976,-0.003057066544419966,0.04458620126984445,-0.20190659904557257,-0.1400895771982457,0.06113322039720023,-0.17661566706234266,0.23670018498292222,-0.05219316655367344,-0.020165051595149714,-0.24350241312775844,-0.26372981032292125,-0.001070299815827572,-0.2430204158165624,0.23798830927397024,0.19255840628850968,0.2307812684314593,-0.0913300421896433,-0.12447713885807155,-0.20847534115571772,-0.19203159824697827,-0.016983537549758548,-0.16560028151365686,0.14870253212087137,-0.2369602392276653,-0.22606653237189295,-0.16266018296414297,-0.009492351999124578,-0.11027670193404109,0.15599823458185638,0.0747431165751097,0.15644291828311685,-0.00961747778141895,0.1854700555182594,-0.10436151650021327,-0.05571008838987776,0.25282476410610505,0.020426741682288606,-0.2610770349206211],[0.14156706827760152,0.05093009886039277,-0.22853064881714977,0.19326839441810506,0.11493502194859741,0.014954932376908845,-0.1236101905807228,-0.3245330720580183,-0.041483268813568085,0.08398490540401995,0.18370711624465805,0.2484905313345219,0.24719137250307605,0.10461268298287214,0.18548568855230216,0.06697090201148886,0.2578966503240621,-0.16698037991834894,0.22859752966637314,0.22714913223232042,-0.343066971661352,0.12543129165539169,0.2552413687991975,-0.08230236071400807,0.26741006029171727,0.040777891985548174,-0.09978792223289937,-0.014358557905667257,0.1918230404455129,-0.2286970994111832,0.06727583898316311,0.08252551449379616,-0.18770120846777155,-0.08974479255435934,0.040375436142102546,-0.10835274097851795,-0.08971857525415379,-0.20549011658576719,-0.21802296616477215,0.02091890259214516,-0.20875999632593506,-0.1060916134493559,0.3819064528348228,-0.06534277187311217,0.12490287356135,0.17210211385382487,-0.1443830127941489,0.05270430232596855,0.21985993797258635,0.014619336004051367,-0.21863899199462244,-0.11048525155958938,-0.19964369160844764,0.21570285132175812,0.0431588467210567,-0.03339547676984433,-0.2999888143073955,0.23033663180987615,0.047889226960041005,-0.25034820317485657,-0.17295938256298551,0.18189668457042862,0.128414278230828,0.2751458531994759,-0.16469990670525061,0.09942180905349676,0.23452263120702233,0.012197535676824882,-0.21772022905609642,0.22587968860825242,0.06755935975975413,0.15637600766173482,-0.21082736625600876,0.1018016180722089,-0.18245850254962945,-0.2273782829674803,0.10531472335868093,-0.20260280061518776,0.12178047298942728,-0.17417128118181321,-0.11894734423026725,0.3163967216741659,0.038962987802960106,-0.09669877342437147,-0.10836825926422779,0.2462022768124813,0.2792288734446204,0.17933217547729619,0.2241734997843901,0.34209541189211523,-0.24663161643844517,0.06012340915669216,-0.1651046873937088,0.10682502215752623,-0.04264119435429579,0.2011349180036672,0.2215482437736305,-0.11356585190142285,0.00014294625444775542,-0.27797689179091617],[0.032450772980371474,-0.042645692084426985,0.13847994624504098,-0.1649959494191982,-0.07523077961405787,0.16055493755703631,0.24229616075547722,-0.06259440309193016,0.17280610967010962,-0.1620182958078266,-0.26338681584892726,0.07189314802152244,-0.1358813236125115,0.07036639953800664,-0.14150775477570063,0.10096400347627613,-0.18795948153449246,0.06804384761497169,-0.24572698054827208,0.1854199314940639,-0.0028862269107497074,0.06356882637731756,0.19769163743561025,0.03026337653478356,0.22732071077379695,-0.015310926527849659,0.2382563443502128,-0.06182996305672144,-0.07923035549425783,-0.1994673693938895,-0.010673168042776293,0.2585301065880819,0.22011771683578019,0.24534501938398864,0.26050263770360066,-0.26335361650631595,-0.019678635336469425,-0.05703072874305537,0.10410772289712253,-0.1375786918162604,0.12287884255502284,0.011718834810413083,-0.1988783453036527,-0.22365081284442062,-0.07231616858979284,0.09880186429802194,-0.06685132203069158,-0.14672687200918794,0.15862631437534916,0.02453833792913366,-0.1993985192030149,0.10078077849554609,-0.08915235884173678,0.09313168775499506,-0.23348217925183995,0.12814810738760046,-0.12170441000894136,-0.24419801496285526,0.22220989144291411,-0.03902739227309209,-0.21081227388629245,0.10327775897822279,0.18767472898941684,-0.10829157069349235,-0.18871191738131313,0.1999930992968478,0.2594352865675241,-0.19367606390528422,-0.10173076555014512,0.12161611200247256,0.12654236726198073,0.24761583097786738,-0.09862189756065239,-0.18440704793722515,0.11586685518152626,0.02015944587244031,0.14257930989528184,0.2079556895449603,0.1761803652773877,0.23927151465187974,0.003929307157586054,-0.005190952357829814,-0.088155946038674,-0.10297736641095671,-0.24145963285794306,0.0071839584212366955,0.0835632578219752,0.1459174043465592,-0.053648189650426205,0.1383802521262694,0.23598307086996861,-0.059165176958897406,-0.2084871099924821,-0.13653044999063627,-0.0661349584185561,-0.18797364501647548,0.1542860697117926,-0.15790844617033817,-0.1846707513202908,0.07243463428799844],[-0.20027090795832256,0.16809677334199447,0.07024059728404293,-0.18957154701436119,-0.15706806813504212,0.14834643449067295,0.22018103714283782,-0.2505194576889978,0.014563351789195099,-0.06475337631071937,-0.14736875168170033,-0.24945862692490894,0.060247695810981224,-0.005921607648905713,0.2509738902509459,0.15775658052130573,0.04669935021924053,-0.05917524024239281,-0.1234669465213466,-0.13252376592794146,0.28529602438865054,-0.26868490276439866,-0.2687725802808563,0.24212887508683972,0.03296340883711034,0.11760969213332535,-0.08101479257872324,0.04668952911160113,-0.02482064042538365,0.2065292233957775,0.246531469888155,-0.029886225384321306,-0.04268565631237405,0.07351155691183833,0.23553549409558747,-0.05212261000022757,0.16691262954232153,0.13162708559611502,0.1776990908728349,0.06124474157078474,-0.07819255223972237,-0.0662336929900987,-0.16854471559817313,-0.07812741412226216,-0.07256125880696,-0.2566865372369831,-0.18998001651119872,-0.09215061967372463,0.27746119825083115,0.11183757713382725,-0.14753183362411765,0.006826937707902195,0.21338467490153304,-0.23783364308274993,-0.06431979889902409,0.2229120359207538,0.2187621746850236,-0.1281384338196386,-0.004106831750897381,-0.13613147804846595,0.19610366092033782,0.25409735552949964,0.01253488712085119,0.2717126528380772,0.023193255514817854,-0.19678951184988921,-0.16800605170974048,0.23121170056832205,0.2075530407505047,-0.0415307006892374,0.04323705909908361,0.2242051261611934,-0.08121273208054994,-0.18045420667205475,0.04666104226165324,0.007660135378468902,-0.15338438215805317,-0.22835457918614324,0.240334369904495,-0.001985663528166912,-0.19231613939239217,-0.22156556737648278,-0.1142714723391281,0.07751508809817244,0.0017681705640381084,0.02298569110576197,0.09903963049826249,-0.08146037476053941,0.0920543591335579,-0.027500762888560813,-0.2209513081820005,-0.10341475456819156,-0.24147922052145632,-0.19136935823618473,0.12232061238779045,0.01967082580641352,0.016962487649224464,-0.05684630647947297,-0.09472162019409688,0.10627253929145705],[0.03141498679158294,0.057327512038879244,0.015682594417922538,-0.1248840224270328,-0.12339120372960584,-0.09590828510592901,-0.0025933987913420616,-0.19527401679788894,0.05707753697379816,-0.03245298222079702,0.15469882231331047,-0.02826591140919486,-0.11239256477911033,0.1662706970296858,-0.21397165983715213,0.015266077912288742,0.1883730180780774,-0.13597532121459904,0.0828578702375928,-0.26627969632965853,0.1039079673285475,-0.24293603741615,-0.07219556726779315,-0.1792247090693564,0.1856770439088528,0.02640261512638489,0.15027463266879962,0.0876991420950588,-0.18269034132026568,0.2565254586705927,-0.11828081172298734,0.17822729515852032,-0.03882171043391617,0.24383485445381045,0.11869261104927596,-0.05101105471958105,-0.22341260244185654,0.08748316062206944,0.23964560362482534,0.2133232951317982,-0.21411416490549418,-0.15544818174589786,0.16709169754129496,-0.04072450142804765,0.15778118660070697,-0.23725103343453652,-0.23110114654190156,-0.20072988442638492,-0.013492977130355044,0.14056869403578562,-0.0062654810749914825,-0.14719349839385154,0.012000044776630794,-0.0029685026535597758,-0.03351378106968796,-0.1819419572060972,-0.025404331762289744,0.03542721537672911,0.16871551104315055,0.21235352862547888,0.10410107439903879,0.16426341528770463,0.171967298201975,-0.24786692279307063,0.1864912068283887,-0.01957797862743683,-0.21741469401651867,-0.18465911270024243,-0.025520365764775482,0.1472250031480899,-0.05295515165620785,-0.06487169828706318,0.08454141123601201,0.009633988263429986,-0.18533599663773107,0.04796696358072661,0.036536835542822506,-0.11301944120535783,0.017487584504866413,0.2413463649459809,0.1033646481691726,-0.18725758990377056,-0.23927984876557198,0.15785222712294347,-0.2548045324182944,-0.05512740469477366,-0.12126324665212027,0.2445576869971575,0.04832367565960226,0.08988318074473388,0.16073912377776187,-0.26047538944487464,0.05026539165418236,-0.07446653462927007,0.03754958817827489,-0.22564359862690397,0.16816803292304866,-0.05042427840259692,0.000030932434771013856,0.1620981354989417],[0.04142057954197031,0.0800599289951398,-0.19400969626333328,0.12400545189727791,0.264551216036168,-0.11824928895304426,0.049609229165116696,-0.017743207888536474,-0.06246123347268029,0.25877085656006465,-0.12397452656187191,0.17615897061220526,0.2406772061446686,0.03371457339111892,-0.16551426790388987,-0.11332082400503515,-0.12711060437755545,-0.18568782908908424,0.04518210931951015,0.2666530839187587,0.06336405519860797,-0.06700069031538837,-0.2256776560058523,0.07007244249088376,-0.05986355345999459,-0.21786351499071244,-0.047995811131533506,0.09534304195507248,0.15831594985928393,-0.1954774746912084,0.04509586790347949,0.003059203647400021,-0.26655299169961916,-0.049397862348635725,-0.19181274377143953,-0.05507996844653958,0.012144245979013172,0.2098793103161131,-0.14995589430047537,-0.06462531519459346,-0.0977583404694352,-0.10687526283742604,-0.24870665887942367,0.02636831543044455,-0.07596807614701105,0.2141720884199731,-0.17082259594185015,0.1607162935145253,-0.19555711323556293,-0.197430046875988,-0.06192761038178377,-0.17218134634640095,-0.07347578211775885,0.10854461546421845,0.22330950745745184,-0.24229280655576063,0.030109161653531783,0.25547192392563334,-0.17422016975421842,0.22255022476874545,0.14394004384191675,-0.17796240793003634,0.12772798134721747,0.24104194089244793,-0.20242525980131526,0.21741089360518046,0.15956995026974646,-0.15896535456956112,0.09648038124525768,-0.07972228105935308,0.23213697308879408,-0.21863642466447844,0.13116460363953936,-0.03705648877304859,0.12491351457769138,-0.016277148182754924,0.22412564707251137,-0.20940484937010315,-0.13999994908662566,0.05171325500701495,-0.2281637138447121,0.17054849463257515,-0.13858615768966298,0.2516848439268696,-0.08354616859989383,0.0442014627746713,-0.227623273145576,0.05195203180834682,0.20958253176350186,0.09362777507998805,-0.15600332140393292,0.2516079544561501,0.22424476613680155,0.26051145797717923,0.09338734903790735,0.08275675575498229,0.09158086047002076,-0.18154649735048298,0.12474203964204088,-0.26177837666969156],[0.07526591767846227,0.1101887001191448,0.2558148775162788,-0.1981508802811056,-0.24903811872887918,-0.25471431625124435,0.09485692862788851,-0.22856173962253787,0.06646839294510533,-0.2637520770231774,0.1873707938650152,-0.0014406150868622788,-0.14756175452138967,0.2688026458980912,0.07690775389614037,-0.10663294480210933,0.05682824429659441,0.0563300122194095,0.06129577150450877,-0.11644708556452828,-0.08744073616609646,-0.027609336236153137,-0.07521597484818081,-0.2364704096763319,-0.1380302396346626,0.12478343416298053,-0.009566359260133182,-0.06137279493660828,-0.12093935852711936,0.07281793811583011,0.18055642458607982,0.04162418062264347,-0.24622560370109053,-0.0500176393511274,-0.2532249593220204,-0.09086031674548159,-0.02772212370239816,-0.06918637312367937,-0.16720465850541497,0.159582038128904,0.2665986061871909,-0.15007606018592587,0.2536477230388775,-0.09694166255669276,-0.17049724932592936,-0.034282474025979316,-0.18752104502870715,0.00729371450375527,-0.11027298727732278,-0.1593156632546914,0.008758245680839704,0.07142991649364949,0.16309302568122538,0.0016185927492207237,-0.0012228038041112524,-0.14002163267326048,-0.25509071989920445,-0.07998209703533538,-0.08749105741084826,-0.2257070869082723,0.21029572327904908,-0.2661578607841155,0.00015416841991211817,-0.1945512464020656,-0.2683756664805597,-0.1360698278999115,0.21685646660339145,0.044277865367953334,-0.07098735729712524,-0.12940977153607525,0.10391198194434761,-0.10273186043287805,0.19948749441400554,-0.08553326718966021,-0.17769648340880315,0.26800625906028835,0.062126826980017924,-0.24292611430501967,-0.05917506680831185,-0.25584513238761997,0.06964971562328537,0.13527169141519363,-0.18056646430049933,0.07939988775807527,-0.25076623222396416,0.2198167065769747,0.05298570427567544,0.18924343578563854,0.19638500601140393,-0.05254438901821864,-0.0587150161934862,0.0692439835561488,0.126294839299259,0.039838204284579196,0.12346735187781098,-0.14958502133807747,-0.19868937277367718,-0.19061033007574363,-0.011881807614921072,-0.2089923448092073],[0.1496861256118341,0.05107076534987185,-0.1842943992663112,0.022786336235100135,0.08364390094683481,0.23058266484422127,0.30313219185667073,0.33633402140943774,-0.21746325575659833,-0.026028460111074583,-0.19538916953944854,-0.1840416150388484,0.05752796723038377,0.19284272492024135,0.19770706833188376,0.1900683842607421,0.2936068041719254,-0.04107807319597842,0.08510045288669069,-0.07963796285059772,0.1390384875581941,0.09151411640566143,0.1279977416263235,-0.015470169030450547,0.13985816521511119,0.0946703569817362,0.26466791530568057,0.017283788039619358,0.32199554940025565,-0.25511609820248504,-0.03949161364310568,0.2255080880377099,0.12288582346025083,0.17021444469654806,-0.08364273468847493,-0.16541576115114676,-0.18883207762930038,0.2871674227596034,-0.2460511643725796,-0.17873254442951167,-0.10656996061800221,0.10902948067110615,-0.2832171754063274,0.04855907438223896,-0.07852534002626513,-0.01141644802209524,0.18766238293359258,-0.013675350906957361,0.004573258666699081,0.18420066314579536,0.31368931798747896,0.11830756582740587,-0.22201660593012398,0.18957071196809974,-0.2593358097696324,0.32829754348603574,-0.0749527130382363,-0.09615952656627293,-0.0902594468539071,0.08083767557532208,-0.13608408841003988,0.09313142613759026,-0.21183762157129032,0.15073121904548759,-0.11324984495345838,0.1730537057312686,-0.21733322205717134,-0.009737845636510138,0.12148714164578149,0.19800811097917084,-0.16786806007244526,0.11329049253771176,0.2640545347337261,-0.1511301516308503,0.3135697037330591,0.23107168187060115,0.14421649894579758,0.3162534992113703,-0.14287854632286515,0.005944001833374118,-0.1380966340495881,-0.17002523899680805,-0.060530179868484926,0.18208286901463155,0.04344327340143318,0.1333080589847669,-0.11651757171364896,0.17547074975759586,-0.04787786864044815,-0.03239975296049654,-0.1644393508660349,0.3568493880276009,-0.04075948608302468,-0.21810517423268586,-0.03494770637641851,-0.1930739277592937,0.2328545532472381,-0.2111218813421763,-0.22885853936183662,0.016741372264077285],[0.012473226680258178,0.06213349071849282,-0.07897443448552112,-0.17100834034766424,-0.1267350295142859,-0.11892533861745049,0.03516419811342924,0.08794935779634613,0.09391301585070116,-0.17927004907705138,0.025900783164980012,0.15147526982596446,0.08310418388398765,-0.25719445625981857,-0.06131178767072368,0.06209139916670137,-0.1237299055211972,0.18355056177395476,-0.22840395405019218,0.12160486532063405,-0.15474618790294367,0.22543892414612127,-0.14426155007809624,-0.07035158096757592,-0.2278630773596851,0.004237587470204992,-0.09843921471440686,0.08449884196495044,0.20651254099150926,0.1268620487525382,0.11341500114812597,-0.05404992141346315,-0.08668303099317147,-0.012104086372675424,-0.1618605200056675,0.07320940710907047,0.14492156395091635,-0.03683817605475332,0.2314311376307957,0.2294185430167728,0.16003589879126395,-0.21178221092562757,-0.03333763165066099,-0.21859340246446277,-0.1166514996837976,0.04109853379838761,0.22026687871714934,0.08619119242623681,-0.06350291080319377,0.06476791586316602,-0.08617041632716277,0.2127556277489836,0.04317379596538069,-0.10913492483537032,0.23335248402766956,0.17940620827048878,0.15636465577189845,-0.2091304041881058,0.0012008360334670222,-0.1613493053120892,-0.13356076482212093,-0.12109994808682949,-0.1969069775685555,0.008445730068184413,0.2291896047550897,0.2079474659450884,0.09493306976671874,