{"dimensions":[4],"layers":[{"type":"relu","size":10,"weights":{"W":[[-0.44923874883368536,0.20954709930752866,-0.8055814931911651,-0.2353092252566918],[0.7498099817840455,0.6534722525929835,0.6472910998147033,0.81976996776554],[-0.8182708922746498,-0.5089689230899537,0.13077550213390002,0.4939391592686291],[0.7072155767802736,1.7194478663363955,-1.1965684015611595,-1.11446814167844],[1.3436041221199693,0.6369669645708796,-1.4583983054645884,-0.7981908084931182],[0.6545314359862052,-0.47107362896002963,0.9353988552078084,0.8972201802981824],[1.4230488689482386,1.3391003502089673,-0.9587129577436748,0.030404357843153634],[0.11316695323103747,0.2697386603237169,1.1587813040901662,1.2474833069145308],[-0.5355523706513876,0.2803792717770267,0.12025007170905219,0.31500110506795553],[0.21714674452488908,-0.7807046098275364,1.2074740084764863,0.2483557626550577]],"b":[[-6.555229522291605e-54],[-6.49626447417166e-54],[-8.539862086201855e-54],[7.862228770025646e-55],[1.9130143223609853e-54],[2.3653124523107053e-54],[3.1130076331443794e-54],[8.798582541181538e-54],[7.976039707771569e-54],[2.908123583207266e-54]]}},{"type":"relu","size":10,"weights":{"W":[[0.4157962324300579,0.5023389257282249,-0.13890449171574784,1.7928306509484924,1.8334903079619242,0.010504503609839884,1.5165971568772387,-1.1044521665442697,0.12462563400291321,-0.6978737235946264],[0.37248002707397593,-0.8240965632677417,-0.5486894554367489,-0.09972649004406309,0.1509838514196133,0.39193457880576366,-0.43914187869320076,-0.486949888326893,-0.7562287524008832,-0.3623111232219685],[0.08569461054980008,-0.8044609965049775,-0.16436880710485874,0.9855317871786192,0.6713195133568914,-0.4459285857793698,0.8499301927441965,0.46691549641950325,-0.2967218463643113,-1.00264181617099],[-0.4282634454552423,-0.49979737381032363,0.018403685760085626,0.8332114717774831,-0.050014016926759663,-0.21632416496335272,1.0238518420941742,-0.32893064234976804,0.5634581005414111,-0.44928687483567004],[0.6908967593627834,0.3175731649809321,0.37504607459058087,-0.8206891663088266,-0.6752449075709641,-0.5138978135653891,-0.6747692034296334,0.21018024066058383,0.29205374774819065,-0.6853023531615076],[-0.06206601403700935,0.6870664341551452,0.4657435573468934,0.3803946446539668,0.963542730000559,-0.23351882706967053,-0.15404947293779528,-0.7589928124943217,0.5124541389141334,-0.48083722541500035],[-0.8123171278524542,1.1890312037390693,0.2717509864185739,-1.4911697389139968,-0.4952451881109053,1.3646163190446758,-0.4412975045445799,1.044035115366038,0.3386279122994881,0.6634247095203305],[-0.6529847936038363,0.919455442016289,-0.7096074654276194,-0.3768141511905817,0.720173686910653,-0.17135530783302838,0.4823482171655509,0.21093210806296028,-0.019373209594235507,-0.5658250648450435],[-0.24768520075833342,-0.5884926986686162,0.3072150660025135,-0.306404979302791,0.06401141443246644,-0.7058141399796015,0.20981141001528314,-0.5250237782040588,-0.4641891310326109,0.06348816235640246],[-0.6341773405497388,-0.43822616654099367,0.7873420369588582,-0.7684107167701112,0.3131127233547473,-0.3050456177162752,0.08837208502753033,-0.056157388881095956,-0.47286948674722407,0.5455798561724347]],"b":[[8.266313612159128e-54],[2.1383151447114297e-54],[2.342492698342724e-54],[7.782562874379711e-54],[4.1553960093872813e-54],[-5.606555313810051e-54],[-4.076964799773074e-54],[1.5321208919367795e-54],[-5.81659758210173e-54],[1.8582363446406374e-54]]}},{"type":"logistic","size":3,"weights":{"W":[[1.148312140414074,-0.3252911754403927,-0.01907833859036251,0.4290375672321395,-0.556791894244562,0.5425554564863587,-2.2106952390162835,-0.22225188343123656,0.2065402986099951,0.6426319302087712],[0.6167401815034579,-0.8251710958919296,-1.644924758112437,-0.7875004135503207,-0.08174617254562115,-0.7809806379633708,-0.1679847612216046,-0.3818359700142501,0.0754828474360795,-0.03579264098726298],[-2.606369836599258,0.015677461347651606,-0.5244149099579882,0.6985781154304336,-0.5260705531678647,0.5761655309703834,1.191320222680267,-0.876699773095955,-0.46754077102630553,-0.12432713811026715]],"b":[[-1.609141256718082e-54],[5.926687761017867e-54],[3.764134498955421e-54]]}}]}