{"dimensions":[4],"layers":[{"type":"relu","size":10,"weights":{"W":[[0.16849579260005781,-0.9887177940906053,1.7593269961667726,0.9906040769356023],[1.1253360590883605,1.549257002145092,-0.5251406843144346,-1.3312205725109887],[-0.6229037286624288,0.3331950047474569,0.4590638649320317,-0.7461336762807953],[-0.13306643244213978,0.502749450326724,0.06953362616184093,1.1061115456908328],[-0.05670316827750631,-0.5010704914990417,-0.054507537604010614,0.3176611947513966],[-0.6003589616936535,-0.9271242854270665,2.5309114920164744,1.546237687777249],[1.8360465054472355,1.1640015250827376,-1.782831303578775,-1.6450602158737417],[-0.7671522813311141,-1.171030963819504,0.528942406732173,0.7701137826571074],[0.8692442016020705,0.5025139113069159,0.4584808597293372,0.7435196806299433],[-0.37482869056357776,-0.07667092326653799,-0.06792462722722528,-0.39190755465302196]],"b":[[-4.672578433287473e-54],[2.9126258784894914e-54],[1.6970757088713033e-54],[7.53272235399935e-54],[5.523373910707814e-54],[5.956751965005128e-54],[-8.328848018470956e-55],[6.83604707129971e-54],[1.0179168001511686e-53],[1.5654281033751763e-54]]}},{"type":"relu","size":10,"weights":{"W":[[0.4530622632206315,-0.22856112759485703,-0.08401654025483413,0.2885282995008407,0.5140387912131633,-0.22916063195174272,0.8109961932179651,0.014920994023930507,-0.5540988964999243,-0.11723212830110469],[0.29898061595904807,-0.7037361960543937,0.3240708965108686,0.8461032789675101,0.5819467576193376,1.2893305633597008,-1.8117575126061025,0.6650436692121114,-0.18080272797790678,0.44473029066738334],[-0.7399027936439246,1.3005746579804036,-0.28767647360487464,0.12427164328531107,0.06984821684991704,-1.1097670246969098,0.9397485493757228,-0.5738394226851575,0.5236600090724571,-0.6493880251017065],[0.9349343325243437,-0.29774485074858975,0.6899789597020837,-0.5021336557830927,0.6199151819765,1.5294027899557427,-0.0691212009927603,-0.5315720994501076,0.6432501638030841,-0.5017802977593429],[-0.2726724788464976,0.8318118758004677,0.41648853946120334,-0.3965877994735118,0.46165093038256166,0.27089232234125826,0.9982868227377134,-0.48695426196357217,-0.07700462892238248,-0.18819562889351407],[-1.3808809150006753,1.0700079382457903,0.8019792813275093,-0.4570785392545044,0.09193502818668985,-2.1751803674567944,1.6795958864441731,-0.5280899796706796,-0.14424067275341135,0.4719843953011786],[-1.0625069144387589,0.5255377778295144,-0.33876593091575186,0.5811124765545691,-0.09844724470506472,-0.618826677565118,0.5698451225624431,-0.2541995921803706,-0.5233642873366104,-0.6042209465888478],[-0.5367155116991916,-0.9253114686078923,-0.6497329955856672,0.43128355886725056,0.32431846028905814,0.5022525083232448,-0.46848646700746954,-0.48519563374450214,-0.39646634768396266,-0.6796914301546682],[-0.18786093979713386,0.9915574731041096,-0.6422552676454321,-0.6110595206909291,0.7631218737030843,0.5699228031742118,0.4694428669198069,-0.0005118854254857254,0.5427681711834573,0.36409296574559896],[0.20146493457487688,0.1995861000070995,-0.011673611302051305,0.2421117186495901,-0.5842648279634222,-1.1523055485935614,0.28936451576430877,0.38558546972238017,-0.7749319610436878,-0.6028043458877678]],"b":[[9.780548460399894e-54],[5.1768387415179264e-54],[5.42843733529785e-54],[-4.3521613752284305e-54],[-6.871423804863966e-54],[-5.324925131609231e-54],[-8.866795788241287e-55],[-8.84028520048425e-54],[1.0203225341166116e-53],[6.203985187045851e-54]]}},{"type":"logistic","size":3,"weights":{"W":[[-0.3282939578266346,-0.2588858772421737,-0.054946403267506674,-1.7269212458165888,-0.6795828594387823,1.7859576306746123,1.3540897100923235,0.44143396957840725,-0.11348298083969426,0.2974068911233629],[0.1185782669485284,-2.0424674286865585,0.5500537937970725,-0.012713261836955916,0.9711484111368938,-1.7055229265330483,-1.2878939832385008,-0.4434234960099001,-0.17288961961874552,0.2169081449358443],[-0.41446073410302586,1.5303399817424845,-1.9679743921735127,0.8119038034946141,-0.9952619823254916,-1.0309534671579665,-0.3434777100404075,0.2603133299000923,-0.8058366793852763,-0.005299220007502237]],"b":[[-5.135269132858978e-55],[6.525236283184342e-54],[8.685500476606971e-54]]}}]}