{"dimensions":[400],"layers":[{"type":"relu","size":100,"weights":{"W":[[-0.15877102395014173,0.09997506016096645,0.04996209089558675,0.22742686143929694,-0.00031961490086946536,-0.057998522026160404,0.19069013932462311,0.18756133407710793,-0.17260371905077207,0.2398958981169144,0.2443238179295067,0.06379351046397629,-0.08990756866246974,0.1850755966813285,-0.2173522488926611,0.21557053059581188,0.2024207814542307,0.0949050671342346,0.2237202718366933,-0.24603726963171843,-0.038474383420345495,0.11389878101034792,0.00014719623773220425,-0.07906171798646389,-0.058615156621449796,-0.18668096074911725,-0.10367006430368006,-0.14231869405500364,0.0402039107448518,-0.0387380883310721,-0.24569054957713957,-0.12643319959489474,-0.0030700333461536537,0.1272970673228097,0.17053371847554402,0.23479531796923397,0.2203102139248271,0.16874669689354593,-0.0013000994858037471,-0.007708194430964125,-0.02513894589411395,-0.15701804603723127,-0.017729504359571324,0.17878823568794971,-0.02001315672852262,-0.13432569730994942,-0.019120832547202433,0.1817954158474075,0.04068779892910247,0.06436682164995584,0.05181580920933525,0.2519542736723514,-0.033763983128868524,-0.2432236521491798,-0.24571671474564905,0.25142190198347847,0.24321709378666134,0.1569632575005739,0.16670429932351216,0.08507578119241406,-0.22376698519541668,-0.06151299770138855,-0.08364908373523774,-0.16647287278589204,0.004312467729585137,-0.08836318861904129,0.09358509681530831,0.1914075528659482,-0.2574033921079856,0.0569828470174812,-0.03174543708218105,-0.124314772265516,-0.08074259007560514,-0.05779744629326449,0.2271966644975896,0.14448175247083514,-0.13731997050428513,-0.17030846201220412,0.2218618580734437,0.13749728762504582,-0.21136490000380945,-0.07276242005036372,0.22108244549728606,-0.019460636799297742,0.15403351764915013,0.06290032147395883,0.16837923220178683,-0.18357496330251524,-0.020665053199706657,-0.2331348446671392,0.22104059446720986,-0.14464290757693307,-0.005711715236459239,-0.20757123088418453,-0.09276122732598431,-0.15334954184868774,0.2547888033348097,-0.011740562857149427,-0.027425995031944542,0.2452928983522756,0.0792460299063341,-0.23700887577609334,0.10528457112780362,-0.014112689877790142,0.2073425493429746,0.057635385498626616,0.13307989848285237,0.25439652122481743,-0.16177606526360563,-0.2514611729711615,-0.24219313962740338,0.09523288570180355,-0.12363256033048337,-0.08441623591734765,0.23168220755430058,0.24566240486048102,0.21667624369381516,0.14071573289541858,0.23211602882801283,-0.11275210821123356,-0.12606009452565295,0.2545545035856961,-0.16065576065779255,-0.24088688374447337,-0.21689983952541286,-0.02598699504219982,-0.08620216325130138,-0.14632376838765704,-0.23757862985489936,0.13067944605337817,0.06278532893713434,0.08701811148025314,-0.1460874768767461,0.05181022837944711,-0.21959907698965672,0.2130787862095992,-0.078971658685695,0.06505507523437762,-0.2246365127901255,-0.2306218608240889,0.03793326412500598,-0.05168869153714351,0.25434076999024147,-0.25145274306976745,0.051262595160179746,0.132245508784618,0.145116882603891,-0.2214399871247777,-0.15241740433799925,-0.24267805667325926,0.12215602239498012,0.2433839457307742,0.18627306518426442,-0.20645595573285677,0.022951568802018776,-0.15820362574295538,-0.22693969208626533,-0.03798214484665989,0.15132828656143996,-0.14246486652443333,-0.11799354124410259,0.19373552619898435,-0.15528426599274964,0.10465477611149412,0.17946918468322606,-0.038177226936588045,0.25143295219815837,-0.2562561149685674,-0.17291195722225963,-0.09527306170759764,0.14487529439547245,-0.07178893540588464,-0.12696491355557343,-0.2561700437818239,0.19574964129129707,-0.20616975599940884,-0.04353536904186716,-0.04724061884019107,0.05009820436943859,0.19728324373952574,-0.0444813815857895,-0.19041332630842708,-0.08690205527550265,-0.24683939265727917,-0.03068604143687792,0.0835306287021251,-0.23328094354426154,0.012683205084090732,-0.1993947578525095,0.17631654857631693,-0.16058683105833582,-0.09225162788437487,-0.10067386958776495,0.06284489791248316,0.20494601272974605,-0.019678239305981123,0.0619386803493806,-0.11688165006052566,0.19023765752850838,-0.07132898152515459,-0.18144915723129526,0.1675046917486454,-0.17929469546903265,-0.15992319652604667,0.05934291727410866,0.046098115951847915,-0.02024546764044379,-0.015244685250215006,-0.01568671503412102,0.002380730583831789,-0.20868740589353915,-0.20678209329519304,0.1318256380879548,0.15349810927890795,0.03347275336033207,0.009016239470580872,0.10551042127077608,-0.015804626893059736,-0.08484667809293917,-0.15823934278645763,-0.23204994323919356,-0.009284883052775488,-0.1909618044698868,-0.035500192349892976,0.0837340148990915,-0.18945722343537535,0.15032182019744056,-0.20145643056795487,-0.01979000305664693,-0.1629773118796645,0.2533008382426789,0.016555768418625695,0.23454083457530986,0.015679408222283236,0.19373824015660146,0.17364249924639147,0.23182094441312262,-0.1723477084424074,-0.16544640977470124,0.0672778490496689,-0.08267760602684893,-0.01526157543573749,0.03128798081303977,0.04843340202749089,-0.04456160241709155,0.18472645795240988,-0.10710626900001984,0.23461225871608346,-0.0023238906422739496,0.10327157261645048,-0.15825531306153146,0.0299397574148173,0.04825317811215899,0.020921753741371642,-0.1611916697393577,0.2294803253926704,-0.02777408211978994,-0.13418589476889428,-0.007451660522430101,0.18045709063816465,-0.04226272724760824,-0.06869786313874868,-0.08512877839180402,0.20495487059103135,-0.20484260323853012,0.17196153939005368,-0.15105041276620548,-0.2556872988813457,0.15629413635567518,-0.25619366771980473,-0.051673426010856824,-0.25765867170538026,-0.05315872226765793,0.17297984627236118,-0.1406782991043436,0.080859609451831,0.24128256818709284,0.1824220812929823,-0.24736142829407737,-0.21156837373158624,-0.025319652939038647,-0.25437427062284096,-0.1352544387438503,-0.11450127195678525,0.24745983286751624,-0.10069672313008465,0.23139231634161975,-0.1844403807891531,-0.046032911198762044,-0.12593023299858114,0.25713555915240704,-0.1512631295013317,0.24398250630984863,-0.1744810291999135,-0.1624640005301349,0.0669730818766213,0.1511635832659222,0.1272495082763382,-0.23707068191805375,0.18221135821192178,-0.2543829345509568,-0.05708571037580186,-0.11074682680829054,-0.020544695772566603,-0.1072948309410299,-0.053714986802344274,0.18050611032581979,0.16967934174363658,-0.09058427177116127,-0.025894084424878026,-0.0014087486181170428,0.07538102887773483,0.11151583839266137,-0.0039202884406757225,-0.0578270175142424,0.2240796639618713,0.09330902919011502,0.0802445660382857,0.006559776166635899,-0.2298925495950748,0.09740857893364709,-0.16960831104617566,0.20993934793990265,-0.24926388921073384,-0.24348347107535806,-0.010381294584471457,0.1572828104399765,-0.19866713241814052,-0.09084514876227345,-0.04794666580437092,-0.03653657848608437,-0.1030658152743266,-0.24206851971616064,-0.2361167002323056,0.136783209858094,0.03139199329815687,-0.25293746237314274,0.16355884379103133,0.0675042091624302,-0.05806125349588714,-0.16653852060549332,-0.20519349164350226,-0.14341168334454746,0.11531703050939905,0.12787121011625285,-0.1352363232463784,-0.0028404707740207072,-0.20866167633884614,0.0798168963619535,-0.24531023729525486,-0.14731212007361377,0.08893562962757476,-0.14843941517494888,-0.17415796886725537,0.20221985541483634,0.08212213664732401,-0.1433969290180485,0.047059122449930185,-0.24317976573530348,-0.1366148681289532,-0.0616780774936616,-0.062308882713831525,0.24347119796919214,0.19226226589979473,-0.1811528108068017,0.15619221214018258,-0.25536687480499076,0.03663886879057474,-0.19471046263454522,-0.1397013682431704,-0.05455552238558419,-0.1810775919087826,-0.19838740539307975,0.1291704793744274,0.24730167683360643,0.16157296882266703,-0.20527195725758635,0.15090736507673855,0.21327846199575243,0.048255184069795544,-0.06916551000740653,-0.06518008524621142,0.17839997207834388,0.12650483969395532,0.06030093119699292,0.14301161790236228,0.09265221212750821,0.22307473668874533,0.12156087461240528,-0.13621797648684728,-0.21240614211065822,-0.043905794086436176,0.10242978443299955,-0.1267126101189372,-0.00004797719038610346,-0.1358103721903693,-0.20028220240082129,0.20523756447576,0.2526663657222173,0.10256949432192576],[-0.13759272621782098,-0.1738730512184916,0.057878986536041115,0.21678462204895063,-0.1164795966785708,0.23965148973355924,0.055407480158282015,-0.1264604405119461,0.2253336332096082,0.19519179520545565,-0.05808446707090476,0.06521026766519131,-0.03664280991275838,-0.07338440133790249,0.13613726334220097,0.08070115289727238,-0.1598689879947608,0.025994547539346477,-0.1865799762117121,0.03018567202282883,0.1924280033395256,0.03782332596473527,0.11491700237134175,-0.1478757688612065,-0.13891963555536838,-0.1332721925059286,0.10400033278284697,-0.23195120410653347,0.04404553849916952,0.06986511120881764,0.08093987460670854,-0.1572257452626088,0.07901368346391455,-0.04689339426985057,0.1473493216785794,0.25747481125214805,0.21551165517548634,0.17230356833996574,0.09800666545226172,0.12359266910879439,-0.1666591215059985,-0.23469453641786966,-0.23029561909908763,-0.24860158532117532,0.18933684037125145,0.22506510518121758,-0.05500024989634496,0.011830775528416883,0.17760072180482597,-0.07818597388948981,0.1097108873358503,-0.040705379919537155,-0.09716544973488322,0.10216216734361536,-0.08671281311412055,-0.008470033401462195,-0.23283409715830744,0.2099113722590885,-0.16966688238491476,-0.0677000725011161,0.08189314302867656,0.11724965043455485,0.25371366372786786,0.14599568154939277,0.12156207888389016,0.01895333248290027,0.20951885757136673,0.20481469717583736,-0.2109721327375232,-0.014500366424737808,-0.0022486189769591026,0.06742052617983904,0.0578610952600698,0.11339098103721662,-0.050671446964540526,0.2439820102470536,0.21378237573382428,0.2305988492969067,0.1791629022083488,-0.149685575533964,-0.04864819249855931,-0.003972937202555126,0.037927777816871705,-0.15294786822021178,-0.004402959213364386,0.22104861056615402,-0.021128128416002763,0.11237274711339192,-0.08982600773547747,0.13832673081975125,-0.15282320054078147,0.08958114170293686,-0.05429662521286436,0.11438355063687355,0.07218240815109442,0.008035421257356417,0.023454565459764442,0.2073323039015622,0.001357119973727263,-0.17304061566908244,0.21508962693796435,0.03331187671728697,-0.23383564944976473,0.013534518197427363,-0.0675941122674145,0.06587331916992725,0.012335932263742432,0.09286093196743042,0.13302931025424697,0.16417776979967708,0.09414361775499001,0.23548601676746783,-0.014351102171392979,-0.03314282188513131,0.06719797861804219,-0.12742618175344178,-0.16376548318947895,0.20053673573526862,-0.12870823914087376,0.21246505422888481,-0.1726744500829134,0.1604520446944523,0.18981272085691597,-0.1815079806338762,-0.05576452385230695,0.1065505958338659,0.0246548803849141,-0.11659507546187754,0.08516543454771372,0.021207528039367752,-0.14764594672015907,0.22722572415678907,0.07884839665671911,0.257801598717081,-0.04416434126206916,0.1515771981585812,0.24143522577992446,-0.13253065478007092,0.1630631872507658,0.09907022783620222,-0.05736642460210252,0.10376494199518085,-0.12347800885515656,0.16948845238657545,0.2170245600405601,0.02678926042451108,-0.13544771149237242,0.25793112632623677,0.07016970330573383,-0.25679571046962607,-0.08661960732854274,0.035404415341695895,0.1168887483775957,-0.22410455221170875,-0.06952477083431755,-0.15358928812142875,-0.20952931727022062,0.18311687862281964,-0.10594848747555248,0.18144052441824288,-0.12724848182703977,0.20396775452611285,0.04319860058665078,0.20711077936752112,-0.1251528048893868,-0.21267829987746775,-0.006022984489538292,0.0754280011206809,0.16492771963885558,0.11942163566608667,-0.14187766028750662,-0.06730179235688222,0.042808150159939794,-0.07661962186604113,-0.11339097747750054,-0.1587126067284966,0.06280004804557789,-0.010088123032011603,0.09394717055370791,-0.06363362125576934,-0.1988779637493621,-0.030927949813944106,0.10534242747278214,-0.08324863822069963,0.24241194652834527,-0.04685353220204987,-0.2142457216148339,-0.15266556906913267,-0.20111127678064883,0.04381063461948571,-0.1659528551939331,0.14357565729922925,-0.2382704377784536,-0.19214373602235923,-0.08461698471985334,-0.02654953097162359,0.11837314962977323,-0.17528470392002077,0.07413006798569824,0.15885364641184843,0.1624106106812586,0.13186034407058952,0.09183798501485602,0.15648387841239253,-0.21628683571086202,0.046016520692791475,-0.2080614323808736,-0.03766532450856828,-0.07759884665675344,0.172310972056531,-0.24743178803478078,-0.2353398022645225,-0.19992518994786473,-0.23917979453535704,0.13664805755985182,-0.19969180609014858,-0.05458415197611011,0.16949483309670577,0.2492210620573492,0.07198340338724646,-0.19352473992655936,0.1527032608722508,-0.23035806833877326,-0.0857282557019982,-0.03165710496848544,-0.2520596553424361,0.19157288139749362,-0.22219055240137653,0.22230068328943142,0.25288281497719445,-0.014541420260144418,-0.0012188247386729467,0.1510993962783486,0.16287769483937808,-0.043004114344030286,0.23526887453472442,0.19218621156316346,0.17287922100411499,0.09139978053492875,0.11528585422034714,-0.1732311084613928,0.08263449153329361,0.07925675228154413,0.2265819035502226,-0.029740182613681374,-0.020671312411556696,-0.09136631508728187,0.011956724316363064,-0.03126300282202701,-0.23820873732773895,-0.168757042831503,0.12185618806338529,-0.23264140777455378,-0.13566624469349858,-0.018706358980582524,-0.23418548117865673,0.15164587559199022,-0.0116633355146763,0.20823578413584293,0.14164325622299517,0.18723059556596483,-0.16692708948915125,-0.2307533055089811,-0.2153524565897858,0.2568176680215502,0.07777816169660617,-0.044991066053495676,0.009339585653079498,-0.23657939246608406,0.01784242797776791,-0.1907166777828534,0.03504211196985958,-0.252146151947794,0.10990896577745694,-0.11113887474194738,0.12262532729605952,-0.11469311638380064,-0.02391851264878399,0.14693084144657298,-0.12776864118223483,-0.22857429248613048,-0.2324647321763865,-0.1799210979848274,0.1495578134248716,0.04393240184124631,0.12168634947229798,0.2146629840606023,0.2085363826178146,-0.008686861862443915,-0.0074725736264326876,0.03538492878287339,0.025066579648228567,0.25464534358616403,-0.25025623851423434,-0.042479869527681936,0.22409868025550278,-0.1781613048000187,0.1479735849605297,-0.07519315373083815,0.0383336493645034,-0.008741267778754544,-0.13227433997281587,-0.2568511228772861,0.11074243198339793,-0.08296579539879553,-0.03458014160849995,-0.17066325802700683,-0.2362558643085481,-0.1835108906755121,0.22894336617089012,-0.2575144895510947,0.08075323716226755,0.18230793808259016,0.24451902780955417,0.13062315552782844,0.21283222515315695,-0.1667899102106453,-0.05436777003898067,-0.08282242301979943,0.0738385128038137,0.13194473764861517,0.057516619417405435,-0.1786761221530021,0.018617022618651814,-0.0029376126634279285,0.2101980545615453,-0.15883676446686204,-0.15950810026059223,0.13310029991868833,0.1458083010074435,0.12960314885950128,-0.20030311354217178,0.15313405289564447,0.16016663238325757,0.17762846802700774,-0.05750420336263311,0.008089446890767448,-0.1293213924294261,0.20247275333073328,-0.03179444973344252,0.05607845499424478,0.036489973621923216,0.24342842393866296,-0.22118197384564225,-0.07090440597673583,0.20181041891243834,0.061621653007975896,0.04811091784958344,0.2542803045719479,0.20938731937393085,0.17994968925068042,0.06400663569960235,-0.006175888094077616,-0.2500729193931304,0.17150130692057086,-0.1642915578607214,0.19507419001669543,-0.04552797049839849,0.005063087524373139,-0.22282078440772649,0.11651684428792151,-0.1009582286708086,-0.012599096978002825,-0.09815778382169597,-0.08953185159063226,-0.18022789421332067,-0.11503458566434524,-0.20837224787725925,0.25282817054952655,0.1603601770400259,0.03548859607204037,-0.0117008441200741,-0.2050671709796823,-0.06812072743766537,-0.005918022426157895,0.07195369457042239,-0.00001543065759391459,0.17042086822417996,-0.01569094498403781,0.07027334733444746,0.14580212868882061,-0.031831771712582106,-0.08914588303823277,-0.07137768702663522,0.2101272265113184,-0.15186471680437674,-0.11674668201748381,-0.01229214237781219,-0.12581859096274628,0.03777444643437829,-0.09361930348726297,-0.11528337168014403,0.16392982865405398,-0.09096149305702382,0.22135767910944437,-0.21457223597864003,0.20294699102775504,-0.12159891996840112,-0.10045198705639459,-0.029766909835451046],[-0.05924825709374677,0.24665667716972178,-0.17391212158815564,0.22589688454187035,-0.23582114730147424,0.03611192523953564,-0.011755774058016337,0.0975182854034256,-0.24308194757436546,0.09745768150560434,-0.04128956327463628,-0.18971206450493214,0.2417535771237997,-0.13451463886842852,-0.19456752168580094,0.19416911108526894,0.07279624903382892,0.19967741468893951,-0.08391385760210754,0.06341272688002936,0.235675329870998,-0.10166703641091622,-0.1340168041701248,-0.18105683033280154,-0.2529066595785032,0.25637508940445264,0.15249044355440455,-0.15711833355132224,0.019105281842542964,-0.12137179120204648,0.13513945492214732,-0.12676960994054587,0.12228301665526908,0.18699294613241352,-0.1292445207643935,-0.04012669629907923,0.22147399769592524,0.21580117227332316,-0.05939746483639957,-0.13444383679569702,-0.12504766645384138,-0.24929225975932995,0.06861372636582533,-0.10297943132011435,-0.12346179304117133,0.2358285296203943,-0.1297795795569468,-0.09141055021587237,0.11411258115714207,0.22755679615693616,-0.15108390883090705,0.25006522454752694,-0.1576518173071621,-0.028933206173924145,-0.016262244388173187,0.23242517823197245,0.16283023458224447,-0.04489244939083986,-0.23170423444180735,-0.0410573854087137,-0.16917016132626073,0.1992469186356543,0.1079463335737727,0.15853201272439765,0.09982813536436083,-0.15625997546701892,0.011007377580409643,-0.009597692228175744,-0.16233680406934856,-0.12220806074895418,0.17515913654565474,0.07223046334367134,-0.15245170970764144,0.1803232091926935,0.1051283508349515,-0.15047617003847602,-0.0583750924610897,-0.04798049582291321,-0.2344764599925179,0.03514754667251891,-0.023916394303856617,-0.0010229215916144417,-0.13156333706390577,0.10814703451378527,0.11971089520521505,0.25707473511477297,-0.12676540239099232,0.2354871722656057,0.052538290871806725,0.22691148512929787,0.14284995797928562,0.23025900620741216,-0.11401068687537504,-0.02301486051201383,0.18829465875345108,-0.12712398100568134,0.012383986586534612,0.19545026887167755,0.22874976450398243,0.05124522301999656,-0.0357223231881919,0.07026892703094047,-0.04899892922981497,-0.0790462338093748,0.08014304010255752,0.07066497254095251,0.08127305760416993,-0.01969466773473161,0.1614244053671033,-0.0906220796065558,0.1666309826857906,-0.17628105141984596,0.2023921235835159,-0.021835174812804264,-0.14813021162476683,0.21472097298447246,0.04994071536443285,-0.1773429184255526,0.2044009522711761,0.019126903790873815,-0.13145787865661293,-0.09644076668167766,0.11390278800659116,0.24284373389888497,0.10581391457592562,0.058187159650677354,-0.2554856233727177,0.03195436752679104,0.0061951960924456805,0.21553483082261018,-0.21240343585225335,-0.01634961758651276,-0.22957094017370075,0.06743489822251593,0.0657846062386812,-0.07438216707998425,0.24571994669361502,-0.11641188221555827,0.03188047860872025,0.08697327022372092,-0.159053249217899,0.25480056238728993,0.03573146895231895,-0.06637545139794654,-0.22844571538275982,0.22425400659085726,-0.22324530414465757,-0.2546984767291012,-0.0024230752968172086,0.07745204192097631,-0.19219790754025945,0.04647270177531738,0.1167278018604399,-0.03281145593408233,0.1879722716364726,0.05179661706700029,0.14785695059214687,-0.24708703437893256,0.14086057880791938,-0.05762240279539676,-0.18968969709724648,0.04337200275807951,-0.24416019675357553,0.11415531230711337,0.2545434277117114,0.0837473295913885,-0.1499206216667317,0.03521855260062529,0.22975865531739262,-0.05795013557280625,-0.030296422728240378,0.0680487996954001,-0.23430507210522547,-0.16280201666728109,0.11490077197191903,-0.20112882295416784,0.12384562019940525,-0.248601854232216,-0.19731370653748173,-0.11247440764105067,0.005713347761503549,-0.1777442887239722,0.1998945809982177,-0.10963910075847422,-0.25759289456367707,0.015213463544316783,-0.11896885574776513,-0.07178044090509325,-0.11064290662616598,0.017442168174880895,0.10594343345250848,-0.23717849287163953,-0.007691865513187714,0.12575432655602944,0.13544243339763595,0.12104056825772853,-0.1348640051575206,0.1757259974068777,-0.1213051865807464,-0.06827008815040016,-0.03708718759808946,0.11259605829461938,-0.13940386333678587,0.03766002493367367,0.24713557858308105,-0.10540868218611577,0.2252874810071096,-0.19616063935629083,0.23672489958326517,-0.12234084168924508,-0.1478435115444021,-0.13403185686087343,-0.10156724730508772,-0.026374991011476345,0.046674519425404716,-0.09105554605450973,0.01801150001508414,0.07810038237815635,0.031698446702922274,-0.1329077110702925,-0.23093593492812922,-0.09459499856087616,0.20635093385438597,-0.10418321212443911,-0.16465884705878575,-0.17587517528961433,-0.03474420857253885,0.18585964178909026,0.10250338438838758,0.1814107213147227,-0.0485544813672052,-0.11852700632358852,0.0050818593206409255,0.1584790366589964,0.07185899363191467,-0.19528622975512444,0.16160377476079807,0.16800615310714564,0.19552994131556692,0.08773387689113436,-0.2197856596286718,0.22066062141707113,-0.2469903561539876,0.08619522713189033,-0.03631289235500487,0.08209292496895211,-0.15667471486038012,-0.01169975107295957,0.24688926083939874,0.10725308612902881,-0.13896630612671496,0.11705988213603866,0.13464247242602997,-0.08951916998409294,0.15667596707658282,0.016602961717327603,-0.15203001602881003,0.15611321546900558,-0.03704372879170252,0.051532899466916776,-0.07915125012779761,-0.05387508755783434,0.09616320795401513,-0.2048295281869641,-0.22289938512979968,-0.042104977218657066,-0.15501224783346695,0.061189779518365954,0.11547052190537573,0.23210869312860552,0.17743462381775404,0.032741686749139666,0.10559512280608634,-0.01649169152078943,-0.21562840345401274,-0.09522352771417737,0.17886472017763633,-0.03464532134625941,0.1796537763131727,-0.08185679627113077,0.15257666891665533,0.10770582789094132,-0.19466560529088642,-0.04279387041135873,-0.10132417634242266,0.08241107509645842,0.15081770259280036,-0.2313155415453299,-0.030945872485501156,-0.14658247465205906,0.051926640872202764,0.16839063347410357,-0.1902906332235607,0.17994083945348677,-0.20093534055988127,-0.14314513181156338,0.05211602608521415,-0.09010030569207653,-0.2568397507889316,-0.20599174475492651,-0.21008125218182563,0.17484260540785845,-0.13366935884791392,0.2428113781143074,-0.13598325058300748,-0.08525073590920519,-0.06745467787333942,-0.1955514525253951,-0.14481241707310805,0.22173642658241058,-0.00708794496246552,0.02190523944338253,0.1383036234808929,0.21862291970083955,0.0785886310462756,-0.17433622642884197,0.17741285167418328,0.24500342074260653,0.16452421617304167,-0.187766109098706,0.17912144916217504,0.14940997940092607,-0.24330189261920837,0.09853589065353377,0.1516479582364539,0.047314763321966005,-0.18106255343637148,0.15549474681180026,0.13684628406627355,0.1971596025472752,-0.022890144057597848,0.010116743815245827,0.0033922832973403054,-0.22237056022170734,0.06942253381650769,-0.06707942198893173,0.06566715512943043,0.2157263924589635,-0.23316850060030297,0.16725370059908665,-0.027716913341136594,0.02189193061906727,0.11942511492504751,0.2242690524123643,-0.2539602961070282,-0.07002585111409924,0.22082667894282884,-0.060291341237734414,-0.09980141517360956,-0.19598194099281904,0.04622831503109819,-0.15159611238911153,-0.07466789767865571,-0.2096528218122182,-0.10149416597594307,-0.12249766715393168,-0.12717122747555631,-0.0988218730685518,0.12172855515519973,-0.1463939235445298,-0.04087632357401447,0.07248406364755129,0.2083338303401461,-0.168760243414355,0.22664465870852238,0.15335580296363938,-0.21328084078362464,-0.0976874681260782,0.18904863236463015,0.03594795837846987,-0.1188575940095061,-0.1590042638304001,0.07243875493122764,0.21879141138043717,0.23265067407207937,0.21481873862331752,0.19158318009388245,-0.09245176412467787,0.06216801206254617,0.22144073977757797,0.13520266787149698,-0.15219360637350077,0.13811934530303954,-0.14874134156582128,0.2333817012371,0.023074400291213173,-0.25546458789658394,0.088475027889326,0.1050935763754887,0.2552964176110332,0.12405799377450032,0.08499746014486305,0.04085785804154694,-0.25155870956320286,-0.22775563773121849,-0.022754854812388543,-0.23626516249831755,0.03926002662326115,-0.0986723835856547,-0.0016256749016799468],[0.23229037817341888,0.24017043399639842,-0.21161081999468084,-0.13146893847035218,0.05853506255323334,0.17428481601634618,0.1522234739840405,-0.11871311096981167,-0.16599020395391836,0.12786323485276355,0.19711889604030283,0.1548353569441215,-0.07492198992578111,0.06171908635486431,-0.04959774229740031,-0.1769752582467961,0.09680450960614469,-0.1850875240216077,0.1828224882820416,-0.13642479141602137,0.1460538998523406,-0.009763618974118144,-0.21451898735757885,0.24272290698360724,-0.16287904115797602,0.19157524552151803,-0.22264840754184806,0.10815107291716493,0.03677685183852693,-0.2337752687526957,0.24035741951702136,0.16308205096409134,-0.21351429977706837,-0.025991230602706493,-0.14068527385120996,-0.07471135805517387,-0.17114742150192322,0.14716502474674947,0.08875872688550372,-0.04122755137815651,-0.21532493061259375,-0.1739856696252683,0.08718430906465247,-0.10294504687311287,-0.07665868594853295,-0.00286367963855711,0.25186292755438283,-0.12383774042214649,-0.12896774210380066,-0.21415447185779313,0.10646393687967481,-0.013061807962221625,0.1392315366208348,0.08058996096349953,0.1283719419647107,-0.08257317368142311,-0.24605343811752403,0.009538072104484069,-0.007111590991428037,0.25557931475715046,-0.09530687653555091,-0.1632596926724332,-0.10217524639498105,-0.18670597346279671,-0.005540908641556729,0.0670373232058757,0.23466117930450928,-0.21715603634584008,0.03301821044335972,0.07289342754496496,-0.13912564773949487,-0.2579189894082608,-0.014936857260291394,-0.021202261376928603,0.06723883788589156,-0.13930173637332077,-0.05687300532036501,-0.026337201485109794,0.09379170251753968,0.14877066941854658,0.14525056041557918,-0.030678770790921753,0.18327240466535902,0.22599753097376496,0.17905499582526757,0.202522887454846,-0.043603609716650296,0.011399477980728724,0.2049153719029378,0.17521978085553916,0.1218115027933342,-0.08745062871810451,-0.212511815068048,0.026317354630105948,-0.13650929463010197,0.0550190168582889,-0.009891608892668989,-0.00006276395582709855,-0.2551751329560432,0.056949419651586744,-0.14637605686849708,-0.15616011437159422,0.20059709440016055,-0.14347270762589814,0.20195935567483617,0.16891379622559707,0.1401031230128461,-0.19902105846349014,-0.06605913795907134,0.1960908951305153,-0.10996769381895702,-0.25721657369260803,0.17528436527186012,0.17298960411417272,0.23464662250301074,-0.033865966677148245,0.1251560311177133,0.211587295295782,-0.06873452780629397,0.08172416507160804,-0.07711950807196774,-0.1708921708582139,-0.009929378043786857,-0.035721077100805534,-0.04823076597029183,0.1260187214164913,0.035037493227455994,-0.09421108963612265,-0.20531327099157076,-0.18319358674291153,-0.17328290215423298,0.2140519782828796,0.11789105964091973,-0.15504503024015448,-0.1386992422457118,0.23275909881191553,-0.1509497679401464,-0.1718107215346016,-0.1346940956687536,0.052869890652550385,-0.10093585566270938,-0.23131194133387734,0.11807592299768173,0.2148333087172108,-0.10414054330326604,0.16816219726043002,-0.07370629119010924,0.11835241546388833,0.1267269687011499,0.08383489195302328,-0.09302895031837295,-0.17778472227188105,-0.0949268982956968,0.10542661078417537,-0.1696079607783187,-0.05802273946649653,0.10851189430764742,0.050240308178423516,0.1364542939723596,-0.0435089528506808,-0.027380887278291778,0.157343279938912,-0.1872544713912062,0.16860059641642347,0.19281065687469312,0.034561534280222135,-0.23906860176235856,0.1734278830364111,0.2415700650822228,0.026136273551003723,0.06214230103377157,-0.12464113327784004,-0.018271894886367376,0.20567706112725168,0.04199437381791398,0.25554058162684445,0.09512362111190455,-0.19621329845329957,-0.07459827391368058,-0.2089864118984512,0.19026592113452043,0.02712309244262368,-0.044443591385880915,0.05722537982142915,0.08916666953894223,0.1676062743519426,0.016020167848448844,-0.14175580874693994,-0.15707010577854869,0.13008905156415482,-0.19456030490760368,-0.15341509156530808,-0.08585904271396279,-0.12605601780703815,-0.2561728187970696,0.1245357621864236,-0.047191454001862684,-0.2258475790888921,0.10950655352716344,0.020992296959205674,0.24196768797308962,-0.14012104376229562,-0.013857478663572603,-0.08671346450993277,0.15603959276948803,0.11946159297709821,0.2393713221441544,0.09102464359582359,-0.005884065630873485,-0.20663704820911027,-0.08413091529526688,0.037031368328589796,-0.18025558775018077,-0.1977653410377468,0.2557273380162475,-0.16822914133529265,0.07235250798534065,0.11960162368451341,0.0003700719711963816,-0.18743200190309053,0.04267726137127066,-0.11611734272388549,-0.1317446125151596,-0.1531959068909925,-0.11311161653746968,0.14074173345602506,0.059184313670074276,-0.05483231054294845,-0.20256845110694313,-0.19543119132023165,0.15459432927927372,-0.04527287340843182,-0.005283303447565722,-0.1544994824471708,-0.020195747049948323,-0.12967117378334023,0.12957502954880404,0.12815687231440237,-0.22386423843931585,0.20997816368121344,-0.028783885749163712,0.0332637862699962,0.16529603833565354,0.05020964927144041,-0.25117418778442613,0.12044073111134984,-0.2534950161614047,0.15201608050709847,-0.0963737921319117,-0.041571275796227845,-0.13117168113251523,0.15832943025324747,0.19064215445346952,-0.17557952765804935,-0.18155817249351244,0.12690436371527694,0.21631746093166637,0.13984702076120253,-0.13667622850647332,0.07656186889000924,0.14821982193977332,-0.031652485336089976,0.22507374127068178,0.2295808546418177,0.1898974968146773,-0.017328522045302486,0.15378101697047747,-0.05043554638558284,-0.12724650354811756,-0.09972538327962263,0.061362149591126146,0.06437917806079074,0.034102702995600025,-0.04225145004784865,-0.10219697051093206,0.13895344613791866,-0.23143867594110526,-0.08435972669459323,0.18505251033759543,-0.08123049921708547,-0.1379138713560941,0.18392047706182893,0.10857404056945333,0.2545934298737625,0.13188503783620079,0.013245320070391964,-0.0022986542268097583,0.20681769275821585,0.25421056488680877,0.24476705538805557,-0.12125491907893943,0.1057686834431134,-0.06756404644555387,-0.15156134426669926,0.15009103330972173,-0.14044969400048088,0.04162892169168113,0.12781480649476515,-0.07421002522534854,-0.201652356014566,-0.12197220175612994,0.06929038342660114,-0.006736956893911439,-0.1029119036051958,-0.10832364323528235,0.184865604287638,-0.07734624339385293,0.15818124958197385,0.10070942550139808,0.17714890336300182,-0.038356819685436035,-0.21662092601012276,0.07090024988492943,-0.21271848771465338,0.10742903116032172,0.08366869436505663,0.2187942120586252,-0.20440774964426578,-0.21825913809277944,-0.0043660049923002365,0.16075641673718186,0.1681251183986261,-0.11646461030206522,-0.18137045035701796,0.2394285214282099,-0.18150663965266164,0.22875793312444562,-0.1384306384119882,-0.06540121885448479,-0.13038801627842878,0.21437878775743371,-0.11612568544372653,0.035918943841023745,0.12571572229373293,0.13883604029522598,0.0200665789352285,-0.03670150715434607,-0.1968255075590044,-0.12429853161893377,0.1279214794608926,-0.08035509901137883,0.1643772998156283,-0.20746206917310317,0.07706398448471723,-0.03483730828877367,0.22681605511770853,-0.06497570489824242,0.19897652027534904,0.08911075242243678,0.22153321819815128,-0.005865141783319941,-0.054825794872701616,-0.142671978529815,-0.23587830813395055,0.20903665386922557,-0.09069475350341866,0.04798791511316584,0.10442933412070222,-0.18546707391964132,0.19153717260718708,-0.16552321061813427,-0.1253674981980828,0.10517072297848637,0.2270067920992555,-0.04800009896456995,-0.11919096927834459,-0.012627646046152591,0.09337660418272745,0.2022993734703723,0.23319407772331854,-0.21294989047940652,-0.13262175550389738,-0.191711138173213,-0.07703201590456271,0.22473447588673398,0.12071282923782982,-0.1586189747866687,-0.25480118269603397,-0.1590304504050258,0.06881863048875582,-0.17089433628194206,-0.05321031328861371,-0.1830846846331095,-0.11357078762758685,0.08708799114637374,-0.21153625154550354,-0.06035993412696361,0.010781985924661683,0.12135535582701594,0.2167546970907487,-0.20220843620933393,-0.027254379479443248,-0.2564103265140978,0.21621725705534,0.06842928767176004,-0.1315902549351857,0.054653533223459685,0.058917147604500654,-0.012454081674901335,-0.15436286482324874],[-0.0927461362090092,-0.056031884202875054,-0.2378845412403819,-0.05932057023834759,0.1943600312749141,0.21209552011985633,-0.010757617519498778,-0.14229839723213533,-0.0249909226800587,-0.021243912197821752,-0.13222082063529308,-0.1006968420654592,-0.053649735624113785,0.04774771271518659,0.24366799139633513,0.13462702923208109,-0.09235432443491051,0.0642042526233581,0.028073076768873013,-0.0074730325780304205,0.19055426822885155,-0.16023167401008698,-0.12861430493281045,-0.10693707441603229,0.19316144131886384,-0.023214415645734034,0.234001179896255,0.24095130179990157,0.13514030187499973,-0.03414700315993069,-0.22480329777583047,-0.00574004395030999,0.07190619530143022,0.10818810969776603,0.14531152679557444,0.05029741654925992,0.08073651242762471,0.1786582110161127,0.12468292389381423,-0.14330707607947218,0.0661386837943788,0.25057135143987436,0.0813464162344067,0.24454997656792524,0.21538135829058117,0.1759061121351649,-0.1757673889108012,-0.187265118274376,-0.21049417917575922,-0.07609243485557612,0.0099923545554088,-0.25528558566805803,-0.04074701726665132,0.10185180715750729,0.21189045828000339,-0.03353840151050262,-0.14611381360661327,-0.1837234285396436,-0.02493285418172276,-0.20951096060554628,0.15534788900923058,-0.18395753882798388,0.12866256387623998,0.05033655857521847,-0.2409697841187587,-0.1597399445360089,-0.15532146780024095,-0.1532988979695996,-0.04139325430974815,0.06079237881515019,0.21369366601013876,-0.23267870295885085,-0.25318980635614985,-0.1899865580133971,-0.22049917623183304,0.23110329450519232,-0.2576858218746588,0.18869028669654675,0.06148354510924022,0.08554425436664857,0.20074636210083535,0.006412738798928318,-0.0344095714007725,-0.2192136181966263,-0.19956826356727875,0.24126016997694116,0.23909093647037993,-0.1835495262055004,0.23989590704764577,0.01788971963682623,0.0008906972450539178,0.06811024409590902,-0.12002468654949254,-0.19574960393950197,-0.04405999943593702,0.05979759507939055,0.20748713033674432,-0.17473178105048828,-0.06614455683626189,0.21785831874044057,0.0486807164510051,-0.08917711757872158,-0.0024478341261229535,0.13055240497659537,0.024812708298104242,0.20579969797999623,0.13281765202505957,0.05393557176334272,-0.07314050007355416,-0.11232740359255601,-0.12447472802389968,0.14963059249481117,0.0916351811474703,0.21817738029842312,-0.2526414492533487,-0.2229012122548001,-0.0024560483123012827,0.15757789821045548,-0.16802305734029874,-0.05919962152334635,0.07833584049296752,-0.1480009523844786,-0.14340548325823593,-0.2203026386086915,0.20659284153913876,0.15946385721569953,0.2026116352640008,0.07297369823838709,0.05770846518491724,0.0523544833323599,-0.22321059711721652,0.1311663376227023,-0.1992822676223893,-0.16298349484532237,-0.18446691346688113,-0.12589964886116922,0.047971817609908374,0.23820436991954122,0.11284155598100701,0.18206499325392958,0.021299204936266955,0.1590511355313285,0.011098760272197528,0.16777685240457507,0.12678709229728297,-0.001211053379951861,0.1482439024767359,-0.0981631763932597,0.21322732092412616,0.06258107512082632,-0.01032196940560154,-0.18894735389758666,0.11584436607393662,0.08284962190706838,-0.0018436778618052885,-0.011047764634058248,-0.1237317635603521,-0.027202437487306715,-0.1766829848166397,0.03359436299051854,0.23989869038048262,0.21727213830464825,0.23520580118948245,-0.14703461996654923,-0.1586392794012578,-0.2093816079574652,0.1226694138749045,0.149222633953627,0.050890496395743355,0.12247437126044987,-0.04943998915885292,0.25554092591605726,-0.054514369353780553,-0.11248824368828293,0.206237289488314,-0.16523479579348352,0.09298985597817014,-0.08419435632529196,0.028509132222813045,-0.21907828778437252,-0.20100094012882924,0.21345033206962996,-0.2256415989966481,0.22964227656247604,-0.17974658031692373,-0.18246587234376235,0.1801503667870401,0.09570021760208292,0.0646454584550459,-0.08254081504646284,0.005382795380840617,-0.1787819143839667,0.14885223409212706,-0.028344617151429774,-0.1346491427061302,0.1820389844203163,0.2349313048411373,0.24314719308851637,0.1425260302696491,-0.1986269196563266,-0.06536461389082207,-0.08084048108028856,0.17185249469829833,0.10642358873395505,0.2515627682327605,-0.10410980693343862,0.12810022121127995,0.22803542051219747,-0.14297543103490523,0.06639422442460279,-0.057133213088684597,0.1509725116057618,-0.021123631289773754,0.022766051754289456,0.12325735815267817,0.2487608911025665,-0.024755366078793407,-0.05860688639848648,-0.1259922177120851,-0.21069281146397903,-0.0017217877702065839,-0.15286389435857506,0.005648447157657247,0.20798383341790763,-0.020978476555276116,0.24585013753231594,-0.15381835665960183,-0.14876351597451087,0.1402158965048714,-0.15938429186058348,0.04997406771960198,-0.07949433597126353,0.1638949016428489,-0.13685270165387722,0.020995762531166386,-0.019188965564151415,0.09725807375560648,-0.18386811488577678,-0.20052477401632277,-0.05372355291785017,-0.14264183305861813,-0.026451588310487714,0.19097640635943017,0.14274097768612415,-0.13210187620928507,-0.18050655197831653,-0.13656041869647018,0.03282789896314783,-0.17235273310730118,0.03195727259388572,0.04801978227896133,-0.1147879258265188,-0.0025211155595702903,0.04514624627100509,0.023766834537821663,0.1709049680542608,0.05245327647375139,-0.15746436265371416,0.003977025589231131,-0.25702816370473724,-0.04274498618172603,0.17614844521014758,0.10661827159073901,-0.08735892277161361,-0.22129121721411882,-0.15720533073368267,-0.06249451535996814,0.2536235430439001,0.2535504910977644,0.15103838050874077,0.18249174985223676,0.2349007861126232,0.017592242872671485,-0.15624666293388906,0.1936314776190038,-0.15755913187764978,0.15689677884103026,-0.00841013261223654,0.1661545152475286,-0.009590048507581021,0.1704583683449661,-0.2573893864669362,0.24393480203509463,-0.21962864896588474,-0.24774811794280524,-0.0321548255190239,-0.12100907650175599,0.10333051090026611,-0.14457178736288492,-0.21408867854035601,-0.07070257953111556,0.103532997904655,-0.08314410186119722,-0.014707690041069718,-0.2243475021356074,0.13843905712330562,-0.1758574384107848,0.22999025281278052,0.08947353916892044,0.09384872424414338,-0.18910473894503416,0.12721396953969316,0.08798118043603362,-0.00013599495452163452,0.2522193615665502,-0.09736573787858518,-0.09521214474079287,-0.22746840634426055,-0.009983422345700294,0.030555389849526517,-0.07704943272288498,-0.2117185096402785,0.15814292742133074,0.23385756747929545,-0.1717447040165836,-0.21738151211648413,-0.011295239881720627,-0.13111077072918328,-0.16880092005888125,-0.04934007234315625,0.048751939099130184,0.13274912797968755,0.022759064001655078,-0.19774878289799155,0.0791499479862812,0.0038180200144604004,-0.11889270214817356,-0.14542685337832495,-0.24247970642472097,0.1866442298947463,-0.024415502650066978,0.15989226661898473,-0.034450570882557575,-0.09011793251645758,0.1835519942291941,0.043861010252516965,0.1916310547326586,-0.07770159238451081,0.0810973159925383,-0.13077330837220802,0.18514321924268415,-0.19953285029402407,0.2348070634846236,-0.0703080605408349,0.08350382765888417,0.1929892640082175,0.1630517577696486,-0.24994169746839995,0.09962528207248293,-0.19405580614854434,0.031205487558997144,-0.05190064268711332,0.09149257353593503,-0.22759020837442268,-0.11314646313039788,0.17479297736396304,-0.11838255168629175,-0.23286401996068587,0.05124382275828636,-0.06940182698060623,0.17884034470113394,0.11951472567372858,-0.10848975974134246,-0.08446961370461227,0.13972278917795472,0.11304181557585735,0.057254498220457674,0.2038683009928987,-0.009651051901257436,0.21422186904891713,-0.16060669783909318,0.015358332017634951,0.03635405613881505,0.1379770767154495,0.17184378300007355,-0.05397796201638391,0.09885301571006613,0.14479537886696947,-0.19157522239664812,-0.030979687273403486,-0.08469090902957943,0.11995220874404988,-0.027008277950262952,-0.18967638325344208,0.0787511055688956,0.06161412251184997,-0.07773491593529769,-0.07305935551117207,-0.014048118459795004,0.1846426286628277,-0.04017588643037948,-0.19839034557939278,-0.191483084691907,-0.04814868263687885,-0.044863615900081505,0.2102271933097033,-0.2286404826282627,0.03940754354009547,0.15552142227038734,0.2570159195186481],[0.22446269803015748,-0.15081836010008662,0.21126933696367878,0.0447677435421509,-0.25098552179707273,-0.24689294276453602,-0.07734139971544017,0.12636047798012437,-0.232206456081704,0.1388553030214146,-0.08383887932172543,-0.0981172676004041,0.048212341070653954,-0.20502625901914293,0.1056899905228216,-0.24103640938283105,-0.1928328567806931,-0.017622748960731575,0.0812519995239356,0.11811033934542042,-0.2480075765008242,0.045147076699905433,0.1973523559011934,-0.16147177831701784,-0.12776447606761068,0.009339626222843546,-0.06723752655453119,0.2123901047997765,0.03974101175570074,-0.016723257810196075,0.049044792553827044,0.24467690112962193,-0.17982346541370697,-0.00808354071288418,-0.2051570090261922,0.2135603215344035,-0.15111729528987652,-0.03458277797657118,0.1578919076391664,-0.2436974699990571,-0.11950783555175902,0.2368586827707552,0.19522427566519165,-0.17958329264839745,-0.0296201513706187,0.23724898999622587,0.17812543527309296,0.024082403730079978,0.09967808890233014,-0.15443809198498026,0.21760518581745109,0.09676860732747014,0.03553279786204598,0.1649525508287083,-0.042949094366948694,-0.09277067548099252,-0.1652052381923935,-0.22927819010315073,0.030211406293463708,0.24121675033843762,-0.024351567240654255,0.049142517025596646,0.2224479757722597,0.07303565417098348,-0.07489465034746502,-0.18795206246774065,-0.023713866250356815,0.21369709503138198,0.06058358661978089,0.14686654461683948,0.2349082272242033,-0.013033184827657947,-0.2267032861287504,-0.2495177099132141,-0.23619727154365383,0.1930227695915177,0.1408795016280298,-0.10900659177649856,0.21342546380963226,0.02304147995768659,-0.12191432298962723,-0.20941071666647348,-0.22746487688847591,0.0528600911771839,-0.20118324420766118,0.22184450524272542,-0.23505481105758017,-0.16193219562121136,0.05367012519915214,-0.2546482035147603,-0.11552790413579646,0.19333424135240632,0.06733680391642469,-0.21472515886098936,0.1691263842459889,-0.1530660095344698,-0.24952094900818472,0.19328218381275186,0.15596614097893707,0.13383464220930044,-0.030142491463468493,-0.25560700448270507,-0.10312646369554263,-0.1300410258106045,-0.1736171130324702,0.24583266533096104,-0.0010097896133196447,-0.07492775913464424,-0.20726073930229563,0.2241744360483806,0.07759943128946763,0.14853125718461385,0.2156799807060125,0.055285791282538674,0.026272990863929133,0.01755076300738618,0.10094692565783583,-0.09076503390650745,0.10065754263572042,-0.19290662042742587,-0.1853154169454036,-0.22415275670669324,-0.23551314768327614,-0.23957078746847701,-0.18029446135472607,-0.19728649392149514,0.16674041608020537,0.19929613356322892,0.06433322430448683,-0.061238783455884876,0.08612712882869994,0.2088233066389422,0.1818337520153464,0.0818944201583869,0.12909413559042568,0.00603067284723739,-0.1530471447744395,0.09286176777073198,-0.20520241689099422,-0.015822529066585805,-0.1675808085652002,-0.2003130233996879,-0.11057775241784228,0.1114684105189182,-0.2451315525846366,-0.002504343802663573,-0.03439052538056045,-0.10535375491189589,-0.10056554271912191,0.03542104431240765,0.08615197406881411,0.08961708699059837,0.24196381421579474,-0.0014926430601848925,0.010134986122280337,0.06669301029791339,-0.1374527814532832,-0.20279201164941849,0.04799793510923083,-0.087535704466729,0.1007372396435723,0.03330683173503844,0.2582992857009442,-0.014873325973717873,0.013064202447131018,0.06956139969025278,-0.22179744151606806,-0.19802684260652526,0.1338463514167225,-0.03321924443741375,0.11189768695439213,-0.039171854828438234,-0.05719054622609468,0.114565380168611,-0.1376432994510866,0.12182374802104359,0.01051261646403042,0.08041541262988149,-0.23373582387644487,-0.10144967775019889,-0.19402636463521888,0.12772302847518216,0.2091166171625888,-0.01651592140786019,-0.23726339680279096,-0.0977870258784846,-0.18981878384805212,-0.12361152634283434,0.19579561047978417,0.2020658563961751,-0.21538814988223895,0.07783276978311066,-0.06412118040028027,0.15673838013011368,0.12654359666256615,-0.027382788780357506,0.1181783846336724,0.24619519808591936,0.09141193883957084,0.23749791890835664,-0.22793302854990732,-0.19369204576746712,-0.10055438985918795,-0.10707778456685074,0.23967439127973278,0.0015411088497142998,0.09101336378854213,0.01247480042344026,0.14713631491352352,-0.0733247731426483,-0.2210327003157328,-0.23657425492780818,0.13623673024244506,-0.16933511145876887,-0.24561117218504674,-0.16874978976443528,-0.08884508638420804,0.04344172040014617,-0.2366560072536153,0.12233170778011028,0.12303497815627458,-0.24328112639302096,0.17392500999679805,-0.24411063586065976,-0.13922599268094607,-0.2555624114513383,-0.2411169895265796,-0.0877203819976783,-0.06765788963105492,-0.17990248356604935,-0.0934979727228334,0.12231640200864269,-0.15130890330113408,0.03162858077122021,-0.13936653787144543,-0.18465905068045374,0.05967695808810315,0.21313745481399005,-0.17373236275015488,0.1377119503917415,-0.01869153906191832,-0.0430494673038498,0.19775213095334562,0.03058522161850979,-0.16078760217439156,-0.14411252704213687,-0.2361832804797126,0.24292100323298463,0.21752449088971434,0.1576943345688122,-0.23776910855746758,0.12771079808539199,0.16811864826104503,0.1029715288812769,0.18997348813753293,0.005439278873350612,-0.09497873673387679,-0.028299702301254982,0.10314432493575028,-0.16010111559672313,-0.2528291637782414,0.029986824664721655,-0.09572757028705098,0.11099868787207394,-0.20941773167168856,0.20548313624546038,-0.13479291450943182,-0.21701609950906361,-0.22689941952422324,0.24100908041544958,0.04387144548757191,-0.02371028912068284,0.055678307701754366,-0.21781403038200542,0.17876615458369774,-0.22222851321961,-0.14459125477491055,0.20201418020297318,-0.030987509036899445,0.0005382324328837786,-0.15197588357065558,0.18349347678051553,0.18826527720963238,-0.1151867501619218,-0.07931869732605262,0.21269417992844933,0.09508389041007873,-0.22180168679884585,-0.01031292635873724,0.23757132104851478,-0.13970562124589261,0.16788800559185407,-0.15562045357930696,-0.14405204695149817,0.0941828093184423,0.0426166653413823,0.20195359906795027,0.09103111375804385,-0.024058744567696747,0.03253525706132739,0.07780540029017473,0.24576282992466664,-0.21120175922110435,0.18565648024681422,-0.15940125225539334,-0.0924468329049953,0.1765312359237194,0.03909363165651652,0.239951162808335,-0.0003454995281308194,-0.0011924474906786745,-0.07756943763185131,0.03293977061438551,-0.04090142240696715,0.07009395618267106,-0.24559570890002394,-0.09519734931839385,-0.10566371457928905,0.06454485624074278,0.059864118846490025,-0.24924045592886027,0.1696650984250652,0.18222255082342417,-0.05204908558893376,-0.1057441526266321,0.2204978786806037,-0.05160340719226997,-0.0240452000185837,-0.22529559319957404,-0.0199154572597354,0.23350641730497837,-0.004277285706317879,0.17020708848261093,-0.2513360089614274,-0.07569416512311362,-0.031568786832258826,-0.02303097010856904,0.09510555695182911,-0.18247930529107992,-0.22417324795219984,0.0937284599585401,-0.1372973848355394,0.19020729001696995,-0.007409047559274599,-0.1613875101947801,0.18445764895482902,0.094901347401953,-0.14677009151271928,-0.19645900958414125,-0.21974147703101687,-0.10109120757105179,-0.2577642484246303,-0.24980091612555133,-0.20775601719080194,-0.015758457967662728,-0.16455273237046056,0.24836822920714965,-0.0002466077234494602,0.13776305752604892,-0.25558703386525466,-0.12419891435382291,0.17641326573444702,0.028513732773486716,-0.05546920949279698,-0.2087902032159036,0.2240416757182872,-0.11359200942893055,0.02631706685521139,0.1600952240831864,0.04138254570898035,0.23706835090983425,0.2508087074999483,0.03068546564568396,0.03957237184848795,-0.14645996765732291,-0.10567944162034724,0.24575165689566372,0.17495893698193243,0.14757186486587112,0.1817723781474178,0.05630627398626963,0.1099409417845336,-0.05936955129583506,0.16902460764175947,-0.22611087728461995,-0.21548467885263817,-0.22405174300450303,0.2527034651915431,-0.17005041313823713,-0.09099670028234653,-0.16722352993509398,0.25576158857408277,-0.130258678704585,-0.083791055264074,-0.03783098191902695,0.21216247671063704,-0.11459672105741803,0.08893620855695195,0.21146093782581227,-0.20481155929838782],[0.16128568359115583,-0.19362874385504783,-0.22641790997444813,-0.12838720824455355,0.023957730462983724,0.09999686295331688,-0.12631620402578161,0.0852429655609512,0.20413160568994945,0.05919680641619758,-0.0761269669390399,0.20502699217519646,0.1351379422208836,0.2542136130504285,-0.059937666506089636,-0.20429495508611345,-0.13488465171301584,-0.0655937009010758,-0.10843934543582484,0.21254663565650728,-0.04469834110254154,-0.20587739886725773,-0.21117525086870706,0.08775600583478164,0.057108505318030946,-0.00883762250087881,-0.09306078692515868,-0.06034530191821701,-0.04233178264260074,-0.060427140146979454,0.08681760493237584,-0.23719664043133837,-0.062017002750487465,-0.24129981331989933,0.1310266424385818,-0.1509264096699497,0.07822930534863917,0.045087408937767616,-0.16980984559696974,0.0648769633289972,-0.2181569717897342,-0.10096272203793094,0.1655308146393617,0.07879187087851755,0.02199447422338296,-0.2526361539306139,0.18718457785392148,0.0649390494940001,-0.1463535226329863,0.06028436837562026,-0.07575552624901459,0.02449611367781985,-0.04489913901544127,0.04759719080406243,0.10769196884233914,0.1698711115607778,0.1765516363867272,-0.1576344248493653,-0.1689898585449792,0.03760230314417739,0.23122061269657196,-0.13828978378692863,0.018211799290795156,0.19639145257049484,0.01703196527979765,0.12935661523439368,0.23050848773286628,-0.08376407296520103,0.14684889863875836,0.19528832164439217,-0.11579424033324551,0.20898534074977781,0.10382032958757902,-0.1899384069173954,0.23199162677755417,0.12207231923526457,-0.11513881456477938,-0.20107031279080306,-0.1959297347789361,0.20768865439881423,-0.09626420781307464,-0.10828959164535998,-0.0582321944929412,0.192310688919957,-0.22873852968869424,-0.14125563907910405,-0.11641702505887637,0.12802162273640713,0.08628884942472043,-0.1084733528490496,-0.09913111635311747,-0.10663791066241526,0.05002369267002808,-0.1524139514320794,-0.15474628758735848,0.01986280100701843,0.2157037619680771,0.24408387180442803,0.015870502764974107,-0.05036064978126457,-0.08425907701337226,0.22123062169838795,0.05517974932959759,-0.14286092921965038,-0.011371072666561009,0.004891241254797525,-0.00531734399871648,0.2019115829180656,0.028065855019909353,0.224355005661483,-0.1693141314109171,-0.08142693543362013,0.2184131851846628,-0.16247937247926553,-0.20336935395687167,0.11935696888510214,-0.05272269472237235,0.12599028823302563,0.23466463245818506,-0.04427355658344895,-0.14092377095149175,-0.20436479759619552,-0.06848378266192413,-0.02321710812404636,-0.0879668381011737,-0.2477866243294939,-0.10929824512683893,-0.25033070031963794,-0.1254478437320698,-0.12990543466684543,0.18412675317443308,-0.18452899717244292,-0.07308942986489786,0.20481950787228165,-0.15378182136235388,0.19976225360100214,-0.22849279422924723,-0.2280803558311396,-0.14674396275551704,-0.13133814704658556,0.21564496547291745,0.006562105732130688,-0.23341692956037846,0.1935824138360249,0.11953285555008582,0.17371837648469896,0.058033643655307665,-0.18468075351035584,-0.13062744388177172,0.10334426284323271,0.22922253313947402,-0.25261747544560265,-0.04019561981917761,-0.15600087338541124,0.23067402657318525,-0.024912126203652366,0.006911104362791847,-0.056978049986735134,0.200144973168088,0.06990892535403671,0.10253839303669693,0.14167849701884422,0.0008354731014372186,-0.16936509397774974,0.11854050803610255,-0.1366604758150844,0.15954398184289703,0.14445296294172782,-0.011546746718350062,-0.25841369767815936,-0.018249129238324047,0.2293520847064396,0.02079802711223242,0.012276243600894542,0.1801834000248549,-0.045188778129682625,0.04869655475898665,-0.03852281964042276,0.21157083251976247,-0.028954455069399226,-0.035505260930612174,0.02181411581911246,-0.14254515709799404,0.01029881242195583,-0.049241129079543824,0.15540080139134999,0.07252073649318007,-0.10548276278131569,0.1350240891624219,0.003420547250843673,-0.10728752294528345,0.09469458159934975,0.08974871278230888,-0.1348519268662717,0.21339237216903295,0.010998644006121706,0.017588683103681373,-0.07251005249250927,-0.06576207334744824,0.1581936684928214,-0.1436356763787024,0.1550915377020356,-0.053505118433785054,-0.023089735787368948,-0.18292907849703716,0.17742716112388757,0.17956149757662404,0.07430445147575349,-0.09583891902358789,0.06802843915338862,0.2576592547593733,-0.13538829686528986,-0.04146109618267535,0.1363203469988219,-0.03074639636232401,-0.16897150290069463,-0.238147146536173,-0.21848881919802032,-0.04747572192435837,-0.1628634748195549,0.1700668906331958,0.2301699655497123,0.2541480365974748,0.23597699925654117,-0.2351508531538706,0.06409210127670786,-0.07241233819233035,-0.16956049523329164,-0.08949864802192857,-0.18547789910234044,0.07806798458254902,-0.09712617630031986,-0.0611329978643033,-0.006082325704383061,-0.18068680153786457,0.1960721033897048,0.196005875394513,-0.17876390537763298,-0.1954169869653663,-0.16189304087855677,0.2442813932007935,0.23377695216085695,0.15508670288353069,-0.12065504767775824,-0.17666378486137074,-0.16141316177515327,0.1010295094477117,0.21609305825725106,0.07878667964916689,0.045444799294243984,0.02246624717151342,0.0683382850661018,-0.08339464835267013,-0.1833777790449397,-0.1442275459575553,-0.234455438479854,-0.03656024305535079,-0.21020344308391797,-0.10011989891698647,-0.061300839749565746,-0.0855570497070956,0.1567134768032343,0.20949313717495247,-0.197870204731115,-0.04086574163174294,-0.1858917555405766,0.1405641634581099,-0.03889199647206034,-0.04110504496920255,-0.10020069266259024,-0.2385430771357195,0.0345656158025137,-0.06969408396246385,0.1617393445826633,-0.15729541797252872,0.10878186238923963,0.02736498007808198,-0.11541095055967486,-0.24522770794237592,-0.02804605457277182,0.0759009613490758,-0.2402870191666484,0.07567602025267788,0.09351302122494047,-0.159142606115162,-0.003575617271769292,0.21401165601042896,-0.08997317133918425,0.14490363405073622,-0.017446717693809545,-0.24255247720498097,0.12338878957881107,0.20478467204408157,0.029518123840035878,-0.05283188819137,-0.10726018359328394,-0.19444411361770073,0.18215743834079198,-0.010358720568315626,-0.2054737668943087,0.15702673107875914,0.17906751500788337,-0.12136264713523731,0.2041559770821234,-0.07145395711299507,0.12497057378547406,0.1698723592389021,0.16815626377899337,0.11868704609546266,-0.15862760632265724,-0.12476541475921056,0.14947059561424092,-0.2202770928055292,-0.03281518701423344,-0.18968529202429332,-0.0506012543552159,0.18762039001036523,-0.09831984451684282,-0.08196613731124867,0.027696590775220478,0.18951965132479354,0.15410397895570382,-0.10752102479037742,-0.0060413001375680215,0.012745363804054884,0.039872734703398166,-0.1317506375153405,-0.07788895937743488,-0.09959695885026314,-0.20459377320734307,0.052589483117465266,-0.13476770789913228,-0.1282642863424452,-0.01701237153666757,0.008251877409104174,-0.023292585553397145,-0.08371912769310165,0.17506658007330894,-0.24800015433085987,0.2058471266022473,-0.18832105619923084,-0.16774347788431027,-0.18144043557198636,-0.10835299412194577,0.13528864299899582,-0.21361836901947442,0.20398332896933524,0.0020127875825918513,-0.08047031303162888,-0.14656691268693053,-0.05833785697674213,0.1562518956999638,-0.19361311782806462,-0.1566331370060885,-0.17642018010184757,-0.2560433296689189,0.24157540828492763,0.24787230403418575,-0.22430923689075824,-0.21438497922038163,-0.0481913873739276,0.05867793478376553,-0.2072515755911107,0.2317455378161395,-0.20589888735849796,0.1648769467573682,0.07061986116697488,-0.14628141535994707,0.24563054515612148,-0.18865003460910962,-0.25413209302292505,0.005710747103413265,0.20427818634012596,-0.08226736584742518,-0.061177231225440304,0.2010089116192398,0.12535923510213268,-0.18832440042157259,0.03775043404787347,0.011150065642458976,-0.17151142016761334,0.13062596222411685,0.09918664838722482,-0.02386665220268418,-0.13307819039137375,-0.1501901906605973,0.16498903138695967,-0.0434023079301993,0.15253557149596453,-0.1466966683894032,0.11085341521672273,0.03796879554084811,0.11596379131173024,-0.2113533136781223,0.10245716766216692,-0.24045349761520332,0.049905639026316874,0.11884706754232523,0.18144981217404133,0.2411313976297631],[0.0066018789386098654,-0.13397114951755265,-0.0233436003386083,-0.05953867656843075,0.07949918239330242,-0.25797204486083397,0.25206665117148314,-0.18152519747540763,0.2471057986972183,-0.21373065096323984,0.08875675445888435,-0.10722817626970454,0.12999305040124567,-0.17362603243613986,-0.016459810287497344,-0.1934854178623383,0.058705799425999114,-0.11954874850803617,0.06922625534396477,0.0840030613473832,0.23478437077825823,0.10779154154205929,0.08663346753559192,0.22312986132178683,-0.20761622155395187,-0.24374127252557892,-0.13304582492172898,0.08222353111237439,0.08182771382007555,0.13056305634597673,-0.06500396513346463,-0.10208140492636132,-0.09611699476257508,0.16798246779161852,0.09777121113703366,0.06170891452606935,0.17194840056951177,-0.09490163235155963,-0.1167086459933372,0.05978419843782059,0.03256773742549286,0.18740093426088195,-0.08090624060115566,0.25009790139865784,0.08228210859699374,-0.07654668300884147,-0.023916480998764235,-0.1973225486003541,-0.03883403310446576,0.08496448335918896,0.14257516345108484,0.195053755645502,0.1305797059994069,-0.06040138803722537,-0.06264862455034362,0.23662696418118265,-0.11422323075310442,0.009979684784269388,-0.10432209366953035,-0.058572018424144806,0.22455489197849313,-0.01783706569054621,0.1498759207939193,-0.06691597769473415,0.07435631536054862,-0.05664899803500779,0.17312038961486373,0.010178013950075263,0.02103831599942452,-0.013026270180823953,0.16477777622736797,-0.12937441100453717,-0.1343831226136627,-0.07556160870472065,-0.10490903396709943,-0.137905584488627,-0.24712634828415925,0.24205354015368402,0.1904435156259281,0.0038195260541150234,0.03413119987757768,0.043950694471482546,0.06504315430444113,0.22412618978029608,-0.18922940103631938,0.005755841100911296,0.1547208981221214,-0.09897048491633212,-0.06824956067359375,-0.18677555885166539,-0.0735865794619395,-0.21623593004220368,0.0842882665572334,0.0558917789400924,0.14712738386488544,0.10157138626942006,-0.05835634323034808,0.04804930852316968,-0.11291683428893035,-0.08593570938609994,-0.1321265294351338,0.08993443888997113,-0.014707856272568083,-0.2565155052866249,0.04494096693981021,-0.24674015763469623,0.12222927904923828,0.15675005390277516,-0.0022492973453258186,-0.08400002884801648,-0.08839579348688592,0.25643370914982955,-0.208087250330101,0.08130532958035744,-0.14631523502305552,0.2554259977280553,-0.17845181747964337,0.18627919296987067,-0.08376011111631249,-0.24101817525450908,0.1905745027258032,0.06311677988560015,0.13034985801479598,0.024178806275707544,-0.1662676833427393,-0.17979602568179093,0.09211630743336732,-0.2101066714442365,0.13792004748961642,-0.10392407410052713,0.0524362835074341,-0.08092470512674133,-0.2358333522241933,-0.028549461483990842,-0.24716523450742253,0.21804746614321027,0.2003056486419086,0.16744609222843881,-0.1948075547746417,-0.08226364257949381,-0.2270666793352412,0.028757406928415993,-0.2530074631399228,-0.06193171710762741,0.06134100039369854,-0.0025014746849577846,0.01924210180098391,0.15905616501963882,-0.25140586179721314,0.208918588315328,-0.10010896168621268,-0.06194269653993712,0.15034534128954063,-0.06658186969281434,0.24543566657082339,-0.09409913768129242,0.16008548287342178,0.17231907125726773,0.14351158313935755,-0.07027289328762575,0.22712077288504914,-0.2320909148929992,0.24792715495217607,0.03132901780263714,-0.047769847551578926,-0.18009621695155106,0.06922837806479866,0.04701000525122046,-0.012630668093929296,0.14759505413058416,0.14021698777688082,0.07976555189611739,-0.15583274555230223,-0.0680101264491183,-0.1597108397500058,0.14638371862848573,0.19716577594234685,-0.18335859755266692,-0.16890597092832915,-0.25752329007067065,0.10344428831228945,-0.14183197807246617,0.018231506663172397,0.12202946162271079,0.035886242370355766,-0.1265317326133418,0.061171507842923405,-0.12325372919271817,0.012741275286803695,0.16726250663686015,-0.06007166253146437,0.04924341061544216,0.0719217600419832,-0.08840454825991745,-0.10666413942368282,-0.16995405696865823,-0.23229307861359721,0.12505590791229348,-0.03747494666430474,-0.22866382186385298,0.05753535686062063,0.14191437149370587,-0.045282027234465366,0.07985845295471261,-0.04818958630476484,0.1557581915630022,0.21148936767513898,-0.12411689077466577,-0.11257784761159177,0.09384317486469743,-0.12439427916085333,0.22694602899468538,0.12311226501300968,0.004497481146714775,0.18472225167762088,-0.04512406651057374,0.21746416923412518,0.2031063878616193,-0.14571157388225295,-0.04446858292710187,-0.14940334765229457,0.044931343697085825,0.21665691721657346,0.1022401448841095,-0.030458065011941572,0.04365190911796869,-0.04122616318863166,-0.17215999273900345,-0.07959077937970745,-0.026567281680273117,-0.061647758556587315,-0.13132981749581155,-0.17685059942914336,-0.1364632859578116,0.16584853871296315,0.17564648675691483,0.13486283702781038,-0.15011896734214336,-0.06136965924938696,0.13619270905301942,-0.1810282221809542,0.0304004134135817,-0.018706938387672945,-0.053338341220212825,-0.18289025023619412,-0.07221300169693493,-0.14381480247316106,0.1275322749977012,0.23197844268693044,0.19827641083731304,-0.01673365184979852,0.2116456764799235,0.14971475532984937,-0.23923020629162686,0.2391489994368181,0.06289294003126523,0.055979652854240065,-0.08626440356557495,-0.04196074285866886,0.047049053926136716,-0.013713395703315487,0.19960508386747902,0.1121331233469199,0.017579436812508,0.11075629939084905,-0.18496273763142337,0.11288631953354644,-0.11129357793368648,0.21589643392344418,-0.24912880289107556,-0.10874106327935676,0.12204098050273392,0.16537801720567297,0.14387307599701288,-0.08020745089121543,-0.1942883516415331,0.11222315236438216,-0.1579375651147167,-0.09153275111922268,-0.24235127049122443,0.15519645730177695,-0.23587162656897595,0.03781479442281318,-0.21833737030803538,-0.15603080515022028,0.048474778012478334,0.04450845639941609,-0.012701040853011233,0.021522217747049228,0.10470586126380937,-0.213572480389405,-0.1296150196117881,0.16894121715078625,0.1382008196376985,0.0605729575514395,-0.17092159408844254,0.20987782953029663,0.038599426830714226,0.25273560994935795,0.043338922365287705,-0.09336484484259328,-0.13364187200876038,-0.17348177505819695,-0.18952912789169526,-0.0729806697162428,-0.04393058060312478,0.2210519520762819,-0.15331298184704029,-0.1880189866699263,-0.20265336884039678,0.0996540722071712,0.02201790284595572,0.020863765895408885,0.13871196676639674,-0.03635126566106658,-0.16441256979482588,-0.2362210432630575,-0.15364570615920783,0.2361666284025088,0.20051698840844492,0.11886805374324744,0.25142471589132787,-0.016941486093364603,-0.20496691983933074,0.13054819862934489,-0.041091613408773306,0.18294397165465168,-0.21377053501490575,-0.25413702607216754,-0.2579993903028908,0.11194129766372027,-0.13251774147178033,0.07572225215103003,-0.1967414668646446,0.10220256356920486,-0.22811685708162488,-0.18665714137305112,-0.18947307857274248,0.08247092539169275,0.06952465480993954,-0.01907262175439701,0.24262106631604655,0.1517675716739626,0.24980862453396543,0.1046020899465264,0.15010557110886555,0.03143326683903857,-0.19298935220013952,-0.22229754796720314,0.15850498113385952,0.04186422439458913,-0.03525311193443669,-0.1195542937850188,-0.25189429767725025,0.024887380981706054,0.09536043098972619,-0.18974010497022034,-0.1549536698600468,0.25752618479384937,-0.025918626289696545,-0.15993158048495784,0.006563178936983364,0.09573447135838797,0.19625502985716464,0.1523672609573962,0.003521415583541512,-0.19430592712954123,0.2339497842430672,0.16134515167381872,-0.07096217514183996,-0.23880991461008882,0.25508124915090874,-0.09189188886625364,0.13560738554979157,0.23678452030244065,-0.21797099650250765,-0.22686393327294405,-0.08770929178824155,0.030446292734330048,-0.1230743213509966,-0.09599574414347678,-0.1951639776422329,-0.25358662677834526,0.25457964428728547,-0.009703037122907559,-0.20749781242558524,0.10288098880201876,0.19482447118397736,0.10821729121998988,-0.08730802823352837,-0.1284840192971382,0.00882775320083929,-0.2502350811754357,-0.012645541202419983,-0.19766662462148088,0.11804916840685123,0.20918989614202022,0.10905350689910932,0.16170288332822846,-0.08830293296331837],[-0.07090671098533721,-0.05035184383048534,0.14453639832952078,-0.23279572922291644,0.07857278380749441,0.15096945097729744,-0.13973652139234402,-0.02593811645508528,-0.18352762948378212,-0.24921707933442427,0.1457920112501607,0.24725599986944,0.0036030791028686376,0.16341415183829547,0.030964307505089883,-0.25641889560137576,-0.19312356806694908,0.1861037878573175,-0.21886682162969576,0.247707696328506,-0.17998663266416795,0.22917444117242258,0.05485200392128913,0.03654060353709291,0.24140728556920438,-0.12485506583939544,0.038435288570855965,-0.18753746248341785,0.19872235345030118,0.038686385598828484,0.07669015286419667,0.0367519176945833,-0.13026501985384126,-0.20887588541051733,-0.25678450669446173,0.1916634239899633,-0.25452862813075394,-0.24739491300080263,-0.027901080966568813,0.046530993274817196,0.1398223410126559,0.015425046044177533,-0.19719403637780003,-0.13934378751624296,0.1892370677515215,0.02474252375839898,0.15532582256115265,0.25465803068694975,-0.19700027873449932,0.04035765346253781,0.20519594070975988,0.2091074520306943,0.17995043452971632,0.17295662538066822,0.2466828736197298,-0.19481624439248488,-0.06194474657720666,0.057733803011630475,0.23966533748252217,-0.0376245774618155,-0.14947371393213593,0.1238472717471716,-0.21470936923549416,0.07052831553301951,-0.06055211988498897,-0.24500145911567772,-0.00900434652202639,-0.22657521971233477,0.1290207321170306,0.1741426904797116,-0.17040741463094494,0.17336501008382088,0.16312094101601962,0.053704076583184455,-0.19762360954412303,-0.09455096605474436,-0.20741382567559116,0.1882529128734908,-0.18514542716192586,-0.05347565590440998,0.14208048040811735,0.2208049606807615,0.12047366921492957,0.04146149162410547,-0.22583399081942426,0.24305392325709665,0.10283868124946197,0.06601953624329072,-0.24455344286436886,0.14806784606022952,-0.08035423942427404,-0.2444115357623416,-0.17268665656687335,0.05226930182123678,0.061846918698941114,-0.14627556514570692,0.08568422566452347,-0.2455769237827026,-0.04872626386951458,-0.05379013612359969,-0.06169946138625659,-0.045858637130439694,-0.10871304464208205,0.131789591796205,0.09033216980854067,-0.08921396596458857,-0.20961440309265483,-0.172628172974965,0.12638239795996037,0.15289913127547614,0.05940290723019306,-0.011854489327542678,-0.25458292376152186,0.05381848041525927,0.22439789808032332,0.23054335893020397,0.2228004416441348,-0.19230371224283263,-0.022025800433102934,0.15970578385238537,-0.07899136516190958,-0.08864131601038311,0.002056860376012076,0.1694725448833145,0.004621545718113771,0.22803798527644012,0.16406177320687257,0.1340965187653065,-0.010865064088879207,-0.07828971777911396,-0.061973297833969015,0.19648966357542944,-0.22769542599789927,0.20210645704355146,-0.07432002199743888,0.04083460176335052,0.1343192032485124,0.02719178452380284,-0.13248902690895786,-0.16314819495602956,-0.22031946999189772,0.06990316209130641,0.25233720953469485,0.19856805381777168,0.011114282228907868,0.021338712091257227,-0.09837165848639529,-0.12504110803210838,-0.0735001604667124,-0.11625617156961619,0.052759445749286926,-0.1347902565350992,-0.14340850533577373,-0.08882451215759334,-0.18503619110371758,0.22473626502350497,0.17566725012967316,-0.12495223842573448,0.13784429148404165,0.05769381783968128,-0.1537790562414993,-0.040741973628654955,-0.250442186953135,0.011275714868566527,-0.1536458527616846,-0.110697223432798,0.2481247743602325,-0.12097007761877955,0.19259391120234806,-0.2266035004467144,-0.17786496066481197,0.18510307569069934,-0.08096728256788877,0.21100901760769325,0.2570277294220913,-0.022984683601396338,0.10746929152168684,-0.1272971902330776,-0.13353772672547787,0.0686823201652269,-0.15941492731998255,0.0037724652333218298,-0.010530977886692865,0.10750855442195885,-0.042813907072456955,0.1326082567748953,0.1192420571923187,0.19074695626217494,0.007332964823237512,-0.08457997142063932,-0.11720244911347245,0.08131010153142032,-0.03917291322937748,0.21711905078805815,0.04700359474932365,0.18658707928601292,-0.14736093840057551,-0.15365114463620888,-0.1339046530962138,0.0441908924425127,-0.13602333519392754,-0.1813907357544828,0.17782987552170126,0.2493784516488206,-0.23831467139259144,0.1387074951303801,0.015107918699708664,0.10556054851019157,-0.0931587393498949,0.15647170802429838,-0.1895241644936429,-0.14940825091566007,-0.23166673813896868,0.04415595194897661,0.11679504637713324,-0.22115394560348908,-0.0202358300150711,0.23572816862456833,0.012193659753478511,0.2006740517152182,0.1347328490302918,0.07373422806896666,-0.2500256185596627,-0.12991547172448858,0.1858306320291676,-0.24372216942836283,-0.21353114934221232,0.0835346260692919,0.2303589435549959,0.22759393329796598,0.030549693288728304,-0.07253989326963131,-0.21346686957444053,-0.03203231279773544,0.1891436197650602,0.07798726132983509,0.15403847129514142,-0.24859212986409512,-0.24514240991939476,0.07899669827810833,-0.2353197220636449,0.07592340889160018,-0.24487925276132097,-0.14744703134274698,0.11699075135268364,-0.15989386122583074,-0.10212430373078353,-0.22948903090680867,0.22497712388479596,0.09648342880506017,-0.21504022412783128,0.05340199021619895,0.14297905186015478,0.1773478427316372,-0.14270014224571592,-0.08080105923003837,0.17418259827093058,0.2497525547219929,-0.0715581473354264,-0.1361417275834194,-0.1632648818081483,0.04069256355344451,0.13179480547291747,-0.10153299129874362,-0.19349982832896276,0.23219182091579507,0.25736176724850385,-0.015645175406133797,0.04373201331115741,-0.01389964214378095,-0.05590769913640428,0.22243170071764165,0.2123257115701588,0.19166879055690278,-0.12370463457962615,0.1697623516756063,0.06826047421186979,-0.15984883816965442,0.21257840555403773,-0.12801235581823361,-0.18563264356429743,0.053963136329627334,-0.026786578996119886,0.059405098308433754,0.06746666680772045,-0.008841753025786015,0.1046071990625607,0.03860768439213034,-0.2504411528885206,-0.027984442282423874,-0.012478824754775773,0.1056442305675259,0.05256153554960239,0.10686489402558669,0.18989781654304183,0.0055388122030072895,0.17486501969744692,0.10461604285315988,0.04213119023066502,-0.0926510151351048,0.04228036159220926,0.05590430321432174,-0.19028898374895828,0.11946411164548461,-0.11622735966540244,0.03052799246566154,0.1715356629381491,-0.02435069726184336,0.08643563874140259,0.02442554799100623,0.06359032122426304,-0.14063407111328197,0.18254102856439602,0.08721750999379177,-0.05837021204284876,0.0801034011728902,-0.1370423255098652,-0.19616626064724416,0.1313511461406585,-0.18250149350406913,0.011573481720785093,-0.2217443510875411,-0.22049169866764592,-0.10429006147227102,-0.03772163628107628,0.1350270919751176,-0.23230033778348722,0.033853743798484395,0.016187873515979133,0.033807222067756146,0.25355317305689645,0.030558342047329073,0.1536418747062042,-0.10477751938739935,0.06980168671546344,-0.15880211410167938,0.05769917699072401,0.13660045285370737,-0.01877952251438839,-0.20974982137858175,0.19787031344567912,-0.23576314306123786,-0.22589452937284044,-0.09214725026294372,-0.12752069636343066,0.030827100337181154,0.13869897964753608,-0.20905427047253825,-0.08876631879821273,-0.12460441688573716,0.17198776950042202,-0.1311098252361779,-0.03725364854240208,0.0734853260064284,0.006203038030620861,0.04318926359092919,0.12853623919191595,0.09459973811730152,-0.04258643543541748,0.0006909049612951134,0.061607436055286055,-0.2497447812842143,0.11933611094949313,0.1625247340040336,-0.21910752104860676,0.2166733644353263,0.11507048275094243,0.07464276460230043,0.11015663329099216,0.06068851704647458,0.14251469861824267,0.21863186058970024,0.1833547140580035,-0.1990611727478378,-0.010848444588865424,0.017292669909692783,-0.0933243273681132,0.17200461246271262,-0.03481554653509243,-0.14182174926078042,0.12711743714982462,-0.18526531494022866,-0.22303011157270355,-0.1703396286661449,-0.1473440285773116,0.23151885433497493,-0.0858427060532585,0.2115538344986329,-0.13522447328967752,-0.2020310297060755,0.06503803160396053,-0.1451295084699072,-0.10323865786794562,0.11932968155327661,0.08225205428932172,0.1171786116948039,-0.08858556972241012,-0.07702015537409246,0.2473404813526186,-0.024746207427419047],[0.1438871925776349,-0.24062803418198736,0.2472423173911291,-0.06681855171725126,0.25720233781100016,-0.048656560023542024,0.04848773778661516,0.1762459103657549,0.11552401079534332,-0.07848183768277084,0.19498081206024517,-0.19603892191440983,-0.117140129290077,0.1464958832425507,0.2031872491186999,-0.1434523586978381,-0.019771326326081654,-0.07575903042819244,-0.23469012687878132,0.007023693408457845,-0.07402985260463998,0.11885318264917444,-0.07701319094166972,-0.25762135476761916,-0.2235026558026734,0.01155852008670386,-0.07902687033421801,0.19087825412608195,0.1713440635210451,0.013808189144289822,-0.06350139181216587,0.01733232960770643,-0.06937606950378727,0.10046667424522454,-0.11141525154983492,-0.17290178922659075,-0.1173495270083716,0.2386391465519711,-0.23909069992244245,-0.13361649309635468,-0.24015387241899913,-0.020973226400486874,0.11621790732478378,0.024460241412839367,-0.141183090212899,-0.07034194464744202,0.20231159561405251,-0.1482483648961321,-0.2157487898968545,-0.034567510852483274,0.11955038018081046,0.16074898837902474,-0.1873639455188156,0.11799409901715346,-0.0013936780843092007,-0.2234520844165961,0.09454557869260799,-0.2422152299108857,-0.11143951670127435,0.05410629747316689,-0.1969851405296709,-0.04298528659554179,0.21994719196299858,0.0269273353702635,-0.18527427399915614,-0.00893071539057881,0.01588259848095479,-0.14777052209569624,0.22395149662498673,0.038422169869863104,-0.2550928879502721,-0.13509029032673445,0.02765105176862679,0.2394058216068454,0.14517673373866857,-0.13680651864899082,-0.19810651843692575,0.2517325782182048,-0.25322530699656143,0.03506911985453664,0.06979386305905128,-0.09669348735511088,-0.20557957701752455,-0.07134775937613506,-0.25060514590588084,-0.12027036733865207,-0.256950903850249,0.16057971398756737,0.07583591554299511,-0.030281987343854757,-0.1607835638076696,-0.040743489835876626,-0.16079111200291926,-0.252965625507011,0.09410884949078507,0.13504697080168365,0.10544313311615061,-0.10222947990351326,-0.258226570241989,0.07369591734452295,0.1047937378247029,0.05519388897253692,-0.24275065503874504,0.21845520845742508,-0.05207323601526223,-0.1092845217482053,-0.13636264741825072,0.2249157963702885,0.057808033615626225,0.11725405632076266,-0.12448310536364822,0.09631382121210456,0.008189350590771305,0.007133627956370734,-0.0854270786716902,-0.1346139881500708,0.024916045594668014,-0.23768248282715315,-0.162976424946684,0.08918591001356187,-0.024647096222321443,-0.07321886357878392,-0.0066624003543026,-0.025950515686667897,0.1985656004866047,0.17643549578526105,-0.18681328424596316,0.18895240385194909,-0.055883843498149725,-0.03520259654333536,-0.17491520747356779,-0.07037170115025645,-0.11018653038596779,0.06974631573831504,-0.1992776968277435,0.058642820718529255,0.029812797187665854,0.11741817318372193,0.08964439002285941,0.21096178336379343,-0.0133587856585994,0.059047425696186547,-0.04502974800336954,0.2519592690923563,0.23468325708763638,0.21911000880893025,0.03488213622911974,0.14738005616625222,-0.23118513587560746,0.04353764276147003,-0.23760767210989406,0.13975209532213445,0.10150862136432644,0.08418848335150629,0.10224364859606493,0.25476638802741924,-0.04075982297525049,-0.2286135467655681,-0.24927229753024072,-0.24980795651119048,0.013661628029621533,0.013730685614417787,-0.11755321160153545,0.13968767006627647,0.23174165399713254,0.22255600513657503,-0.06920981592179429,0.09931962786117586,0.005832271799996618,0.23427441877065272,-0.19177854416360665,-0.23239449752758565,0.2487485670842585,-0.0001223672554539527,0.011370015732355921,-0.2219650361606266,-0.05246732514668548,0.1342166557509198,-0.15607561822192925,0.14495482832051462,-0.10371020658035629,0.07620926440741937,0.23083466470872274,-0.08080763680495365,0.05111251225562764,0.1109614662225251,-0.1511209730492833,-0.08473110471800593,-0.013647845640370538,0.00011344404188867237,0.1447358536234617,-0.04217272253917833,-0.009185683409577898,-0.1602001461535231,0.09781187453383242,0.08709516406897462,0.07948174320388522,-0.170746024344581,-0.014767513122035723,-0.2425430715076027,0.14146442448015734,-0.16752246727572587,0.009415154476182548,0.16061144525636517,0.13295606916348537,-0.18562034123541446,0.054560807403197346,-0.04378070798191807,0.1122750669210705,0.06218583530498961,0.081792538551485,-0.17035891943264225,0.16140173916933695,0.022045162854576538,-0.05975950298566099,-0.24866765964211332,0.007341346273262267,-0.09093880875720373,-0.23259646289306904,0.06378698910976252,0.23249343001693334,0.022656452673192974,-0.02578277249274401,-0.11976827870056306,-0.007046366597801812,-0.21410010754567202,-0.16928177719752036,0.23511772324912,-0.08701857338060207,0.21563143132254098,-0.03506571472496375,-0.13326766104411628,0.00471701337849635,0.14869993982000848,-0.09865813577277777,-0.007929318036782157,0.11061232738552823,0.1582660987772237,-0.1296289066488455,0.04653811319140603,-0.0663386036078185,-0.1834908001144431,0.1338292743711606,0.23095718655257647,0.011988222570816,-0.13714424392382443,0.18874693878995938,0.11414521606634936,0.18962699429399682,-0.1329082493507119,0.2465199901767534,-0.1271161161312401,-0.2347134521332187,0.1730920114349769,-0.06655644350974584,0.08370685020788682,-0.21440674182905403,0.034511647620233114,-0.09329867687176145,-0.19756058886362754,0.22785377609060767,0.13635502080792503,-0.007804986980944473,0.15266518327212614,0.23794675789741285,-0.12714150971398216,-0.11024953301253901,-0.21801876222889408,0.22816291517862564,0.11716947225594292,-0.11826845756478442,-0.013583353128511949,-0.08451825565043655,-0.2568043499703243,-0.252421112444177,0.14607026994817413,-0.07492401754029492,0.09010444700725653,-0.05291388749460825,0.13048449388274028,-0.047250929882239764,0.25644346866265616,0.16121845035955398,-0.24398057054253908,-0.2311276681195694,0.23119113266377347,0.21683692946548,-0.11665215378885097,0.09380835931677116,-0.2577677899556909,-0.11756075227437714,-0.03820353527911506,-0.1270103631712919,-0.035479727367688736,-0.24087145251618783,-0.22955861554596424,-0.07473124729189444,-0.17629110816930782,-0.22539676889382937,-0.13772242596215034,-0.22958556450221002,-0.16715433212822994,0.09211389806566293,0.03229364789722249,0.13099971208912303,0.2548461154841848,-0.14086223951970342,-0.03026549457843901,0.0664135464575353,-0.20375701908817612,0.2380761251156574,-0.1908573717998775,-0.009620256389713073,0.20510295998073388,0.09105726659971514,0.14939643952042322,0.20745794430312545,-0.24666363661176471,-0.11283486868180406,0.0019040912068611958,-0.14495451055075217,-0.07316552958262074,0.013212727541855823,0.2474728156782936,-0.025790352160852344,0.12185123340870886,0.22107039661401212,0.24456784847356197,0.25460596265950675,0.16677689689314598,-0.009563330086683053,0.1262794453204214,0.20923044153804643,-0.08526327898955963,0.2344651369052644,-0.15540124790959875,-0.19592051571582503,0.05021894687639377,0.021817226248106524,-0.244074504788552,-0.08187658158815074,-0.09327136344117357,-0.06237944020089439,-0.23513658028176143,-0.14143699539836288,-0.16462916775431513,-0.21380249992500414,0.1831402334692805,0.19364544808838077,-0.14105611790208475,-0.020329158837086723,-0.21016240274132741,0.24685055005921006,0.11543060028450118,-0.22561605714254807,0.21156190497118205,-0.18532409755504478,-0.06325372735736008,-0.02863525047370213,0.22067101573627754,0.16239480667769263,0.22737188332700273,-0.04364804885965909,-0.23154769742263098,0.23290785238143236,0.16041994366044218,-0.15069461086231997,-0.012099269429422856,-0.03295037888848016,0.10911524829794202,-0.1600563733959836,-0.10603672716980224,-0.18240168812864058,0.10421204618275415,0.12910284787903215,-0.213707150141765,-0.20075242975112037,0.03160999862428473,-0.00779243736306129,0.1451877329183583,-0.008701080980662732,-0.2456148197541664,0.20471830868829016,-0.22267860255785032,-0.035230406977640204,-0.10439496427038976,0.21572594261031322,0.2005830037450277,0.25560266940792326,-0.15134592439746133,0.1319824463707215,-0.1883490935009615,-0.06225284269831039,-0.21724182189668026,-0.14663850858189317,-0.1843235007023383,0.07737382296809087,-0.17456097886267144,0.17170941670190412,-0.20816359958745453],[0.1547632132236088,0.04437866178410333,-0.1465215215003237,-0.1719912026134977,0.028834121940604546,0.21699120722954973,0.23189648122091425,-0.09045374110826612,-0.0660345799301048,0.24550786996515706,0.12286851532223958,-0.1252251094518798,0.14123124177214869,-0.029532434774372833,-0.0860026201386434,-0.008666405756798118,-0.13036948299195847,0.2016885103861967,-0.08913918745411235,0.19250615132850787,-0.18646878934039693,-0.245320945549927,-0.021630830292752257,-0.18561700216286858,-0.25287367271008887,-0.17971001871505754,-0.0312688160073108,0.2441016083130316,0.06963731746305114,0.18395497774799638,0.15906568663284812,0.12506361507238736,0.2155995825503661,0.07793669141828867,-0.23516745462844207,-0.07569056490425917,0.09398739780471571,0.2572566157487235,0.02394886079862303,0.2214369474628496,0.21474962447740006,0.25079566442829865,-0.15014497526130655,0.06889448942169638,-0.1113134223073099,-0.08982605978148075,-0.14395329547093985,0.07135249703252955,0.09920062724468483,-0.23752979937312463,0.08944892558301386,0.06382455153773044,0.2269380571407912,0.24165489608596002,0.23979931795422216,-0.17640964527899475,0.05451228952097488,-0.09594956540468916,0.09692391415363831,0.1854638779226269,-0.22572625014238515,-0.14460130011071382,0.00749158997160266,-0.22718289000832395,0.06273619258058204,0.05867899327094546,-0.07683805661846084,-0.11035310081247272,0.24921068470913355,-0.0671611454716286,0.14733646526114694,0.1079835376166849,-0.1448392393137573,-0.07820994354690787,-0.2577598719283057,-0.22837517253720163,0.22397408464266733,-0.17047696346891464,-0.23609022984999506,-0.17568739412116316,0.09972014385452839,-0.18137131055850284,0.0742512961871921,-0.1832805348634307,0.12623717581803487,0.1363837513475556,-0.10161316808259888,0.15940167264349284,0.15028582936209567,0.017524318624783125,0.026558703458853902,0.25668269968013796,0.25499144471303786,0.15372902506489494,-0.16225259718587445,-0.045443295751283835,0.2518169985122003,0.17098427530552587,-0.07035060144312316,0.005255131036921449,-0.11586720175823882,-0.23423820643767246,0.053341449021125496,-0.06156235742597313,-0.04934721206797367,0.2178146413442728,-0.07958759112915359,-0.14997244499708032,-0.17255631690857906,0.16835287234449314,-0.2048804311827048,-0.16998273552106336,-0.15844297973222055,-0.2352377891061899,-0.09276571436676949,0.05608737290788196,0.09509087204084159,-0.015880678999072976,-0.038935311645212266,0.11236309887362529,-0.16298004314287493,0.18296701047054953,-0.1368154714809068,0.06743449350657826,-0.06803903365966409,0.05437282547904879,-0.23207839374472491,0.08545312177770902,-0.03828657551078177,0.24282161952571574,-0.001177289059311067,-0.1582957600358193,-0.035315302837538254,-0.023159114081418863,0.14479099044532812,-0.037162906126399525,-0.22182261751271926,0.05667435880239277,0.056373917596297736,0.014716510524934688,-0.006466163028687894,-0.10594391736985809,-0.007202663910298852,-0.23394727819591063,0.165355046959767,0.23183655020552146,-0.04072788978542563,-0.0072119331132575295,-0.08553339678803017,0.08365300667625772,0.06299863873669903,0.21115856501412186,-0.12561744325480703,-0.08038675918871413,0.13953746430209274,-0.25519882464935145,-0.21875361062357748,-0.16873153330588872,0.07359580920407234,0.14936246532898614,-0.20131551352717947,0.10497610331249113,-0.010433782337911946,-0.09848504355782875,-0.21314580871768546,-0.10607461403228628,-0.13933073631525358,0.19724216634300815,0.12214436433704294,-0.11341578001230608,0.13458601624208394,-0.11086807805228117,0.06342289054442975,-0.11689145681987954,-0.15830702652543527,-0.05389114670719099,0.003842956768277904,-0.14745046815401944,0.011587771463877091,-0.011007820426289719,0.15955704152010097,-0.12342966541771773,-0.13935345880168115,-0.14058426682372033,0.042306632539674933,-0.2548441927828652,0.14853747324985456,0.1825159799268843,0.01089012755987957,0.09059458399400902,0.2539524790423502,0.11263182819877152,-0.15342627317198393,-0.21866148862009682,-0.17806119303301496,-0.018892548496306085,0.19441279755410648,-0.029203141342977395,0.153390517477228,0.14400695360056753,0.10705626714310948,-0.05928291244344301,-0.19968743324980825,0.06248663486092645,0.05200689939527112,0.03525279091429406,-0.13062912706540517,0.0607337323222468,-0.2552137384091569,-0.16086178687401165,0.1311531274601018,-0.15387400902438342,-0.187803841718427,-0.022645648930320988,-0.13209785410391775,0.2519169086893161,-0.19474668230643663,0.011967926756024809,0.2211862844013096,0.05006888862446549,-0.2407231466292977,0.22754072722836732,0.19105200161773753,0.12458553497216412,0.15862557489658533,-0.13380887371202155,-0.1490964623138871,0.09529316136470027,0.024510090920816192,-0.010331627150568708,-0.006481191084137429,-0.0032534949854455685,0.09936959193675365,0.2494952546761827,0.21096114504442176,0.07809515734344011,0.20103897809276453,0.22176446076147316,-0.13540870845898523,0.21201834555846025,-0.258403769658481,-0.17899806435458354,-0.12578217244208612,-0.07506172275663882,0.10799990338907724,0.007540633234197631,-0.13673551985779062,-0.24506999799490334,0.22831644639564525,-0.20667464322936088,0.14287322414226797,0.09552907392104015,-0.034509231283869374,0.0018498835245184702,-0.20959325993467698,-0.09145719350793828,0.2552297216008847,0.031113410634250733,0.19712481978325644,0.21601510096985976,-0.2504788777339826,0.19178652926142292,0.2111184021833731,-0.045262417784796075,-0.047368639250620806,-0.004730614749345554,-0.019851094588756054,0.2079820839044574,-0.0296911405183893,-0.10028429176237488,0.11069571566457509,0.06068702877540172,-0.2537819451763181,0.11865212634480966,-0.18653085700328603,-0.1434341435438185,-0.1982336563354775,0.2346102507300662,-0.22176787246989826,-0.13594344405220932,0.08725179118539203,0.11826908847731869,0.07746799637844883,0.2456206515085854,0.14699263351598005,0.05377809893813063,0.18326852843925645,0.06505814497226294,0.07755878850697599,-0.15478122364891342,-0.24128521764479413,-0.06741060048880348,0.0863308611579086,0.2574094000745635,-0.062328606491925696,0.04392214472275547,-0.1962729203682377,0.0025691708358132033,0.17605338144693894,0.053254054532232246,-0.20419549296809486,0.19608909205391659,-0.06573784622459927,-0.16974707527707886,0.1244594499463222,-0.04768733048722398,0.2062574681426796,0.05224726140801454,0.0635879885841441,-0.21859600402949841,0.216649774825714,-0.23280822307111,-0.12481324936306634,0.044587074022273014,-0.013153895795191568,0.050291718772225165,-0.030835779077697804,-0.11620012974038,-0.03340945989984178,0.13270186202205758,0.04447498957725483,-0.1619418296468241,0.2089733296770489,0.07809249004616006,-0.13254486163114637,-0.10335890101091544,-0.22583164025802496,-0.21364248709561467,-0.007436482263542363,-0.24768959874358548,-0.011941707904020327,-0.10814172424103641,0.13668498167353293,-0.03224717557658269,-0.24946542969452148,-0.10989606122329089,0.20300656101160508,0.08260327038264023,0.2256768852642452,-0.20025748924059494,-0.1396042326719492,0.01548247404351019,0.25516867909769403,-0.18797206212660256,0.18391815439016435,-0.18183335433911127,0.14168805404515883,-0.21997409192926803,-0.051693207490496114,0.07678173688145204,0.14289848353139437,0.11581459611377669,-0.054040750985391905,-0.1554197921000573,0.08650182683933894,-0.010784400261849241,0.08524050788950459,0.04655542417485636,0.013276012972574235,-0.08005466770218851,-0.017426311693046245,0.017484203177268648,0.24724452458203106,0.17906459407868033,-0.21914482521456333,0.060844061695002845,0.021563673286675963,-0.12330613311745144,-0.06328146231377314,0.24369725490121852,0.1388730464800023,-0.07184110138879007,0.007071660098222997,-0.23083867515641204,0.1591962550622529,0.04536729644765226,0.06628652714071354,0.10271339459859755,-0.2172906536410311,-0.16489113683934298,-0.10635760270767897,0.15578374685731924,0.10722473516998215,-0.20503484902398703,0.03869100263397238,-0.12541149738673157,-0.21217994370774032,-0.012643802823572817,-0.02003200063493075,0.07690443504837637,-0.0801714442337055,-0.12557124829790176,-0.08570929053467385,0.18818007705599865,0.1058647163537205,0.07872022981122764,-0.04957137492215227,-0.21455983803856576,-0.1559600184186659,0.1596330157246795],[-0.1807064235630435,0.1417503612529855,-0.22456655908420214,-0.2568070833117924,-0.22649715269152812,0.09388500533228855,-0.11894696844178873,0.07043588364634937,0.07439299063099372,-0.057542235144357724,0.07583665320973788,0.15979320379708542,-0.08016295966348079,0.0036040890423350747,-0.17273451356462055,-0.09417130738582735,-0.12580758760900657,0.09235289346217099,0.1652039026110082,0.149415249670546,0.10592243022233962,0.04878226795133385,-0.11179590272437716,0.1641737185800387,0.24278927130810884,0.014025879829753595,0.1719440671451275,-0.21116145315316895,0.20800206577695984,-0.23143402466817667,-0.0914109740830095,-0.10949324768836849,0.20715912317746416,0.15789004607443718,0.014362572438276582,0.15205854839192937,0.18811239224804147,-0.1436878462265629,0.10176937496244946,-0.11238926765261907,-0.2357735590443109,-0.23101830093146977,-0.0007423215009899742,0.13464175984590848,0.22154435364389932,-0.1321289374971808,-0.22629914697787024,0.0063393300157040455,-0.008346193978248751,-0.20379849104570597,0.16595071902038966,-0.03300612522733628,0.07160181705613738,0.03393478846626394,0.015284456672901096,0.12183486765025452,0.24712272448188963,-0.18419121770083483,0.2164019426835138,0.1700359229498666,-0.07179863650927948,-0.198013535986068,-0.18158217260753323,-0.018962312720270925,0.07133833225742292,0.11828599145085421,0.11185661441213639,-0.05509139826939038,-0.023279696952299967,0.15652142639383707,-0.17939806418683202,0.12465972468080015,-0.07966395700312152,-0.017066451187538984,0.19081834393308883,-0.020096296023956513,0.12956497549347373,0.02171684018026747,-0.14618593459852694,0.2450435574750737,0.21605712358208903,0.06616798750676682,-0.09108436601467826,0.17008091636022346,0.18263315926456047,-0.2129122281470093,-0.013911036039269423,0.12438087201399597,-0.2464878274135307,0.2574225419560276,0.020697468563377164,-0.006071187979711618,-0.13816310373666327,0.1662928280317419,-0.010262586154199905,0.09514366728700108,0.02684587730585371,0.1351767940069887,-0.0912973631869232,0.07757304679638524,-0.19179355196627185,0.10920994516837433,0.0948546279140692,0.21896826033877034,-0.06994551852286454,-0.23013515682847432,-0.11907268464433936,0.10305621651142638,0.12036992734786979,0.1588075776508217,0.242248956369701,-0.03268942051086,0.16806206404795831,0.15922326150630162,0.21240124511515343,0.2428526587415879,0.030485847192234277,0.13214500976384452,0.1406508784541871,0.2520419129406565,0.2156473036846354,-0.25508600944633936,0.022612107050682676,0.03866547888143412,0.006764211668021537,0.14535559461241757,0.026762886988162028,-0.006545677691774283,-0.09982076813184666,-0.10805628694556735,-0.19193103283038576,0.19737140588850485,-0.11287678623352466,0.23849892106396572,0.04560789489138956,0.06242377779423394,-0.054521614554652126,0.24033145049313898,0.08810838832258937,0.16384414725216107,0.24836963618037503,-0.02051751659524122,0.23677515754046558,0.1047153492395561,0.22285659480858286,0.019676210980221244,0.02856364220542187,-0.15804359513558902,-0.1928928233472135,0.011324320559630993,-0.12040097825246968,0.026645325710523544,-0.005612424045042789,0.11233047377778557,-0.068660844558781,0.19699437477660478,-0.24886544675737834,0.14597205290654003,0.21806641967726148,0.07504254065112839,0.2398979761290188,0.17975812512612202,-0.25340821144232367,0.05439284694334766,0.08373847034479687,-0.22250522180241203,-0.10362335385166173,0.257735528557766,-0.24090352691985145,-0.09681445366477305,-0.11886683387368846,0.014511343615880539,-0.11146487112984069,-0.1818672482552652,-0.005069244013857142,0.057327829616030355,-0.2458761878348792,0.1455985753073656,-0.1969448943050356,0.1254296905051533,0.17623310991229582,-0.2393138889243466,-0.23971391004965775,-0.14799890225805065,-0.10822096679168763,-0.08115072869980625,0.14800087721264044,-0.02586653670751376,0.18517256087870668,0.21687305686107494,-0.18992425593393114,-0.029048703627858566,0.24909061111194608,0.2079840866167036,-0.050452518528297206,-0.24968965698169193,-0.21653921581642566,0.07050154639361969,-0.021159999939685675,-0.1946819126601188,-0.24464901202958972,-0.21148780479944987,-0.1016710911534191,-0.1854687691683811,0.003487964238771203,0.14018172958441483,-0.06249717211406879,0.16490962595438952,-0.1655936325030311,-0.15997008205797025,0.03462858612007397,-0.23919806621691056,-0.14384448598299754,-0.022859702188921287,-0.25839369475173435,-0.24434855708854836,0.17232397261982227,0.24044344071337106,-0.10884166027418468,-0.25494298474524985,-0.13489413110262696,0.04196230241668682,-0.03480532412211798,0.2181612046372057,-0.2260225012346307,0.037119905933933495,-0.2446016117178161,-0.08113472949799753,-0.019659620037756387,0.03783342970945661,-0.01936166784496359,0.2082038392076566,-0.2459149732928814,0.04416838764029651,0.14385607011741808,0.012017875269976153,-0.10417008000117163,-0.10749765684167778,-0.16183393201729704,-0.25736801818993277,0.1588555952224709,0.0942883058889577,-0.030934790093089776,-0.16119094542496495,0.21589616151767443,0.19831280640594914,0.16459557607715175,-0.239077480014124,0.011828945685836393,0.10089574300229537,0.037822271387647155,0.15713903924997674,0.05887705860463061,-0.03451772320631633,0.10896046607535523,-0.05387563593003642,-0.15554298108245287,-0.14285833316154345,-0.18444829490135034,0.14654434141652772,0.16399364576937298,0.2136138427189802,-0.18399296636140317,0.13975078112090786,-0.22034036702632823,-0.20507303467965232,0.21270687086392792,0.1992864504688436,-0.2562051163086395,-0.07095937900196286,0.03908221264858824,-0.0380579324058115,0.20107260769204122,-0.18502251571097877,-0.10955460368806502,0.16392742265649976,-0.06474156560582293,-0.10710443262278951,-0.17065788573611648,0.20935662512233602,-0.07536406489863556,0.1335604858896043,0.02339671838991549,-0.016486149815029313,0.25756409318518914,-0.25491735840049284,-0.095279644010659,-0.24718582974187656,-0.22603909874789477,-0.2521545716813832,-0.11256198386067867,-0.07746289381503935,-0.06480895791499709,-0.07094787817827936,-0.2196016454909581,-0.01610274223142861,-0.2143575226329596,-0.07495325261829487,0.007038668277778865,0.022853699071181895,0.08886253632644527,0.019450802685336548,0.18893883301911119,-0.0688859560228526,-0.04217754551065544,-0.16557175981639335,-0.25520383792914947,-0.09606027915477092,-0.025536672477239727,-0.05902719177744232,-0.019981505645464612,0.10244721655767376,0.20678897359904547,-0.2396760360843588,-0.23137461835142117,-0.20732811002116272,0.1207871959094732,-0.04857767199998693,-0.20733805387145618,0.2493464958582131,0.054584041101755604,-0.02927659578817206,-0.25312589443690525,0.14903455352442185,0.053489457013814364,0.16748132401344779,-0.06229477352676109,0.09962975728090767,0.06852531852114563,-0.17539346219382138,0.04450512109132908,-0.05519811642888192,-0.04749346188081624,0.17969607990463787,-0.249757193683724,-0.20661295999672208,-0.06757665843202851,0.06877010005844986,0.21708074425703924,-0.019325633540569657,-0.2442750831468876,0.13320026199453838,-0.0069260352005239305,-0.20620182448260355,0.03592847918328007,-0.04070886999011956,0.23221847108626506,0.1647742724544199,-0.18482351676726658,-0.19857793687235595,0.16568793625505823,-0.1703108608446281,0.104514682837585,0.04874030334750089,-0.2355615971354906,0.166437826552402,0.14105965312319668,-0.1101265549058618,-0.2210177170659685,0.07971916304859188,-0.10616490882213021,0.07017062314526977,0.03451764394722659,0.12834671535194814,-0.20394453790497863,0.24128743293319924,-0.20881251311705612,0.07537558255809018,-0.030223271429518216,-0.05286032259065712,0.1821014922864226,0.037613434881258054,0.041729964372305875,-0.07122176832130364,-0.2092016011875026,0.05463663745471601,-0.14132942399620582,0.133143480252103,0.06513804905595676,-0.2095609950573856,-0.08507789911826474,0.043115191902825825,-0.14142241040845774,0.13674966274073028,0.08959451418819872,-0.1247178727684778,-0.03866759833374156,0.07360757669683916,-0.01835903699237516,-0.25504171294171524,0.068238941507422,-0.2026847588565201,-0.13141047206821801,-0.1021901482973431,0.08359256796525322,-0.004574125522146984,-0.18169560256469497,0.07581216129279937,-0.06991410209946783,0.21727075292120115],[0.06254351972574938,0.17868303960892173,-0.18712518187112542,-0.10715867270286523,0.11465099246294853,-0.02440090527891901,-0.005016324170884497,0.18928087878498437,-0.08404002349511006,0.24447508029650106,-0.16669237906409592,-0.12053769638176225,-0.11430061778721919,0.02624017672382134,-0.022965309275841148,0.0818001074346,0.1625067754447177,0.0964074700478523,-0.1788981884398854,-0.21569953980261253,-0.13193116329433585,-0.0333647821156135,-0.21412395352744315,0.1644824098182264,-0.020685442241496235,0.19054473340525455,-0.17089632178503497,-0.04432566622432244,0.12816992217490678,-0.1643088769061318,0.1655226610109888,0.16615142041929643,0.1473329132904712,0.2273554961999997,-0.10654101741832982,0.23566313104848943,0.1867228387573415,0.0870099489519436,-0.03227767987735573,-0.03321474428681878,0.18417760666230948,0.225886106573323,0.17955106685590874,0.14137482580323396,0.14972612619897072,0.0021453629331368487,0.061869947804172196,0.1995773460615146,0.0811200977315439,-0.006269445646851615,0.09378743343821698,-0.026571803958958005,0.2327156612711859,0.14444187351494062,-0.09594676054344768,-0.08413950933174695,-0.19259578900295343,0.1108551692674898,0.13192792091425515,-0.10563985575741452,-0.07634503855377188,-0.21743992513736107,0.00181121297199396,0.17772119091754662,-0.19009752256143184,-0.15021429303946035,0.13222538463280878,-0.07752541248309303,-0.05845052321009624,0.07637846978044659,0.04521494246846933,0.17562563527993863,-0.09807787303758865,0.19897659298537132,-0.19908154082789295,0.011931753733497549,0.020356685637859723,0.12687656779693884,-0.14543763503165288,0.01827674321872634,-0.09693868486388872,-0.006431381297508375,-0.15417105787112678,-0.029881127944930433,-0.04102588547341431,0.04690883574465,0.25696398777914325,0.22667500370463342,-0.10426812293416132,-0.20826290324397762,-0.20756106529710194,0.1357741187832639,