{"dimensions":[4],"layers":[{"type":"logistic","size":20,"weights":{"W":[[-0.10626239165983305,-0.21859491736484188,0.21931897600354341,0.18022345507540377],[-0.4404785720114863,0.3448876511147109,0.117441399075614,0.11558825788463417],[0.005066161969650006,0.39978843210956,0.09634269459234139,0.10861014024575354],[-0.623208738999653,-0.24853240136997407,0.16949468581725527,0.12876558422413792],[-0.5671587934585486,-0.3927144641164628,0.15919224800551035,-0.5764974405840882],[0.40462563048007566,-0.2976560164915083,-0.5340088851293926,-0.6074197803493876],[0.46169214345050724,-0.46753362754876704,-0.3511944496496528,-0.3355121873368075],[-0.14220025823248092,0.3034521943876804,0.442404857119585,0.43797253767913225],[-0.5793857829650528,-0.01905764381210111,-0.269940854505218,-0.1349899978758155],[0.6168303383231343,-0.14193284823037083,-0.4124230750238325,-0.2842142711273727],[-0.38375836612714626,-0.24131397099350946,-0.10128848253824518,-0.1729393845072215],[-0.13876456515373198,-0.05105621937584643,0.45792764464876784,0.22383753374860435],[-0.39814808541333424,-0.34208086092194084,-0.6071644477051317,-0.4499931615806031],[-0.5141843972541289,-0.5814465149185297,0.5937239258145272,-0.24018707837162273],[-0.5275816307401004,0.11805174018728173,0.32706066383978294,-0.28133745532945154],[0.10343000938486922,0.13071689980189202,0.20194317526284614,-0.4212349470458052],[-0.008823161859559722,-0.4012196317692068,-0.07569458857682054,0.6241589209579873],[0.4298527283716769,-0.006419649850970864,0.602644280532511,-0.0272950856157645],[-0.04136449665130621,0.3659869042735428,0.319490854773226,0.5016236918575494],[0.03300583020007466,0.21277610025389534,0.36626846970731114,0.6291278770393559]],"b":[[-0.5085639569292968],[0.35928403169588563],[-0.02605777424054173],[-0.30750447193227554],[-0.06517405783477913],[-0.3797343336750556],[-0.20192791443438904],[-0.4335516507046957],[-0.11528458515274465],[-0.5375457818673381],[0.28997435063061894],[0.3883042978283073],[0.5504719143683243],[-0.5566254610617173],[-0.5689023994834839],[-0.42339486559575135],[-0.39415563904427187],[-0.45957906784583247],[-0.054567221069732025],[0.48538127208232096]]}},{"type":"logistic","size":15,"weights":{"W":[[-0.0021826267550978514,0.35353524645821593,-0.5585853594031495,-0.41992348644002736,0.031442474830162645,-0.29334518863485454,0.14103988918363633,-0.33479865929212155,0.23848828984239726,-0.03770281326517911,-0.5870697145369229,-0.37380089811823913,0.1977394142514275,0.04544283206053863,-0.416340430827916,-0.17166010185004799,-0.5518530330604796,0.18782134779193219,-0.005678754836091617,-0.5227581948947173],[-0.3483734838786028,-0.32152013390156614,0.30185226899621614,-0.3171021601698394,0.53004885861634,0.22439638870235268,-0.16854587466965867,-0.593150176601537,-0.48456093376846265,0.2176785524756155,0.35915588023374984,-0.37068656402085803,-0.19709411928571163,-0.2034139928293462,-0.09857405070591677,-0.22505405187195843,-0.4995231994075549,0.3493344043907272,-0.11492878791035435,0.21637685332557488],[0.5856090810403389,0.03921796528005956,0.2981095373961244,-0.5840301019534208,-0.02057397829402807,0.20439266060836453,-0.28299418675413657,-0.22632546714729848,0.6292514702636004,-0.36372810036867553,0.25232404193225705,-0.6274809412347425,0.5027361559126796,0.44589542717227065,0.24458706868173535,0.46957874766833163,0.45681366053543115,0.4986535968551456,-0.28061563062452893,0.17865872748915781],[0.46694513530188836,-0.6277281228074797,0.43920305070696064,-0.17692914172902527,-0.16755375974936462,-0.07500564211264363,0.5070263734833598,0.13409153396018397,-0.36249986090606484,-0.32431109245443407,-0.6186150010632858,-0.039617988225171936,-0.4129480301921025,0.13502679952939164,-0.4220103717380249,0.014873460173758828,-0.4070585784115346,0.4898981918262189,-0.27482365851039947,-0.3333669814264616],[-0.4810623741836785,0.22870483403458078,0.16526774209430303,-0.6131218246868517,-0.3809151638750486,-0.3747602854580049,0.1209710952339397,-0.09600108672177275,-0.6186213269132889,-0.0763967313918106,0.21915160040752235,0.6188413939856188,-0.5626044004374403,-0.49348123768555285,0.34982037090990725,-0.6098734796169621,-0.1735556165118758,-0.4519012993779273,0.0012274395154071398,0.08807002634295952],[-0.3914007486668684,-0.43457850059765796,-0.07666893189283205,0.4567213124948454,-0.5874323391119043,-0.2492672010781208,0.2854943553509161,-0.2389584374042615,0.5936538379075659,-0.1778122535446142,-0.16361649072884224,0.46165169083211727,0.6261043445824377,0.18298869256349445,0.2602872993613612,-0.18113453569750165,0.22910884667594444,0.4634626110163999,-0.5343527852887638,0.1499237774408215],[0.06618443262973465,-0.5821646348057775,0.6043004934129113,-0.4680392977343989,-0.04871285134126451,-0.28215737556541043,0.036210843126638775,0.07572359336554683,0.6187833215809847,0.20922391300679397,0.4594584796376867,-0.1055429108777487,-0.10643440490193648,-0.06016322718706093,0.34957551789037195,-0.038992927574400114,0.46961106834076505,-0.07198009108466415,-0.024880118694278253,-0.14339232823325204],[0.15287980387838807,0.2578866743208198,0.002732032679315868,0.6143194401547327,-0.09733290367622982,0.010079632582263274,-0.2290720462355055,-0.35272280888315616,0.5276325018050296,-0.02968541964644517,-0.5773450651603392,-0.30010332862843914,-0.5866458589478417,-0.03561974046970801,-0.019694472370215172,0.6015832078670742,-0.17911728731197935,-0.6204976514170991,-0.24127379336717117,0.21935643897157925],[-0.33884638562667746,0.15843932732768218,-0.3263938866807583,0.44210819187166744,0.1478988814142226,-0.2425144615714353,-0.6078567094992332,0.2607298820914359,0.5692177713171589,0.4385477112045037,0.5850860261627331,0.24268238663572686,0.39636468488478743,-0.2924126475039847,0.14366053961737055,-0.4680112560618679,0.475392335856698,0.4884112665907908,0.5139820923336672,0.4864267654719245],[0.40328340540309954,0.24468783213585693,0.5470603426673141,0.06347811488550055,0.19321227882945644,-0.10976393462672601,0.28898535911664636,0.5500743413106197,0.5503338283818375,0.3787023287100006,0.42966571798095643,-0.1359159827441353,-0.5541799637453821,0.0945572866046062,0.3859881111227109,0.1469762944377655,0.43988200515027864,-0.07221512078857434,-0.06925834403590313,-0.44955521802793713],[0.5865534476876499,-0.07944304336511637,0.34076074044159194,0.1726399701565976,0.2622360913725504,0.3694456690181218,-0.024907601657127285,0.2939507441941218,0.07177973063939841,0.33671017111236934,0.6321085243759301,0.06474572689654655,0.3735252693369707,0.4581065606448026,-0.5008221924845951,0.5882448257195786,-0.3857036033234551,-0.37475860299056263,-0.10646621467876391,0.5331215632414473],[0.025392666611832863,-0.6257734534782471,-0.5714979348830508,-0.207655813739836,-0.3266069670135965,-0.1753143372842198,0.5030280438635225,-0.38854743896990496,0.21435675692653908,0.11059038693035693,0.3962190770897894,0.6311580958584884,0.39148349164698093,0.03037949473797878,0.28101493971247415,0.24433507735472712,-0.03083579757907839,-0.08565588065473582,0.349995008310559,-0.2878581650888073],[0.316702863098147,0.46233643138681785,0.3679759893563191,0.0035586309591584026,0.5395841578687293,-0.10656911604195972,-0.08356410133672307,-0.24685381511714174,-0.3943753953131641,-0.6115799604531278,-0.44810795046187996,0.5799587801365581,0.06622783252997677,0.22007471285101027,-0.34482704980445633,0.17253103129839747,-0.5045248413365652,-0.6111697902436452,-0.08480656236272616,0.597830243946601],[-0.12104783321994349,-0.40147376278240177,-0.5665096901069492,-0.3859445428516141,0.5775457496012216,-0.5857213251753037,0.12816807566873223,0.2782689259000787,-0.2348931773075727,-0.005554810937345391,-0.08873026444028125,0.23813192804434688,-0.5136702783019171,0.3201774108761528,0.09028941716239194,-0.0033435230676831123,0.5468283729517137,-0.5425237507442092,-0.24659322797340494,0.36331737593492835],[-0.1700248420431739,-0.4980220658321097,0.5879005969828502,-0.009769803873178466,-0.1604933782419796,0.0750378606951001,-0.2361250430290581,-0.12947774131841006,0.4747733005418557,0.4801260769884268,0.47456701371271015,-0.4798575603793802,-0.6191145987809805,-0.6139065082793241,-0.018852212991397437,0.32040641878148873,-0.26447217492301955,-0.24889489719459934,0.5611603483783052,0.5749325413485179]],"b":[[0.5517982653595759],[0.07347442747470247],[-0.2136843583829846],[-0.5946882964904822],[0.10487610359192745],[-0.12404206888451796],[-0.3180917380752847],[0.5361962688652032],[0.19669514685847417],[-0.5394595961037253],[0.40333884755859917],[0.41431734910859663],[0.34219657674297377],[0.562208596246701],[-0.26100996152889266]]}},{"type":"logistic","size":10,"weights":{"W":[[0.6434905348632755,-0.14293963405588114,0.385946084130542,0.11658169158173727,-0.6841627849211723,-0.7030183144459934,-0.7113338829289628,0.015934125050754727,-0.3309435972219921,-0.21723874582454825,0.6924707588862924,-0.03287564056124324,-0.6118987870467455,-0.36167801638813085,-0.02158196936172634],[-0.5064157590633567,-0.6369249686046711,-0.16375184880844243,-0.5578721742821221,-0.3241450889435303,0.6439714599360392,0.41952588941117663,0.3466529029137369,-0.08765505277591808,-0.254307042861142,0.260209205261443,-0.4958258138420685,-0.4434518002270238,-0.35659929518372324,-0.4429619302762669],[-0.18545344682380152,-0.728222636402797,0.30622696260152077,0.08982802995821128,0.7295785555744334,0.05811049613966889,-0.5260440283852192,-0.699527837815682,-0.17173096574512053,-0.03616489482267291,0.5433875834691543,-0.3199171006210497,0.3783786499629036,0.048706166760344734,-0.610127875178456],[0.024967818988968233,-0.04758391498581815,0.4913249379166415,-0.4247846153551157,0.5565093402435923,0.062021249547037575,0.2771317809033171,0.29731634122138917,-0.2318660305998198,0.2615325083600892,0.6590411153190018,-0.1820808362758299,0.5603575604955952,0.605682704186222,0.21004211699513142],[-0.6299802280352179,-0.598290280683006,0.6005288567004992,-0.40208682060534967,0.49816507445426106,0.5143562484218436,0.16580284411369117,-0.3415816113523744,-0.30640351057013016,-0.1494497585595624,0.3355458657152796,-0.0011084100715027336,0.568601116818702,0.22776988863988,0.1609380476826209],[0.27142713273197816,-0.680422483070172,0.14754264039765672,-0.1943669125525661,-0.05709929739189813,0.18482462254452495,0.26639014312206943,-0.5775761394527147,-0.7271012319356577,0.4939249074685948,-0.3364874396964397,0.0190811431992933,-0.5857416706863473,-0.6671934919554997,0.41308856725633164],[-0.2212545827877426,0.3591138899471443,-0.35426500610120093,-0.4030419284806405,-0.20192921396957578,-0.48824938074339697,0.3083772666740806,-0.35197629171914097,-0.5059575379636532,-0.2914957495258298,0.6029842305252628,-0.0892294619017008,0.36647236724613264,0.5102564036202643,-0.5434791659206062],[0.32206465618420604,-0.3958463468945608,-0.19092124427028564,-0.044928530057399385,0.3845386120212984,0.5035563786952232,-0.6884698802988755,-0.5980112389833457,0.5862962477883883,-0.0024392837756987695,0.6360595481514681,0.3599951542449598,0.695146603781592,-0.48581104021241556,0.10394389798632345],[-0.46534017315921655,-0.7052064394273354,-0.27568587329642996,0.130852832003765,0.45337558629230507,-0.5735670164889097,0.12089440417046086,0.364789538509264,0.6901698804282399,0.15213834905657764,-0.06052236368053034,0.08991584198196231,-0.33799128796306893,-0.04727993119555708,-0.49419328292780174],[0.54581565802145,-0.3874663591993572,0.701295429506096,-0.3532652154003814,-0.13480691444329898,-0.5372020701109379,-0.5723626693149663,0.021527462348281026,-0.5006886339906136,0.30036885636124416,0.4502117768897394,-0.5480692248951841,0.621473412586682,-0.4237745733241427,-0.44678804633124725]],"b":[[-0.022401487193135238],[-0.20218364094928507],[0.15095965252358298],[0.17270864820935464],[0.714107703304267],[-0.17066774512076882],[0.3774501658316102],[0.5169749700898624],[0.4313945852944636],[-0.3978232081566117]]}},{"type":"logistic","size":3,"weights":{"W":[[-0.3557326403797739,0.8637251184084644,0.5603674362099176,-0.30991399366522215,-0.6206433944833355,-0.6626523610126198,0.5718467001056446,0.691240602019143,-0.18626189497011958,0.2684042035095479],[0.21760956017235353,-0.107635458213519,-0.014528241479333492,-0.45797737394944454,-0.1668539355904087,0.5246335739520057,-0.8419336435406652,-0.005895453866206495,0.0477003005298278,-0.4379100552539054],[0.6443644180451474,-0.0128791231237797,0.6228464403741755,-0.5175646540125445,-0.8589315770007828,-0.34164963288969463,0.14837139004989874,-0.29943455978057965,-0.25907066574275334,0.8565923097644095]],"b":[[-0.21294420991291724],[-0.4537997015261052],[0.008717099036455069]]}}]}