{"dimensions":[4],"layers":[{"type":"logistic","size":20,"weights":{"W":[[-0.24858598314259914,-0.8005840822264467,-0.051461464795768935,-0.6677089170905864],[-0.9360351055553056,-0.8323923484667792,-0.36868512635000206,-0.26578204357249474],[-0.15196485444017663,-0.7744915731869341,-0.8411507643505932,0.49760203273200887],[-0.522969687701586,-0.06922362373440762,-0.9107744484391006,0.4629170516847912],[-0.5024896557916281,-0.3259336985288871,-0.1603258616017911,0.4841809853106129],[-0.24516950254990874,0.10795612845993037,-0.44877344320615825,0.3448323730365121],[-0.28367920899328797,-0.6180391904859681,-0.2757143756156968,-0.5609317654295247],[-0.4587618648853564,-0.6436629417332166,-0.4203271921421722,0.1703102820700063],[-0.5643660452134274,0.09334422823205786,-0.6042598027327376,0.330458146007332],[-0.0453772799676059,-0.5720083804491567,-0.390202645122781,0.37099827383217754],[-0.9185903875007967,-0.6586922846218611,-0.5873699334676058,0.5507682604053945],[-0.2966375772053275,-0.731379714496789,-0.5896549946684139,0.17048676219523576],[-0.306274284756454,0.03125084098290401,-0.8585952185445255,0.33400699888502033],[-0.039407562418023616,-0.6081347153494729,0.040948345400086,0.09753836942011801],[-0.8777822829587829,-0.849083641985232,0.09092974802388357,-0.6915593026452836],[-0.10508318092369436,0.22848424856461907,-0.23155156499310006,-0.15246797097527023],[-0.6233024062131041,-0.5487044111976006,0.09890551123028427,0.30775884438607876],[-0.3540067127042989,-0.810036868185321,-0.1712577922288347,0.051065415971736486],[-0.5777113490133577,0.12093321785886366,-0.6518984241864788,0.1996212915022448],[-0.8752400033565028,-0.6121827106868242,-0.05296907757658422,-0.10038104161948566]],"b":[[-0.7599231432888666],[-0.15739176291783588],[-0.7197774225718232],[-0.614478390056158],[-0.8077462813562404],[-0.9689681374437026],[-0.7044618389295997],[-0.5707543147505939],[-0.693908604233966],[-0.9869017966005914],[-0.31953124624998624],[-0.6261030147317531],[-0.8358183570754605],[-1.1900320000604119],[-0.4642978344272616],[-1.2694609009213118],[-0.8415478537520027],[-0.7713938652324076],[-0.8615505056029151],[-0.4988255503475264]]}},{"type":"logistic","size":10,"weights":{"W":[[-0.3103130610164831,0.031405893532225324,-0.5422914977621137,0.3739639264937436,-0.2848357457495471,0.12537160054377458,-0.2873197779369677,0.2388828469413833,-0.022726111468045047,0.3309896577075979,-0.5459835582990952,-0.009540287390363248,-0.4332714516451076,0.06942567378140894,-0.17474418893769417,-0.4039086666595328,-0.08919664812255086,-0.4456409147009949,-0.5687445852779357,-0.17750620736812647],[-0.7470926877066872,-0.4559460640222744,-0.6452487338633028,-0.19964524116549298,0.06064020550911416,0.07006338753674189,0.26341269163640435,-0.07766378462466993,-0.06154919624899862,0.2847275882328329,-0.3950536078662164,-0.5461565804352179,0.12667175170550632,-0.025746705367045042,0.19709738151803566,-0.049677049852589215,0.05547028306762481,-0.7298328633586372,-0.30795764657752545,-0.7217945288010698],[-0.31564725107937874,-0.08636998286071507,0.08374471591780784,-0.5366658089889752,0.34203477712974134,-0.2076052165267276,0.20697648117838152,-0.15016123191861874,-0.7779507910941608,-0.6698551165596659,-0.23104678585396324,-0.6559798348340985,0.4076924216107928,-0.43937318052862284,-0.3680091216253698,-0.7315640152443775,-0.4745977713683812,0.4578262243232274,-0.34510203685470864,-0.45384773023275066],[0.23236636895313872,-0.05516069565179108,0.36423430803301776,0.031060141790270796,-0.5170693886912471,0.19277267787440286,-0.5713065454280938,-0.7003464724341865,-0.6276081848770612,0.2180771355829778,-0.3084722836841319,-0.7823598022157371,-0.05027244741294037,-0.49731190926532554,-0.44372266229035734,-0.7216620979018485,-0.4731626888790257,0.3831105994893725,-0.32983575358088185,-0.37420894452886916],[0.05209168460216268,0.36654059146255297,-0.45483952911344494,0.2305840536999027,-0.6974691442877858,-0.08094125799507425,0.11947651742904669,-0.3840531762760884,-0.19738126838343317,-0.07753733951707448,0.007591612689371015,-0.3090473768756783,-0.4776814514906624,0.11698193009726965,-0.3675273378342172,0.3229995992289612,-0.24195587178753805,-0.5129599711740451,-0.5295394955820988,-0.4669905659036007],[0.08884950204752681,-0.16350744571632947,-0.7821058316724456,-0.48636613722082944,-0.1456078596474678,0.1856109681463633,-0.2680542705907927,-0.22226796082604125,-0.14775838337995031,-0.4361775272373836,0.374483214962444,-0.24416880463571483,0.1532940468348536,0.2340386007800102,-0.2675503137450849,0.12915910469505595,-0.7433927104509764,-0.6532173276025723,0.4745705176966058,0.05009812631894556],[0.13125851392152532,-0.0853533208340119,-0.6732236220142681,-0.13167073790612635,0.10063941669273349,-0.6506542204438716,-0.563857474659893,-0.7379026731139797,-0.15090641721816667,-0.49124370148981944,0.3867088274667789,-0.5147482100180465,-0.2885276915256711,-0.4310876048868216,-0.7326322748010787,0.44279286958224423,0.15430879591602342,0.2020758106598089,0.4770438861773719,-0.30508985190742216],[-0.10669042267547525,-0.18611748737392053,-0.144518779885,-0.5422170570964299,-0.45891568612954026,-0.5415965619880321,-0.327736379716043,-0.09659672254176127,0.5136322576742361,0.11468515107117641,-0.5405410310060579,0.08151463466168761,-0.2605401627662617,-0.48963478373270275,-0.020806750109045778,-0.33435567123017723,-0.5075769764070991,-0.6574682731358359,0.11442538578827234,0.23123281150600083],[-0.687158842448975,0.03908309916215783,-0.3256215716393639,-0.721706189143131,0.08968715064161514,0.25666133179206774,0.25967229180654244,-0.351383621043309,-0.4882690282892997,0.09579720748125221,-0.597750239932727,0.3320878331985878,-0.1904460702617404,-0.058054970549597205,-0.7052933631033377,-0.7931094229659321,-0.11495374270425404,-0.19726797778914051,-0.704240904498561,-0.5074070612202689],[-0.5465381949974712,0.38739107236643366,-0.5398144635431354,-0.66755770185977,-0.3215752057714101,0.2655320986544826,-0.8426412370390904,0.18907676546130625,0.022488896805627705,-0.6531976856153475,0.2989276399914958,-0.15377624329829592,-0.40976659893788203,-0.3232924139824089,0.3974772197889533,-0.07203217707538832,-0.22581885941076316,-0.5102072986573768,0.05645765200165746,-0.6715103621562121]],"b":[[-0.9497671873459406],[-0.5951164141067553],[-0.12202805607494932],[-0.16490249452393715],[-0.5691225487132929],[-0.7636727984513751],[-0.43626577470028],[-0.6842931184716505],[-0.23815313877273428],[-0.4509289720385085]]}},{"type":"logistic","size":3,"weights":{"W":[[-1.0449245002749583,-1.0575086435543228,0.5105912474341971,0.36794840800485545,0.5506978973048904,-0.2731901308567407,0.37677267481046683,-0.46568527558984485,-1.207525825713617,-0.47917678584668094],[-0.6867902469213598,-0.5023888053750489,-0.024880297260237088,-0.5141039929856691,0.7110598329217025,0.7197673294949085,0.14114566616165103,-0.33650128719732525,-0.8041160434931974,-0.6288642398755991],[-0.691095867131095,-0.16952733358201316,0.5792286153682131,-0.15981407175747436,-0.341954510321266,0.1617173154963294,0.029586057267319693,-0.7277496412708595,0.06071648785779509,-1.0292316500413878]],"b":[[-0.49905945340981006],[-1.0778286246250977],[-0.7369797116926805]]}}]}