{"dimensions":[4],"layers":[{"type":"relu","size":10,"weights":{"W":[[0.8653233269502375,-0.7158555911354886,2.0490316162994158,-0.04957995938565515],[-0.5733665274292686,0.19017396839813774,0.2253050879058779,-0.04002718583377218],[-0.6765945362782017,-0.5635010145925775,0.176908156623671,0.5650863353290643],[-0.5025816358357197,0.28793612930605866,0.33813558898025026,-0.12107751105576062],[-0.6697530632169919,-0.21923793881504167,0.5844326589606756,0.585698920006428],[1.7071114567771144,1.8326683093885159,-1.7796621609586203,-0.19640595545445697],[-0.5064120738079233,0.6795394597619662,-0.1746639684104846,-0.07935127365025664],[0.03345094146954848,-0.39922843170711103,0.5784348380295334,1.4134069197552044],[-0.5167666635468466,0.7766394432018111,-0.8039681426897985,-0.25486473516989666],[-0.6472975855341581,0.19405820314017325,1.2490634855437222,0.2880977962005014]],"b":[[1.78881925428233e-45],[2.957890488893182e-47],[-8.496566755633459e-46],[-1.6249978142036186e-45],[1.2277551344818523e-45],[1.9915145867930927e-45],[-6.202088618385789e-48],[6.894208627765741e-46],[1.1490698205475653e-45],[2.3845760014553296e-45]]}},{"type":"relu","size":10,"weights":{"W":[[-0.8800046774935029,-0.2830459217695316,-0.20324489132484708,0.06629986059723475,-0.3625362587913498,1.146470737517307,0.4230799372266765,-0.01393718670131335,-0.09060332342985743,0.4169012410840455],[-0.741405207804943,0.12142159804514355,0.0714756181890131,0.07466803629946464,0.8547188201059164,-0.18818904091908628,-0.47036957322161754,0.6671111179025156,-0.6536225091158798,0.15597369089574425],[0.3513907834766118,0.584441618125304,0.8039740704239086,0.5455730575032025,-0.7152439012154783,0.0949953690211713,-0.5769038087440822,0.2948775257345367,-0.3914064623730511,0.5768888907697277],[0.42765952893373027,-0.2769860004690243,0.5706923408733041,-0.08043532857278907,-0.5173729229166026,1.0998107555669816,0.7404410253294823,-0.08747661897297297,-0.8184861856736464,-0.10909963746587246],[-0.45479620342395,0.43780824474125085,-0.1728549642201682,0.10639602114137908,-0.5845123000111366,-0.3373852582563751,-0.7945766436348152,0.3816056645578164,0.015018418245786152,0.21206431786227328],[-0.08811708926419716,0.09329661612910448,0.3291842773383909,0.29771003566865023,0.1253540388921473,-0.22956924367029347,0.5377868088104569,-0.5587654289019455,0.3494533540817896,0.6362538524089427],[-0.07385960595861382,0.5299891855793518,-0.11216401478995527,-0.3079563887035942,0.5732335112536264,-0.2932123192113162,0.3051732521635643,0.12706621709959065,-0.5875828679676557,0.11288077639823273],[-0.1315206996708064,0.5532127564247689,0.14664110233116265,0.6205463397052968,0.7162014175363488,2.392334711082036,0.5215578487248448,-1.1416879450480089,0.24803590694009556,-0.8889770317018382],[2.0018195734709443,-0.6142623402703391,-0.31799943899944877,-0.8288731960743808,-0.35209421321231177,-0.8502489004373127,0.7894360620327454,1.0196394009816405,-0.08828110351030118,0.8427421902788697],[-0.5458527522371147,0.6222275683062491,0.17181415140429976,-0.5892833081463765,-0.024835357676102395,0.8817346063553229,0.08479053474973339,-0.11015139269342261,-0.2618340003523506,-0.2187657597302779]],"b":[[1.8869860862765686e-45],[1.7124834928823596e-45],[1.4932574155848717e-45],[-1.680478631669275e-46],[9.735479483212887e-46],[-1.2834637826052819e-45],[-2.228810780339119e-45],[9.238156447910097e-46],[-1.3103818900550419e-45],[-1.0299910261340401e-45]]}},{"type":"logistic","size":3,"weights":{"W":[[-0.43617897046143583,-0.07412999407874474,-0.6977201800212153,0.4669577484069935,0.3697589176784825,0.7549173960778777,0.8126312548363192,1.324496245352839,-2.313658454031917,0.20370679018533636],[-1.253331678234885,-0.6167767362582876,-1.1093138509291574,0.1932018746377935,-0.47430956250466727,0.36683040649177595,-0.10508528726860752,0.08237117686506594,0.0680812712861454,-1.0025304910540949],[0.1682967817998776,0.5099465233949496,0.2677438693392531,-1.0475751332608156,0.5237043732147587,-0.052419446023551336,-0.2875196074870533,-2.4300076840889657,1.0319356950380905,0.20783839868751047]],"b":[[-8.818595080031847e-46],[-4.831351025341521e-46],[-1.375520687515671e-45]]}}]}