{"dimensions":[400],"layers":[{"type":"relu","size":100,"weights":{"W":[[0.04675014621099861,-0.06506489230191567,0.2483836843174667,0.01081443023157749,-0.08946842447547698,-0.11618900241778185,0.05228916446755214,-0.16401786477024907,-0.1403453290549874,-0.035468724733876036,0.09905497873092381,0.26943249942369096,-0.11475232123922202,0.0739818963841592,-0.0028509995115913204,-0.09924172402128555,-0.036871090713677876,-0.06810728622568041,-0.04645223739491717,0.20702558354210693,-0.1529663299268332,0.18662231927394338,-0.021645235892024738,-0.05347711488198882,-0.008108431035817721,-0.027314092085406735,0.08897323734292582,-0.10904945369005277,0.10917593529624615,-0.003870282511733879,0.12276097577147008,0.25753305264946824,-0.034444998784661444,-0.15182357955889508,0.07935196511621796,0.2285277238021798,0.04072364938775905,0.10279590931484994,0.22077760461758575,0.020815570815923702,0.12692026142722337,0.04400820638734379,-0.029330764165168118,-0.15622712063839939,0.1218614882438037,0.04770047279174183,0.049961918900526266,-0.14494414099618655,-0.0724167075382009,-0.09431481681211558,0.015550506136917294,-0.06638554340770654,-0.12718922106493177,-0.06461010231665301,0.2449189322053296,0.14048213462306683,-0.01667663929312352,0.26959935032611004,0.22524707562278945,-0.11227926939716769,0.24050321870806263,-0.04403742891287702,0.10267124660126689,-0.010394998122211967,0.16816225833370324,0.1831890182845367,-0.14690067170412044,-0.11937423870834325,-0.12562981400041995,-0.12792661534218489,0.12252878987238543,0.2634126551350974,-0.15456020931596257,0.09581164366473816,0.19855972326516455,0.003534041754558983,-0.05695185229974511,0.0736266547120184,0.11945553166971257,-0.016736755068184884,0.20929637889812377,0.2358428327004319,0.22747299165548965,0.006290469071607737,-0.13412273813347814,0.09526163346943733,-0.23306551431106207,0.015723581134489125,0.24940501970958465,0.20423957777536525,-0.22195271963678367,0.16258856963575882,-0.10478080194543055,0.26814872180992494,-0.05489466400762213,-0.132079340290389,0.14977715772366343,0.23820479776018333,0.20275021931479195,0.005539113395884806,0.2740481952469932,0.11945202484447556,0.05562953175400161,0.08067269216049601,-0.15635196606913776,0.1195754600824577,-0.08237741358637056,0.19810462466104994,0.286877846733057,-0.04688214612250627,0.17827797590187516,-0.35190706636473257,-0.2574691491278403,-0.0490386365394813,0.15753883690832512,0.28819116552499713,-0.13253947531109334,-0.12993034808167872,-0.04688109704053915,0.23979567892625486,0.22138434387811207,0.1342720841104007,-0.1678250552335832,0.03215667437346744,-0.07785510625987514,-0.10919337449502846,-0.16589680994010175,0.20403214470173947,0.12009048061972787,0.09158793003154832,-0.16351210171323818,-0.26835355663112415,-0.3540907482894173,-0.21438879034255037,0.24614323451568318,0.28682005166076524,0.20008652594576573,0.13489742488627635,0.07701003051536337,0.13236242320510566,0.26948966901211335,0.24782975446013822,-0.1558189185724926,-0.12335947675193602,0.02392790081213003,0.17476939095011224,0.09995232788578197,-0.061691369738805166,0.18822256588250064,0.08708538809970573,-0.0024552330995413468,-0.057779250484011876,-0.45035857740092455,0.017626575860024987,-0.08873773850361856,0.06306221562202045,0.12733670067256112,0.1819698891594504,0.2977705651889068,-0.026015155784380836,0.2516388460946203,-0.03265590730231812,0.2942627448487684,0.07325576159853554,0.12302037533258793,-0.159723970556452,-0.07149803183568824,-0.11397113890865787,0.2495465650357935,-0.27798283735543083,0.05695301103513975,-0.09007303852885748,-0.20128597440350085,-0.09949630398306067,-0.13590180368908997,0.2965274742647845,0.021011531816702372,0.018123056978957802,0.025000854940064637,-0.022597550878094674,0.2751940680344718,0.1807125839048266,-0.1720554482224327,0.0024806742013992935,0.16925188189903795,-0.2069742588771395,0.1320745239869411,0.23608932392116014,-0.0012036653632341492,0.1743098228419432,-0.017387607206671745,-0.2938178851353884,-0.30571812612712573,-0.04673106982380744,0.11567353889408905,0.16533689582220473,-0.22478633742458518,-0.19239968683583147,0.1786228794343301,0.1328445320930904,-0.04442268067516479,0.218817292037278,-0.18924982122084064,-0.06630385111265376,0.14568470713412723,0.03897784548675939,0.22236711463321548,-0.021730311366208156,0.1769735659510648,-0.2899922144339322,-0.3583699350423705,-0.21334566537012006,0.1503804725532521,0.2621180695853758,0.12926990215104267,-0.07750588692868031,-0.16716247971800877,-0.042652688976916965,0.14277545614813175,0.20019193792547216,0.23451123870850465,0.23043602232482388,-0.09609650484265989,0.01631609899283376,-0.18812504484426545,-0.04369196238192478,0.06511727439579987,0.11540991905861685,-0.021469406146409607,-0.16045373029454085,-0.052827547972724154,0.09378009611699313,-0.062462098365424074,-0.040499546347378526,-0.09040906685915613,0.055492299054741165,0.16840730582108754,-0.15732342819108136,0.20361595698589807,0.255138548145368,-0.11856053106985766,0.22459884603590358,0.09050665954796565,-0.16982591617256249,0.1333770468842128,-0.02392337323269019,0.31744721452151536,-0.24613047095011736,-0.34150802525969726,-0.4274809039585955,-0.3354473945592805,-0.051162510823219716,0.1383955743242462,0.284155521395922,-0.08158306744923048,0.13605931755078712,0.08743590377592612,-0.10335422112944054,-0.09160966843855031,0.25732877145645466,0.2745338627060601,0.03350792892740323,0.10374943031313277,-0.16818867462329393,-0.1486243972008832,0.04441760388387637,0.17240829081417905,-0.2570126761804377,-0.20203240547354442,-0.2864103594029932,-0.14446770533854802,-0.16854867041776467,-0.02725990649571439,-0.23079719389868775,0.126713094544482,-0.22621500267857736,0.18515636759748175,0.19972087029545538,0.1717640852284874,-0.004438760542595808,-0.1210434845577551,0.12008346024796415,0.07658752139531252,0.08124957721266673,0.05095463812024908,0.01930672108685791,0.07381459468329826,0.06570183555123556,-0.24268868597083929,-0.1588022020263933,0.04395417906291091,-0.321611284033484,-0.05831695456516129,0.1421290642137596,-0.01929741660862674,0.05367420194775439,0.27863837899008836,0.2804288565136796,0.13595560721717184,-0.12440668335978224,0.05329842658539942,0.2667753761974161,0.2679797775235243,0.29749646711816397,0.4318669851225142,0.3556398020042299,0.23645960349033954,-0.18750086414649988,-0.027795244662584262,-0.14306636536421352,-0.025475849929721132,-0.12146631376828015,0.18118329996123098,-0.08145536861734792,0.032034883572864166,0.07735832264327022,-0.07825199000628091,0.16169060703090463,-0.029430187517549534,0.05462249668205077,0.24964030853820487,-0.08399603676215975,0.16689338514751018,0.1002378954705119,0.36742445176043276,0.2823397626771679,-0.0020227780211650543,0.016820301946623005,-0.12142316113529783,-0.08641775986147024,0.08325802695600348,-0.16942324049705196,0.20641441475194747,0.08926140594188102,0.20633980381831407,0.006111112726530805,0.05444018198403356,0.21281001676584235,0.2262327367521583,0.0787397066605936,0.09596694072100691,0.14966928998518064,0.1128835417632192,0.05333328795754259,0.33993680219021394,0.21348355521604986,0.38623757622266824,0.1892958113106208,-0.17459646672577855,0.0689099177749333,-0.16298856351173321,0.11813033913865541,-0.03599824651485376,0.1570437059158204,0.2722381536309082,0.3016001815993221,-0.0014741916468112093,0.10208062634010856,-0.029088510674745046,-0.01773715464623163,0.11670823957156586,0.04913990963704406,-0.0926270312416546,-0.11978893372721527,-0.019260032086935237,0.4198625696227092,0.30059540733440504,0.34544085193754037,0.2840049524354457,0.09346756503156448,-0.08927557296383949,0.09964164060646556,0.20056336865452085,0.053617329317884925,-0.07976309263305208,-0.150657939875491,-0.09013611404723881,0.09475406911068646,0.2088536491013156,0.0380704359954216,-0.1217186920065357,0.10189156773277219,-0.06544527406715335,0.0926395622072401,0.2816586094231312,-0.09657224276538054,0.15216039210811727,0.1909134157582874,0.10264062170458178,0.009442668036051066,0.2767186176691789,0.137219746131191,0.1547338231076493,-0.16738327296171865,0.08770710100062219,0.19764628979679602,0.08857148373203799,0.11765616217125376,0.2601111816946188,0.11384996022223372],[0.0031959884158744615,0.0018998673203787743,0.002574903672900817,0.003769944846951704,-0.00042491093035391773,0.002574790771700988,-0.0001910356473241821,0.002368518141648809,0.001702510362940802,0.0033237825894665857,-0.000026355928297080895,0.0022782105594952506,0.0037633540788523977,0.003456475951220279,-0.00000820132312753946,0.0011244142075769298,-0.0005067718238006307,0.0031061462133247808,-0.0010496119908847633,0.0030784721624629204,-0.00024391420071678612,-0.0006427405094105244,0.0021521264705448165,-0.0008406583168915574,-0.00006213454022387243,-0.000851850314045476,-0.0008649262971003084,-0.00012169933672712396,0.0022552809681341875,-0.0011993482929079885,0.0037974807403584883,0.00036198777016151863,0.00271464022889216,-0.0006821876208165488,-0.0006948048075451774,0.003291591702585508,0.0016714211534938539,-0.001293736983491261,0.000013022497783963712,0.002997403247267634,0.0019025140300602367,0.003477033105556473,0.0001950158374645015,0.0027441748625349014,0.003813246027692007,0.0007868058431946087,0.0006748441961479739,0.0009293297029173374,0.0007817193000885775,0.001529066099371223,0.0020691948310592734,0.002895698870631066,0.003072875042380893,0.0026953945456470252,0.0033530471027535297,0.003222917321650738,0.0017506777812977407,0.002162451293169269,0.0025145274633277506,-0.00045425744062215764,0.003063657912824763,0.00245463340700137,-0.0009766555332637633,0.003301390152800306,0.002949845017848652,0.0005714745219414845,-0.0007261281502496465,-0.0005210171048606083,0.0003442395248527193,-0.004584928359455865,-0.060607033841447486,-0.08244778777809482,-0.05849649112283705,-0.10737567860438489,-0.11395885871694036,-0.007580363030400999,-0.0012230994377282998,0.0034966203109854104,-0.0011143411210275745,0.002891403453345206,0.002364481330321287,0.0024834479405547558,0.003217778028961481,-0.0004601335611490683,0.001852544608598833,-0.0006597961447597467,0.0010604603457059802,-0.0014468413270611149,-0.020684577807861402,-0.05865018144595768,-0.02100105586122273,-0.09472935818429311,0.05620345155670863,-0.2480366262375184,-0.06304177027808669,-0.07484003090622987,-0.034486753816022175,0.0011714819165378864,0.0004070379664300139,0.003666722764516424,-0.0011721141427066546,0.00002386194649898497,0.00040678533131828054,0.00014030176400593868,0.00026955928797982233,0.0015794462771049392,0.0003197425488609531,-0.0019048224226646208,-0.09316894201445204,-0.05073324830068665,-0.19830284853926633,-0.042097151122955076,-0.30483241863942756,-0.26299906446820825,-0.22623821584103415,0.06736706219677664,-0.04535178674194886,0.0019763170212066103,0.0005777295061043024,-0.0009152660064357223,0.0018027812269228321,0.0017720434712885816,0.0009217624650099065,0.0019118455647800816,-0.001603802416786604,-0.0011136779952871814,-0.0014191363290382575,-0.03955870475143467,-0.0952925064926626,-0.13500647689442963,-0.06965741611584689,-0.13665561260299058,-0.1713823782518301,-0.015603037707279954,-0.00915304026268152,-0.07445809667462776,-0.077897907443597,0.00363753837013493,-0.0003354836850483965,0.0010980892126811717,0.0018219434268365773,0.0032682541468195348,0.0009520553602055259,-0.020371114100120314,-0.06657243648758322,-0.021770279137846047,-0.06117392064064943,-0.01743370697246238,-0.16473114061283897,0.039939062322089346,-0.08183130302196741,0.0014504502962947815,-0.002075731684086864,-0.01601638817620626,-0.060981094913850176,0.07249399827067793,-0.05387989791659107,0.0009240490580285353,-0.00019098630530706444,0.0010513772179250786,0.0013606107255494976,0.0024103275022522384,0.00045324725494487813,-0.05588807297306085,-0.04977573240517054,-0.12020314315918132,-0.14417919323286446,-0.22390946105712597,-0.16221821219225827,0.0053746361315948,0.0009210564401872203,-0.0001449575441022457,-0.0056161320252354615,-0.023069068861847106,-0.1463558071615182,-0.1775503559439944,0.016327865503639218,0.0007383184917062201,-0.0008253490438920041,0.0008436640902692106,0.002494307123828981,-0.0006481358057499295,-0.0034269754555682624,-0.1672968390264065,0.02091399808100886,-0.2141543548636116,-0.042650402986524956,0.010136891012300447,-0.11107563129663654,-0.0003211722415490354,0.0004442489326474665,-0.0008432082936579849,0.0007461599691065609,-0.061931893126609835,-0.1645082389862827,-0.042187842577127224,-0.18857219996068247,0.0004067591482603529,0.0007703072953704483,-0.002003542487852637,0.0037012085095722547,0.002419660019376618,-0.004396238280496589,-0.21023082083016972,-0.05584997942071463,-0.2311589419713874,-0.1754039947946807,-0.10058991937785618,-0.00035274523431183156,0.0005374845599531694,-0.00011069791788023859,0.0002692911381105607,-0.0008472818010427387,0.000918830714845771,0.016267898342915112,-0.11432733076906358,0.024110018741924803,0.0008341365424714981,0.0004382941642377217,0.0006722710350836246,0.0007354437518412306,-0.0006254158078203857,-0.015567541957740518,0.052189622801246824,-0.08110524196401125,0.020736064566701882,0.027190861366337336,0.0003992943715385696,-0.0008776532143257599,0.0012125179141946056,0.02121025058571654,0.02146237389709983,0.008955771983629734,-0.014708560878981414,-0.12229325863090924,-0.2270500119255912,0.017470405203299767,-0.0016588991468429297,0.00032953582501997204,0.0014180052901049305,0.0018775368965978769,0.0024203240907318957,-0.008084094322747782,-0.07110242460721586,-0.27753652823745467,0.018159017545215136,0.004090575428785908,0.0004413531608929469,0.003989867424669179,-0.008901831630715094,0.002007670195245767,0.06928060390562668,-0.003653310757941733,-0.15625577712426228,-0.23474505216220196,-0.13127667206636007,-0.05388427427111169,-0.0007263988045156987,0.000379138539257034,0.0010900304106225554,0.001412944595149248,0.0012651342788733595,-0.02205245805515254,0.03728389120129472,-0.09005164604407626,-0.2294529421403665,-0.07171050347766963,-0.0449592903705443,0.0020458885738842397,0.0007050057710764891,-0.0005456071087673884,0.010015305739467326,0.03115876325820703,-0.2075589882444737,0.010911847114877651,-0.1355121161252899,-0.007263418490503725,-0.0010252633775542676,0.0016781921819565182,0.003158795503417186,-0.00005401981155773212,-0.0012662030968130856,-0.040196091641213634,-0.03965537987345856,0.016348328662071327,-0.11602676845870491,-0.15594305167723066,0.03548451852066255,-0.020854398886908588,0.007432912140212402,-0.016388068317171763,-0.14668643112227642,-0.11005222606990397,0.05849088172668867,0.041893005223907445,0.014207387574970823,0.0005689352091715126,0.000147338869399645,0.003491928885334282,0.0017142441526640064,0.003536809255238259,-0.0005391102983445191,-0.002873896155551216,-0.0339090275170094,-0.10175152666196562,-0.1353371744473691,-0.11003384880634533,0.057744326083408626,-0.14653309621623595,-0.011192217503089987,0.009403046282740291,-0.17934662090991563,-0.20559660068275248,-0.07830865416898446,0.011790553366312817,-0.008356099810821324,0.0022684641957096833,0.0007279974932731578,0.0012847775783263946,-0.0000643704173839587,0.0021210865444432243,0.0018145383994440795,0.0010703024376789157,-0.0015875367572022229,0.001095642316162691,0.0004409022340021673,0.0018362613741711678,-0.2048173853439623,0.06802300710018151,-0.16698864278778047,0.05441879185112193,-0.036310377852910976,-0.18458130445012821,-0.05627622419336879,-0.008313540299992863,0.0017336962580572928,0.0035611428403891526,0.0033009584357979013,0.0016186266224003907,0.0033167065914950266,0.0006829117007105883,0.002684470462902406,0.00034491425722230095,0.0037007237452509243,-0.000546586901832038,0.00006566605848990777,0.000739733344831361,-0.019900952323289197,0.0042290549679471455,-0.08290884743149662,-0.08461228913565455,-0.009134699512718919,-0.004217724246361893,-0.0016722381783139302,0.0026767987229325027,0.0004195810584504928,0.003125610275619912,0.0031975251618036027,0.0027096218324337736,0.002771048059501764,-0.0002764517865511857,-0.0010978909736689497,0.0009771698148702483,-0.00044408913909587983,0.0011222803926275251,-0.0002261841003163823,-0.00039747248027849596,0.0027632552994111353,0.0002724557602609244,0.0017258605226036182,0.0035925623852154425,-0.0008330878579879898,0.0020929457632508338,0.003781489770556192,0.0024045973373747758,0.0014545618772891433,0.0008824041901890938,0.0004660608123756395,0.001314072534700401,-0.001256669320498786,0.0032433855455018855,0.0033761806339910375,0.0010345633731006318,-0.0012048434243095527,0.00008510569746642395,0.003625124425057217,-0.00010202820381649721,0.0015401767331136122,0.0009162862926632986,0.0009347891983541838,0.002193502741456135,0.0013911389157364215,-0.0008883778575801197,0.0005699329429203071,0.0026609100241271532,-0.0008971455646652879,0.003469746890541623,-0.0005940740387976558,0.0007795928889824128,0.0031941573031368797],[-0.010353515199506284,-0.03248887490521964,-0.06212977880101385,-0.06472521663526545,-0.045230541931329596,-0.05525661286868766,-0.0005890273106697025,-0.07185657368362304,-0.023893995137269856,-0.0018029198390985992,-0.02492901446381628,-0.024319414663777815,-0.05525941470075716,-0.06314167399194946,-0.019458935988531142,0.011983589846682926,-0.011245941725113562,-0.0037761887157381087,-0.07696811575749024,-0.009136535097032515,0.0030721617255195137,-0.03474129378500595,-0.029790546095830005,0.008846443062144622,-0.024855195853975248,-0.009589589478994976,-0.06599095161775909,-0.03388500529104396,-0.07708149937843133,-0.06493591664822468,-0.05703067382897524,-0.01246117778736527,-0.012106017168312187,-0.0016337604079236369,-0.017121934717314585,-0.03879187961135001,-0.07288293452128555,-0.05201787326765231,-0.043235210102599474,0.014186430637177146,-0.027497121548754822,-0.07547006729351663,-0.013758507407315702,-0.026733923613804052,-0.008219135540282864,-0.007707526066321957,0.006583658347553984,0.01746769909389929,-0.06169673350649937,0.006682132830030298,-0.042679046855684966,-0.016797834367943593,-0.07840292717023321,-0.08738305437610439,0.01150661836698334,-0.029492952443216085,0.014276145660725603,-0.06424630714624384,0.0055091639138744935,0.014350864010386035,-0.04110771684117723,0.003466707193449488,-0.042565803749930096,-0.06901157216271817,-0.004880644781938267,-0.014595554101179763,-0.039801284093430124,-0.07597300047038469,-0.03008737055246518,-0.0014315134488921276,-0.03182083525080537,-0.004068895817034696,-0.10397546994450196,-0.0658884361557839,0.009591475048894793,-0.037251953748962244,-0.04532320256539796,-0.06726040015594574,0.007393556892216335,-0.011438726007627987,-0.05382201458193061,0.012186564651233004,0.008064522956562946,0.0010440513008244043,-0.07587409161360531,-0.08925033674201298,-0.03795461650286584,0.04140048151180456,-0.00400845945254318,-0.1855968886706283,-0.018464726140784336,-0.07386624587346845,-0.11511484673176209,-0.12152544397082654,-0.049428610695876424,-0.014852398393127774,0.010052213452548557,-0.07607401208331935,-0.06027259578628976,-0.051710055782824005,-0.03627893261420214,-0.05761827236318369,-0.06638180421987198,-0.01014231427887571,-0.0912620571574848,-0.10994046667536402,-0.12957908465441745,0.03695787661429767,-0.18953098166134577,0.08034908501136231,0.06735518206505126,0.07155346012851087,-0.10539159206968089,-0.14807662895096205,-0.03821744399274941,-0.007385553960986239,-0.012334777584686287,-0.05910608290341101,-0.07725590167334764,-0.06761929147262767,-0.05084129741312628,-0.036963256731528664,0.01418993453008642,0.007129523423533745,-0.06616680321536883,-0.0063613155012400575,0.05848270544102379,-0.23252353745895807,-0.32113083190895064,-0.16100632546863217,-0.29460263192126285,-0.039952323796648294,-0.01177426268650444,-0.11288257132906372,-0.029679700971081094,-0.04127256379312819,-0.04210154747449878,-0.06958538409187788,-0.044275719539108915,-0.029079639594306365,0.0012990912149122976,-0.05456338901142001,-0.04544969081927021,-0.07118791007931223,-0.12289367318061792,-0.14851750431257874,-0.13448878711552179,-0.14952382654590815,0.026490838333092584,-0.21388148669310691,-0.10767053429267089,-0.061215581892626846,-0.1764866351907043,0.0051998560628565525,0.040580036684903,-0.07729277344710803,-0.03881641579174948,-0.14607856034213204,-0.08652888677665097,-0.013710203379490015,-0.008428664243394663,-0.02075131265669498,-0.05795081416225853,-0.05170008978450763,-0.027301289535774216,-0.10533438310541898,-0.029246262331044482,-0.07495577072921768,-0.0855878180923888,-0.15829953568628757,0.0641150641864836,0.09026720014556705,-0.047864009991148246,-0.14895204504779685,-0.1722131461727014,-0.16363847967066386,-0.03484087726360778,0.04939346278997023,0.023529493579989343,-0.09122244349819437,-0.03478947193913822,-0.05170568967496856,-0.0451797065628096,-0.008845024734326176,-0.10480301991918996,-0.2559177432371011,-0.27094224763179336,-0.16794545627998494,-0.04154573954482116,-0.1250230996149279,-0.11885570198780433,-0.2522634393500295,-0.21201457311200592,-0.040207164318263475,0.004732560240330514,-0.1836287054944971,-0.0925599607101868,-0.008782117761608112,-0.0063505413895306225,0.004554649153108568,-0.05594191736600642,-0.04807630634534422,-0.052857506750317945,-0.08400514367101551,-0.14401170047993683,-0.1891076312622678,0.05714030869736255,-0.13962849498539112,-0.09849301300753104,-0.18327132904527965,0.03955163431129742,-0.29014532801035947,-0.04063933007677088,-0.19626176719452582,-0.1869513045043561,-0.152324031536186,-0.10631545463732958,-0.039883846023851456,-0.027871633584642824,-0.06602553235279363,-0.026911089113062888,-0.032461127913128156,-0.02639292722788065,-0.07520952199721634,-0.10061160100940962,0.05151809780861052,-0.1573303051838259,-0.15641314849904223,-0.13695751621238159,-0.1796550213316098,-0.018429126236343837,0.08418399663878029,-0.16787752388205499,-0.09840083551714149,-0.2519390829147318,-0.16064101066896255,-0.15367755530791247,-0.045069623422477,-0.09233033929647882,-0.020147745095818067,-0.027883859980904507,-0.010565359257113868,-0.022022667657372576,0.03059827242427108,-0.15165621736404422,0.016577551587746084,-0.26985694375769737,-0.17130233469060313,-0.2983107717441648,-0.2104184496770156,-0.1573683271700293,-0.04405718882142505,-0.09467061032664131,-0.17010787081603224,-0.1725019457473392,-0.07120577116275038,-0.09243944041141797,-0.04548168867925481,-0.02474248957732856,-0.03300223932121435,-0.0037976858292699824,-0.0413224203453568,-0.03142934246046614,0.002937082002951988,-0.1426847896573845,-0.25168303470000486,0.00044564773768526885,-0.03541055232864343,0.06602083713028631,-0.17186833560136003,-0.2166066414564575,-0.20848414881399707,0.0007639569447777291,-0.054860739017638535,0.006985106937131658,0.01588404012649998,0.044522274040799836,-0.012373276100212981,-0.06054294177851847,-0.07571431664906131,-0.04432370036237471,-0.01248740476934895,-0.08502586749554136,-0.12265624170634404,0.0524223733567445,-0.04690598389208557,-0.21292754799974162,-0.28578998333558653,0.08422963778926255,-0.004448951099595748,-0.13905182979660677,-0.09644627274258134,-0.18317522467411654,0.019093693457732916,-0.17008360266901235,-0.15895741545290767,-0.05511920986765681,-0.03742963755519717,-0.003984600406600612,-0.07126260020658434,-0.035171066296628646,-0.03064766269959863,-0.07392759987595088,-0.10875935070697558,-0.159005249358957,-0.09655279684597953,0.028041432176562558,0.03315852072863003,0.04408003302819425,-0.06972130838463726,-0.08407036088579674,-0.0745622120314018,-0.06500388030357046,-0.010914693138492195,-0.019795231769885662,-0.04735793648644546,-0.07247118340971621,-0.07312270139906987,0.01902229710998437,-0.06298952725921128,-0.016199246448585565,-0.04550751333390791,0.004388299050284402,-0.06048109284957265,-0.1224813313924777,-0.08430328893295329,-0.058541090107632955,-0.05138528338530321,-0.0700390243363863,-0.015045048731892314,-0.00388853000496086,-0.03833689353818319,-0.043527373357672934,-0.01896224590253703,-0.04708245343222357,-0.05702007686915594,-0.04482847348277875,-0.06619889934868776,-0.0065797284599322,-0.020025664518943512,-0.011791567805821001,-0.07251564975258488,-0.05303500841364521,-0.01345174789655877,-0.012796003748259293,0.011081458428016859,-0.04729312327616139,-0.024734152892213476,0.0018791589558174297,-0.09908924562996375,-0.015557176843847782,-0.06582435914506513,-0.023891523712261605,-0.00858377771516211,-0.05618690133793732,-0.0053398889994047145,0.012703206957577434,-0.03441050475206138,-0.024543692624005527,-0.03230430261227012,-0.04064139523224083,-0.023953374703369616,-0.04024033507248549,-0.0052696791513054874,-0.014264400140325886,-0.08402756256350949,-0.04193653294189926,-0.06776029876041115,-0.07346028313161038,-0.06154172417269545,0.015367237500404854,-0.03603806966620012,0.006106615906960548,0.01567706013173785,-0.009366581566892343,-0.035129460274733494,-0.021837763769772946,0.00757390089183482,-0.07542544273981147,-0.04039406008456758,-0.07373035334100929,-0.04162971953515944,-0.007117374636774012,-0.06043469106667899,-0.036886147439962644,-0.0023236239758905636,-0.07691367909312047,-0.018783544290663493,-0.07353325859558002,-0.014962977476691246,-0.06430147661759823,-0.05482374096507526,-0.06298455219879699,-0.03537008916681657,-0.001135449868852346,-0.061047047554426886,0.003482413688938337,-0.07691481850052458,-0.04601018960993665,-0.04801218416396494],[0.02093295667451969,0.01257986434798994,0.1295667633203078,-0.15071214550651624,-0.056410975680827674,-0.20061180799050798,-0.057161482096117565,0.1284774480442556,0.14117768253579513,-0.12870502947994164,-0.21056219568408505,-0.07994096719172264,0.140180948200221,0.0660837570746381,-0.19620015748102917,0.11818051336301844,0.1351320462775316,-0.1006023852249159,0.15977957040799257,-0.1493710644827741,-0.19165366826803937,0.06635022759484746,0.09857462854659736,0.16265644496897144,0.015149860667906205,-0.11017554202176791,-0.1451160656090467,-0.13242569450298708,-0.1895684844151825,-0.19095152435517648,0.10882278170130877,0.0382506066852589,0.12282021930759446,-0.07533501821957751,0.16040023065279432,0.16296793922970473,-0.16716845212835163,-0.008586627214327323,0.1170751387596204,0.01643227316138579,-0.18536987300966584,-0.092454991699047,-0.1489077920522318,-0.09523897491199987,0.14073597517980305,0.1020704604237877,0.05817327885550337,-0.077804685272193,-0.07636957187433359,-0.048521834145043866,-0.010374309775505295,0.13562816954185788,-0.1616899165178235,0.17377038297458777,0.07060812191669226,0.18200198679779483,0.17737846775182198,-0.04229585597436629,-0.008912090676459518,0.0767953652989276,-0.06700142756652729,0.024422742276747636,0.05974412259069261,0.10731653023160932,0.06070996768942722,0.10102782606948423,-0.09407864312665082,0.04316816325998622,-0.01855951943343644,0.005749375663235509,-0.01574817452647342,-0.07208972547442989,0.05617196648813331,-0.023248393685273296,0.10016538704154206,0.03927113211929738,-0.0536927012484002,0.03420581425408548,0.05814218045725147,-0.15908381785170309,-0.035813099617295605,-0.054185285573261466,-0.1455053024708593,-0.18134705413648505,-0.1581862384555246,0.016797148993428362,-0.13473109356733884,-0.16662729261466286,-0.2219639955963324,-0.1706743211207201,0.05189869320778131,-0.04774446659072607,-0.0515733789959279,-0.13569438948257645,-0.04100838857415616,-0.23669945354459815,0.10848424801565806,-0.07132929713577042,0.08575519645793536,-0.09457885478372548,0.17407841393714493,-0.19995641586805535,0.022556724953350774,0.14169536948968084,0.054476949378974925,0.06701227619225923,-0.2105172673951903,-0.1535044410107528,-0.18633651509669485,-0.15646626630097646,0.2292507266531451,-0.18018348176917448,0.21817754236448475,0.16000467338939794,-0.2003118073248621,-0.3101999974910369,0.12600866053336854,-0.08111064648122725,-0.05514089317661781,-0.14267224453205193,-0.17978275517982412,-0.03539741551342789,-0.21531476506319153,-0.12325950133222961,-0.3099285785604959,0.09071995380480041,-0.04043523306909406,-0.2430339997747088,0.21074692623858837,-0.11211231477305314,0.093420705296111,0.13430069875974956,-0.10777556880948937,0.28154250125366903,0.11807672484481803,-0.2862254941225898,-0.2159050353321,0.17475890982260903,-0.2052709696434838,0.04624115343669468,0.12512042857427216,-0.011849330833393816,-0.11893490184996908,-0.07285358003485162,-0.09422387301229618,-0.23536999270845577,-0.3105683445790694,-0.17225533090302167,0.151988137185008,0.044353638702102155,-0.2501112963442619,0.10713986554475595,0.2272060633585598,0.2916785475591656,0.017581292961614075,0.0249234807568767,0.12612583137259717,0.1630373464669186,0.14554891575244644,-0.18831791106459436,0.12369758055205864,0.03880941656417756,-0.1323130851375835,0.06994461475282336,-0.146616394345063,-0.09588070972476866,-0.19936543112014427,0.02054081394479963,-0.09378993880070365,0.07460315855858264,0.0781904834236012,-0.18479182873602584,-0.2644989262599819,-0.05408937878273739,0.15089555708217406,-0.1197575465130453,0.15921671853587976,0.0570640339620552,0.027065259763297742,-0.001790593140522097,-0.10768657346709194,-0.17495517739562455,-0.12224721778782054,-0.2315270437125505,-0.005542887916662445,0.17428108214450364,0.10976882114247591,0.13029824237855875,-0.14606428292574283,-0.2079386201479639,-0.0638455727345548,0.12236006304471538,0.163638080691901,-0.015334074243620354,0.07652776845441031,-0.08347587030406874,-0.1362231452358385,-0.03941669275481235,-0.03217607721657185,-0.16793330364622866,0.0082148673685148,-0.10702107374533894,0.15140563143500976,0.017197696455648684,0.19017332594708122,-0.0788649873077424,0.08192189812156042,-0.18475907179974982,0.007217160615768257,-0.10032790106655794,0.004791415884058386,0.054042925740471086,0.15248479251422342,-0.04999038108459096,-0.22168272458303231,0.22576858977953893,-0.05089287168650222,-0.09267645559603903,-0.051395586800146525,-0.20781476485630165,0.17932261265275434,-0.0979055784500708,-0.1519434328354772,0.14131811035948286,0.2671354892462165,-0.035235043010353025,-0.09371403619152792,0.04719852992137808,-0.05847463442206425,0.15855556672113452,0.07779922301400093,-0.14441905994138446,-0.054443982239564426,0.0278680693970543,-0.26515903386424283,0.16909556065970283,0.023010376637552666,-0.20943323124946522,-0.031200934825636493,-0.13268950273667912,0.11236112397247287,-0.18007029878744737,0.21960121821578474,0.1870325135501935,-0.14470635244037863,-0.0060964223020387965,0.23363504350351327,0.06326587248532732,-0.13436423318443508,-0.19321483859512803,-0.022661424799107932,-0.20664032592556988,-0.3376163598220455,-0.2904477225089196,0.1260392260826567,-0.16973033183906427,0.05462928356635184,0.1067204376462784,0.25763743346501883,-0.2201498837513318,-0.02045718444069366,-0.08257693969900966,0.13184008122933244,-0.23155091092280825,-0.04335518356952389,0.24378247774975648,0.05678140807484666,0.05156024046539662,-0.0858225990017046,0.13802339481846412,-0.053301658312462946,-0.04673048786015285,-0.24686495329787622,0.2603773052575329,0.07204132412827567,-0.22272936951754038,-0.09680245411034014,-0.00010238574693820499,0.18930029921530725,-0.07554345060004447,-0.13014506946829335,-0.08435403326786936,0.03407424191238045,-0.11841990404172932,-0.004021540025431431,0.14067113084357194,0.08733156631311241,-0.2576892330699276,0.18835357432626557,-0.007367522585717797,-0.01289452070400737,0.18802940496317544,0.23670487525961825,0.2690521005918624,-0.1786318394883657,-0.18973652937751043,0.005713152820963338,0.17386174112833805,0.05669922880047885,-0.1741192557673151,0.1388154468152881,-0.01964338108423922,0.12412146860201231,-0.09424625235227432,-0.28705035741816187,-0.3029011242393362,-0.05148207635706974,-0.07716681930848943,0.2992535811080367,0.03991901096984883,-0.16213772383530203,0.23387015664466704,0.027470273781810318,-0.17233063219609895,0.04060939521384963,0.09467770058091039,0.05331444638863046,0.09258523159435528,-0.13051664725557743,0.09849976832939676,-0.04182063350647656,0.006140302854295152,-0.1003443124555905,-0.11500072021151983,-0.04149222521910658,-0.3920435425354714,-0.3526644208174565,0.18311727272932574,-0.00753208405259983,0.10305732765048199,-0.13409763872267444,0.23581890183175666,-0.09326825676770467,-0.17548705048432683,-0.24429150658618298,-0.13337442472860123,-0.06497324858327509,0.007350878426470162,0.12673026637696755,0.17695857506104198,-0.06511441332341163,-0.20425919126784095,-0.14688006444333815,0.044289871640782706,-0.05045332889364677,-0.41083298442020555,-0.2471456675903629,0.09887102867676188,-0.09465410168524539,0.06541532147195743,0.2286356646784819,-0.055462430979631834,0.05047533713222879,0.16673638229926957,0.0542662578544589,0.14930492161702377,-0.13938380542176607,-0.11530312737964585,0.14283472281610413,-0.18167728473013173,-0.192317520721452,0.10620280558743489,-0.03749474643427964,0.12902423454978615,-0.2243822587074344,0.1167977200464645,0.06845915577883338,0.10227586896468434,0.045739223748410815,0.04022505421569487,-0.09439139586818068,-0.15968416988182302,-0.04599947671617662,-0.09593381382989992,0.025430009109297953,0.1806068289382964,0.05379172474735988,-0.02095403851914717,-0.1743767372401438,0.1205222532051336,-0.16071003763663022,0.0925838731777588,-0.21944326259636268,-0.0009784586250794476,-0.20053830128188327,0.14085426639814344,-0.0719122030139294,-0.07312115008180847,0.12311413590490805,-0.08547046618781261,-0.0363820506859537,-0.2126826004703524,-0.20326456424714934,-0.1284916644139451,0.15572718381959713,-0.14338239317090348,-0.02458946869911759,0.1267708838628498,-0.0905250767667174,0.18308120586865304],[-0.08852254054123626,-0.13667588712195272,-0.05221814724405468,-0.11131423081878333,-0.1470362689692081,-0.08677381960200033,-0.014947723636687687,0.04424813512746296,-0.1660180879740341,-0.010061765640962384,-0.08571973311538397,-0.14585032340656248,-0.0059593780143368325,0.028404083732669016,-0.0035723939927312346,0.00723959099541944,0.01447610818529589,0.025564967907763674,-0.15455707115383843,0.020192141712868077,-0.00264033132939086,-0.021177065540964338,-0.14760503235306358,-0.02974226533555443,-0.0040523174646574,-0.008267272635719079,-0.08071308381302453,-0.14812067702368698,-0.05138246909073762,0.04058142822113839,-0.16022709052109305,0.006589156013615238,-0.09355176653620284,-0.17112475861200527,-0.04775577188364043,-0.011393097739877286,0.04327104270420962,-0.10199393778943114,-0.11951468780577361,-0.10752155508300812,0.04806571613082749,-0.11294748390023672,0.04053832263092223,0.031092114941720872,-0.16814529604569364,-0.17337874974464054,-0.06236346191906091,-0.1763452940254144,0.048644352593681654,-0.008804611192408334,-0.0753267245930903,-0.06541432893285021,0.0320810796825828,-0.17477516348044356,-0.1553109015871442,-0.032337773391698535,0.0015201676238924015,-0.10774627314412642,-0.12252265685664256,0.01625294876805027,-0.08694101383896792,0.023803812384104225,-0.10657520680725614,-0.142102070584061,-0.1582919954105628,0.04585081137981012,0.01562907899989718,-0.15478340102206345,-0.09929979888256611,-0.04847403860157241,0.0043517051409799595,-0.005468109066957873,0.04495275208352066,0.04837079997235832,-0.21533537689837032,-0.06139018180207039,-0.18737856283935866,-0.012253963648372555,0.008955633925629576,-0.17873270509854436,-0.05259091238117845,-0.0479374518026167,0.02238063977403438,-0.04997923792111964,-0.04819966367439493,-0.10218373084125669,-0.19919882154999255,-0.03441346576796179,-0.25372703841491834,0.008572678888294865,-0.20257646726934295,-0.14832267981757236,0.0985824746451436,-0.12848639700967668,-0.06186932819789961,-0.05979751071636342,-0.13970277293173733,0.04235013808936538,-0.17614263443745407,-0.12164902014970203,-0.0676155595942594,-0.022239419794555668,-0.0035495408210754515,-0.1728723769461418,0.02580581333909197,-0.2300434793575379,-0.1421110287397042,-0.1114902245271565,0.04921620526267648,-0.29685809424065734,-0.1818815384053236,0.017360930786088125,-0.2615000218726425,-0.018741777829071507,0.04480418428458929,-0.1702675935528589,-0.25267852580248396,0.03484504795254995,-0.002452918387972037,-0.16988754616988463,-0.052812759129286624,0.03909937040889846,0.05103328022498196,-0.0850970680724976,0.03304147036304783,-0.03467296161423223,-0.11807246366509698,-0.07492039970150309,-0.2036689283019793,-0.03894061298597629,-0.09317465961711315,-0.2236468593639874,-0.2588092208026824,0.015895858099396875,-0.28605891726709204,-0.1340706549923889,-0.09826683179381437,0.03409728740713126,-0.16591140216333827,0.014363673169042057,0.0190985810779882,0.027458180781801244,-0.11597521563525799,-0.2512019698803695,0.027678495995808006,0.04470077129458002,0.08914529668220501,-0.3103629747645705,-0.07870786184697122,-0.13513964795735656,0.10200892602624229,-0.07451542880529456,0.030912953001960803,-0.27328473889498395,0.06324349921509179,-0.09163905756799265,0.04977115043439215,-0.20017830911186635,-0.11654048241522713,-0.14528036666261102,-0.0963845545640188,-0.15824173244882966,-0.15433882009707944,-0.01200808185301366,0.06816980285620607,-0.08698797971316588,-0.34892476258640903,-0.12262898284836106,-0.2599753334239152,0.019364960173694195,-0.2368366161454598,-0.2583952660968091,-0.19013007255068273,-0.010570499924044378,-0.3098784671799517,-0.10274985809574784,-0.27383170943937857,-0.13356610105884809,-0.14532241962489748,-0.17741033236428588,0.027582650058353548,0.036649391739339725,-0.08436178901444324,-0.04597607307816166,-0.10665487439587551,-0.18369988749394042,-0.02469958911081002,0.008007790078150142,-0.2013241443500162,-0.10307464677618151,-0.31090330705393987,-0.05791281837984347,-0.20029077341944312,-0.3226750646427768,-0.1444168837606187,-0.2573543933371011,-0.05306171445767207,0.08428428690215911,0.05585121831168614,-0.16757483928763714,-0.03798986293711721,-0.1441653625466221,-0.1489389189875367,-0.32188342701494316,0.08219486029407343,-0.1924152952203251,-0.029302011910713244,-0.13330342614645785,-0.271789340218909,-0.26938925622105453,-0.04408480293570953,-0.05261626149112011,-0.11853708982947367,0.026468195076965795,-0.013781169728684303,-0.12239876993805446,-0.005788856693486033,-0.1295849391796244,-0.13207168690332227,0.03117842015114812,-0.1531962341461047,-0.1942618398648381,0.010138104703647056,0.047560888303029895,-0.2201878527434003,0.030943618177393026,-0.10911269871715605,-0.2574400659295226,-0.08485149276271296,0.037722409819322185,-0.284921511341365,0.04376165281861404,-0.1547250860350999,-0.3215322666882685,-0.09775606420155597,-0.039491260791182474,-0.06274565908880395,-0.017151801810417054,-0.07038633249681404,-0.16441420903187742,-0.17152525867268373,-0.18688904048631988,-0.04319276552045109,-0.11026491855877045,-0.22115882456503372,-0.19948154413794106,-0.299592125954899,0.026808150217115464,-0.23706356418602703,-0.08063874936293776,-0.1414661990196893,-0.2876890260934513,-0.14286838031854227,0.0355449462686656,-0.3448567351127874,-0.23330260489716564,-0.24122919087959319,-0.14939336131506245,-0.1575871535076183,-0.1757719615932762,0.025446454930329845,0.0043850206259339435,-0.06978803193549467,-0.1916567012357397,-0.10442509870802365,-0.07466075842208512,-0.18218439001485484,-0.21650224251401243,-0.2572834507992025,-0.06706344151660135,-0.0073098023408201705,0.02274603008295306,-0.30794221018857826,-0.17476386847792466,-0.3295691014240111,-0.10091712127310812,-0.1601431800713531,-0.19293403005494114,-0.11368353190955123,-0.03514413586110727,0.007494400554527089,-0.17231402811455798,-0.0957673804268306,-0.11473009273973983,-0.1271256498578349,-0.1504838296107808,-0.08992590507185422,-0.3091656987227832,0.05200830018672602,-0.09484215594934799,-0.14936724023672115,0.006146015349345308,-0.08000433829729733,-0.14501442618055055,-0.14302756913841794,-0.24114863491673444,-0.15537762899795235,0.007403880888711238,-0.17727798670189407,0.0014598147102518118,-0.1464448467651636,-0.018797366794899788,-0.15068786730890793,-0.16169212688756784,-0.0395729027705598,0.09170935121305644,-0.23923827221951852,-0.17096122698423236,-0.176698106997901,-0.028230667972397924,-0.1119254919858749,-0.12126803819934803,0.06534534250383431,0.03106889396047787,-0.1857046502808575,-0.11787769668374995,-0.167966963573927,-0.006168802454227507,-0.0766011924730358,-0.008855046526267302,-0.17671000531062855,-0.16631176851557755,0.03567976261139037,-0.11572980928685735,-0.04218902062303885,0.0490036406057628,-0.1904883417153793,-0.16450339380355594,-0.15385957564584188,-0.22658323398702374,0.09776483073403851,-0.2610482552081952,0.09000628629181172,-0.22629924349367425,-0.04581802584263215,-0.1875083481852423,-0.05180578398088431,0.016418517520932065,-0.049937296130777416,-0.0747315460630011,-0.03420948612992302,-0.03272947499620733,-0.10762193078334055,-0.00035478060878222484,-0.040414996033476557,-0.1962281211802683,-0.1672243797962949,0.0030798664651699595,-0.11289971851970643,0.06120734934699024,0.06049167371782374,-0.08497713603812848,-0.03291359207492958,-0.08850655793745636,-0.11766512790990022,-0.14985095291246595,0.03840135072832335,-0.1320015760871087,-0.16729016313950396,-0.03774554199128205,0.01617496258191345,-0.002153847662343471,-0.16735095442777392,-0.12577976394215476,0.04569163613839179,-0.08024054748106003,0.02435794791130251,0.04182402430143075,-0.06251111579434881,-0.0753631770663345,-0.12250556818034362,-0.055133609856610415,-0.18384150410958358,-0.13014549349418778,-0.15035812044704905,-0.11113131888073559,-0.10425112878010595,-0.1086767739694993,-0.14344616373978972,-0.04621739598574827,-0.16504177193316572,0.01801453102753994,0.03829483965226056,-0.05189511619683036,-0.09272314940288891,-0.023606700829699484,-0.1124964735214816,-0.17076369199381608,-0.13905393418564188,-0.12478298654340773,-0.17858606828033075,-0.08425867021790295,0.045061074299667006,0.02988977519905285,-0.12485903811037143,-0.09782391368018999,-0.16841100665812944,-0.050166237465541635,-0.06970142211628381,-0.13059789951108752],[-0.05307393569265242,-0.07743239663721604,-0.1174672307424131,-0.17438294517690534,-0.17334723454324522,-0.18007129871295474,0.0013164906138816463,-0.14757838485080113,0.08550497458945559,-0.1687008422515608,0.1203311313742625,0.025241028897871224,-0.16192588393034293,-0.18918412199223605,0.12187454782194461,-0.21202253063278617,-0.0923705655313109,0.10783038498083038,-0.09036261962349709,-0.1163560073515128,-0.20307645106997976,-0.08075767857029226,-0.1495742645982879,0.13643687955272035,-0.0020662987620575853,0.09267558553691553,-0.052094109778564136,-0.03821832488720063,0.11015354024320825,-0.03858076469840055,-0.1646003177616041,0.029912537216050875,0.0755545082724881,-0.21976209005870065,0.0046843876132285946,0.007729664790289929,0.03444073046859371,0.06362562156573416,0.07717134618118172,-0.07757752772247715,-0.1665800487276468,-0.09168967948540935,0.05619831928955801,0.012397053392542044,0.1386980201783314,0.10474420147836302,0.03466266222637893,-0.16836509943483796,0.10297387017074051,-0.15543915073666253,-0.10696810475507604,-0.19946565481940495,-0.15926651979103681,-0.11381502043342422,0.1363041612099344,0.10263741228415224,-0.016623335818215675,-0.05363060566727885,0.06588807755656144,-0.06553429983624791,0.0030778800183882964,-0.06432627841628148,-0.08475311029042745,0.06469554931521969,-0.20997435674809137,0.12994149789692325,-0.15624534888332992,0.11466946176059277,-0.15580580640198302,0.08191600145787854,0.058674365492379754,0.14317541318339513,0.06428289959112832,-0.048176829531582886,-0.23059977734979575,-0.04730150823011733,-0.19548644042539196,-0.05395515570707007,-0.21886359453216034,-0.10464543414969867,-0.19788358376548243,-0.04710284304295793,0.029917447402325645,0.02899760373585899,-0.06573201374198062,0.12397182916355612,-0.19152474046840628,-0.3127644523899607,-0.02669078657404586,-0.0037931517325001593,-0.07576498295768654,-0.11008758261781841,-0.14383655496734032,-0.03586591401062418,-0.03650646986097432,-0.27403120924120605,0.058365784186685005,-0.1464866455793054,-0.004598103608784953,0.07344583871655304,0.0008414841127700426,-0.08667477192163196,0.1407114332429373,-0.14419188898483606,0.04871684781501146,0.0009831513922308208,-0.25069287635080456,-0.3168145547256125,-0.024977449872179,0.052461788057367544,-0.16379421278837125,-0.01629419634586385,-0.057973015410539355,-0.2835176167747607,-0.11824290097065243,0.061919800277512184,0.09185994822783639,-0.19894042313252086,-0.17019192943767944,0.06384058901294808,-0.10362533255481712,-0.16075431958211248,-0.19211493219119496,0.1293474175217683,0.09916088168970368,-0.3342273841918869,-0.06963470139663099,-0.3830500328707739,-0.14191583254922363,-0.2502194254234561,-0.0573783449055333,-0.23705287676821732,-0.10196303283616698,-0.16790633156481818,-0.3588830592521284,0.08438168491103983,0.15660228690566425,-0.2770084381301635,-0.13679899899641648,-0.1347493141851593,-0.208973827544571,-0.07010614685188511,-0.05538758486096874,-0.11355624907271991,-0.01952014036395384,-0.16607136031458683,-0.42755313515171967,-0.1391068377390809,-0.3463377496152798,-0.21512660255646743,-0.26973753105934417,-0.02970028582039223,-0.2558929110732643,-0.08845381516390367,0.07200489994341495,-0.30777502266724854,-0.027669781065997455,-0.30966398846427967,-0.11890068166943553,0.08221566932482766,-0.07716375192744011,0.13394187383971748,-0.008070035630803777,-0.09925968879256035,0.11027495662259396,-0.10694254044067752,-0.4065061149814283,0.0007351940538763187,-0.14323942832022432,0.07477586849887467,-0.12399094066638425,0.16164318651601192,0.07710103479690737,-0.31124918555426306,-0.25778714340968234,0.12270543253737681,-0.21851098348746173,0.12510637845156863,-0.26301761887454295,-0.09447548347434999,-0.11511648663433015,0.0965064187100579,-0.05345724298618836,-0.172742383881846,-0.06341821196392161,-0.21789499758913108,-0.3454734164277765,-0.27315461309879,0.13042053626586447,0.20952256932576435,0.014861048339123955,0.11314383239411539,-0.20469914954923824,0.16862651664007164,0.07526601920941765,-0.31355662634425674,-0.17631669166166114,-0.3286349852560408,-0.00215607165815999,-0.09753234056512329,0.038287884202898886,0.07401254501339842,-0.20039273050130213,-0.10135082749054115,-0.31686137528618613,-0.31928811892070363,0.0406542218836227,0.23159220293543623,0.017977782040020863,-0.053512369650195256,0.13019037033384825,-0.17653798213808333,0.09847282137470802,0.03171974741449442,-0.2011346350580957,-0.11136790003835013,0.20087816465922365,-0.20329221662492897,-0.17065268405926556,-0.2220887847501566,0.014375364251421285,-0.19979411163554756,-0.22487905076887427,-0.3309430690126571,-0.05503778760620238,-0.32612759729688956,0.13643129430503975,-0.07234468398078503,-0.1350538437258057,0.08329679954454348,0.12553910119805362,-0.06488607949799129,-0.07097098869265106,0.08819400229872687,-0.04164132935264691,0.013129313614313907,-0.24850025639695902,0.06705561204323637,-0.27207383935218804,-0.09622796373042417,-0.0601691851383968,-0.09668521754174281,0.03953451647823269,-0.16094190677193193,0.1252601390177309,-0.17092821508625355,0.0789674042206949,-0.028688167470153455,-0.17719489752082687,-0.10850194006689673,-0.3663294342120045,-0.006947541462523353,-0.1643264928763683,-0.14980394737686042,-0.30411935156742903,-0.20678977467131573,-0.22227195712464035,0.012004201060036926,-0.2626032039447603,0.08339984197865094,-0.06767533657579357,-0.08186747299606115,-0.27407836837816674,-0.20739788985276597,-0.05354804060181635,-0.0338715584509784,-0.00956111289417883,-0.09908582029641606,-0.09786985947405484,-0.0377434214637611,-0.3616990708999,0.10882556303901433,-0.19646310191349278,-0.27325294059829064,-0.21537409988298759,-0.14424762216002116,-0.26525495355251916,0.027648977137811073,-0.022668151520366005,-0.11323650599840993,-0.13271356273519158,0.02921922967582895,-0.10397649006319558,-0.05243640176629919,0.2111235923679404,0.20385718116303556,-0.33403295848661263,-0.41341325982872296,-0.11104250695458122,-0.31832191889485373,-0.24541267980891576,-0.07019963265468428,0.07768330144230637,-0.2482617844915574,-0.12861851587776205,0.07068464324787975,-0.18867575946349385,-0.0656881534547989,0.1266082910161613,0.06369246602810735,-0.023069523142748377,-0.22653089923216022,-0.22205411292161742,0.21413958538138542,0.22876811776173814,-0.1368800686929099,-0.10486327668705638,-0.3526445407573824,-0.21601925860777882,-0.17522325156992705,-0.0432669688723048,-0.012138904510424025,-0.172862424446957,0.08837152298548512,-0.06917019498082122,0.06577377270063328,-0.04747517953594815,0.05779430406304279,0.07258432884813724,0.010523127031511733,-0.04480638346939728,0.11328587856571964,0.042705631490950566,-0.0067154251558131295,0.19540720333455713,-0.09978058768286975,-0.27857043649858826,-0.1109801622121339,-0.3326958909451356,-0.23856608241869673,0.07081546663951231,-0.04701314258846753,-0.008053607318137694,-0.030200409053305406,-0.21507166866561503,-0.15546146023992127,0.08266528475795518,-0.08585155121853195,-0.12428716015067005,0.03681735043860148,-0.06882970807432576,0.11436958200204046,-0.12872101893078788,0.09869935359854436,0.2067562253972301,0.08095983299993464,0.14337369173537504,0.08891830779351627,0.06425317631479754,-0.060447912024224976,0.0030515363114109063,0.0532890277836809,0.12977258726658988,0.07097784598911078,-0.16465172208971515,-0.11588245198175916,0.07269694714949385,0.04348852221689517,-0.13814344065467815,0.04156500406348833,0.004944951546190702,-0.15164391851457734,-0.09953300042581503,0.04125584872505951,0.05655766167417576,-0.13592900121705578,-0.12570288013851294,-0.18465759934719023,-0.22331425233748306,-0.1742388712415002,0.12103979476202072,-0.0366750542309688,-0.2272759434196873,0.02065496214131821,-0.004852361737073227,-0.021081330268151583,0.012807201598374129,-0.15154779247963746,-0.20391044022661745,-0.16539567311715286,0.07289829313805976,-0.22432233146645097,-0.013518882244373353,-0.22786541263993745,-0.08450481891860856,-0.11383747965664733,0.04911192526593296,-0.19071140107450849,-0.21349699364005423,0.1372184245586268,-0.019168422990702125,0.11681606833408414,-0.14335539501275277,-0.06489035472822426,0.11452940554377132,-0.19649397490609835,0.030258644041332907,0.08361011643549168,0.09184752868403535,-0.14402702426078712],[-0.019571658773090864,0.01735667619660436,-0.07538586788929086,-0.00033761595857128906,-0.18633773065342474,-0.2845895904063521,-0.1539941732142747,0.044372501877869105,-0.010145258160057437,-0.1352751185939308,-0.08552488641927919,-0.2535695398418304,-0.11724536201206462,-0.004887241360038612,-0.01783244813736501,0.016551929315916737,-0.294709542598388,-0.17117598185991567,0.0581796168170727,-0.17231893785970243,-0.19269988248558328,-0.30879271524153545,-0.15628097637817032,0.024449155649760183,-0.2854927146492398,-0.1335333782069902,-0.27889354185358833,-0.2128267508365431,-0.1138151583192889,0.015330759880663637,-0.06769896904265678,-0.056679598986877584,-0.18946598000220005,-0.04390970699869296,0.03214702827080632,-0.07532658588701435,0.0834538054695169,-0.2830104159636076,-0.03180203127385376,0.03449186798699312,0.08126590690435181,0.048997179034688185,-0.09988967612440437,-0.149047026662792,-0.2105522330040209,-0.22985825698495976,-0.12441555960338903,-0.08145494252234071,-0.029301601266622467,0.04504852413771896,-0.2340914126586073,-0.19077670352655732,-0.29507001495300217,0.08159889187768209,-0.11820441014055189,-0.10751834764433238,-0.25946933016315976,-0.2532867689199744,-0.1409305383753374,-0.150201343713505,0.005667036497011545,-0.2758278367381436,-0.23632619371600783,0.051572352223050275,-0.2711030716434693,0.06231554280636244,0.05167442992095767,-0.3051975197315309,0.00798899597583829,-0.23262741954539404,-0.16614523782965165,-0.1071249025904936,-0.1382194810850661,-0.18838926146725307,-0.21093333562787386,0.07067292585548236,-0.180199909793622,-0.07233005178564228,0.017200062840609685,-0.22358069070923164,-0.10626518497475032,-0.2627770353674278,-0.1798813892084051,0.03318594852223443,-0.27707492221806956,-0.193822068325694,0.01685974145706686,-0.2891010807477073,-0.23757549008895323,-0.09173117111368626,-0.002305918547765796,-0.1572953380589547,0.0717452193601714,-0.07600185892581758,-0.23625623180165317,-0.35259237440460933,-0.336253217132582,-0.14733698325359965,0.013827435911336164,0.004224820505012373,-0.03324614075038269,-0.26803587904720155,-0.1456706253066843,-0.2875727008948988,-0.03185898972893449,-0.2095797011478652,-0.18439765070529732,-0.08600445297840698,-0.3046346228192749,-0.12555175014970105,-0.03995673861724014,-0.27335329868571034,-0.06273775604049256,-0.14300138472788904,-0.11411138678345703,0.08507211133362835,-0.344345567822265,-0.007938779672886193,-0.2184576547341653,0.06670971906161452,-0.2085230522241054,-0.1474373425948244,-0.1583676766798795,-0.15164793181778774,-0.1277812064252516,-0.35152815206228116,-0.19682936979946894,-0.001998944584540778,0.050801622914041285,0.05831186511409017,-0.2622188842130362,0.11906784280345659,-0.28090445912103973,-0.01963942434954724,-0.014212003637612112,-0.31571275330677884,-0.16891635966148413,0.04620910648519253,-0.31634240223481697,0.08133861765192973,0.005160853210439913,-0.07907342334682613,-0.03643638393778016,-0.08034756115178678,-0.13575960771861767,-0.08475086918611091,-0.2926309729916532,-0.034694716243192994,-0.3147278003973543,-0.1937499127138705,-0.30730444566874104,0.0010863182993139943,-0.027321494779791726,-0.23629334195537055,-0.21909955843033624,0.1023038638713093,0.035814587205812126,-0.008343265946621657,-0.25301717996853385,-0.278685798469925,0.0051196837384479945,-0.24432931667725896,0.032051358244275546,-0.35296866489532613,-0.07753208012513192,0.05020845540073677,-0.11730856329290011,-0.05462586284620356,-0.13916753906102255,0.10675319123911006,0.07186282073843903,-0.33465288638130863,0.052516353014750085,-0.18216991718717257,-0.2258807506108115,-0.35439581337325915,-0.012655492750914465,-0.1530518359228808,-0.22461220008018484,-0.07451858814566485,-0.030139253781696913,-0.2646712769411914,-0.21156967859739123,-0.03077571016218918,-0.11344177926215568,-0.07264237625734483,-0.004666647573656668,-0.37736586265301386,-0.2127105078855015,-0.0496447504664269,-0.2942912895258849,0.10838166025869958,-0.26750555013680877,-0.3234965317615117,-0.007461078425156187,0.008571179713322137,-0.3187087922448971,-0.24739184581779952,0.05375740653380127,0.06315290267779539,-0.297651179899275,-0.14974447064550364,-0.18703861315028109,-0.29553482436748485,0.10667830494538685,-0.21443881578781462,0.11962042530596052,-0.2962709570274023,0.11362515768416488,-0.3590909249786455,-0.02477413986861895,-0.19528103423442442,-0.10588675217010689,-0.2601701455499547,-0.22916546906468638,-0.26767294221466836,-0.23457525892383485,-0.28296507275140004,-0.24534669938814277,-0.058246025346962195,-0.27089959954127624,-0.1827485092152234,-0.09869509349918454,0.0030828598760640107,-0.36103826260789956,-0.18127024517557014,-0.27605131065363225,0.05586048325210422,0.07232193987808694,0.022938620602071063,-0.013818135226654083,-0.22180135553743935,-0.3256923790523391,-0.2780554294209875,0.05213030399604385,-0.3722832416848348,-0.26165658679027537,0.0911795334880465,-0.032416738867671074,-0.09230782178239379,-0.24272023373992704,0.06293391192304003,-0.22417447045464373,-0.3232044793510196,-0.1595118116371273,-0.15267979915795707,-0.2347874934812347,-0.10386171533461656,-0.02665804632520345,0.0677129745585644,-0.10503549731932081,-0.10881271432095589,-0.39567052644436773,-0.35688415303669085,-0.3208201076786004,-0.288770395132398,-0.07355793172095743,-0.3437496696394252,0.08182751438267026,0.06503091356124117,-0.13241838600044842,0.06906470217934514,0.03610037683199217,-0.12551766450218949,0.10267893719427888,-0.3814307796048627,-0.22343253457064993,-0.01942046626732513,-0.23697274132726323,-0.07272325586547153,0.019618694774652855,-0.004423542766276123,-0.07529046568954195,0.054706430682668006,0.0025629217816820495,-0.29700711887562564,-0.17585026128753384,-0.19349717665694607,-0.15915688890409102,-0.16419470687200732,-0.028907990406764922,0.024132818474987994,-0.2829249189803965,0.09352776821935871,-0.3273015869666083,0.03366787212690295,-0.0902321500676424,-0.22427911707379808,-0.33710097503579045,0.02026852301772365,-0.17328299692191712,-0.2192801287154296,-0.09786027855416109,-0.29125887398805633,-0.08965768209579787,-0.19182434996099182,-0.0487369113293594,-0.0007652541785341396,-0.09730531753861107,-0.14981469675785689,-0.2881759268202256,-0.1309844592596765,-0.1168130086999118,-0.15767347050239022,-0.2782771332309675,0.07810165019011882,-0.379818206870391,-0.15394479289562185,0.05692502186685092,-0.3461927728842336,-0.08650380434564763,-0.0811728629365469,-0.030242954292171404,-0.15665948990031114,-0.3416884763256829,-0.3125647364927493,0.00868747063153121,0.04265879057998181,-0.05641078486860957,0.010945000541344417,-0.25116626946929926,0.02674195923365406,-0.026011054792917317,0.0604272169240534,-0.3347487062031201,-0.03643779326710553,-0.014033820505816202,0.013049993074100267,-0.3012158282315289,0.0629771539365572,-0.03204865796565578,-0.033983315144567004,-0.09882548457967837,-0.3089919707298609,0.06087010814558218,-0.17320603257546213,-0.029466045921607564,-0.2250457205383884,0.05338734221060197,-0.12280842587677122,-0.16224600835527442,-0.05135025052519417,-0.0730311053033271,-0.22101151111016487,-0.13117620819850548,-0.02007401575097361,-0.01993620305649477,0.0190844217585875,-0.10849064690037605,-0.013624534395473651,0.019114777716299058,-0.23053972252669547,-0.18353202784205777,-0.23889194685712,-0.10902784047741822,-0.2820998875200056,-0.09427699145919655,-0.02503245682164212,0.00540701967034515,-0.24394343784287503,-0.07128946532268408,-0.28952601234577613,0.0018670647276450819,-0.14518839710693077,-0.25095787581317786,-0.08361464975078328,-0.2861392990689984,0.05288941661932341,0.05110878197756194,0.002365917723934257,-0.31026946102530245,-0.2952566135425748,0.023920636615269237,-0.19121794897847458,-0.2251376922075328,-0.1428317705416475,-0.08515518842282375,-0.16256746494693616,-0.15810120566935498,-0.30631983966370363,-0.09852532270331166,-0.024418620496654272,0.09026399642458934,-0.17210451183651795,-0.17961243269205845,-0.2123151258564751,0.049027457334230966,-0.13992443716656505,-0.2485683266989749,0.03907153493640742,-0.22524221788899654,-0.059670605551561784,0.028677317662268543,-0.1656192864343985,-0.035882386683399006,-0.3069590781305226,-0.25968157258691504,-0.04055248163733966,-0.2693182433012151,-0.261960893568006],[-0.05414462004423911,0.14361612978143623,-0.04699048873178471,0.20969355224229566,-0.017253764716309197,-0.04854633204124849,0.02655597755732975,0.13039580032979164,0.1546140738167537,0.0470046459014892,0.11930076992961591,0.18765482061422542,0.03693199540735486,-0.011528366794371107,0.002705149887047026,-0.02364376350574211,0.15611607165964006,0.09454134545914018,0.144790057470117,-0.029056115700192217,0.19717722640486915,0.03381703332474692,0.08753387153828691,0.0833541583607243,-0.0207693835445611,0.052855496802403576,-0.027310823544709713,-0.017559630643684838,-0.06891086123298988,0.1903705128951596,0.19588445811180763,-0.03785614292617085,0.2242897288417693,-0.037283165899409,0.011998931390000862,0.07972466125898808,-0.05586597347846232,0.1686362886710407,-0.014834575470660055,-0.03512904769549399,0.11151601627952176,0.04364326469316163,0.1343823894187283,-0.03509594151288671,0.18053259538987332,0.3468492299688532,0.24254482295296687,0.15423709174121364,0.00048643121489133287,0.11285345143754462,0.10280919425431212,0.003228052966938098,0.257863029825594,0.457760432881414,0.3670795898668234,0.29324949507703274,0.2878182391991174,0.171361725618302,0.21383206721493533,0.023405083263711202,0.16681473385160675,0.02103412917904352,0.13980657859341497,0.11624365805405208,0.20268593353299882,0.2106736804047212,0.20403872093820644,0.06326617012402654,-0.13444420482947317,-0.05442773646423204,-0.20192695661305793,0.08094160528796338,0.30334211093372826,0.7030404468573103,0.46609045444676306,0.4049389535669564,0.28070727801503703,0.33139084290718357,0.07217732996493578,0.0980872202908337,0.13695596646652955,-0.0315084820241482,0.14480656618791812,0.038718964300264724,0.380112814049919,0.2714654409797567,0.10672565907003433,0.021426433635012444,-0.3392429126603574,-0.3658513576594138,-0.4452071995542128,-0.3474136715720766,-0.1226312423530949,0.3125705579840255,0.3159602580144927,0.2598745196561467,0.17011727161728757,0.47087939278133517,0.0044118563203771445,0.04392549914069334,0.09848155024163212,-0.02834362732376492,-0.0167503056875798,0.2009015168583693,0.09787864899937643,0.2688088771884406,0.10766250511577548,0.10599117095363139,-0.28481838845473123,-0.30603659846838155,-0.05761261277925658,-0.2969768310714007,-0.025228572081539107,-0.2727534159201645,0.3298583854489164,0.24612700618426056,0.40199938378201666,0.3769436706890342,0.010627897876196859,-0.01695937150130334,0.09102603589997679,-0.018670704024648755,-0.11118744555139622,-0.12239866201486464,0.059917743119701425,-0.0018139762635432438,-0.0017714569816966305,-0.18275528733144586,-0.2373327035128961,-0.07945947014697544,-0.22885934565244834,-0.35359411674485686,-0.4227247356971986,-0.5309199704971336,0.045412124152137426,0.052602861717094024,0.08186887920876204,0.17705322681210495,-0.21436243545555078,0.17016737672283166,0.20845359767448646,0.14904762643072006,-0.11581122807870817,0.13748042213357894,0.10934743416378431,-0.07643920039705476,-0.2213109762534586,-0.49013035838943964,-0.3574655993256916,-0.36930525015145355,-0.19313411008436734,-0.213891109064167,-0.6600489243688709,-0.44270838361394693,0.03957029985175159,-0.2213749428640006,0.014232387902403196,0.06406489418085325,0.008166168430391123,0.013061745646641395,0.19140163438120736,0.01845681326472484,-0.01936189820941451,0.19721943544396833,0.19482466407478916,0.0862902275014071,0.029432493060223924,-0.21505684341894393,-0.12145283924945022,-0.011408535760909937,0.26800487337090123,-0.3927427332355914,-0.4764685224833501,-0.30866668702884925,0.04561727716164605,-0.2496589699680889,0.23199718460279525,0.2845962661832592,-0.23877447562097762,0.12206296150631263,0.1386022840219819,-0.05822482949111374,0.1629111884826164,0.250036750636314,0.031418408528115616,-0.12639444314024806,-0.26577101535357894,-0.22097828444610762,0.3830842411532244,0.824407284708134,0.46887954783633745,0.7411470367201881,0.2624570233039148,-0.2222350918024299,-0.3435555834977882,-0.2370821406822962,0.008139440548974973,0.3122985169221098,-0.06537484150346172,-0.09043734062745816,-0.05078908280949051,-0.1414862344589265,0.12433103969268669,0.2916560310770224,0.08625981050087352,-0.07140986291340787,0.16875052680569097,0.3728728559883302,1.0035652101498753,0.5742858368543026,0.536531496905669,0.599311872187455,0.2628129576747166,-0.1113998111280459,0.024859035182241904,0.09321536778193719,0.08729419397376216,0.1095293591006805,-0.22318115865798777,0.001990290947461183,0.2066570811207187,0.10040970065907055,0.04990520806431144,0.13699219024969364,-0.08672459702487775,-0.3516432019182226,-0.033728065927521235,0.6608743303447514,0.8769968096608095,0.4223995121096591,0.09666126332273593,0.0311745521311117,0.03142202290572724,-0.06332814917697366,-0.18321438653221855,0.2119565878363809,0.4671442832917256,0.20890547590400782,-0.09131184903107194,-0.09398595510142296,0.10683355681783817,-0.1368698043022681,-0.04222315406381829,0.24715448333023213,-0.2226599602147295,0.02647783585988191,0.4271240304019487,0.1168361604573966,0.14493629695086346,-0.04892353200518724,-0.21698967082936316,-0.11269611390087558,0.1485716558432918,0.03141503464685676,-0.019559281544505258,0.3322555840255122,0.552564503726596,-0.03987985424300207,-0.2164264817610456,0.06544226419692262,0.09091149839594555,-0.11939084636030098,-0.36338915040108355,0.12905067072229304,0.0866355401690274,0.2870542175432114,0.3064659457761072,-0.10205531049836933,0.18946867018313093,0.12063273029946922,-0.22131551408339262,-0.23559428736211815,0.21795237246343102,-0.001151250995421178,0.08989847510320939,0.06266095166994975,0.24262917951398605,0.2753068845554124,-0.10435172502477838,0.038557456482062255,0.1636463938922573,-0.06424000200623671,-0.14230789274828834,0.0005718597179230809,0.3985981940836929,0.3387801223067523,0.10793919194839519,-0.18618509878158832,-0.1976179133590958,-0.23377133252462914,-0.14840870801600844,0.22276779520940926,-0.05090501708483866,-0.12349552591216104,0.12804983743656784,0.14327897811275742,0.34957782028976964,-0.046293738894861804,-0.033252470037619206,0.05206348239127586,0.1929336334784137,-0.011559696990660753,0.10690933155234116,-0.014661594139124207,-0.14123699233397047,0.006425609859246351,0.22132356441123263,-0.19886281491785546,-0.3467627149659837,-0.3791965008799874,0.03766089204218879,-0.016860736887872527,0.051423873574656324,0.23918654866817587,0.21754085003597382,0.36173065672308125,0.05147275472646578,-0.05352211790671883,0.19395692100638542,0.17273419239851787,0.15073812043797136,0.20093075766526983,0.19593080677833638,0.1029143302499878,-0.15818616244811426,0.023206167067318567,0.11456493626423936,-0.16654794477128113,-0.38611133756255567,-0.22582162002420408,-0.09723167966497218,-0.017968648212650176,-0.10670630681624967,-0.11678716074933011,-0.023063006316324335,0.11477741270192349,0.006729539424165954,0.06685875225284237,0.1728826989505006,0.01595816565513263,0.06565462285767652,0.1934875708677152,0.11194207663698813,0.19105880446629644,-0.2829586155487921,-0.22982321038962028,-0.12160706197989606,0.09427592579079147,-0.08080577020510674,-0.2950039828004761,-0.05186747154456701,-0.003254216310892485,0.08814890787548936,0.07957331821124655,0.14850523678715158,0.23687851108929503,0.1544641968079437,-0.04114359280291117,0.0913753168481302,0.031349571418196574,0.05858098226327799,0.15381819402257219,0.20288080860537958,0.0964444083531098,-0.11921041943095192,0.005797710445364208,0.04998586486726772,0.17180805742809,0.08802524806406777,0.1374314208108497,0.02740133760094429,0.0740162590402977,0.11580990978980239,-0.05623083836848069,-0.037898987828787464,0.025990473591453303,0.07209622850773532,0.026631009869419263,0.1360975817044279,-0.006686385350086489,0.10592562143227845,0.21289766731928744,-0.019079683022305786,0.18822399515896268,0.0930965109679218,0.12481684430667503,0.11943162075952926,0.20327302308090703,0.20770530689500624,0.17054707519199888,0.07356203656989121,0.08669576679975291,0.11303196406554268,0.16737600079631665,-0.03895340052044925,0.033715047910116216,0.08826789980480536,0.188084391976208,0.004720594919647108,0.0011010631419844977],[-0.022509902081219134,0.017175192259790237,-0.11173381299443913,-0.18270485604373843,-0.14149316335843584,-0.08673286977710792,-0.10634290926313997,-0.15289885122305485,-0.0685962816886685,0.04882512662180469,-0.21776822069547105,-0.04988172488720264,-0.16263575196623384,-0.16051876478229818,-0.14289810923795504,-0.12965441939944888,-0.08985715296709328,-0.0622196031117908,-0.04147708651114897,-0.1445430320227436,-0.06883235423166155,-0.02429083905715873,-0.05778811069448802,-0.19062719042158635,-0.19275566388666915,-0.009559786132734062,-0.10779892682691929,-0.09487447449190793,-0.09023063971080057,0.007798654159342403,0.03802874195518935,-0.037030817696893134,-0.10105732890465545,-0.14507322665276404,-0.11958109818161705,-0.17642637080493764,-0.15543422351244943,-0.16243046489918647,-0.07548397144261347,0.035409146659988025,-0.14227428189959013,-0.11399783143843015,-0.0010150000629145324,0.053432459683304206,0.03789272354697653,0.04284312698059912,0.04261455409203416,-0.015255723867978844,-0.1239940619347331,-0.17384871781229244,-0.05318628451103566,-0.04466284197753466,-0.044804263118101983,0.039356829235530605,-0.053008970679747885,-0.10230641534003558,-0.0925843147456366,-0.11894316033109673,-0.0752695345525642,-0.17703769697119429,0.03476635291226316,0.05691460513709505,-0.028748698515590212,-0.025035903023497213,0.041613043739201785,0.005668922168538269,-0.09656127061887967,-0.02091839519048381,-0.13099946157299028,0.015340425573748907,0.03971112431017576,-0.19205413987139855,-0.07737903105505817,-0.13775211764593592,-0.045466631097041306,-0.19108986139432718,-0.1346262910539099,-0.20080928981841947,-0.09061168141812163,-0.16401406693103288,-0.06451517785377893,0.035540131013711534,-0.210139423407216,-0.03393220040032467,-0.10099664825629272,-0.07078291062313886,-0.14488537818019348,-0.11564679618196647,-0.02968624095693181,0.08809263311390193,0.09888770217491892,-0.060125029860259215,0.036659015372989295,0.10031882360722057,-0.24660521725134318,0.056129613467847186,0.052352570129353126,-0.08227844382247008,-0.07663520630940808,-0.06348760285765413,-0.14563053332318576,-0.03725098744533419,0.023642301006616687,-0.10178451431729948,-0.190703233308092,0.021040923043528,-0.2020635538819667,0.0653865072999037,-0.02172972768405668,-0.28106572330123536,-0.012887410032548684,-0.1996977357523669,-0.0603533187245879,-0.28399786938510724,-0.19604501297687527,-0.3268642724050944,-0.03774339898194713,-0.04303116629552174,-0.11496489976293554,-0.20068404009255356,-0.01719589503148429,-0.028717835161827146,-0.14021480510157208,-0.19047971544899925,0.08444216868705437,0.08744348940818002,0.017103671825093033,-0.2472335166012184,-0.16785053731471164,-0.05727146135664735,-0.018907329137788923,-0.12441434660090045,-0.2481652443646083,-0.007209272653934442,0.10912883460502165,-0.311429757780792,-0.14700393341886966,-0.014517218791164454,-0.0966744406527116,-0.10839643817995934,-0.08828776854240336,-0.11708533166801817,0.00047938920522974784,0.07562818051026664,-0.254124045605539,-0.11748151199714493,-0.2984755146989127,-0.22803699729519117,0.06767109110639008,-0.30820306450603585,-0.1899346559597736,-0.3212075953147633,-0.020267572559967292,-0.24684377329448312,-0.2725743020095519,-0.05967812822407135,-0.23407110907097084,-0.19450153720895694,-0.14505514778615516,-0.1837079164969595,-0.19017452236962662,-0.1565196068473414,-0.07067691524273334,-0.12538726509271836,-0.34617620001301586,0.010546838783643174,-0.2752182921689557,-0.21800961731902013,-0.08087033104359338,-0.21464922941231254,-0.2959603943044929,-0.04938689312402379,-0.28809027924832714,-0.1849494302701805,-0.12204412989074263,-0.12357435583719059,0.08275738407485553,-0.023376303123179367,-0.17451495971953102,-0.0853029598529931,-0.06496243725288964,-0.08155164109415006,0.002871014714168257,-0.17151395735492558,0.015016300742939987,0.03517480724008438,-0.20026446867769673,-0.08071584762030741,-0.16782950111308106,-0.0851042658050502,-0.24144298457775987,0.008477101118102567,0.1005428596360799,-0.35612209148266327,-0.21121365041920798,-0.18281172877294646,-0.3530436689718748,0.05199850978525357,-0.08639241151193043,-0.018306096064635218,-0.007040718942055693,0.06012963363091169,0.012069182754529279,0.058056971502629104,0.051991720933636694,-0.21466822360857735,-0.10286018083676761,0.08067257767048414,-0.35435342164624056,-0.10469206018654027,-0.050004509564034724,-0.09021955284412653,0.10872510053647105,0.007424592443760844,0.0577320655036084,-0.17631695507278328,-0.2268019633316731,-0.011503912475763293,-0.18383253873616412,-0.1619549163351987,-0.025967077796989358,-0.2062432577984142,-0.010841621253125369,-0.08843397114409167,-0.04542141939055265,-0.13516063040870116,-0.06790156268125098,-0.018472952016773434,-0.33823784169170784,-0.21402413410810495,-0.1783819133906243,-0.24006090879862857,-0.25678311354044925,-0.05043960851829343,-0.10538188366299193,-0.33507750491215393,0.07253707520171787,-0.1815036517025281,-0.18264569453873197,-0.07351510851494736,-0.05919480859835274,-0.11980415632136397,-0.21129564190417663,-0.22810891098715572,-0.09011884149541302,-0.18613696921496148,-0.3136857370864865,-0.019810474800464786,-0.019380038825911747,-0.22908050213237907,-0.05266573264214376,-0.25582594521089846,-0.03111377234666751,-0.34822392167360333,-0.03563030379215896,-0.23059764017665216,-0.09499964792597299,-0.1065415066841683,-0.16677139386552553,-0.04983946297145151,0.000574890212479191,-0.036224540020028534,0.016406526842826123,-0.010945093274177599,-0.048068472618289136,-0.33165138789739196,-0.21791092141832816,0.0021505965951240345,-0.13749786388665403,-0.15280242279378645,-0.15305139679330315,-0.27097212498325496,0.08936710664080058,-0.27226817865309655,-0.2689652637541619,-0.0796892420513198,-0.005619761488249271,-0.2007812357741681,0.05061743447820317,-0.12159559872833567,0.015454361554145037,-0.15571231395052015,-0.14334258244322595,-0.13585949308255452,-0.21535820594998384,-0.06716210752056863,-0.14509101820832257,-0.3259373349402633,0.024004403468504645,-0.27079882725192617,-0.2992830531030955,-0.3242534977674487,-0.13180902218331106,0.0696964229837818,-0.11541932173991802,-0.23265878754890226,-0.04807540722667483,-0.209814758614611,0.025815026004816822,-0.19610387205563307,-0.2052035912090222,-0.10302391812135422,-0.11210837924259327,0.05045945371024209,0.002315288422128264,0.08664073951348797,-0.28685376510565386,-0.25056314352457915,-0.31969236206420387,-0.3148012514482579,-0.07600403336230367,0.016855727178917933,0.09944281470765812,-0.09615811912248022,-0.17984445416651804,-0.16862865663646473,-0.11432354335436946,-0.06453099357320444,-0.05977607094793717,-0.17933614881027496,-0.12450291197625418,-0.13777876767346436,0.0407260095590195,-0.06822238254547416,-0.07456007943806045,-0.27851296333633757,-0.009700087207722868,-0.17449617336072673,-0.2619297476597017,-0.1163005330536951,0.04954782611529986,0.08216832583709678,-0.13596378364066156,-0.07335270001500718,-0.04539565282469297,-0.18192173407196566,-0.012176134693052157,-0.0036140647645415557,-0.12134426713289773,0.012480768619923612,0.039772293662145054,-0.16374057742707596,-0.05354753202310242,-0.1537679109031945,-0.1580549659288926,-0.16638114365547846,-0.15984268788946282,-0.002588190567469677,0.050794611272090055,-0.02768065754762869,0.021142679003903903,-0.03299865097131671,0.006203483772728362,0.0748631243597091,-0.14418954313957494,-0.11363960211974614,0.06108751010530673,-0.06646206440473329,0.015886067696248302,-0.20391525546440845,-0.04872441854566476,-0.17824120313983846,-0.11567819499747418,0.04939713547305691,0.021601999290055643,-0.05051974848005134,0.009638283038475613,-0.13552544345522377,-0.11874453078370664,-0.0390050829923851,-0.0775365828417827,0.037831437038542595,-0.16500392377880707,0.01291355900788545,0.028743226063926864,0.018702570864576027,-0.17157601539679931,-0.20604109844677418,-0.1507458341318942,-0.04965854793683175,0.04584039655414118,-0.06975145091197572,-0.11731826032165318,-0.16028477132840246,-0.20759833064636438,0.05947132444864133,-0.17382977851959017,-0.033755423691435464,0.04913554820184064,-0.03958822833296335,-0.13723617628500664,-0.13181337373844018,-0.15615579258017206,-0.039053714747384796,0.06023955478637855,-0.08668897256259868,-0.17682305935468765,-0.08726414993609076,-0.19023655837289957,-0.14344403407483958],[-0.1980043681486498,-0.2208450785102492,0.024014477800869172,-0.13421858049260263,-0.21935113160305234,-0.03345163374762825,-0.1351560022811984,-0.12663722726665155,-0.14054307894299656,-0.16273847768128336,-0.21602624815379928,-0.09427835607764755,0.0660455014208301,0.025341258746841427,0.08469444922856964,-0.2083353441012447,-0.1599360294145641,-0.09359372804160165,-0.08893197650663466,0.006843439198595778,0.08768113949041124,-0.043640397652261805,-0.057881810794880445,-0.2244468044936253,-0.05054695263329328,0.04135356670959558,-0.2311867893235756,-0.019479140918703352,-0.07378655535472269,-0.07674515667363836,0.04722549166604804,-0.06352080388114967,0.06977321683895787,-0.019543705791976014,-0.17239838304854338,-0.12043520962560426,-0.23213331230432158,0.04265276125687895,0.08185631908279949,-0.029689048128093407,0.10175225813870858,0.029722159366454903,-0.1135033200732317,-0.054570337553615164,-0.1877237277212995,-0.12720552561345583,-0.20530586032919404,0.10194221277532728,-0.19540806742613823,-0.070691348099655,-0.04230206930149627,-0.20186907665603704,-0.15121748392892717,0.038651006179162756,-0.12887938452938574,0.04667499767114883,-0.09211703177218994,-0.0035718353988966377,-0.03405034327273842,0.0009455054171956327,-0.10496671147164642,-0.07070320194159951,-0.009593693935016571,-0.028152092144495353,-0.157024036718502,0.10338539781299087,-0.020862770841769872,-0.10653724265278394,0.04374138398484095,-0.0944926186319418,-0.11577293326008893,-0.008630839432140935,0.04425809609753125,-0.15189378020603658,-0.08827477709133583,0.002453426949247684,0.09868575533387414,0.10571495742713287,0.09382752202897729,-0.06520328616179193,-0.027779850147994185,-0.14714737848274143,0.03483997623746626,-0.2397127954022296,-0.25395154311400403,-0.01063070179540198,0.06492358627474781,0.13422706485942223,-0.04992590877141571,-0.07850674304399195,-0.13989932853142445,-0.02743713933831571,0.040449328693178285,0.06285504651124636,-0.26103327686909694,-0.32957857847343597,-0.2380147085748956,0.0089943374652962,-0.11940535087991816,-0.013912976736335318,0.09215453945056175,0.08921116752284461,-0.11665446075636679,-0.11672243705472478,-0.030531134466161822,0.10532719778097964,-0.014456174798776377,-0.12112808484748981,-0.14579646706245641,-0.010156726448764506,0.021382379012107815,0.11921192063436985,0.0538299381086738,-0.2668235855398607,-0.18582553472590543,-0.06907303955880258,-0.034794238608550514,-0.028494819886016723,0.08635002160589673,-0.2153154427660695,-0.04126144214584729,-0.12467615602623323,-0.20934070662650983,-0.21679464848093494,-0.0822187868227746,-0.3025379044162036,-0.1645584115022753,-0.27534752505220145,-0.09474895686528015,-0.21889579088173552,-0.24608968591279765,-0.06552417325309502,-0.1897605840026447,-0.34444062704064327,0.03293464839960927,-0.2804306981607994,0.03845740010895787,-0.2224091051084579,-0.11504167684501238,0.07597161842112811,-0.1391872899807946,-0.013300120538424266,-0.06367167894646238,-0.17273171057525216,-0.2179379653144624,0.01105298501583822,-0.23873251654915847,-0.17082665670020133,-0.11523636635936241,-0.28816850038881264,-0.12549151337971692,0.058772366335442784,-0.17757874780949737,-0.2714575901139246,0.038474880637542404,-0.06962232244872832,-0.2898781515154023,-0.19084962588957208,-0.021356655981918413,-0.16779410247975615,-0.12839429626598273,0.03605208937013886,0.018537672324664484,-0.2688415190229471,-0.07056975752079794,-0.012442354642719314,-0.18380051472111733,-0.3731209464182407,-0.3184783086165845,-0.09250563016609498,0.10464898999399169,-0.174855669619292,-0.14552212135870787,-0.02498926928145407,-0.32226434873631027,0.07160407003737107,-0.14256129035237897,-0.2938881061458884,-0.13551773658871663,-0.005129919201354835,-0.23297599504408495,-0.17593282170446087,0.11460557609321213,-0.14732758105535684,0.10662375207882803,0.1272513256611463,-0.30134413025729007,-0.24927902995522652,-0.031228834383990548,0.09622587891340449,-0.18449948145290393,-0.23686351471850545,0.1109578684021401,0.10311438834571024,0.14701503870271732,-0.3752714248815931,-0.3119927297138327,-0.06772981202901113,-0.1686789155004519,-0.0646348611452938,-0.1593203966301993,-0.07827478911706098,0.020741485300087122,0.10465766666423063,-0.3876370801598717,-0.19516049776655556,0.14684160504391083,-0.27268679608683327,-0.018928089150375912,-0.25221029207747037,0.10814238593647706,0.16724679379620935,0.004202715342920082,-0.22563762954689973,-0.21376840500524086,-0.352410763585594,-0.3575132461234225,-0.28260033671357976,0.06558939037412495,-0.07767243999843107,0.0270582967423026,0.10275226750455652,-0.2990067320280844,-0.16681065876079493,-0.34088748848827405,0.20404387324199266,0.18312923600286446,-0.14863028695832395,-0.2154281006389032,0.17204571235408372,-0.0007709067285473478,-0.2018362202479924,-0.06989807561275345,0.022828944475103113,-0.09917985265372146,-0.12577665429324705,0.006275939235761468,-0.20792037904777935,0.022771109469254258,0.0052238336806337835,-0.0025198407946161127,-0.08965063570476739,0.02376416950892588,-0.012117139907555637,-0.14989297778485422,0.08047891399569379,-0.027666592450907097,0.016324163719514565,-0.07151583564194845,-0.2380755483135464,-0.28084162815094643,-0.31680090955303936,-0.04609626759729398,-0.2210971256918541,-0.1814405394213408,-0.16187847144067877,-0.1637537704599766,0.04104422634608662,0.15762442224481896,0.05991587096371859,-0.2130937325653409,-0.23224422341006865,-0.15815563610763944,-0.080843633095752,-0.10587747299317034,-0.18999467372544293,-0.1819543484562285,-0.16609107363508147,0.05671155733880327,-0.2949825057852713,-0.07791363529053574,-0.17889212941840307,-0.2258617218684586,0.036001521122394055,-0.20409130074627066,0.06881769353694656,-0.02135558871904237,0.07937150971479341,-0.12603720519429906,0.04234767200190252,-0.1466826189460166,-0.2278736791453156,-0.20590071740804974,-0.054743739539967674,-0.06197068672697993,-0.14446384546806196,-0.14488881056791156,-0.30020176014358135,0.01581020876909731,0.09348706433450839,-0.07708668187030684,-0.24834878067418273,-0.061503936467938176,0.10150223164077687,-0.021894916649385164,-0.2784910957440752,-0.08976235394472681,0.048144666997191304,0.02594035182929554,-0.09622499890670615,-0.1318319298486455,-0.07107302512533523,0.06673253143617312,-0.005603974976400378,-0.13945942648902512,-0.3614428415612255,-0.2826562276455936,-0.11139739424488987,0.11535532369499872,-0.25057926898950733,-0.18191406275811653,0.03750085560254028,-0.31962039079981586,0.037832595496074255,-0.07759162192048343,-0.09040929354104091,-0.08047567535326688,-0.046298301700809064,-0.1824476341797105,-0.20298212408318847,0.06260457287879788,-0.14578686389634582,0.0376999540235212,-0.2091506948761725,0.07683769592811625,0.0677579702775721,0.0031515113594037286,0.009423257394738016,-0.24462347355374267,-0.009314766562179218,0.09908825576220054,-0.16705401066454645,-0.2412812831534825,-0.14914566099682386,0.028485596974133207,0.07827991382162475,-0.11831454551031434,-0.053022356767887434,0.006851475055513047,-0.022381941879390764,-0.059051737107955,-0.009021580751143975,-0.16374224606077342,-0.17974992206517346,-0.07641902983449346,-0.045471126449316675,-0.0869935248000783,-0.054274691169017834,-0.22331671318480956,0.07605568672227242,0.01647623605772639,0.0026123767110085025,-0.0067848785077425705,-0.024233011398737996,-0.15817438064245434,-0.017034748130806673,-0.10908537639005722,-0.21061168591270046,0.04379257267448558,-0.17902838821088773,-0.20653371309373897,-0.005469126667049313,-0.1986556534200499,-0.2123152794123356,0.0007253840384091896,-0.21906053995683183,-0.0626070043797407,-0.09781584806551004,-0.0516073958817713,0.024931760918982165,-0.22776407452296538,-0.1992082689793278,0.025852291694671153,0.025343267358958175,-0.21487523446757154,-0.10541799729987224,-0.111113606984641,-0.10915445577626454,-0.005629779804620885,-0.16194024059425904,0.08203379617116303,-0.1584888828459628,-0.11494816956126805,-0.14949850274057647,-0.1950155475977498,-0.06477603758555406,-0.12926677885866036,-0.19064927222305605,-0.15137510809032434,-0.23143716965819644,-0.04502278010280269,0.09962089892195795,-0.15189813130704907,-0.20025634943563575,0.009118376094192835,-0.20422987837865583,-0.07146983484842574,-0.20034876022560044,-0.010644074617576204,-0.17349482274462866],[-0.2888026475889294,-0.009263974508613017,-0.17768335828539342,-0.027306157699924945,0.0016578614649993524,-0.31331619352473694,-0.0587891487584664,-0.029773634353173026,-0.18455244155700937,0.010981823850432093,-0.11277292583145153,-0.1423788471374928,-0.2235256811185051,-0.27970792647420606,-0.01390683316840787,-0.16507853470257353,-0.2065009619722761,-0.15044426892647095,0.02496200301011238,-0.011638736092425642,-0.22711002209167294,-0.16528079774025847,0.07702647460695144,0.05958808166545981,-0.12900402838326613,-0.07408405199811158,-0.10687506136499729,-0.0397398987941956,-0.13355431121048275,-0.13285308008948798,-0.26826196321282914,-0.2546011805382799,-0.05337019627152807,-0.16382936105641813,-0.13593632486699986,-0.1975587563804982,-0.19464835544801068,0.03685406633201754,-0.10601499980384656,-0.08800390924149092,-0.2043034425065801,-0.0062279793835099415,-0.1899920219857763,-0.14242707447039057,-0.05898798511710825,-0.2979951897503656,-0.2223933800542045,0.05794517732364985,-0.3062458574609628,-0.22808902047859417,0.03941015242260701,-0.044706049076678245,-0.3211977676847736,-0.2801564568557063,-0.27366607547110694,0.006259873653477552,-0.2868661182108768,-0.09950176808939068,-0.04337245209630556,0.02683093084898402,-0.011918157841626167,-0.0632314095480804,-0.20990869699259265,-0.21409024420998501,-0.2284721745750266,-0.12612344559756072,-0.2309811620751951,-0.16611406654116245,-0.1908625800913183,0.08980389612133986,0.0471909056352299,-0.2467638213882353,0.07268469850468347,-0.16127735403741983,-0.17179766805128321,-0.1168628345727528,-0.06637748074351307,-0.15668606691894582,0.026390913703018073,-0.15384740785962683,-0.21961822719935775,-0.129318948121658,-0.11959270942982383,-0.30401484825231284,-0.08546018815993565,-0.31595074226120584,0.026472099520058752,0.08808709891821141,-0.06442861623321072,-0.14965072448090136,-0.16643640804111137,-0.20514437195866508,0.09851494082245223,-0.09015742464342547,-0.07634035366949304,-0.28922221495112255,-0.26322679655322584,-0.27304056429837814,-0.24301562242835414,-0.021318736913045706,-0.11843219674715476,-0.043432098889394456,-0.30881448808139883,-0.04051545533662712,0.020759091963444925,0.033734165157109815,-0.17715844374939682,-0.2716322376425238,-0.3706326401236124,-0.3009772757100535,-0.03049454358269532,0.1036558607202446,-0.24384866525180313,-0.12826182794826688,0.11021320554615616,-0.05747773121270672,-0.11049307417287861,-0.2767163758385963,-0.20823606994946245,-0.21428669680508383,-0.12324939152363741,-0.1951414323387037,-0.29248118123242806,0.02356488376806888,-0.2528917320086019,-0.06546547469053898,0.07470781019742177,0.07441366611296157,0.11429353287165875,-0.1681803439692509,-0.04060399219325503,-0.15657109258633237,0.07818600417165088,0.07550592724077491,0.11383035863299965,0.10904442748704338,0.10859465382900825,-0.12195747811642524,0.006761322834355565,-0.27851464214773874,-0.1914766615733657,0.07436850618965699,0.032001931815656824,-0.17454009687379518,-0.02649203549993678,-0.14481799471467766,0.01938088177436281,-0.3893570955725115,-0.1595515596745398,-0.3341703505649404,0.020696297252707444,-0.08692308169928305,0.06874482050968246,-0.27562422321010943,-0.2793552215912226,-0.014802125914882901,0.10111087168354373,-0.37754265197767356,-0.1928532215522477,0.03200260957876607,-0.10868007405182965,-0.15248494101325832,-0.08837695908914951,-0.3553469114673997,0.09312213135713682,0.018767861745704127,0.03455277130459505,-0.18729300185482012,-0.11361305002435196,0.02953532413353799,-0.11599844169899862,-0.18099660914089014,-0.11714107928194127,0.0738088894006717,0.028836088082385084,-0.09536372952949793,-0.3631445022651327,-0.00682171279529593,0.028832202070903853,-0.14735040221161994,-0.09242142196382165,-0.1546839022805479,-0.20143677537418161,-0.22027093833092304,-0.1063777779924037,-0.24681241216920166,-0.018236391809494126,-0.20851706732612993,-0.1702375755579533,-0.34326684745961156,-0.3068307317777131,-0.2453802464431316,0.10861709172880833,0.06616104414202771,0.04229451589357311,-0.30585276858951416,0.06713114288286434,0.11182838638741587,0.09586751208908505,-0.145793211587127,0.020913820068647147,-0.11655304565088842,-0.14109893954005512,-0.12240439521335675,-0.21789321456614322,-0.3462900795861737,-0.3734597670594755,0.12042092692046523,-0.057315509656362486,0.024850660729981138,-0.2374578530236802,-0.13910548621770527,0.026501827507778266,-0.3723030205718091,0.1170319778044527,-0.32521740439693947,-0.3620149523751187,-0.003245306503048117,-0.0013744851783334972,0.06498325900014995,-0.17410781068800557,-0.1803284710262976,-0.142542900144529,-0.004764988528233915,-0.05026755398170098,-0.2967408181645289,-0.008832461558905692,0.02009482133010936,-0.2775281145129829,0.05679723607431456,-0.11357284582234656,-0.11178521034110059,-0.35950787068364887,-0.18953284628582998,-0.3553019685840294,0.09136492101796981,0.05010957809513867,-0.20888943704173027,-0.27816315035501843,-0.2928752165030918,-0.023836966954414444,-0.22098692156606717,-0.15890681237845913,0.07851823552736051,0.02221190981549737,-0.3528193335915809,0.031232835662741258,0.03650334126482243,0.056842459528338704,0.029103223324701163,-0.34073250117908005,-0.10610911340429356,-0.345953357489986,-0.10550477020658464,-0.37209945946517,-0.0074291127107077816,-0.28104300733596405,0.10149031610522101,-0.24928093414234928,-0.319505496767718,-0.27047366749287477,0.05975419979067115,-0.2817995832580444,0.03299504059897181,0.016719797166365343,-0.12260291283256658,-0.1897566956637286,-0.24201611658363908,-0.1634166084725175,-0.24935653575815328,-0.36137209792033687,-0.30813662303364353,-0.24888978996510316,-0.2755354089760084,-0.20711143005263688,-0.19593609141718443,-0.15843779438399924,-0.2884620774092157,-0.15662413432818048,-0.20772450478640306,-0.23079634500328441,-0.07735536206506709,-0.30838115127465776,-0.35683908802650394,0.013638156972387228,-0.030776037176327344,-0.32971124572085253,0.06479045666206562,0.09244734091873345,-0.04929741234398093,-0.353536630678221,-0.3287405522867861,-0.14197039440557038,-0.0806458953333102,-0.13738467312425498,-0.3041434245902741,0.05903507357780657,-0.002977575142692987,-0.025145103335912144,0.07972941615918934,-0.25035901810524325,0.029894272043316558,-0.08849808576773865,-0.11133429942539574,-0.1875184203980749,0.12002179189995138,-0.2103017958064247,-0.20064682539825274,0.08398798074532407,-0.08391098169993146,-0.026683821095496045,-0.3503775820022188,0.06324896326994642,-0.12326578191702707,-0.06998493962855103,-0.23583146432980845,-0.008347442425664731,0.00436527109129622,-0.15844555365508747,0.02691907078771442,-0.2869541561223247,-0.24150892593270143,-0.1856667617350273,-0.2782555264608431,-0.2069326652532359,-0.3501237348047358,-0.16559960284777983,-0.1768139889295745,-0.2464818569216645,-0.3360399279557126,-0.24373821110185398,-0.014022663739543128,0.08541941141615156,0.006289579622381941,-0.29068552564614475,-0.20608786558697573,-0.28862397045250876,-0.22976384820083462,-0.23962325317105374,-0.14729932361402506,-0.04044981216093119,-0.06294148166897912,-0.30190699690912326,-0.12895079135244494,0.03247792633529029,-0.014657012486107967,-0.17411940837461126,-0.2917849960695798,-0.26850562832350156,-0.1139515606015231,-0.10143523498214733,0.0008224291470383155,-0.09409035303342964,-0.32606705828401,0.08092415259052467,-0.1835720299198526,-0.09713471714959263,-0.04284627223975992,-0.027431192139139245,-0.1864290598775181,-0.014105591558972588,-0.1422484873286489,-0.10639049084709902,0.039113757384251525,-0.12396097307144845,0.0630108718973802,-0.2336066105481758,-0.03706125824557851,0.008010246040000201,-0.03079344605791521,-0.2872659851201326,-0.1669159088537123,-0.09818987410116603,-0.1076120291860758,-0.11912548524712055,-0.13919867189361584,-0.09669872025417305,-0.08352262598317861,-0.24667952173160357,0.043242463957641766,0.04499259332155218,-0.08762700879911245,-0.27888434266724393,-0.16977790494277825,-0.03458317279021736,-0.2940525427388176,-0.21539572322662173,-0.10449727968656981,-0.1241118554648492,-0.04712520183001097,-0.04568472208026124,-0.050371359663571105,-0.06245552731188686,0.0362394744034152,-0.06380982185156119,-0.3092409296312606,0.08087364270229183,0.09137261532102263,0.056001894277634925,-0.10623457677113],[0.013241490046064145,-0.21202565248717395,-0.1693300111685968,-0.04555874330588669,-0.11650899268016776,-0.22203016577126017,-0.03485203555941632,-0.11008143076183824,0.022332949394984033,-0.1188959392981449,-0.007139402971125403,-0.2034115901314236,-0.17809607931331306,-0.06178129260486963,-0.038477086255617556,-0.21062221987987267,-0.17335000288841762,-0.09823229016711087,-0.20989876278632974,-0.14592831948334567,-0.09571223627404309,-0.05636617487958486,-0.1735551953117512,0.02152911410664581,-0.20058793176697473,-0.2044912963935353,0.020608390960411282,-0.15429113790067386,0.020418705187260085,-0.19991198825421472,-0.22196239196087258,-0.12301235703276417,-0.09859815356097185,-0.14959187335009724,-0.20733629877827103,-0.0011313355806480878,-0.1506769438039057,-0.09650867868761585,-0.01929093919184549,-0.18035101766548128,-0.04649553252866992,-0.18565401393105574,0.01851026674714868,-0.14326350022853865,-0.13447558794169245,-0.033336038831842926,-0.020522576465092597,-0.15118002643721465,-0.2005004271941142,-0.029527366942750863,-0.0626435135340902,-0.1528777902240195,-0.009263514592280687,-0.23538989289523887,-0.1170696955362624,-0.1269326871257762,-0.10388946976020318,0.01926982379694901,-0.09426152282131182,-0.020181616312695244,-0.14797792086682965,-0.021688212582877068,-0.16252997540243777,-0.008858421467949322,-0.22815002944912066,0.01135907216617265,-0.08234187134585497,-0.16446993595190504,-0.009694639574550246,-0.06757653563095257,-0.0528479298163696,-0.01902366668264452,-0.12825076975099486,-0.2353292019017527,-0.20958331021936913,-0.20417397140723773,-0.15484505942030893,-0.16899835936635418,-0.06223652450549933,-0.03337378853138325,-0.12636477738867996,-0.12130335838942445,-0.08151606511341551,-0.07129314081247104,-0.0576956323361447,-0.2302384301617111,-0.18477667332834072,-0.11912104239230312,-0.18592956521979148,0.02850401574536611,-0.08076434101197096,0.02187547357178394,-0.17558546965534658,-0.028636044826404895,0.012203417937888218,-0.061183339727777106,-0.17614106172250396,-0.21609539429295313,-0.10001154449888897,-0.03353542241687336,-0.19999657960866837,-0.07381955038801381,-0.21221788799335295,-0.27562416504413884,-0.1893786167266647,0.043728845973898554,0.04879745588106741,-0.08479574262717471,-0.039106282861539395,-0.13706045622195118,0.03853108253338572,0.05574033789890206,0.01962346006705495,-0.21372534797825424,-0.3270031799725505,0.013224519401022065,-0.11507483311453964,-0.13875327841077656,-0.07406964144208815,-0.17977024206778824,-0.10917199393003345,-0.049972579774854774,-0.17037298493975417,-0.05080481660814009,-0.10458215394059389,-0.21292317728723853,-0.030057354163932792,-0.28182719988357324,-0.20115341567916992,-0.10496734386969529,-0.0690205303205944,-0.128951778315118,-0.22727734617687298,-0.30695817513969814,-0.16026580287600187,-0.10634084770965135,-0.02581420028397706,-0.23891014370222255,0.01851744594565185,-0.1528280591485396,-0.1003426568151678,-0.210069671130589,-0.02474146167177529,-0.3374902733054966,-0.1913394207112506,-0.10470986263918365,-0.09163224415692912,-0.05091908630672678,-0.047451460359856444,0.09902339508659344,-0.010149551671971744,-0.17584988748327446,-0.2464854477687536,0.019640709654207642,-0.21535759213691846,-0.3330342568720132,-0.03809529880021244,-0.3495484575019438,-0.1532777335810358,-0.24190759622965297,-0.09839255525472254,-0.09451232894830564,-0.08351797487418787,-0.08143994240831767,-0.2717967127784289,-0.009275282081381663,-0.354280267043988,-0.15681443743136655,-0.1306628344455531,0.011789474981967325,-0.22311380595540853,-0.026027647165724782,-0.08704241303340299,-0.15309062275103866,-0.26996518649178974,-0.04970784574219661,-0.17526954251698862,-0.16344164911182332,-0.0053237282911165005,-0.13973351779550552,-0.08203138277708463,-0.2152315164804335,-0.08150249420257147,-0.3194741377483581,0.02185839838128919,0.0042277465626352805,-0.17388802414777563,0.026425802658580744,-0.03960315594602308,-0.3742267858021142,-0.3485996786614254,-0.24950831902631782,-0.2102966617361892,0.04762522956048482,-0.26185118286097814,-0.2287493067099668,-0.09791177824320198,-0.35012800618885087,-0.18338040072232872,-0.17635162922195372,-0.19640146042522566,-0.04601147698776692,-0.15759913392427663,-0.30453041356730437,-0.004749262541497211,-0.25013625081250485,0.03825275908394062,-0.2666894156825995,-0.03601719895259833,0.06130414394435795,0.014214040607966744,-0.38984854770450156,-0.053551353288742984,-0.2405580260861126,0.020791668597571648,-0.00917835933372193,0.027258828034583654,-0.11933607847260225,-0.006079435378018226,-0.07803804962882221,0.008156682571594702,-0.01947835064389717,-0.14645524646414937,-0.3808926163377381,-0.1551236216059093,-0.3533625401426705,-0.3299044394559914,-0.21582478943873906,0.02741721143678429,-0.4183292235152067,-0.4325256336698865,-0.37461827462060193,0.004645809965909093,-0.02438973243364115,-0.07318251267701838,-0.37492432491696887,-0.248508795094437,-0.34629468120920986,-0.1270081991103738,-0.10295156382162293,-0.11590529515791603,-0.0184532967494622,-0.025879181547868377,-0.33406570116522466,-0.13202363729286334,-0.3426850398262738,0.04089018585012105,-0.20657084727749192,-0.08405309139950948,0.010218311979378792,-0.00835623473465228,-0.2967370054701325,-0.394787087719484,-0.17041921329804077,-0.3915079205418819,-0.15327024160527303,-0.12838841379322558,-0.09325173313517698,-0.20059985272080116,0.014321851922386436,-0.11271083394000181,-0.08988015780935711,0.006183982621400659,0.017385841042357665,-0.2152694561192651,-0.36044894039480424,-0.14273057536343212,-0.16447476056108468,-0.21241754239514812,-0.1970979712136358,-0.05818699690733005,-0.1436898402664338,-0.09359982211381142,-0.360579300907806,-0.2862516681879459,0.03307253793481914,-0.18518595889071365,-0.2378121815909125,-0.17840303362551996,-0.16065172000904748,-0.008894983153810817,-0.16159563802978563,-0.013239309650288203,-0.12018818912335572,-0.18436907002912206,-0.209567667031872,-0.28015548974253424,-0.08710074275293818,-0.2715250330711015,-0.2075550475449805,-0.015809296663231328,-0.3059046877069583,-0.24976118732591432,-0.2641600895448853,-0.1471888726781926,-0.04404067981362349,0.005921706878851577,-0.10595304967726432,-0.08864158374784706,-0.17026044144602578,-0.07873850843159805,-0.16248557202181532,-0.1966495477227399,-0.18638800779685608,-0.018105717747474676,-0.10042587886593919,0.010974601643491266,-0.10785671462893867,0.018379398495580495,-0.0012165417508308526,-0.14154060047519995,-0.1312190307294778,0.016556778086221496,0.006007547036045771,-0.0152642577753742,-0.0003440419885045618,-0.10996127596378946,-0.02285720756622417,-0.16739011115544192,-0.14097297696185002,-0.10124141566101318,-0.0035653104841583414,-0.007257585328163878,-0.048767039863563844,0.022405762034661828,-0.08053886551761757,-0.009724091255709225,-0.1609596666419904,-0.1515910242648329,0.008177232298746473,-0.047048778456873656,-0.1359496057694466,-0.057506460583352244,-0.08062138801910908,-0.14751182291380968,-0.25174456708135406,-0.01939642005850229,-0.02499661565004102,-0.009247910397681969,-0.09894368906905451,-0.19068786732615853,-0.12661770189110175,-0.05183501834444099,-0.0770494846550035,-0.07943211870182715,-0.11688224360109695,0.02562888516954717,-0.19269164334204658,-0.09698966444721978,0.008153427695481498,-0.10351723157661122,-0.07528203829507193,-0.1744250179585976,0.022548253113273367,-0.10742392292912498,0.016369746539107288,-0.118151471907416,-0.2088022020438067,-0.18679113436791392,-0.187596896489353,-0.20431487627497152,-0.22595636430813398,-0.03408978423662364,-0.06345238892593645,-0.16050613623543977,-0.005160073420150199,-0.10597772222528254,-0.2201554283335813,-0.17541507855024077,-0.04428533673086632,-0.1459391859136177,-0.1908803904284591,-0.0484766237794769,-0.2294156153041757,-0.06911565444457085,-0.10393746780660197,-0.05168810066090645,0.003391932953593537,-0.10395558832982053,-0.100345033097626,-0.14150179937922333,-0.06486239269371022,-0.22462443058005022,-0.03993981838845786,-0.19185215713071158,-0.15215371002246117,-0.21898319916386347,-0.21872871132601582,0.001951373254477011,-0.026090561905284398,-0.08566431117291977,-0.15817042776071658,-0.22867103084085805,0.011091664815618895,-0.22525054482024118,-0.043894021569107156,-0.03772523324589082,-0.12426566692264902,-0.09849721762622396,-0.09359997820226823],[-0.25308447587075145,-0.24295659236056472,-0.20174417168188236,-0.14617940737474583,-0.24860024094995686,-0.2734499013536788,-0.1398509490331113,-0.12161187946966262,-0.20784177473040055,-0.12035441375565885,-0.3068475037880804,-0.08609824004287353,-0.2512916447340345,0.10490273673314719,-0.08857210838229614,0.09489058874368027,0.07514796063082832,