{"dimensions":[400],"layers":[{"type":"relu","size":100,"weights":{"W":[[0.04670341938536746,-0.06499985986621841,0.24813542453546872,0.010803621195955432,-0.08937900068092697,-0.11607287137443228,0.052236901386717195,-0.16385392872322802,-0.14020505373500664,-0.03543327370216129,0.09895597316422107,0.2691632013264596,-0.114637626160385,0.073907951392488,-0.0028481499342562816,-0.09914253180244752,-0.03683423801553163,-0.06803921291371022,-0.04640580832949495,0.20681866123004242,-0.15281343990176988,0.1864357900482974,-0.021623601453520384,-0.05342366444332991,-0.008100326649546028,-0.027286791618529357,0.08888430848849195,-0.10894045863397846,0.10906681382165899,-0.0038664141598520945,0.12263827603309305,0.25727564806315706,-0.03441057096822609,-0.15167183171415638,0.0792726527345895,0.22829931007586168,0.0406829460527274,0.10269316468366806,0.22055693714442595,0.02079476562862994,0.12679340447798548,0.04396422013376243,-0.029301448032196326,-0.15607097144921872,0.12173968754425905,0.04765279611358555,0.04991198190434825,-0.14479926915830965,-0.07234432695460562,-0.09422054904277588,0.015534963387907353,-0.06631919097968968,-0.12706209529022253,-0.06454552444407631,0.2446741354471064,0.1403417225657611,-0.016659970972711293,0.2693298854612071,0.2250219409081506,-0.11216704613652966,0.2402628354606266,-0.043993413451347343,0.10256862657061255,-0.010384608309472142,0.16799417996048419,0.18300592064723106,-0.14675384431152075,-0.11925492401760837,-0.12550424685488898,-0.1277987525410356,0.12240632220408525,0.263149373879249,-0.15440572620659168,0.09571587981521466,0.1983612625903144,0.0035305094757059276,-0.056894928856986896,0.07355306478481258,0.11933613572656807,-0.01672002666198543,0.20908718692345363,0.23560710751424316,0.22724563213518148,0.006284181740438329,-0.13398868230037658,0.09516641935574516,-0.23283256505784056,0.015707865396817372,0.24915573910167158,0.20403544007931174,-0.22173087763479277,0.16242606217089023,-0.10467607341175075,0.26788070684991466,-0.054839796726959836,-0.13194732683581367,0.1496274552799344,0.237966711787164,0.2025475702342555,0.005533577045589083,0.27377428375640567,0.11933263240640683,0.05557392997217025,0.08059205971064734,-0.15619569209680367,0.119455944270725,-0.08229507726546953,0.19790661885778507,0.2865911119908549,-0.046835287362809744,0.17809978685715583,-0.35155533484170887,-0.2572118084131743,-0.04898962236509932,0.1573813766572036,0.287903118119132,-0.1324070019510282,-0.12980048254732066,-0.046834239329401325,0.23955600286565584,0.22116306996835414,0.13413787900582136,-0.16765731389525593,0.03212453373994847,-0.07777728999041847,-0.109084235589942,-0.1657309958851929,0.2038282143352848,0.11997045004436767,0.09149638778872433,-0.1633486711769816,-0.2680853369384718,-0.353736834173764,-0.2141745084967058,0.2458972140658736,0.2865333746848054,0.19988653922985652,0.13476259475286279,0.07693305890009834,0.13223012680882715,0.26922031377381156,0.24758204833167863,-0.1556631773817528,-0.12323617881113136,0.02390398484737729,0.17459470874014194,0.09985242541755306,-0.061629709142842014,0.18803443720850352,0.08699834615279109,-0.00245277909119647,-0.05772150005580401,-0.44990844347786274,0.017608958076906867,-0.08864904503054893,0.06299918486399916,0.12720942749181155,0.18178801004312653,0.29747294316191136,-0.0259891536058504,0.25138733277463127,-0.03262326768490483,0.29396862889229225,0.07318254237942887,0.1228974163240471,-0.15956432626170228,-0.07142656946952847,-0.11385722462247083,0.2492971429531621,-0.2777049931854698,0.05689608643422417,-0.08998301042185629,-0.20108478883746014,-0.09939685731125428,-0.13576596967789184,0.29623109470861647,0.02099053076615998,0.01810494296238262,0.02497586655641034,-0.022574964599651717,0.27491901124269774,0.18053196146657008,-0.17188347860138206,0.002478194764643458,0.1690827144457954,-0.20676738786413726,0.13194251534626672,0.23585335236670876,-0.0012024622983005746,0.17413559997083247,-0.01737022827300118,-0.2935242138167131,-0.3054125605037088,-0.04668436206504753,0.1155579230571323,0.1651716414021093,-0.2245616632183122,-0.1922073831245728,0.178444345658128,0.13271175382841627,-0.04437828015404969,0.21859858389882725,-0.1890606658039356,-0.06623758033618106,0.14553909509953253,0.038938887084761814,0.2221448584429421,-0.021708591894668224,0.1767966806656117,-0.2897023668775827,-0.35801174387457063,-0.21313242612890113,0.1502301670956475,0.2618560822692932,0.12914069673316228,-0.07742841970435212,-0.16699540062468146,-0.04261005756456739,0.1426327519132887,0.19999184585016644,0.23427684445206268,0.2302057012519079,-0.09600045627405697,0.016299791032871904,-0.18793701364265994,-0.04364829221459548,0.06505218960413893,0.11529456670999284,-0.02144794744994094,-0.16029335660408234,-0.05277474677694815,0.09368636280161154,-0.06239966742530042,-0.040459067003597034,-0.09031870289144715,0.055436834437152506,0.16823898252261885,-0.15716618324122378,0.2034124425995504,0.25488353686910054,-0.11844202968085613,0.2243743592274925,0.09041619803625045,-0.16965617497139443,0.13324373637038395,-0.02389946179325837,0.31712992566057585,-0.24588446325750682,-0.3411666875903793,-0.4270536362968059,-0.33511211449741163,-0.051111373834015636,0.1382572477863917,0.2838715076210671,-0.08150152507821973,0.13592332610430047,0.08734851148818445,-0.10325091846494924,-0.09151810446816314,0.2570715710494346,0.2742594657902822,0.03347443771338264,0.10364573263660161,-0.1680205698469626,-0.1484758469426401,0.044373208437020036,0.17223596852654655,-0.2567557917110145,-0.20183047384877928,-0.2861240919149224,-0.14432330969866664,-0.16838020582521734,-0.027232660187397038,-0.23056651183436247,0.12658644465878421,-0.22598890051971768,0.18497130359224442,0.19952124905279484,0.17159240682508864,-0.004434323996259551,-0.12092250145384824,0.11996343668947373,0.0765109720784054,0.08116836816553609,0.05090370890005373,0.019287423996627147,0.07374081690987212,0.06563616649001829,-0.24244611834632723,-0.15864347904036388,0.04391024680970335,-0.32128983318021376,-0.058258666701097625,0.14198700604840866,-0.019278128818232793,0.053620554520343526,0.2783598796054993,0.28014856754471906,0.13581971942928472,-0.12428233873475229,0.053245154745901295,0.2665087338979462,0.26771193142352506,0.2971991190525085,0.43143533356748875,0.3552843396075828,0.23622326184102732,-0.18731345681422973,-0.02776746328314514,-0.14292337036527006,-0.02545038678802106,-0.12134490804608422,0.18100220704172784,-0.08137395388146842,0.03200286466939231,0.07728100290961756,-0.0781737770510569,0.16152899708070653,-0.02940077201082113,0.054567901432947624,0.24939079275883372,-0.08391208262550784,0.16672657501451976,0.10013770757714911,0.3670572105926192,0.28205756375526925,-0.00202075625217509,0.01680349003522115,-0.1213017985442089,-0.08633138520975779,0.08317481046101316,-0.1692539017706909,0.20620810330380082,0.08917218906259669,0.20613356694388255,0.006105004662237361,0.054385768958683516,0.21259731290602807,0.22600661686807164,0.07866100623200518,0.09587102165189455,0.14951969535538184,0.11277071453164673,0.053279981274062416,0.3395970349601851,0.2132701781537692,0.38585153131502453,0.18910660992656736,-0.1744219573537718,0.0688410422317939,-0.16282565625251935,0.11801226772699051,-0.03596226622550172,0.1568867405487033,0.27196605127902584,0.3012987318662607,-0.001472718190541864,0.10197859663509376,-0.029059436674419313,-0.017719426339487816,0.11659158955007586,0.04909079424008306,-0.09253445041595999,-0.11966920454832562,-0.01924078166241433,0.41944291649496945,0.3002949618743925,0.34509558340337365,0.2837210891544427,0.09337414409136714,-0.08918634192460008,0.09954204867053447,0.20036290533376874,0.05356373873473382,-0.07968336932899127,-0.15050735708897442,-0.09004602289618352,0.09465936230816258,0.20864489963559305,0.038032384550268215,-0.12159703403199652,0.10178972699205578,-0.06537986143943839,0.09254696885683085,0.2813770913147045,-0.0964757186961693,0.15200830761884296,0.19072259757670332,0.10253803228354748,0.009433230078342424,0.2764420370882683,0.1370825948349857,0.15457916647109152,-0.1672159731852867,0.08761943765093831,0.1974487420997624,0.08848295643080652,0.11753856470002036,0.2598512002653225,0.11373616705428508],[0.003192794021727462,0.0018979684007775206,0.0025723300536783715,0.0037661767826828274,-0.0004244862313837411,0.0025722172653234294,-0.0001908447069720054,0.0023661508050054217,0.0017008087018485511,0.003320460464894125,-0.000026329585516026795,0.0022759334853854883,0.0037595926020639204,0.003453021199478073,-0.000008193125895513813,0.0011232903542658095,-0.0005062653047720368,0.003103041616563957,-0.0010485629024764144,0.003075395225948191,-0.0002436704081888567,-0.0006420980895221734,0.0021499754176289372,-0.0008398180779239306,-0.00006207243667849288,-0.0008509988886636476,-0.000864061802258176,-0.00012157769809820932,0.0022530268121777244,-0.0011981495428912351,0.003793685153932054,0.00036162596296329935,0.0027119269428191217,-0.0006815057734943665,-0.0006941103493301532,0.0032883017528420057,0.0016697505661026854,-0.0012924438918682475,0.000013009481782249275,0.00299440733922814,0.001900612465069572,0.0034735578069145442,0.00019482091890764,0.002741432056561116,0.003809434683842508,0.0007860194298372144,0.0006741696885873076,0.0009284008367960203,0.0007809379707369471,0.001527537796022579,0.002067126668413724,0.002892804616234567,0.0030698037001942085,0.002692700495656828,0.003349695728265932,0.0032196960120310274,0.0017489279768146972,0.0021602899205811358,0.0025120141901971526,-0.00045380340978076083,0.0030605957831698143,0.002452179998049887,-0.0009756793649198518,0.003298090409494395,0.0029468966443148914,0.0005709033324906788,-0.0007254023843170756,-0.0005204963476569883,0.0003438954570463748,-0.004580345718216278,-0.06054645704047777,-0.08236538111810722,-0.058438023811774764,-0.10726835648845985,-0.11384495670481942,-0.007572786448716236,-0.0012218769484146118,0.0034931254349088205,-0.001113227335778202,0.0028885134922232883,0.00236211802847553,0.002480965731443401,0.003214561856070801,-0.00045967365711835535,0.0018506929881031604,-0.000659136677743983,0.0010594004143543452,-0.0014453952074682391,-0.020663903548231954,-0.05859156052123817,-0.02098006528141005,-0.09463467608036875,0.05614727614136542,-0.24778871334047584,-0.0629787599552107,-0.07476522820810366,-0.034452284265384325,0.0011703110189967972,0.0004066311315081128,0.0036630578708392583,-0.0011709426132547724,0.000023838096455645118,0.0004063787489054675,0.00014016153222927522,0.00026928986315728076,0.0015778676187099313,0.00031942296581066596,-0.0019029185504328566,-0.09307581954830847,-0.05068254035987402,-0.1981046446110044,-0.04205507497133805,-0.30452773828167695,-0.26273619659671377,-0.22601209048059162,0.06729972873958608,-0.045306457578237015,0.001974341690040264,0.000577152064789535,-0.0009143511969954308,0.0018009793449851501,0.0017702723117734853,0.0009208411623516983,0.001909934672909586,-0.00160219941440159,-0.0011125648728327602,-0.0014177179006232014,-0.03951916577992488,-0.09519726152134779,-0.13487153776340682,-0.0695877934472446,-0.1365190251589045,-0.1712110813649999,-0.015587442452904204,-0.009143891788269942,-0.0743836757202111,-0.07782004839430717,0.0036339026462939685,-0.00033514836871414153,0.0010969916712331355,0.0018201223922577473,0.0032649875229902262,0.0009511037797632597,-0.02035075314783215,-0.06650589725971534,-0.021748519718471762,-0.06111277723566313,-0.017416281962022252,-0.1645664916457815,0.03989914318274436,-0.0817495125392122,0.0014490005695329507,-0.002073656987849091,-0.01600037977755501,-0.06092014423840257,0.07242154043490545,-0.05382604489581959,0.0009231254699179395,-0.00019079541427229117,0.0010503263651702494,0.0013592507935433458,0.002407918377104195,0.00045279423378524275,-0.055832212778979685,-0.04972598150261166,-0.12008299997748186,-0.14403508596116912,-0.22368566328980474,-0.16205607490008608,0.0053692641765164485,0.0009201358432016445,-0.0001448126588679491,-0.005610518694729926,-0.023046011300629717,-0.14620952436166387,-0.17737289415627125,0.016311545783036153,0.0007375805415131563,-0.0008245241065605852,0.0008428208470275888,0.0024918140609512824,-0.0006474879932565989,-0.0034235501896058462,-0.16712962564079425,0.02089309451554897,-0.21394030733630154,-0.04260777385902544,0.01012675917791781,-0.1109646110736825,-0.00032085122951923986,0.00044380490532145697,-0.0008423655059856073,0.0007454141813476958,-0.06186999212724023,-0.16434381280966065,-0.04214567577929609,-0.18838372182701724,0.0004063525920175372,0.000769537372330835,-0.002001539944800646,0.0036975091473527085,0.0024172415663668324,-0.004391844235210868,-0.21002069487969915,-0.055794157301183374,-0.23092789833944155,-0.17522867829742758,-0.10048937963618776,-0.00035239266503896756,0.0005369473435089898,-0.00011058727518228484,0.0002690219813041269,-0.0008464349418949822,0.0009179123424752687,0.016251638559559075,-0.1142130604686969,0.024085920750088967,0.0008333028220250057,0.00043785608870967906,0.0006715990994004413,0.0007347086749540123,-0.0006247907039914677,-0.015551982181407803,0.05213745921242335,-0.08102417718012982,0.020715338845996956,0.027163684068707263,0.00039889527634878866,-0.0008767759989150251,0.0012113060011260247,0.021189050915532862,0.021440922229372585,0.008946820679093,-0.014693859655238182,-0.12217102637635943,-0.22682307517401631,0.017452943512935092,-0.0016572410752120012,0.00032920645357874874,0.001416587992164606,0.0018756602962812197,0.0024179049739820146,-0.008076014261049154,-0.07103135765094196,-0.2772591301539773,0.01814086758601205,0.00408648689387674,0.00044091202789418177,0.003985879547527518,-0.008892934239623975,0.0020056635265454236,0.06921135786126761,-0.003649659269580773,-0.15609959929289066,-0.23451042420894058,-0.13114546087960977,-0.053830416876168755,-0.0007256727680638763,0.00037875958984511264,0.0010889409239565706,0.0014115323553794302,0.0012638697756869506,-0.02203041659762147,0.037246625908579946,-0.08996163931888869,-0.22922360365724073,-0.07163882874585614,-0.04491435350741326,0.0020438437058698986,0.0007043011169865246,-0.0005450617738262009,0.010005295429706625,0.031127620038011,-0.20735153279378696,0.010900940710967194,-0.13537667160726624,-0.0072561586952560354,-0.0010242386256133263,0.0016765148269145065,0.003155638283629542,-0.00005396581869311314,-0.001264937525341901,-0.040155915600764557,-0.039615744275051656,0.016331988488517548,-0.11591079956838657,-0.15578718641530753,0.03544905170303946,-0.020833554890912646,0.0074254829358642626,-0.016371688423786328,-0.14653981786338813,-0.10994222874166726,0.05843242002222431,0.04185113311635457,0.014193187274529147,0.0005683665577667792,0.00014719160402793793,0.003488438698343105,0.0017125307636352463,0.003533274210265049,-0.0005385714569729227,-0.0028710236929938523,-0.03387513540448089,-0.10164982589246256,-0.13520190478375624,-0.109923869846205,0.057686610562179885,-0.1463866362157651,-0.011181030868649713,0.009393647927020254,-0.17916736375326475,-0.20539110664072113,-0.07823038457786383,0.011778768694479804,-0.008347747879320324,0.0022661968631018875,0.0007272698589300579,0.0012834934416392856,-0.0000643060790767515,0.0021189665159696597,0.0018127247661987615,0.0010692326691448826,-0.0015859500123629213,0.0010945472203905758,0.00044046155170535453,0.0018344260287872902,-0.20461267012857057,0.0679550180252954,-0.16682173744466772,0.05436440020523471,-0.03627408558792266,-0.18439681522117715,-0.056219976041690385,-0.008305230906772534,0.0017319634266265208,0.0035575834739692176,0.0032976591239936314,0.0016170088032045884,0.0033133915393907826,0.0006822291296697078,0.0026817873315456457,0.00034456951502016635,0.003697024867553884,-0.0005460405875865397,0.00006560042518790501,0.0007389939804909486,-0.01988106129824498,0.004224828022577184,-0.08282597994184825,-0.0845277190540371,-0.009125569369908302,-0.0042135086260613646,-0.0016705667743055004,0.0026741232594887803,0.00041916168669349713,0.0031224862245061327,0.0031943292316772556,0.002706913562253849,0.00276827839373628,-0.00027617547266828795,-0.001096793630361036,0.0009761931325012704,-0.00044364527148371116,0.0011211586720669333,-0.00022595802904447,-0.0003970752060711531,0.0027604934225184475,0.00027218344041096194,0.001724135522999566,0.003588971614923834,-0.0008322551857028612,0.002090853861520875,0.003777710167122714,0.0024021939395332034,0.0014531080409973163,0.0008815222261724458,0.000465594984050418,0.0013127591176702485,-0.001255413278048139,0.003240143777868577,0.0033728061375119978,0.0010335293258033032,-0.001203639181902558,0.00008502063422260473,0.0036215011089688327,-0.00010192622650785587,0.0015386373246735943,0.0009153704634457337,0.0009338548754608124,0.0021913103329092437,0.001389748470768593,-0.0008874899228759502,0.0005693632942795302,0.002658250441456411,-0.0008962488666276666,0.0034662788744800944,-0.0005934802611034089,0.0007788136849811597,0.003190964739189193],[-0.010343166848996048,-0.03245640223688197,-0.06206768001468214,-0.064660523705793,-0.045185333951947335,-0.055201383819716815,-0.0005884385771861026,-0.07178475295446828,-0.02387011306127865,-0.0018011178186178888,-0.024904097884801742,-0.02429510738047403,-0.05520418285135189,-0.06307856381519508,-0.01943948675932871,0.01197161223466278,-0.011234701393250739,-0.0037724144107151,-0.07689118603607452,-0.009127403119553255,0.003069091096293862,-0.03470656982137242,-0.02976077041028255,0.008837601031992354,-0.024830353056747297,-0.009580004673132839,-0.06592499358469638,-0.03385113718875827,-0.07700445632995444,-0.0648710131238437,-0.056973671604006654,-0.012448722825641708,-0.012093917190041348,-0.0016321274624915617,-0.01710482132360683,-0.03875310708246158,-0.0728100879432772,-0.05196588134268788,-0.0431919964597058,0.0141722512832192,-0.02746963814371543,-0.07539463487328682,-0.013744755763124806,-0.026707203025990268,-0.008210920504729905,-0.007699822385034572,0.006577077973361522,0.017450240108294084,-0.061635067549444304,0.006675454030477807,-0.04263638909860488,-0.01678104491291287,-0.07832456335313796,-0.08729571491139945,0.011495117488513123,-0.029463474202871324,0.014261876636497027,-0.06418209288736428,0.005503657498120953,0.014336520305079904,-0.0410666296302783,0.0034632422155687482,-0.04252325917946622,-0.06894259501589978,-0.004875766571789708,-0.014580965827842665,-0.039761502663585274,-0.07589706536785853,-0.03005729819052733,-0.0014300826495313472,-0.031789030288880964,-0.0040648289509227515,-0.10387154634109584,-0.06582258058704486,0.009581888358403335,-0.037214720377768296,-0.045277901971603945,-0.06719317330758942,0.007386167023484438,-0.01142729298765009,-0.053768219415619586,0.012174384165659108,0.008056462456467618,0.001043007770332257,-0.07579825537059663,-0.08916113092640669,-0.03791668081943039,0.041359101682276,-0.004004452992647996,-0.18541138436406532,-0.018446270625483634,-0.07379241647461744,-0.11499978930827273,-0.12140397914792433,-0.049379206741870546,-0.014837553403621464,0.010042166253485594,-0.07599797601956824,-0.06021235325654605,-0.05165837152179444,-0.03624267177876653,-0.057560682832795224,-0.06631545552917775,-0.010132177023931804,-0.09117084062497847,-0.10983058105077241,-0.1294495702082646,0.03692093717354263,-0.1893415452242529,0.08026877600723643,0.06728786048206634,0.07148194236170785,-0.10528625305055998,-0.1479286261877236,-0.03817924561293139,-0.00737817209119343,-0.012322448960112652,-0.05904700630465346,-0.07717868430957328,-0.06755170591198195,-0.05079048147709988,-0.03692631191334017,0.014175751673983421,0.007122397456561566,-0.06610066941842917,-0.006354957358981651,0.05842425190876643,-0.23229112991223225,-0.32080986126813915,-0.16084539945865284,-0.29430817624726097,-0.03991239140244409,-0.011762494297224861,-0.11276974506744142,-0.02965003607536502,-0.04123131181750852,-0.04205946692872327,-0.06951583341936755,-0.04423146590582059,-0.029050574460635827,0.0012977927717287368,-0.054508852840502546,-0.045404263800318916,-0.07111675768020966,-0.12277084081102584,-0.14836906089390248,-0.13435436541603635,-0.14937437730698658,0.02646436070930024,-0.21366771189785108,-0.1075629174681417,-0.061154396847170646,-0.1763102365931136,0.005194658800660643,0.040539476890935254,-0.07721551922995307,-0.03877761873892021,-0.14593255465079705,-0.08644240105345728,-0.01369650001523123,-0.008420239783658719,-0.02073057169550628,-0.05789289225595435,-0.051648415484505036,-0.02727400186506008,-0.10522910126672455,-0.02921703065775438,-0.07488085234900337,-0.08550227296844187,-0.15814131511585086,0.06405098110509509,0.09017697797380364,-0.04781616985737047,-0.14880316730514903,-0.17204101893236565,-0.1634749228194919,-0.03480605376617137,0.049344093966337314,0.023505975823729586,-0.09113126655958666,-0.03475469982138347,-0.05165400977786888,-0.04513454939343741,-0.008836184121794209,-0.1046982691786195,-0.2556619531544313,-0.2706714405394688,-0.16777759460067135,-0.041504214529719245,-0.12489813888113258,-0.1187369055751262,-0.2520113017483545,-0.21180266429905067,-0.04016697721066083,0.004727830040853898,-0.18344516838931268,-0.09246744692156662,-0.008773340024668707,-0.006344194016009427,0.004550096775971006,-0.055886003354391735,-0.04802825402111311,-0.05280467561070884,-0.08392118043199767,-0.14386776061744339,-0.18891861796439188,0.0570831968922153,-0.13948893614189864,-0.09839456912622394,-0.18308814913827304,0.03951210240670085,-0.28985532741681186,-0.040598711018988924,-0.19606560332944686,-0.18676444645758852,-0.15217178348911242,-0.10620919221649547,-0.039843982073260974,-0.027843775854387076,-0.06595953975624613,-0.02688419144812613,-0.03242868297794142,-0.026366547466352072,-0.07513434999231386,-0.10051103959692509,0.05146660540979991,-0.15717305336040627,-0.156256813374798,-0.1368206270152858,-0.17947545592837802,-0.018410706303189105,0.08409985463601276,-0.16770973010125245,-0.09830248376734355,-0.2516872695076916,-0.16048044979155177,-0.1535239544122518,-0.045024576281331816,-0.09223805501472931,-0.02012760740111001,-0.027855990030351423,-0.010554799168221123,-0.02200065597537884,0.030567689415316915,-0.1515046367980143,0.01656098230561091,-0.2695872214278595,-0.17113111780740534,-0.2980126097800871,-0.21020813619129405,-0.15721103734359027,-0.04401315360984375,-0.09457598694126923,-0.16993784780086918,-0.17232952985149194,-0.07113460091147375,-0.0923470470829769,-0.04543622967840522,-0.024717759430155483,-0.032969253544544455,-0.003793890037856941,-0.0412811185380551,-0.03139792879604203,0.0029341463860665003,-0.14254217604380431,-0.2514314772134539,0.0004452023122519939,-0.03537515944031544,0.06595484922661893,-0.171696552999592,-0.21639014286583924,-0.2082757686642428,0.0007631933689209348,-0.05480590564504327,0.006978125314605961,0.015868164009878664,0.044477773975999634,-0.012360908996328187,-0.060482429037640395,-0.0756386401013159,-0.04427939877219765,-0.01247492359372632,-0.08494088404187097,-0.12253364664978722,0.052369977133469484,-0.0468591013065105,-0.21271472666732122,-0.2855043359141184,0.08414545016811185,-0.004444504367785884,-0.13891284733064257,-0.09634987458055481,-0.18299214082354057,0.01907460928886578,-0.1699136039098905,-0.15879853733087768,-0.055064118153145734,-0.03739222658883176,-0.003980617793849654,-0.0711913731546122,-0.03513591277486881,-0.03061703032500668,-0.07385370915370294,-0.10865064560917115,-0.15884632342688232,-0.09645629221298757,0.02801340473241627,0.03312537874851126,0.04403597498380171,-0.06965162185563772,-0.08398633246209669,-0.0744876870135647,-0.06493890884943683,-0.010903783889977797,-0.019775446412657806,-0.04731060217372563,-0.072398748377424,-0.07304961517378776,0.01900328430185003,-0.06292656915329334,-0.01618305528287791,-0.0454620285212859,0.004383912940268507,-0.06042064192677114,-0.12235891115898342,-0.08421902769739874,-0.05848257821983323,-0.05133392373466354,-0.0699690202499227,-0.015030011188147865,-0.003884643414688325,-0.038298575768405264,-0.04348386769726528,-0.018943293115654514,-0.04703539446513741,-0.0569630852358611,-0.044783667371279395,-0.06613273347162547,-0.0065731520136669925,-0.020005648843914373,-0.011779782120054505,-0.07244317027613084,-0.05298199986091672,-0.013438302858856438,-0.012783214127597529,0.011070382497401202,-0.047245853744320755,-0.02470943107756695,0.0018772807342506922,-0.09899020581345544,-0.015541627427458482,-0.065758567621373,-0.023867644106462572,-0.008575198219330313,-0.05613074246455706,-0.0053345517741254875,0.012690510087416146,-0.03437611141245188,-0.024519161174619025,-0.03227201442415439,-0.04060077411033349,-0.023929433277432903,-0.04020011481067532,-0.005264412100851279,-0.014250142855758666,-0.08394357691678263,-0.041894617328341426,-0.06769257226281687,-0.07338685949299305,-0.06148021314765016,0.015351877928610733,-0.036002049573561866,0.006100512337243506,0.015661390891862605,-0.009357219657698293,-0.03509434833824105,-0.0218159368994304,0.007566330769065087,-0.0753500549218751,-0.04035368617442866,-0.07365665976690293,-0.04158811058195928,-0.007110260812528354,-0.060374286522513594,-0.03684927969260097,-0.002321301511018176,-0.07683680378121413,-0.018764770116250384,-0.07345976201790144,-0.014948021963262035,-0.06423720721676737,-0.054768944572076726,-0.06292159906545768,-0.03533473672146598,-0.0011343149853849158,-0.060986030959238144,0.0034789330123970496,-0.07683794204977926,-0.045964202371790795,-0.04796419592992884],[0.02091203415992348,0.012567290758910702,0.12943726118934232,-0.150561508541408,-0.05635459284488054,-0.20041129625458334,-0.057104349128133544,0.12834903468517905,0.14103657527754015,-0.1285763886529544,-0.21035173852406203,-0.07986106610183323,0.14004083717909616,0.0660177062824131,-0.19600405519493114,0.11806239180215757,0.1349969816397632,-0.10050183302361873,0.1596198705411264,-0.14922176792971278,-0.19146211020320855,0.06628391046502677,0.0984761030904638,0.16249386966262816,0.015134718364509544,-0.11006542143909372,-0.14497102193231923,-0.13229333486697248,-0.18937901049404354,-0.19076066808400563,0.10871401320415161,0.03821237515929107,0.12269746035523398,-0.07525972078105453,0.16023991043529,0.1628050525844848,-0.16700136706559332,-0.008578044870417786,0.11695812202196416,0.016415849085207098,-0.18518459560552064,-0.09236258282707577,-0.14875895854050467,-0.09514378344556218,0.14059530940856527,0.10196844087961808,0.05811513459547896,-0.07772691939857232,-0.0762932403982267,-0.04847333651525759,-0.010363940640792095,0.1354926090283094,-0.1615283072577941,0.1735966992742532,0.07053754901653382,0.18182007559984417,0.17720117776654704,-0.04225358121701879,-0.008903183031440215,0.0767186082417965,-0.06693445956157587,0.024398331717374256,0.059684408270523896,0.10720926723455176,0.06064928800595655,0.1009268486395671,-0.09398461141318515,0.04312501663048991,-0.018540969172129204,0.005743629155558474,-0.015732434207677726,-0.07201767170978848,0.05611582254215291,-0.02322515688868592,0.10006527162043868,0.03923188057696859,-0.053639035330916754,0.0341716255028673,0.05808406728011237,-0.15892481339032818,-0.03577730438248338,-0.05413112731717118,-0.14535986975143494,-0.18116579754449275,-0.15802813112580205,0.01678036022343023,-0.13459642968227203,-0.16646074844146883,-0.22174214232400669,-0.17050373193781748,0.05184682040342558,-0.04769674594071645,-0.05152183134350612,-0.13555876278211965,-0.040967400641975855,-0.23646287216487713,0.10837581788331428,-0.07125800342013988,0.0856694840391171,-0.09448432310812543,0.1739044223595044,-0.19975655919732052,0.022534179480467185,0.141553744802712,0.054422499604570934,0.06694529734409385,-0.21030685514104447,-0.15335101314303368,-0.18615027153265687,-0.15630987808542707,0.22902159028463465,-0.18000338816911976,0.21795947365657775,0.1598447485318397,-0.20011159543995183,-0.3098899522319675,0.12588271473028628,-0.08102957629552443,-0.05508577978961411,-0.14252964345733918,-0.17960306210646199,-0.03536203575536199,-0.21509955770453415,-0.12313630331697348,-0.30961880458496355,0.09062927910522682,-0.0403948180065091,-0.24279108700864707,0.21053628444016065,-0.11200025838375628,0.09332733119227393,0.134166465054795,-0.10766784700283835,0.28126109919549275,0.11795870702070223,-0.28593941140758244,-0.21568923799762113,0.17458423808853754,-0.20506580107005565,0.046194935349934685,0.12499537056006835,-0.011837487413413951,-0.11881602627693638,-0.07278076279668656,-0.09412969614139031,-0.23513474012639005,-0.310257931156656,-0.17208316149899905,0.1518362248647303,0.04430930718851957,-0.24986130981202925,0.10703277912425883,0.22697897063339537,0.291387014510892,0.01756372043880571,0.024898569708808715,0.12599976845712443,0.1628743904490844,0.14540343944149597,-0.18812968709297678,0.12357394467611166,0.0387706265070844,-0.1321808380547607,0.06987470502884865,-0.14646985108801489,-0.09578487684363755,-0.19916616513935434,0.020520283377318874,-0.09369619564754807,0.07452859261464395,0.07811233194427829,-0.18460712908780588,-0.2642345592748772,-0.05403531638559596,0.15074473679698247,-0.1196378487057128,0.15905758124011612,0.05700699839359468,0.027038208004616367,-0.0017888034405909824,-0.107578940611389,-0.17478030949188536,-0.12212503155114697,-0.23129563216248575,-0.005537347793728806,0.17410688799975368,0.10965910707779458,0.13016800913342208,-0.1459182915047023,-0.20773078525474714,-0.06378175901018664,0.12223776401907603,0.16347452423950876,-0.015318747818540035,0.0764512788606374,-0.08339243607439817,-0.13608699004338998,-0.03937729572445875,-0.032143917189888585,-0.16776545411348667,0.008206656599004509,-0.10691410605738384,0.151254301329908,0.017180507337995168,0.1899832474861258,-0.07878616166100115,0.08184001708889747,-0.18457440489212582,0.00720994705532027,-0.10022762321249709,0.0047866268582972635,0.053988909773199575,0.15233238378636485,-0.04994041564042675,-0.22146115244141237,0.22554293381089255,-0.050842004201929435,-0.09258382537064466,-0.051344216851231736,-0.20760705375659333,0.17914337949238496,-0.09780772171028854,-0.1517915651972489,0.14117686274345445,0.2668684870133348,-0.0351998255437932,-0.0936203689031188,0.04715135493570574,-0.05841618895679982,0.1583970902473801,0.07772146259991353,-0.1442747129226341,-0.05438956541585466,0.027840215229208168,-0.26489400710081845,0.1689265494497216,0.02298737773928198,-0.20922390249071027,-0.03116974945490958,-0.13255687942402722,0.1122488188980912,-0.17989031831391444,0.21938172654220503,0.1868455743348899,-0.1445617182724409,-0.006090328920841765,0.2334015250052001,0.06320263817203375,-0.13422993597674857,-0.19302172013873584,-0.02263877467860643,-0.20643378867894163,-0.33727891187686887,-0.2901574196717188,0.12591324972927223,-0.1695606861745487,0.0545746815337499,0.10661377044445486,0.25737992454996156,-0.21992984368590993,-0.02043673746099971,-0.08249440395152671,0.13170830691446747,-0.231319475517439,-0.04331185001301017,0.2435388168790864,0.05672465499128992,0.051508705944951445,-0.0857368192139652,0.13788544027445923,-0.05324838324284983,-0.04668378068306628,-0.24661821148930207,0.26011705783742534,0.07196931874083617,-0.22250675125308797,-0.09670569994462115,-0.00010228341226479658,0.18911109334558807,-0.07546794483311425,-0.13001498931965935,-0.08426972131329283,0.03404018466787113,-0.11830154320960598,-0.004017520491488383,0.14053052988432374,0.0872442783107865,-0.2574316723811049,0.18816531470917655,-0.007360158738305584,-0.012881632615533505,0.18784146935374274,0.2364682884608868,0.26878318270370644,-0.1784532967565791,-0.18954688749523554,0.00570744251805939,0.17368796611542212,0.056642557855202676,-0.1739452233682171,0.13867670061438933,-0.019623747501948667,0.12399740904946532,-0.09415205311319251,-0.2867634502513287,-0.30259837421258934,-0.05143061996174195,-0.07708969098264286,0.29895447680490067,0.039879111871853785,-0.16197566699133656,0.2336364031504954,0.027442817211145328,-0.17215838752834564,0.04056880607599798,0.09458307010882089,0.053261158537320316,0.0924926925474569,-0.13038619571451168,0.0984013176961375,-0.04177883373453943,0.006134165614434989,-0.10024401819832725,-0.11488577685762054,-0.041450753691635596,-0.3916516945577308,-0.352311932317775,0.18293424680178627,-0.00752455572580967,0.10295432173136906,-0.13396360797646303,0.23558320056449905,-0.0931750350363495,-0.1753116509728154,-0.24404733694059752,-0.13324111683562054,-0.06490830774558146,0.007343531214914519,0.12660359932800352,0.17678170475900104,-0.06504933139139586,-0.2040550339680787,-0.1467332576477198,0.044245603862452326,-0.05040290073260777,-0.4104223563733998,-0.24689864520752655,0.09877220696835266,-0.09455949480027963,0.06534993878189646,0.22840714306513196,-0.055406996215219134,0.050424886973929786,0.16656972909080917,0.05421201866647917,0.1491556911738339,-0.13924449114577775,-0.11518788176942958,0.14269195934415768,-0.1814956980722763,-0.1921252991353204,0.10609665575945738,-0.03745727039151368,0.12889527467695958,-0.22415798837831014,0.11668098058913555,0.06839073077283452,0.10217364411443866,0.045693507340959415,0.040184849227118874,-0.09429705155798526,-0.15952456536789414,-0.04595350018558055,-0.09583792787115385,0.025404591785551305,0.18042631220225247,0.05373795985577382,-0.020933094933222676,-0.17420244748801422,0.12040179107257108,-0.16054940776668428,0.09249133548859936,-0.21922392879960875,-0.0009774806545431633,-0.20033786301599943,0.14071348239469508,-0.07184032668319416,-0.07304806540706967,0.12299108318256613,-0.08538503835723116,-0.03634568678388518,-0.2124700239632738,-0.20306140107825346,-0.12836323684559006,0.15557153431784973,-0.14323908230179888,-0.02456489149649067,0.12664417621666124,-0.09043459684697043,0.1828982159899829],[-0.08843406215878104,-0.13653927941346108,-0.052165955145017345,-0.11120297211532916,-0.14688930604698386,-0.08668708906816225,-0.014932783369489343,0.0442039090648262,-0.16585215270158904,-0.010051708894475967,-0.08563405614221782,-0.14570454583831088,-0.005953421609065097,0.02837569381786964,-0.0035688233807714223,0.007232355015780863,0.01446163929829095,0.02553941569254063,-0.15440259118106422,0.020171959643689546,-0.002637692315149494,-0.02115589903927158,-0.14745750095117444,-0.02971253790668312,-0.004048267168627982,-0.008259009487083134,-0.08063241099167208,-0.14797263023434848,-0.051331112252988705,0.04054086703632859,-0.16006694335735244,0.006582570144499128,-0.09345826143650356,-0.17095371921630473,-0.04770803993397737,-0.011381710325406184,0.04322779324658893,-0.10189199472972381,-0.11939523273600222,-0.10741408716337254,0.04801767439152809,-0.11283459275842388,0.04049780453020008,0.031061038336594838,-0.1679772346263013,-0.1732054574821762,-0.06230112956618028,-0.17616903669848305,0.04859573250656324,-0.008795810973258628,-0.07525143544405662,-0.06534894723483327,0.03204901460604547,-0.17460047550082244,-0.1551556681599733,-0.03230545174949974,0.0015186482145803735,-0.10763858061852691,-0.12240019531829865,0.01623670392681171,-0.0868541161942951,0.023780020445879964,-0.10646868476382536,-0.1419600393988743,-0.15813378237664058,0.0458049834403911,0.015613457717219122,-0.15462869483232228,-0.09920054861783646,-0.04842558874348757,0.004347355606619089,-0.0054626436855716685,0.04490782175541495,0.04832245330140366,-0.21512014893815984,-0.06132882224380121,-0.18719127774738725,-0.012241715797422467,0.008946682759081987,-0.1785540615514624,-0.05253834770295207,-0.04788953826366282,0.02235827029849274,-0.04992928361456033,-0.04815148805436955,-0.10208159808317276,-0.19899972209566183,-0.03437906946881348,-0.2534734379442717,0.00856411048575347,-0.20237399185417856,-0.14817443112620585,0.09848394134682541,-0.12835797470609847,-0.06180748973224922,-0.05973774303470088,-0.13956313984735072,0.04230780907698057,-0.1759665796690171,-0.12152743181226518,-0.06754797776363015,-0.02221719146854807,-0.003545993050887343,-0.17269959080387953,0.025780020398579587,-0.2298135506317753,-0.14196898860083043,-0.11137878991778559,0.049167013608148666,-0.29656138422943823,-0.18169974759568172,0.017343578515531068,-0.2612386522959696,-0.018723045400285403,0.0447594024501719,-0.17009741089463407,-0.2524259733214161,0.034810220286505024,-0.0024504666931840745,-0.16971774336946255,-0.05275997271497692,0.03906029054259953,0.05098227240191133,-0.08501201345376747,0.033008445374905944,-0.03463830594868307,-0.11795445010003529,-0.07484551667467214,-0.20346536097073945,-0.038901691797906625,-0.09308153143621883,-0.22342332406736412,-0.258550540684815,0.015879970170697914,-0.28577300104584635,-0.13393665121644754,-0.09816861398089402,0.03406320712862307,-0.16574557352348518,0.014349316660966921,0.019079492023938927,0.027430736298103862,-0.1158592982720468,-0.250950893218666,0.02765083130679738,0.044656092821566615,0.08905619585426101,-0.3100527666095263,-0.07862919324731117,-0.13500457572170094,0.10190696798577464,-0.07444095054734655,0.03088205546940238,-0.2730115904799105,0.06318028726390812,-0.09154746422313657,0.049721404111518354,-0.19997823065857595,-0.11642400006721045,-0.1451351587667889,-0.09628821808938356,-0.1580835696527964,-0.15418455826649108,-0.011996079761204623,0.0681016670587907,-0.08690103512604709,-0.34857601187948783,-0.12250641503706461,-0.2597154877751243,0.019345604873428263,-0.2365998976715594,-0.2581369997271532,-0.18994003732154768,-0.010559934697049043,-0.3095687432908027,-0.10264715949281321,-0.27355801432660876,-0.13343260158515155,-0.14517716969709032,-0.17723301053029336,0.02755508116746914,0.03661276062957679,-0.0842774693079888,-0.04593011993952919,-0.10654827272459702,-0.18351627924226468,-0.02467490184270327,0.007999786282632928,-0.2011229206330694,-0.10297162354658218,-0.31059255883614323,-0.05785493445036809,-0.20009058255794612,-0.32235255053954764,-0.1442725389169636,-0.25709716732098054,-0.053008679212221445,0.08420004465915622,0.055795394953881874,-0.16740734804043927,-0.03795189202482952,-0.14402126909871382,-0.14879005436440162,-0.32156170415444607,0.08211270643540107,-0.19222297590846787,-0.02927272451565329,-0.13317018921664242,-0.2715176864565549,-0.26912000134545455,-0.044040740123788905,-0.052563671476428736,-0.11841861187001904,0.026441740085134356,-0.013767395433476786,-0.12227643222483006,-0.0057830707244732535,-0.12945541888186676,-0.13193968109831622,0.031147257283864655,-0.1530431143315061,-0.19406767492945662,0.010127971656178526,0.04751335113973276,-0.2199677747279264,0.030912689994955996,-0.10900364044760351,-0.25718275428354714,-0.08476668359679136,0.03768470622673753,-0.2846367319586669,0.043717912995612146,-0.15457043813125643,-0.3212108948129269,-0.09765835690143954,-0.03945178922998959,-0.06268294472940676,-0.017134658564514946,-0.07031598127543923,-0.16424987683830414,-0.1713538189767058,-0.186702244672511,-0.043149594300966744,-0.1101547086441434,-0.22093777606209206,-0.19928216210205418,-0.29929268327579406,0.02678135543972519,-0.23682661887729559,-0.08055815083895497,-0.14132480338887216,-0.2874014805765328,-0.14272558320588274,0.035509419053438025,-0.3445120504040675,-0.2330694186716271,-0.24098808202212552,-0.1492440424762911,-0.15742964496399986,-0.17559627731277938,0.02542102116896593,0.00438063779270702,-0.06971827871622825,-0.1914651401394543,-0.10432072570014425,-0.07458613490701561,-0.18200229650467578,-0.21628584827025896,-0.2570262956902323,-0.06699641152863459,-0.007302496184860019,0.022723295399371738,-0.3076344215905495,-0.17458919178767138,-0.3292396967229831,-0.10081625449276388,-0.1599831167762047,-0.19274119226701222,-0.11356990508689517,-0.03510900925634911,0.0074869098924371675,-0.17214180004260382,-0.09567166081846498,-0.11461541987831395,-0.12699858762262084,-0.15033342084767665,-0.08983602402491475,-0.30885668724653803,0.05195631783006706,-0.09474736110392595,-0.14921794750599807,0.006139872399839674,-0.07992437386791407,-0.1448694840925504,-0.1428846129163472,-0.2409076065750459,-0.1552223288766568,0.007396480701132816,-0.17710079714754529,0.0014583556237473148,-0.14629847497012188,-0.01877857880487756,-0.1505372546098869,-0.1615305154182708,-0.039533349608113375,0.09161768760962022,-0.23899915328757243,-0.1707903510385849,-0.1765214970339923,-0.028202451386853095,-0.11181362232617169,-0.1211468306538145,0.06528002975783344,0.031037840564749616,-0.18551903826643945,-0.11775987778851314,-0.16779908039804822,-0.006162636728983982,-0.07652462949187047,-0.008846195896942622,-0.17653338345434272,-0.1661455397090888,0.035644100647071,-0.11561413720757735,-0.042146852647749436,0.04895466140985741,-0.1902979483957965,-0.16433897246969956,-0.15370579282064095,-0.2263567637805423,0.09766711467176248,-0.26078733717282926,0.08991632490374928,-0.22607305713602197,-0.04577223067239577,-0.18732093337266673,-0.05175400403940921,0.016402107193532,-0.049887383745086486,-0.07465685179560201,-0.034175293708660646,-0.03269676184779836,-0.10751436253807549,-0.0003544260051502052,-0.04037460119783223,-0.1960319909444198,-0.16705723883376694,0.0030767881350480487,-0.11278687511944735,0.06114617252997302,0.06043121221943207,-0.08489220129160681,-0.032880694901285624,-0.08841809552963234,-0.11754752147740082,-0.1497011767103596,0.03836296853350873,-0.1318696403579449,-0.1671229564264482,-0.037707815278064535,0.016158795687958857,-0.002151694889094373,-0.16718368695375463,-0.1256540469214821,0.045645967294812094,-0.08016034696032218,0.024333602113972903,0.04178222114039027,-0.062448635861247714,-0.07528785148301137,-0.12238312372215157,-0.05507850374929354,-0.18365775431193568,-0.13001541292173946,-0.1502078373304009,-0.11102024299797643,-0.10414692965537246,-0.10856815140724023,-0.14330278913192712,-0.04617120164458829,-0.16487681248974154,0.01799652548277965,0.0382565639153907,-0.051843246967701255,-0.09263047250698021,-0.02358310590470362,-0.11238403316506788,-0.17059301348462155,-0.1389149496163385,-0.12465826580290726,-0.17840757129691992,-0.08417445357880592,0.0450160357033801,0.029859900333901082,-0.12473424135624109,-0.09772613856444047,-0.16824267966067022,-0.05011609625271978,-0.06963175546363284,-0.1304673667582977],[-0.053020888232063204,-0.07735500286651971,-0.11734982210836288,-0.17420864921993587,-0.17317397378026061,-0.17989131723999505,0.001315174779978534,-0.14743088008312166,0.08541951226768653,-0.168532225563088,0.12021086026819283,0.02521580046006616,-0.16176403882060938,-0.18899503224178688,0.12175273406933643,-0.2118106138662795,-0.09227824104339268,0.10772260838535212,-0.0902723020798543,-0.11623970938653726,-0.20287347592042398,-0.0806769611764279,-0.14942476494647416,0.1363005107325731,-0.0020642334940363773,0.09258295618114618,-0.052042041655118214,-0.03818012562692762,0.11004344165133732,-0.03854220317911379,-0.164435799552139,0.029882639600236578,0.0754789914534014,-0.21954243759352646,0.004679705562348928,0.007721938981322138,0.03440630691834528,0.06356202768281562,0.07709421333072063,-0.07749998889309212,-0.16641355177477335,-0.09159803554388762,0.05614214900392181,0.01238466252322587,0.1385593913454928,0.1046395095268927,0.03462801685507993,-0.16819681832170205,0.10287094766747579,-0.15528378912431715,-0.1068611900096884,-0.1992662886649103,-0.15910733271886046,-0.11370126218783519,0.13616792504192532,0.10253482607093745,-0.016606720774688777,-0.053577001814401184,0.0658222223462428,-0.065468798227173,0.0030748036737222517,-0.06426198422602389,-0.08466839945790178,0.06463088603826826,-0.20976448713376974,0.12981162121831208,-0.15608918147499717,0.11455484949990132,-0.1556500783168728,0.08183412631893786,0.058615720395677626,0.1430323091910293,0.06421864875805713,-0.04812867673430983,-0.230369292603541,-0.0472542303175055,-0.1952910515003226,-0.05390122746604933,-0.2186448401143124,-0.10454084091628844,-0.19768579889285026,-0.04705576369643218,0.02988754487877443,0.02896862059712458,-0.06566631451762645,0.12384791917580223,-0.19133331126706207,-0.3124518439552308,-0.026664109101753628,-0.003789360472922124,-0.07568925576890664,-0.10997754995067084,-0.14369279016299097,-0.03583006598776426,-0.03646998160179539,-0.27375731472815124,0.05830744751735768,-0.14634023200630014,-0.0045935077988683,0.07337242951514551,0.0008406430484184725,-0.08658814038606583,0.1405707920013939,-0.14404776902372185,0.048668155268834674,0.0009821687312683,-0.2504423085286776,-0.31649789820887664,-0.024952484881917376,0.05240935243905327,-0.16363050028176646,-0.01627791027762324,-0.05791507131406158,-0.28323424058631913,-0.11812471705330505,0.06185791136495944,0.09176813410250828,-0.19874158194770944,-0.170021822405826,0.06377678026981513,-0.10352175891414014,-0.16059364545231058,-0.19192291309253556,0.12921813462718454,0.09906177027287025,-0.33389332353180273,-0.06956510143141699,-0.38266717391642624,-0.14177398750916959,-0.24996933081608336,-0.057320995182918506,-0.23681594214157212,-0.10186112066599647,-0.1677385089907031,-0.3585243552160816,0.08429734531861371,0.15644576273736244,-0.27673156787336434,-0.13666226823746305,-0.13461463208856364,-0.2087649579603546,-0.07003607567638902,-0.05533222490533902,-0.11344274946940772,-0.01950062996090687,-0.16590537179637513,-0.42712579529476863,-0.1389678002926141,-0.34599158463083834,-0.21491158326645482,-0.2694679280826374,-0.029670600350095274,-0.25563714581037084,-0.08836540547254317,0.0719329309619908,-0.30746740117334215,-0.02764212508756936,-0.30935447894685736,-0.1187818402995131,0.08213349466750475,-0.07708662666744444,0.13380799878068825,-0.008061969620784136,-0.09916047861791247,0.11016473667491025,-0.10683565124685197,-0.40609981164566994,0.0007344592265625081,-0.1430962603446543,0.07470112993114919,-0.12386701157666107,0.16148162396267382,0.07702397222275693,-0.31093809163050046,-0.2575294848593617,0.12258278831452699,-0.21829258150476388,0.12498133448047892,-0.26275473245789777,-0.09438105511849423,-0.11500142757175637,0.09640996043206677,-0.053403812409512474,-0.172569727667803,-0.06335482538714148,-0.21767721128505668,-0.3451281153453637,-0.27288159474460155,0.13029018078784496,0.20931315127349823,0.01484619470398656,0.11303074500175407,-0.20449455251066104,0.16845797424013415,0.07519079073548574,-0.3132432261307362,-0.176140462922826,-0.3283065142052119,-0.002153916662024485,-0.09743485687704224,0.0382496154180087,0.07393856938838667,-0.20019243773358295,-0.101249527220327,-0.316544671972245,-0.3189689900736724,0.04061358794146245,0.23136072625865156,0.017959813225916454,-0.05345888397435437,0.13006024490694543,-0.1763615322191589,0.0983743976749614,0.031688043489980264,-0.2009336007559071,-0.11125658769244827,0.20067738669949786,-0.20308902581744953,-0.17048211650263104,-0.22186680675092615,0.01436099605809567,-0.19959441718808263,-0.2246542838955059,-0.3306122910294232,-0.0549827772733365,-0.3258016323832483,0.136294931067354,-0.07227237538481929,-0.13491885725157943,0.0832135442963057,0.12541362472007436,-0.06482122578590012,-0.07090005310672719,0.08810585229062803,-0.041599708795420645,0.013116190850052521,-0.24825188010103189,0.06698858988083749,-0.27180190123261944,-0.0961317837685096,-0.060109045967716136,-0.09658858055411096,0.03949500168293024,-0.16078104514851513,0.12513494136277606,-0.17075737213603653,0.07888847620812985,-0.028659493613327335,-0.177017791014212,-0.10839349225132702,-0.3659632875155055,-0.006940597386733324,-0.16416224835519494,-0.1496542181568416,-0.3038153839210475,-0.20658308805049178,-0.22204979604440822,0.011992202847084995,-0.2623407317363205,0.08331648373938019,-0.06760769499800179,-0.08178564636137467,-0.27380442672950017,-0.20719059542010962,-0.05349451927281781,-0.033837703788825134,-0.00955155655069642,-0.09898678390353273,-0.09777203843543075,-0.03770569687001336,-0.3613375522569298,0.10871679176190674,-0.19626673681412765,-0.27297982396565124,-0.21515883321910853,-0.14410344649353318,-0.2649898309172548,0.027621341952933472,-0.022645494676498776,-0.11312332597867297,-0.13258091537454317,0.029190025021709233,-0.10387256544017963,-0.052383991521612466,0.21091257409127748,0.20365342567284164,-0.33369909215524746,-0.4130000527936388,-0.11093151983944598,-0.31800375576587325,-0.2451673895493872,-0.0701294680400193,0.07760565689196501,-0.24801364654857722,-0.128489961521221,0.07061399386456163,-0.18848717782198418,-0.06562249806885298,0.126481745881713,0.06362880533407081,-0.02304646512747672,-0.22630448133432704,-0.22183216957692015,0.21392555261618992,0.2285394637613767,-0.13674325690470016,-0.1047584657197761,-0.35229207212784386,-0.21580334710700252,-0.17504811572573772,-0.043223723486483845,-0.012126771661216403,-0.17268964825222916,0.08828319554525285,-0.06910105929031128,0.06570803173815128,-0.0474277280386636,0.05773653858876517,0.0725117807268473,0.010512609153777717,-0.044761599436892056,0.1131726491980443,0.04266294716249659,-0.006708713080542213,0.1952118936070524,-0.09968085686917384,-0.2782920050225981,-0.11086923741064134,-0.3323633610143368,-0.23832763534124032,0.07074468649806175,-0.04696615289765058,-0.008045557728235722,-0.03017022370925421,-0.21485670428209033,-0.15530607632920146,0.08258266070948272,-0.08576574249301826,-0.12416293498922683,0.03678055145392275,-0.06876091270087571,0.11425526947151714,-0.128592362122326,0.09860070347957602,0.20654957230894522,0.08087891355248233,0.14323038956336512,0.08882943384123111,0.06418895519017562,-0.06038749426569705,0.003048486297310693,0.05323576533829598,0.12964287941435046,0.07090690354931105,-0.1644871525015643,-0.11576662733592767,0.07262428646608014,0.04344505538824803,-0.1380053661247199,0.04152345979347749,0.004940009061356313,-0.15149235024126187,-0.09943351707587102,0.041214613456169856,0.05650113222540725,-0.135793140021897,-0.1255772399632916,-0.18447303386140063,-0.2230910494819703,-0.17406471928659703,0.12091881534606885,-0.03663839747151551,-0.22704878084932004,0.020634317482581967,-0.004847511795860976,-0.021060259453975588,0.012794400785448143,-0.15139632028440594,-0.20370663150392737,-0.16523035994908264,0.0728254312090959,-0.2240981210346744,-0.013505370105812119,-0.2276376608943981,-0.08442035625359827,-0.11372369896303859,0.04906283783938344,-0.19052078480683635,-0.21328360314605332,0.13708127458333508,-0.01914926412957967,0.11669931053762017,-0.14321211112833868,-0.06482549674303546,0.11441493326943177,-0.19629757894914107,0.030228400491343326,0.08352654802665627,0.09175572697205583,-0.14388306908215676],[-0.019552096877333933,0.01733932817851445,-0.07531051962646368,-0.00033727851102716274,-0.18615148587443658,-0.28430514277901564,-0.15384025585864702,0.044328151510520344,-0.010135117962700882,-0.13513991095521616,-0.08543940419561309,-0.25331609679119116,-0.11712817513606924,-0.004882356556602553,-0.017814624584665713,0.016535385643272123,-0.29441498006703976,-0.17100489126651935,0.058121466222248334,-0.17214670488045183,-0.192507278728423,-0.30848407656271376,-0.15612477336011518,0.024424718690189685,-0.28520736434816946,-0.13339991143982216,-0.27861478743342005,-0.2126140302510055,-0.11370139993588278,0.015315436768292947,-0.06763130384418702,-0.056622947661622916,-0.18927660853434108,-0.04386581919536545,0.03211489727857822,-0.07525129687661768,0.08337039329367399,-0.28272754672296724,-0.031770245106526304,0.03445739332473549,0.08118468153567515,0.04894820629713061,-0.0997898362766839,-0.14889805398590955,-0.21034178580170798,-0.2296285133891743,-0.12429120610654337,-0.08137352821234359,-0.029272314282001756,0.04500349808533357,-0.23385743801879183,-0.1905860219890077,-0.2947750921291148,0.08151733369013642,-0.11808626469483421,-0.10741088293053552,-0.2592099902652169,-0.25303360849920153,-0.1407896781379588,-0.1500512172953846,0.0056613722874271286,-0.2755521464938116,-0.2360899854099208,0.05152080559688929,-0.2708321038073567,0.06225325834869077,0.05162278126801855,-0.30489247445481327,0.007981010965048248,-0.23239490816840136,-0.16597917547077753,-0.10701783112548675,-0.13808133055260943,-0.18820096618082505,-0.21072250751304397,0.07060228818371152,-0.18001979977373753,-0.0722577578145727,0.017182871357751664,-0.22335722154825588,-0.1061589727985025,-0.26251438941427857,-0.179701597550217,0.033152779128003976,-0.27679798551034707,-0.19362834294247855,0.016842890125828333,-0.28881212388051586,-0.237338033109685,-0.09163948570123384,-0.00230361377948946,-0.15713812118521714,0.07167350992979282,-0.07592589497923141,-0.23602009342258098,-0.35223995791540075,-0.3359171316501118,-0.14718971976709758,0.013813615373025175,0.004220597791993042,-0.03321291119395008,-0.26776797687366455,-0.1455250273468928,-0.2872852716451513,-0.031827146631564766,-0.20937022599227606,-0.18421334503847855,-0.08591849142740601,-0.3043301401586771,-0.12542626102907958,-0.03991680181041757,-0.27308008174504594,-0.06267504958020137,-0.14285845467716712,-0.1139973323193556,0.08498708165918802,-0.34400139402584823,-0.007930844853349491,-0.2182393060536186,0.06664304261965365,-0.20831463319034754,-0.14728997879904415,-0.15820938800243992,-0.15149635953317112,-0.1276534889604843,-0.35117679926454476,-0.19663263861492478,-0.001996946637098511,0.05075084663272296,0.05825358233693886,-0.26195679613261647,0.11894883435578597,-0.28062369478671856,-0.019619794722017633,-0.014197798723410421,-0.3153971980418454,-0.16874752756310898,0.046162920429398034,-0.3160262176350459,0.08125731960877608,0.005155694931640459,-0.07899438936802106,-0.03639996572956307,-0.08026725367076014,-0.13562391583245784,-0.08466616059357153,-0.29233848799304846,-0.03466003883386681,-0.3144132295940027,-0.19355625945027297,-0.3069972945170925,0.0010852325229075898,-0.027294186913912694,-0.2360571664846565,-0.21888056816629667,0.10220161104012185,0.03577879048415354,-0.008334926842582871,-0.25276428900223136,-0.2784072516895101,0.005114566608583782,-0.24408510924044324,0.03201932287435046,-0.35261587230333336,-0.07745458672067343,0.05015827199103937,-0.11719131324715071,-0.0545712642326154,-0.13902844094351346,0.1066464913000321,0.07179099376534566,-0.33431840043129085,0.05246386285869733,-0.18198783814260194,-0.2256549825372832,-0.35404159434469906,-0.012642843571158344,-0.15289886043447412,-0.22438769992439045,-0.07444410672995223,-0.03010912956241101,-0.26440673769138107,-0.211358214457022,-0.03074494980400912,-0.1133283940715524,-0.07256977011760175,-0.004661983253967226,-0.37698868503342386,-0.212497903484929,-0.049595130480468416,-0.2939971450389703,0.10827333266293832,-0.2672381780276354,-0.32317319660094,-0.007453621068573407,0.008562612809207872,-0.31839024243555264,-0.24714457737953796,0.05370367594330966,0.0630897812779562,-0.2973536771980153,-0.1495948008725472,-0.18685166783842005,-0.2952394369660461,0.10657167985524696,-0.21422448394147925,0.11950086455143465,-0.2959748338605121,0.11351158920661496,-0.3587320131805633,-0.02474937808694291,-0.19508585061308253,-0.1057809182378885,-0.2599101051862153,-0.22893641791123479,-0.267405402796918,-0.23434080067911342,-0.2826822488313533,-0.24510147507612168,-0.0581878083767347,-0.2706288350757673,-0.18256585186724628,-0.09859644763819041,0.003079778554024417,-0.36067740444358704,-0.18108906535422367,-0.2757753970468611,0.055804650633981205,0.07224965401487836,0.022915693424041424,-0.013804323984388243,-0.22157966482404215,-0.32536684913984065,-0.27777751269517187,0.05207819969643526,-0.37191114415082804,-0.2613950607267841,0.0910883994380438,-0.03238433829938705,-0.09221556000692564,-0.24247763458338273,0.06287100940471571,-0.22395040781012085,-0.3228814360971723,-0.15935237939546498,-0.15252719552073077,-0.23455282310782566,-0.10375790542907569,-0.026631401576828036,0.06764529536156512,-0.10493051421731808,-0.10870395588615712,-0.39527505329198265,-0.35652744690973676,-0.3204994476070192,-0.2884817687858651,-0.0734844104824613,-0.343406091443937,0.08174572768666444,0.06496591508733497,-0.1322860336692905,0.06899567192901329,0.036064294463268906,-0.12539220945021276,0.10257630947686788,-0.38104953909604217,-0.22320921349190756,-0.019401055488653916,-0.2367358867960849,-0.07265056888646586,0.01959908586635752,-0.0044191214301250266,-0.07521521278132469,0.054651751541433424,0.0025603601383738473,-0.29671025991411,-0.17567449874640104,-0.19330377600333196,-0.15899781140811411,-0.16403059407109893,-0.02887909683665744,0.02410869769479238,-0.2826421351940912,0.09343428710600497,-0.3269744486489243,0.03363422104946788,-0.09014196292847282,-0.22405494983485708,-0.3367640422183086,0.020248264605341886,-0.17310980036450999,-0.21906095797117983,-0.09776246709167767,-0.29096776040400624,-0.08956806913803572,-0.19163262129961006,-0.04868819872967663,-0.000764489306090695,-0.09720806076030948,-0.14966495679381964,-0.2878878946454636,-0.13085354013996695,-0.11669625396155592,-0.1575158756848347,-0.2779989949119362,0.07802358749971648,-0.37943857812989723,-0.1537909248956805,0.05686812524114169,-0.34584675280420296,-0.08641734369237306,-0.08109173056542447,-0.030212726424104417,-0.15650290855754925,-0.3413469582953137,-0.31225232767429106,0.008678787494508632,0.04261615306907287,-0.05635440222337945,0.010934061000545572,-0.2509152284901981,0.026715230614228834,-0.025985056713332642,0.060366819850302234,-0.33441412448107777,-0.03640137365026223,-0.014019793685862428,0.013036949590811267,-0.3009147626601064,0.06291420819778976,-0.03201662529466229,-0.03394934878146815,-0.09872670839264734,-0.30868313289494664,0.06080926840153877,-0.17303291294400952,-0.029436594574362512,-0.22482078707839098,0.05333398149983266,-0.12268567871195861,-0.16208384328080486,-0.05129892588993905,-0.0729581106284492,-0.22079060984719365,-0.13104509742550835,-0.020053951748831653,-0.019916276798301612,0.019065346856794462,-0.10838221037233944,-0.013610916657464231,0.01909567247369092,-0.23030929780530654,-0.18334858736629986,-0.23865317407777725,-0.10891886702377526,-0.28181792835360625,-0.09418276149634135,-0.02500743685187038,0.005401615347882066,-0.24369961609240426,-0.07121821141899706,-0.2892366307589573,0.001865198594273499,-0.14504328113478704,-0.25070704312377906,-0.08353107681089392,-0.28585330250604796,0.05283655358576309,0.05105769869040153,0.0023635529864114066,-0.30995934633734884,-0.29496150421318024,0.023896727911089728,-0.19102682641558155,-0.22491266682174482,-0.14268901002050283,-0.08507007571273605,-0.16240497857622918,-0.15794318333000126,-0.30601367262690476,-0.0984268465284259,-0.024394214057004888,0.09017377745494898,-0.17193249317632778,-0.17943290985622187,-0.21210291664070144,0.0489784543334777,-0.13978458252851744,-0.2483198823667017,0.039032482891695724,-0.2250170880296681,-0.05961096471175931,0.028648654649838057,-0.16545374976455712,-0.0358465221960835,-0.30665227217413216,-0.2594220205524226,-0.04051194938467404,-0.26904905940311097,-0.26169906334953624],[-0.05409050243339251,0.143472585292317,-0.04694352168352399,0.2094839632924051,-0.01723651955836377,-0.048497809925786395,0.026529434826806867,0.13026546957536922,0.1544595368697517,0.04695766470312078,0.11918152867101112,0.18746725940228626,0.03689508183489632,-0.01151684417832236,0.0027024460865817225,-0.02362013153655834,0.15596003346404289,0.09444685127415392,0.14464533963890452,-0.02902707407868125,0.19698014753724288,0.0337832331605208,0.08744638133165253,0.08327084578228286,-0.020748624521498952,0.05280266767173973,-0.0272835263447425,-0.01754207977238848,-0.06884198474686323,0.19018023734562,0.1956886713675965,-0.037818305667189966,0.22406555099635414,-0.03724590133163424,0.01198693844409028,0.0796449763671303,-0.055810135372851725,0.16846773650394728,-0.014819748295185564,-0.035093936171375,0.11140455589126448,0.04359964319922909,0.1342480740638644,-0.03506086307843579,0.1803521528503474,0.3465025537592023,0.24230239911970852,0.15408293158823508,0.00048594502632505194,0.11274065428128775,0.10270643634481763,0.0032248265242349377,0.25760529542671096,0.4573029007951713,0.3667126933888736,0.29295639186488404,0.2875305645335494,0.1711904493738025,0.21361834181450548,0.023381689855707526,0.16664800233067845,0.02101310554241112,0.13966684175514874,0.11612747238233019,0.20248334870617643,0.2104631118155899,0.20383478399879576,0.0632029355132427,-0.13430982769003452,-0.054373335878193665,-0.2017251303845516,0.0808607040591304,0.30303892014026534,0.7023377571111933,0.46562459649425625,0.4045342166108586,0.2804267107634613,0.3310596173734194,0.07210518863950409,0.0979891819998201,0.13681907881840663,-0.03147698925963791,0.14466183185622297,0.038680264650314766,0.37973289084920636,0.2711941109550694,0.10661898664939166,0.02140501788961901,-0.3389038389737226,-0.36548568880098703,-0.44476221443931324,-0.3470664312023855,-0.12250867228342074,0.3122581433469799,0.3156444553683154,0.2596147747708341,0.16994723920601268,0.470408748279381,0.004407446664842349,0.04388159555310144,0.09838311781737293,-0.02831529783521673,-0.016733563737520434,0.20070071555809293,0.0977808191756114,0.2685402024023598,0.10755489631641788,0.10588523265471708,-0.2845337121434782,-0.30573071453148815,-0.057555028905628865,-0.29668000238258097,-0.025203356094336497,-0.2724807985630231,0.32952869160816894,0.24588100195468732,0.40159758492934566,0.3765669150508045,0.01061727527988146,-0.01694242058971946,0.0909350552709924,-0.018652042634213047,-0.11107631356996447,-0.12227632440950954,0.05985785526561157,-0.0018121631921534144,-0.0017696864083785663,-0.18257262320873346,-0.23709548919909354,-0.0793800503139433,-0.22863060046970424,-0.3532406990130116,-0.42230222183112964,-0.5303893153677678,0.04536673468111378,0.05255028509549249,0.0817870511685643,0.17687626190552821,-0.21414817995144655,0.16999729423144527,0.2082452480606317,0.1488986531543685,-0.11569547462125078,0.13734301029140558,0.10923814127587936,-0.07636279932715834,-0.22108977567472732,-0.4896404725249202,-0.35710831204249477,-0.36893612912345497,-0.1929410723162158,-0.21367732465134043,-0.6593892046995933,-0.4422658960684918,0.039530749290925454,-0.22115367835056748,0.01421816261410508,0.0640008612444438,0.00815800633552625,0.01304869041664245,0.1912103282245404,0.018438365658352985,-0.01934254596958541,0.1970223143883579,0.1946299365959537,0.08620398031843737,0.029403075249102916,-0.21484189385327085,-0.12133144699505168,-0.011397132916118808,0.26773700218757357,-0.39235018641593117,-0.4759922916397438,-0.30835817431537405,0.045571682639950165,-0.2494094355365966,0.23176530314636243,0.2843118118834766,-0.23853582025427233,0.1219409594340072,0.1384637508775436,-0.05816663370616892,0.16274835855983436,0.2497868386126034,0.03138700579216965,-0.12626811174700073,-0.26550537691394316,-0.22075741639322555,0.38270134800765854,0.8235832886661166,0.4684109021817364,0.740406259393086,0.2621946972031958,-0.22201296756913014,-0.34321219929162494,-0.23684517680633496,0.008131305168658724,0.31198637419042263,-0.06530949927317631,-0.09034694840008492,-0.0507383190620213,-0.14134481880266453,0.12420677067359039,0.2913645205339987,0.08617359371973107,-0.07133848867218871,0.16858186045744827,0.3725001691341399,1.0025621455525464,0.5737118374909637,0.5359952330491167,0.5987128592726296,0.26255027581717927,-0.11128846688697268,0.024834188547600895,0.0931221989131848,0.08720694332513301,0.10941988437858888,-0.22295808882976298,0.001988301649339256,0.20645052712725365,0.10030934104622154,0.04985532775068035,0.1368552663958572,-0.08663791568906307,-0.3512917341280209,-0.033694354686312336,0.6602137856812389,0.876120250327302,0.4219773233049455,0.09656465027737397,0.031143393129918755,0.031390616557206645,-0.06326485261805437,-0.18303126353931995,0.2117447369797763,0.4666773720360594,0.2086966746373358,-0.09122058273152985,-0.09389201602974642,0.10672677655327069,-0.13673300277332867,-0.042180951972115,0.24690745213605395,-0.2224374113249565,0.026451371232076668,0.4266971194356948,0.11671938257883215,0.14479143295311905,-0.04887463287792144,-0.2167727894004401,-0.11258347400366994,0.14842315830009742,0.031383635283109015,-0.019539732019802674,0.3319234941819934,0.5520122148610352,-0.03983999428220121,-0.21621016324025244,0.06537685457757651,0.09082063224732997,-0.1192715150701986,-0.36302594252168047,0.12892168442648094,0.08654894784564375,0.28676730651817883,0.3061596327060794,-0.10195330609656787,0.18927929602643306,0.12051215774492222,-0.22109430896909477,-0.23535881059728483,0.2177345288131029,-0.001150100318709326,0.08980862147255558,0.06259832197571641,0.24238667136624675,0.27503171500339424,-0.10424742535398084,0.03851891825936476,0.1634828291308114,-0.06417579404935174,-0.14216565584360863,0.0005712881434684414,0.39819979472408906,0.3384415111796157,0.10783130660022597,-0.18599900655833368,-0.19742039402434478,-0.23353767780528062,-0.1482603733393575,0.2225451385384334,-0.050854137460926076,-0.12337209199006213,0.12792185147479157,0.1431357706071241,0.34922841685091244,-0.0462474682488752,-0.03321923415505663,0.05201144487993919,0.1927407960868635,-0.011548143060044291,0.10680247555083826,-0.014646939858692212,-0.14109582579550317,0.006419187454702174,0.2211023512506229,-0.1986640513025453,-0.34641612522817916,-0.37881749353535615,0.037623249936694025,-0.01684388456169974,0.051372475353077436,0.23894748143397967,0.21732341770279115,0.3613691065100439,0.0514213076481187,-0.05346862248748422,0.1937630608377578,0.17256154437187168,0.1505874575108892,0.20072992713877325,0.19573497370857937,0.10281146725694311,-0.1580280551943613,0.02318297247628504,0.11445042847690327,-0.16638147990634938,-0.38572541883060074,-0.22559591105176602,-0.09713449648781125,-0.01795068852781689,-0.10659965373820705,-0.116670431846031,-0.023039954814628314,0.11466269254414027,0.006722813241667362,0.06679192685203314,0.17270990249138257,0.015942215449959062,0.0655890009856016,0.19329417981509844,0.1118301904009067,0.19086784096852916,-0.2826757980827273,-0.2295935018229475,-0.12148551557969868,0.09418169689307293,-0.08072500474359726,-0.2947091259758023,-0.05181562994630014,-0.003250963717896543,0.088060802939319,0.07949378458694155,0.14835680562988104,0.23664175074134944,0.15430980966318697,-0.04110246973394663,0.09128398711243098,0.031318237485022195,0.05852243050322232,0.15366445255835207,0.20267802900069531,0.09634801205454269,-0.11909126847777568,0.005791915627016107,0.04993590393706805,0.17163633507442644,0.0879372667260232,0.1372940579455553,0.027373949932072383,0.07394227970311161,0.11569415764997637,-0.056174635579987295,-0.037861107746276594,0.025964496082803448,0.07202416824330443,0.02660439214401297,0.13596155201287527,-0.00667970230013525,0.105819748650187,0.2126848758526425,-0.019060612856885185,0.18803586505640238,0.09300346089669353,0.12469208972530058,0.11931224871536739,0.20306985145739734,0.20749770519865765,0.17037661319155023,0.07348851122859379,0.08660911427978164,0.11291898848570614,0.16720870828842294,-0.038914466551223936,0.033681349680430774,0.08817967593606299,0.18789640140719174,0.004715876679522474,0.0010999626280906566],[-0.022487403407850808,0.017158025635106693,-0.11162213491811124,-0.182522242327157,-0.1413517407767308,-0.08664618017266755,-0.1062366194013752,-0.15274602864303444,-0.06852771962516305,0.04877632585083432,-0.21755056110504958,-0.04983186804503435,-0.16247319734257093,-0.1603583260897931,-0.14275528241120566,-0.12952482965613044,-0.08976734063796253,-0.06215741454595577,-0.041435630114834206,-0.1443985610937538,-0.06876355621337416,-0.024266560335207077,-0.05773035141048944,-0.19043665832255952,-0.19256300437593338,-0.009550231115351259,-0.10769118167390243,-0.09477964734406506,-0.09014045408123436,0.007790859395419833,0.03799073218327783,-0.03699380535144102,-0.10095632198662009,-0.14492822579362355,-0.1194615767345977,-0.17625003244167073,-0.15527886682487055,-0.1622681154601862,-0.07540852512517039,0.035373755176627455,-0.14213207858899266,-0.11388389047302855,-0.0010139855691685363,0.05337905387756847,0.03785484972562254,0.04280030522524288,0.04257196079554657,-0.01524047575419032,-0.12387012972529853,-0.1736749558161961,-0.053133124757671506,-0.044618201414917874,-0.04475948120489039,0.039317492038834334,-0.05295598815176482,-0.1022041599586522,-0.09249177661512953,-0.11882427650370242,-0.07519430256504281,-0.17686074758671133,0.0347316039020028,0.05685771892291928,-0.028719964157913648,-0.025010879609242705,0.04157145145347917,0.005663256074222964,-0.09646475751634166,-0.02089748723010789,-0.1308685274584514,0.015325092800506727,0.03967143299513937,-0.19186218153473367,-0.07730169062332365,-0.13761443424378125,-0.04542118714626271,-0.190898866855124,-0.13449173191907757,-0.20060858069917745,-0.09052111493692462,-0.163850134679956,-0.06445069485831353,0.03550460861133677,-0.2099293888085763,-0.03389828512647221,-0.10089570198863616,-0.07071216302146464,-0.14474056507582006,-0.11553120707438161,-0.02965656952449226,0.08800458442442147,0.09878886380132904,-0.06006493482283056,0.036622374644393274,0.1002185548260908,-0.2463587350492506,0.05607351185375984,0.0523002436744852,-0.08219620642196351,-0.07655860933137375,-0.06342414692459487,-0.1454849754353782,-0.03721375503996183,0.023618670499202465,-0.10168278057659653,-0.190512625204112,0.021019892616420136,-0.20186159112433097,0.06532115340964136,-0.021708008795907705,-0.2807847977831782,-0.012874529051199254,-0.19949813763270943,-0.060292995512173216,-0.2837140131836208,-0.1958490657578895,-0.3265375711838239,-0.03770567441066993,-0.042988156594651175,-0.11484999221161626,-0.20048345616055877,-0.017178707714356332,-0.028689131652108603,-0.14007466024043497,-0.1902893307513798,0.08435776864102358,0.08735608953859011,0.017086576685167353,-0.24698640641319342,-0.16768277050701447,-0.057214218464264194,-0.01888843124027682,-0.12428999431645225,-0.24791720291359778,-0.0072020669775135215,0.10901976020763039,-0.3111184833748791,-0.14685700281606567,-0.014502708814061021,-0.09657781443659282,-0.1082880958136485,-0.08819952481483463,-0.1169683047425382,0.00047891005516033147,0.07555259005569231,-0.25387004832574217,-0.1173640890889642,-0.2981771880740605,-0.22780907405058806,0.06760345377194993,-0.3078950151838122,-0.18974481604974858,-0.32088654794883825,-0.02024731509756917,-0.24659705265534784,-0.27230186367697357,-0.05961847986534892,-0.23383715472461494,-0.19430713269579988,-0.14491016499686288,-0.18352430022028599,-0.1899844427128457,-0.15636316531785402,-0.07060627358356521,-0.12526194037510355,-0.3458301964975901,0.01053629720598522,-0.2749432111651309,-0.2177917164523923,-0.0807895010534506,-0.21443468725731396,-0.2956645815454059,-0.04933753086677968,-0.28780233267841293,-0.18476457309904357,-0.12192214664065894,-0.1234508431244897,0.08267466797300853,-0.023352938480959706,-0.174340531813872,-0.08521769944518852,-0.06489750722113345,-0.08147013013381765,0.002868145131614915,-0.171342528954628,0.015001291932843998,0.0351396499792472,-0.20006430410781967,-0.08063517203652641,-0.16766175533109218,-0.08501920399217813,-0.24120166203324242,0.00846862824565389,0.10044236693067819,-0.3557661470371208,-0.21100254212941782,-0.1826290082369475,-0.35269080141322035,0.051946537214112416,-0.08630606219592303,-0.01828779910028054,-0.007033681735266266,0.06006953399200889,0.01205711959229796,0.057998943491939556,0.05193975514796059,-0.21445366246885747,-0.1027573719661247,0.08059194533506842,-0.35399924498826135,-0.104587420350352,-0.04995452999843884,-0.09012937829589641,0.10861642967175188,0.007417171554958994,0.05767436223684354,-0.17614072607066816,-0.22657527450495685,-0.011492414301834505,-0.18364879789941713,-0.16179304220754243,-0.025941123672463356,-0.2060371174218422,-0.010830785040045594,-0.08834558128685212,-0.045376020628927385,-0.1350255372010612,-0.06783369499020318,-0.0184544882797001,-0.3378997725746781,-0.21381021673659184,-0.17820362046026375,-0.23982096764046318,-0.25652645851915223,-0.05038919407078561,-0.10527655434743498,-0.334742594555419,0.07246457431050264,-0.1813222385910859,-0.18246313995414382,-0.07344163007829552,-0.059135643318159625,-0.1196844119274737,-0.2110844516638016,-0.227880915864734,-0.09002876760829351,-0.18595092509726496,-0.31337220782662867,-0.019790674207810107,-0.019360668454515357,-0.22885153590347526,-0.05261309318097934,-0.25557024688046254,-0.03108267409493999,-0.34787587145799176,-0.03559469126198706,-0.2303671575665049,-0.09490469566713682,-0.10643501832404982,-0.16660470566296381,-0.04978964837011741,0.0005743156090417107,-0.03618833355005424,0.016390128500122808,-0.01093415364069217,-0.04802042812387718,-0.33131990194860633,-0.21769311919836756,0.0021484470713204144,-0.13736043461142813,-0.1526496965940934,-0.1528984217438074,-0.2707012880284812,0.08927778411354455,-0.27199604629116997,-0.268696432659527,-0.07960959256100154,-0.005614144530091221,-0.20058055469497574,0.050566842293441105,-0.12147406378567163,0.015438914901757644,-0.15555667931122438,-0.14319931136499012,-0.13572370136085674,-0.2151429551721096,-0.06709497891581569,-0.1449459995665016,-0.3256115601940695,0.02398041103925768,-0.2705281635084375,-0.2989839193426669,-0.32392940601847153,-0.1316772789119987,0.06962676132776949,-0.11530395999330299,-0.232426244819554,-0.048027355801113794,-0.20960504851880998,0.02578922385623432,-0.1959078660069295,-0.20499848998041817,-0.10292094559510452,-0.11199632678686375,0.05040901942744179,0.002312974288651582,0.08655414199335365,-0.28656705443306607,-0.2503127053705632,-0.31937282917567883,-0.3144866072304941,-0.0759280672423658,0.0168388798599551,0.09934342149844473,-0.09606200897033279,-0.17966469942494698,-0.1684601120975986,-0.11420927683952817,-0.06446649476990907,-0.05971632469534809,-0.17915690212049998,-0.12437847117061009,-0.13764105763457601,0.04068530386499391,-0.06815419419459794,-0.07448555655175297,-0.2782345893048401,-0.009690391959252082,-0.17432176423205548,-0.2616679485716032,-0.11618429053534504,0.049498303005343296,0.08208619849964505,-0.1358278876804299,-0.07327938390584038,-0.04535027981678021,-0.1817399030867078,-0.01216396463223364,-0.0036104525025967365,-0.12122298339645618,0.012468294077140084,0.03973254120827022,-0.16357691852907752,-0.05349401120242886,-0.15361421969701078,-0.15789698980621383,-0.16621484550845636,-0.1596829249366006,-0.0025856036679806254,0.05074384199891597,-0.027652990698144534,0.021121546871595013,-0.03296566878120678,0.006197283383466571,0.0747882985796491,-0.14404542552313584,-0.11352601920496622,0.0610264530677513,-0.06639563549389078,0.01587018955306869,-0.2037114419288829,-0.04867571843253384,-0.17806305084953722,-0.11556257450673665,0.049347762978573004,0.021580408066585385,-0.05046925393255839,0.009628649563344015,-0.13538998561651833,-0.1186258454867765,-0.0389660973664688,-0.07745908493685365,0.03779362447312522,-0.16483900216465708,0.012900651890604712,0.02871449717597211,0.018683877623196694,-0.17140452496941605,-0.20583516012870987,-0.15059516349496613,-0.049608914160285573,0.045794579024352536,-0.06968173425548488,-0.11720100058371248,-0.16012456651262771,-0.2073908358729009,0.05941188279053356,-0.17365603545333927,-0.03372168510610964,0.04908643716413923,-0.039548659852599415,-0.1370990085668436,-0.13168162611774353,-0.15599971468346904,-0.03901468051397276,0.06017934528115273,-0.08660232683347537,-0.17664632450075315,-0.08717692931651237,-0.19004641671106137,-0.14330066159557964],[-0.197806462551886,-0.2206243435968552,0.023990475302315274,-0.1340844288649517,-0.2191318898913337,-0.033418198800705456,-0.13502091369937705,-0.12651065321038685,-0.14040260597177215,-0.16257582038314866,-0.2158103296669635,-0.09418412475085441,0.06597948886517557,0.025315930129185527,0.08460979702784349,-0.20812711268197398,-0.1597761731667385,-0.09350018100132851,-0.08884308889245476,0.006836599173139888,0.08759350208928704,-0.043596779023939915,-0.05782395785752236,-0.22422246965091291,-0.05049643089521742,0.041312233771466485,-0.2309557178581694,-0.019459671494649698,-0.0737128056066381,-0.0766684498000867,0.047178289732080485,-0.06345731476362887,0.06970347842739791,-0.019524171835256267,-0.17222607066373413,-0.1203148344932011,-0.2319012947880927,0.04261012977228549,0.08177450359646242,-0.029659373889883038,0.10165055663809368,0.02969245203352317,-0.11338987337251588,-0.05451579443762166,-0.18753609763662615,-0.12707838354233075,-0.20510065688248483,0.10184032141483176,-0.19521275683497313,-0.07062069201482965,-0.04225978833392097,-0.20166730827861548,-0.15106634187747708,0.03861237445343411,-0.12875056943432348,0.046628345956570845,-0.09202496069155955,-0.0035682653452520094,-0.034016309914947314,0.0009445603834290393,-0.10486179712117842,-0.07063253400884548,-0.009584105026745865,-0.02812395409558209,-0.1568670910107705,0.1032820639873681,-0.020841918477995297,-0.10643075855456992,0.04369766442056197,-0.09439817314947599,-0.11565721807834711,-0.008622212898068153,0.04421386007889329,-0.1517419621956689,-0.08818654634873757,0.002450974746152127,0.09858711880638704,0.10560929520396016,0.0937337413113414,-0.06513811540127044,-0.02775208415539034,-0.14700030450642926,0.0348051536406065,-0.23947320218380913,-0.2536977182506486,-0.010620076396566031,0.06485869507458947,0.13409290475163646,-0.0498760077674036,-0.07842827546280995,-0.1397594989894871,-0.027409715885565546,0.04040889954200064,0.06279222281899287,-0.2607723738045987,-0.3292491643000861,-0.23777681259623878,0.008985347614515585,-0.1192860050925315,-0.013899070699870005,0.09206243088096305,0.08912200085691853,-0.11653786448686525,-0.1166057728428337,-0.030500618561675002,0.1052219231240254,-0.014441725835214496,-0.12100701718549471,-0.14565074332368336,-0.010146574788840013,0.02136100729936132,0.11909276818073912,0.05377613502278856,-0.2665568950550963,-0.18563980188734377,-0.06900400097525027,-0.034759461726504216,-0.028466339280326377,0.08626371465864964,-0.2151002347300476,-0.041220201286327085,-0.12455154206295888,-0.2091314703462234,-0.21657796197707607,-0.08213660904950892,-0.30223551742809335,-0.1643939351781655,-0.27507231487995926,-0.09465425517245132,-0.2186770042835983,-0.24584371898487928,-0.06545868176555178,-0.18957091807774418,-0.3440963582324272,0.03290173018014435,-0.2801504073511095,0.03841896189272196,-0.22218680694865625,-0.11492669255491005,0.07589568469996168,-0.13904817212221834,-0.013286827052443141,-0.06360803902913804,-0.1725590650291913,-0.21772013606409615,0.011041937544431234,-0.23849390312059449,-0.17065591525770948,-0.11512118747686353,-0.2878804756367775,-0.12536608446581787,0.05871362328678391,-0.17740125764407122,-0.2711862679361881,0.0384364249494979,-0.06955273485628732,-0.2895884179650729,-0.1906588714660358,-0.02133530997937058,-0.16762639207874241,-0.12826596601720505,0.036016055264790195,0.01851914389956795,-0.26857281161131447,-0.07049922296589786,-0.012429918494750768,-0.18361680589241086,-0.37274801159737597,-0.3181599891758954,-0.09241317068091685,0.104544393206511,-0.17468090117369123,-0.14537667182878547,-0.024964292477679093,-0.3219422451441081,0.07153250168590491,-0.14241880017649855,-0.29359436464123195,-0.13538228645303316,-0.00512479184113351,-0.23274313526547522,-0.1757569766440953,0.11449102768631972,-0.14718032696636313,0.10651718151434174,0.12712413781282103,-0.3010429364478429,-0.24902987527421983,-0.031197621127622567,0.09612970103526715,-0.18431507400613434,-0.23662676935944957,0.1108469658833366,0.10301132539436571,0.14686809700016923,-0.37489634065499783,-0.3116808926168164,-0.06766211600294036,-0.16851032072779254,-0.06457025852623885,-0.1591611557080592,-0.07819655337409936,0.02072075416135287,0.10455306120440798,-0.3872496364464111,-0.19496543462155358,0.14669483668850705,-0.27241424531629377,-0.018909170503206986,-0.25195820759655513,0.10803429749567993,0.16707963043086277,0.004198514724036036,-0.22541210447315835,-0.21355474323526416,-0.3520585286166108,-0.35715591121719537,-0.2823178773476279,0.06552383370199322,-0.07759480630411562,0.027031251943168817,0.1026495664934149,-0.2987078744508919,-0.16664393131292463,-0.3405467710461824,0.20383993115284801,0.1829461981180193,-0.14848173081326133,-0.21521278000120597,0.17187375246404485,-0.0007701362063735755,-0.2016344847105888,-0.06982821240470352,0.02280612691849022,-0.09908072227538742,-0.1256509403806726,0.006269666427179924,-0.20771256238656322,0.022748349718797106,0.005218612452780953,-0.002517322210804703,-0.08956102978988126,0.02374041719380153,-0.012105028812093967,-0.14974315957883877,0.08039847522734668,-0.0276389396595035,0.01630784769884901,-0.07144435548086356,-0.23783759152549955,-0.28056092661625276,-0.31648426667466956,-0.04605019432409943,-0.2208761388570083,-0.18125918939069738,-0.16171667371978388,-0.16359009837552643,0.041003202594011495,0.1574668764510541,0.05985598498085083,-0.21288074513125402,-0.23201209503806008,-0.1579975593649996,-0.08076282979023938,-0.1057716483355,-0.18980477382759153,-0.1817724848728555,-0.16592506541338262,0.05665487407113868,-0.29468767042689886,-0.07783576052124468,-0.1787133265265278,-0.2256359728141804,0.03596553756006785,-0.20388731125328038,0.06874891017204063,-0.021334243783225033,0.07929217779831589,-0.12591123086079506,0.042305345454375046,-0.14653600949740306,-0.22764591913739393,-0.2056949194009966,-0.05468902310848671,-0.06190874695336166,-0.1443194536861253,-0.14474399403286273,-0.2999017081343949,0.015794406447003813,0.093393623904735,-0.07700963364192298,-0.24810055577841705,-0.06144246321174784,0.10140078004193803,-0.021873032654672844,-0.27821274356926207,-0.0896726363673297,0.04809654634640885,0.025914424417405425,-0.09612882190813661,-0.13170016368109466,-0.07100198755387781,0.06666583219321738,-0.005598373796879329,-0.13932003662969195,-0.3610815790197779,-0.28237371241659,-0.11128605241949421,0.11524002591450432,-0.25032881471807056,-0.18173223944034583,0.037463373453653595,-0.31930092984665376,0.03779478177277723,-0.07751406900393094,-0.09031892934676325,-0.08039523982194655,-0.046252026494292484,-0.18226527755668198,-0.20277924321356613,0.06254199953523192,-0.14564114975594822,0.03766227287553063,-0.20894164851285205,0.07676089656147206,0.06769024610729922,0.003148361420126519,0.00941383883798798,-0.2443789721067862,-0.00930545644214279,0.0989892169350663,-0.1668870399861644,-0.2410401222297267,-0.1489965897348094,0.028457125586753985,0.07820167295651477,-0.1181962899841662,-0.052969360860493656,0.0068446269982087955,-0.02235957110239333,-0.05899271482788327,-0.009012563670667415,-0.16357858549497353,-0.17957026180854782,-0.07634264892509778,-0.045425678005428176,-0.08690657467063861,-0.05422044355193041,-0.22309350786967747,0.07597966897474119,0.016459768040581555,0.0026097656374407933,-0.006778097013765456,-0.02420879047559833,-0.15801628516462998,-0.017017721880193758,-0.10897634542920248,-0.21040117928713584,0.04374880194705167,-0.17884944912819067,-0.20632728240676076,-0.005463660268570636,-0.19845709686289856,-0.2121030700430825,0.0007246590162172723,-0.21884158869180229,-0.06254442860588676,-0.09771808101135189,-0.051555814229432506,0.024906841594882524,-0.22753642406499164,-0.19900916008228076,0.02582645229898821,0.025317936733692127,-0.21466046642025693,-0.10531263188869297,-0.1110025488049429,-0.10904535577048274,-0.005624152833143934,-0.1617783811350231,0.08195180329626921,-0.15833047302281936,-0.11483327873180484,-0.14934907881282788,-0.19482062933061053,-0.06471129386048256,-0.12913757656251437,-0.19045871805324316,-0.15122380849334152,-0.23120584793735374,-0.04497777978161022,0.09952132771736473,-0.15174630894775146,-0.20005619298095073,0.009109262266658048,-0.20402575037716064,-0.07139840066518745,-0.20014851140622303,-0.01063343585258891,-0.17332141446706517],[-0.28851398900602765,-0.009254715155293317,-0.1775057635616746,-0.027278865163475094,0.0016562044305326378,-0.31300303362409876,-0.058730388935756175,-0.02974387557093207,-0.1843679811765538,0.010970847504692877,-0.1126602091606319,-0.14223653931381824,-0.22330226693967975,-0.2794283580756599,-0.013892933272445866,-0.164913538514718,-0.20629456402008164,-0.1502938997043169,0.024937053459007354,-0.011627103162134837,-0.22688302535986676,-0.1651155993902614,0.07694948655579781,0.05952852330837765,-0.12887508870652659,-0.07401000490178525,-0.10676823961658662,-0.03970017871902886,-0.13342082352075338,-0.13272029328108123,-0.26799383506790475,-0.25434670636156154,-0.05331685269814492,-0.1636656134190783,-0.13580045635184462,-0.1973612961732161,-0.19445380418985306,0.03681723064976058,-0.10590903768796865,-0.08791594923162441,-0.20409924097765308,-0.006221754510856617,-0.18980212473834185,-0.14228471844344062,-0.05892902655722579,-0.29769734321085906,-0.22217109761161258,0.057887261051372416,-0.3059397643694622,-0.22786104523675918,0.03937076192932305,-0.04466136532851554,-0.3208767301415757,-0.27987644015052054,-0.27339254590968126,0.006253616902464236,-0.2865793951913462,-0.09940231595620337,-0.04332910127987927,0.0268041133023256,-0.011906245628971324,-0.06316820968053292,-0.20969889300527322,-0.21387626076134758,-0.22824381637022567,-0.12599738506667288,-0.23075029613446288,-0.16594803533802788,-0.19067181272004252,0.08971413702248876,0.04714373827004056,-0.24651718066112346,0.07261205006380489,-0.16111615713407004,-0.1716259560818136,-0.11674603003337884,-0.06631113637413857,-0.15652945901242277,0.02636453595400994,-0.15369363719614235,-0.21939871852527904,-0.12918969368227284,-0.1194731763773481,-0.30371098505711713,-0.08537477060225511,-0.31563494912603546,0.026445640625731896,0.08799905576016594,-0.0643642197561858,-0.14950114840734577,-0.16627005465727143,-0.20493932991977057,0.09841647502426859,-0.0900673121924044,-0.07626405139701609,-0.2889331370101539,-0.26296370106324685,-0.27276765993609847,-0.24277272803047117,-0.021297428810651477,-0.11831382362845828,-0.0433886884559289,-0.30850582764059936,-0.04047496009179227,0.020738343226830085,0.0337004478197138,-0.17698137367836814,-0.2713607409043786,-0.3702621923677897,-0.3006764485721539,-0.030464064250839144,0.10355225656663075,-0.2436049382266474,-0.1281336301017268,0.11010304731874522,-0.05742028215336203,-0.1103826362164491,-0.27643979749839775,-0.2080279377548223,-0.21407251700184823,-0.12312620361314691,-0.1949463882496191,-0.29218884595086286,0.023541330639274813,-0.252638966427681,-0.06540004187227763,0.07463313965404807,0.07433928956694308,0.1141792963523299,-0.16801224751941812,-0.040563408455728825,-0.15641459959678894,0.07810785716934551,0.07543045897848613,0.11371658505686225,0.108935437454665,0.10848611334592534,-0.1218355814748909,0.006754564884301455,-0.2782362664382679,-0.19128528042693302,0.07429417478103456,0.03196994584750481,-0.17436564384352154,-0.026465556679574797,-0.14467324896015663,0.019361510560438496,-0.3889679327016418,-0.1593920877046677,-0.33383634691003233,0.020675611279479155,-0.08683620197780471,0.06867610998145227,-0.275348736477736,-0.27907600572161856,-0.014787331172777203,0.10100981124943846,-0.3771652976569476,-0.1926604645325113,0.03197062293318902,-0.10857144819113425,-0.15233253213697504,-0.08828862621552523,-0.3549917418151863,0.09302905567829982,0.018749103246012977,0.03451823576940044,-0.18710580228115217,-0.1134994936484221,0.029505803542639365,-0.11588250112130953,-0.18081570281907944,-0.11702399663665618,0.07373511732968215,0.02880726637873465,-0.09526841337067464,-0.36278153891182763,-0.006814894485405453,0.028803384251326343,-0.1472031253128537,-0.09232904664483993,-0.1545292955399149,-0.20123543908239477,-0.2200507772713075,-0.10627145327930353,-0.24656572287554754,-0.01821816451462372,-0.20830865427428447,-0.1700674229027496,-0.3429237518454546,-0.3065240541036509,-0.2451349886007903,0.1085085288190184,0.06609491610128859,0.04225224247563777,-0.3055470683907988,0.06706404522730289,0.11171661378487144,0.09577169239900642,-0.14564749110220535,0.020892916681110835,-0.11643655074590298,-0.1409579109855163,-0.1222820518776633,-0.21767543004420234,-0.34594396224798263,-0.37308649358698465,0.12030056606364233,-0.05725822273765257,0.02482582246561491,-0.23722051362279567,-0.13896645012208564,0.026475338900293008,-0.37193090326878125,0.11691500420622153,-0.3248923492221627,-0.36165311800824507,-0.003242062815415502,-0.0013731113787956136,0.0649183081570329,-0.17393378972827803,-0.18014823250931125,-0.14240042834968258,-0.004760225916645738,-0.05021731150290303,-0.2964442253708842,-0.008823633503282215,0.020074736532766865,-0.27725072483903274,0.056740467170653806,-0.1134593296305635,-0.11167348089306474,-0.3591485421478479,-0.18934340798504287,-0.35494684385228004,0.09127360167291496,0.050059493513423495,-0.20868065180591977,-0.277885125962004,-0.292582487382814,-0.023813141878158493,-0.22076604488037324,-0.15874798483426095,0.0784397564594279,0.022189708985745973,-0.35246669025640015,0.03120161840709053,0.03646685613267896,0.056785645423783025,0.029074134619064607,-0.3403919386469853,-0.1060030572217624,-0.3456075767059219,-0.10539931806578402,-0.3717275456217056,-0.007421687303893848,-0.2807621045225407,0.10138887641597415,-0.24903177755810563,-0.31918615065127454,-0.2702033287469439,0.059694475398329304,-0.2815179242461056,0.032962062017433263,0.01670308570960853,-0.12248037107828105,-0.18956703362522728,-0.24177422119301312,-0.16325327338186651,-0.2491073036100063,-0.3610109060872403,-0.30782864011974853,-0.24864102432992047,-0.27526001101356545,-0.20690442193688469,-0.19574025306542453,-0.1582794356238332,-0.2881737592266065,-0.15646758832335422,-0.20751688390173995,-0.2305656637874312,-0.07727804529051567,-0.3080729239545016,-0.35648242694208027,0.013624525618596318,-0.030745276491296228,-0.32938169894643443,0.06472569852511036,0.09235493969372609,-0.04924813952288071,-0.35318327040376596,-0.32841197572158687,-0.14182849483087764,-0.08056528966692164,-0.13724735698332802,-0.3038394328828783,0.05897606795295269,-0.00297459905286712,-0.02511997077581811,0.07964972651480345,-0.25010878397482167,0.029864392683563706,-0.08840963182785799,-0.11122302066334575,-0.18733099551831026,0.11990182997904676,-0.2100915989163828,-0.20044627866238784,0.0839040346606704,-0.08382711257591338,-0.026657150585207737,-0.35002737920059807,0.0631857458574335,-0.12314257762431903,-0.06991498959981596,-0.23559575050631942,-0.00833909914723026,0.004360907997752192,-0.15828718713952097,0.026892165145084523,-0.28666734510879904,-0.24126753747972235,-0.18548118759025536,-0.2779774097378036,-0.2067258358131087,-0.3497737857236852,-0.16543408585170608,-0.1766372631415405,-0.2462354980183653,-0.33570405565602396,-0.24349459447575,-0.014008648070790254,0.08533403461487402,0.006283293180218069,-0.2903949851244305,-0.20588188052510012,-0.2883354904576142,-0.229534198966739,-0.2393837494501982,-0.14715209776837648,-0.040409382526526885,-0.06287857158468464,-0.30160524051380144,-0.12882190488617953,0.032445464610061016,-0.01464236278504349,-0.17394537582298272,-0.29149335662589615,-0.26823725663501513,-0.1138376658838768,-0.10133385034654692,0.0008216071281472051,-0.09399630961589839,-0.32574115387918295,0.0808432688056832,-0.18338854946197125,-0.0970376308865788,-0.04280344734071352,-0.027403774630621672,-0.1862427238148638,-0.014091493003767538,-0.14210630979975525,-0.10628415342748582,0.03907466313815393,-0.12383707393437125,0.06294789245747152,-0.23337312046863481,-0.037024215474762485,0.008002239789746263,-0.030762667972686644,-0.2869788624331596,-0.1667490762082516,-0.09809173320754917,-0.10750447083746875,-0.11900641918576028,-0.13905954265880435,-0.09660206977056443,-0.08343914502115225,-0.2464329652620966,0.04319924306451147,0.04494762317208275,-0.08753942550167725,-0.27860559744167246,-0.1696082117288903,-0.03454860686870254,-0.29375863687959475,-0.2151804349501858,-0.10439283453371817,-0.12398780552064388,-0.04707810013585146,-0.04563906014729065,-0.050321013430873175,-0.062393102939538744,0.036203253006507306,-0.06374604386024216,-0.30893184296163495,0.08079280940214242,0.09128128828550279,0.05594592031902714,-0.1061283951878175],[0.01322825516132847,-0.21181373260037012,-0.16916076562505852,-0.04551320728884791,-0.116392541806178,-0.22180824636176738,-0.034817200909250216,-0.10997140424347787,0.02231062758603186,-0.11877710266822808,-0.007132267129533878,-0.2032082800099855,-0.17791807207444582,-0.0617195421308972,-0.038438628363055144,-0.21041170272559562,-0.17317673935846914,-0.09813410687858658,-0.209688968728261,-0.1457824639579241,-0.0956165717823223,-0.05630983682209082,-0.17338172669173652,0.02150759573200132,-0.20038744389536275,-0.20428690710442934,0.020587792849624635,-0.15413692372849624,0.02039829666762483,-0.19971217598893162,-0.2217405402913824,-0.12288940603852344,-0.09849960459155899,-0.14944235609831552,-0.20712906590596547,-0.0011302048094165157,-0.15052634202294066,-0.09641221815077446,-0.019271657875637158,-0.18017075661310264,-0.04644906018971111,-0.1854684525277283,0.01849176571395882,-0.14312030819306829,-0.13434117943479673,-0.033302719422173124,-0.02050206412599407,-0.1510289218245711,-0.20030002678342484,-0.029497854305073696,-0.06258090126929404,-0.15272498869449244,-0.009254255698647906,-0.2351546204229136,-0.11695268423911445,-0.12680581775703817,-0.10378563211408144,0.01925056358560256,-0.09416730831937797,-0.02016144476366644,-0.14783001676243626,-0.02166653518912009,-0.16236752650257344,-0.008849567465366467,-0.2279219932287485,0.011347718760302128,-0.08225957054946494,-0.16430554805921066,-0.009684949770995125,-0.06750899280482038,-0.05279510824891716,-0.019004652505620723,-0.1281225829571363,-0.23509399009014628,-0.2093738314565092,-0.20396989928482542,-0.1546902916029268,-0.16882944530917834,-0.06217431902671154,-0.03334043139084472,-0.1262384756463856,-0.12118211554131972,-0.08143458971131745,-0.07122188323512764,-0.05763796548437305,-0.23000830658239227,-0.18459198882796848,-0.11900198077158139,-0.18574372840262976,0.02847552594840356,-0.08068361695898839,0.021853609010450307,-0.1754099717737591,-0.028607423066221944,0.012191220607434652,-0.06112218690840233,-0.17596500852599778,-0.21587940669447078,-0.0999115828435862,-0.033501903723077875,-0.19979668279422808,-0.07374576766135503,-0.21200577596693707,-0.27534867836990284,-0.1891893325785013,0.04368513894137617,0.048748682767034604,-0.08471098918357872,-0.03906719608623587,-0.13692346413619624,0.038492570671480764,0.05568462536619975,0.019603846395844313,-0.21351172924382622,-0.32667633991300427,0.013211301478465887,-0.11495981568470742,-0.13861459434727033,-0.07399560874912933,-0.17959056150129638,-0.1090628763948467,-0.04992263212312039,-0.17020269694271575,-0.050754037134720785,-0.10447762395582659,-0.21271036032335083,-0.030027311803410284,-0.28154551326878474,-0.20095236260572855,-0.10486242888714474,-0.0689515442200867,-0.12882289086238233,-0.2270501822044487,-0.3066513700858472,-0.16010561701921722,-0.10623455990841175,-0.02578839896070352,-0.23867135273511203,0.018498937736844794,-0.15267530732527998,-0.10024236421271895,-0.20985970624943076,-0.024716732551995017,-0.3371529513839398,-0.19114817673721926,-0.10460520500942316,-0.09154065762208533,-0.050868192620610535,-0.04740403256991616,0.09892442108777998,-0.010139407183245032,-0.1756741253157594,-0.24623908527639876,0.01962107874201452,-0.2151423419725511,-0.3327013887440763,-0.03805722250465666,-0.34919908341122763,-0.15312453230765682,-0.24166580930524761,-0.09829421178105643,-0.09441786376535573,-0.0834344985609503,-0.0813585430909519,-0.2715250516471938,-0.009266011426129811,-0.35392616350411865,-0.1566577012183668,-0.13053223679022086,0.011777691387980738,-0.22289080344628856,-0.026001632502044097,-0.08695541404011718,-0.15293760849515242,-0.269695355973213,-0.049658162692436544,-0.17509436040494414,-0.163278288993024,-0.005318407218484042,-0.13959385398159166,-0.08194939231438104,-0.2150163923288314,-0.08142103236461454,-0.319154822975291,0.021836550886628375,0.004223520925017955,-0.17371422286495167,0.026399390038020863,-0.039563572545492594,-0.3738527456934956,-0.34825125287626624,-0.24925893517061753,-0.21008646997765626,0.047577628088025924,-0.26158946229848773,-0.2285206715112739,-0.09781391530671925,-0.3497780528385469,-0.1831971117980535,-0.1761753655629865,-0.19620515693660032,-0.04596548846288542,-0.15744161340621746,-0.30422603506397555,-0.004744515648051117,-0.2498862393382518,0.03821452540664782,-0.2664228593007645,-0.03598119972026259,0.06124287038102778,0.014199833657810822,-0.3894588936266517,-0.05349782864870997,-0.2403175880586387,0.020770887300573027,-0.00916918555286935,0.027231582804189487,-0.11921680192306744,-0.00607335897527154,-0.07796005050725499,0.008148529957856735,-0.019458882009724104,-0.14630886427459644,-0.38051191372372933,-0.1549685753652979,-0.3530093538719086,-0.32957469958420926,-0.2156090723101239,0.027389807901995,-0.4179111029686875,-0.43209332379487003,-0.3742438432184533,0.004641166473432886,-0.024365354867644358,-0.07310936667029404,-0.3745495876171921,-0.24826041026407167,-0.34594855927169066,-0.12688125426731864,-0.1028486636135801,-0.11578944768030333,-0.018434852657851466,-0.025853315275745796,-0.3337318021075145,-0.1318916795134988,-0.34234252572952434,0.04084931606170119,-0.20636437947485364,-0.08396908023668104,0.010208098764644668,-0.008347882668294738,-0.2964404164872808,-0.394392497565134,-0.170248879095704,-0.39111660791894837,-0.1531170478201325,-0.1282600894239863,-0.09315852791921153,-0.20039935293418182,0.014307537214696091,-0.11259817933009993,-0.08979032248685995,0.0061778017235623655,0.017368463873970428,-0.21505429404695012,-0.36008867125873073,-0.14258791598698584,-0.16431036784618772,-0.21220523081392473,-0.19690097156166525,-0.05812883893609679,-0.1435462221035988,-0.09350626898250629,-0.3602189014762477,-0.28596555931192924,0.033039481894603075,-0.1850008653089446,-0.2375744880382122,-0.17822471958546,-0.16049114842763845,-0.00888609260778035,-0.161434123001215,-0.013226076944860657,-0.12006806088823244,-0.18418479292872209,-0.20935820390439602,-0.27987547400398005,-0.08701368545902981,-0.2712536434840499,-0.2073475960330273,-0.015793495252788677,-0.305598935615024,-0.24951155072805362,-0.2638960612274731,-0.14704175722838317,-0.0439966611028148,0.005915788125923673,-0.10584714948061014,-0.08855298638156786,-0.17009026593634038,-0.078659809200641,-0.16232316750318174,-0.1964529962705711,-0.18620171276580427,-0.01808762106148158,-0.10032550308295357,0.010963632516356315,-0.10774891171694632,0.018361028265360613,-0.0012153258159328616,-0.14139913048004146,-0.13108787715531098,0.01654022956722531,0.00600154248578069,-0.01524900113193529,-0.0003436981181360266,-0.10985136954028986,-0.02283436176061876,-0.16722280454422778,-0.14083207430705455,-0.10114022474805028,-0.0035617469521736045,-0.007250331363168746,-0.04871829715037606,0.022383367449391428,-0.08045836682765442,-0.00971437201516448,-0.1607987872675628,-0.15143950885938148,0.00816905914553229,-0.047001753147964634,-0.1358137239800136,-0.05744898280896805,-0.0805408068478096,-0.14736438467486365,-0.25149294809311606,-0.019377033314044872,-0.024971631503562113,-0.009238667100459888,-0.09884479473649867,-0.19049727458049506,-0.12649114735047257,-0.05178320918318536,-0.07697247360528002,-0.07935272620659643,-0.11676541966237661,0.0256032690689465,-0.19249904781991978,-0.09689272316455103,0.008145278334996021,-0.10341376598298808,-0.07520679381004525,-0.17425067994983331,0.02252571610800383,-0.10731655259294097,0.016353384958360456,-0.11803337937352404,-0.20859350399947826,-0.18660443641138433,-0.18740939317264402,-0.20411066331797972,-0.22573052065862723,-0.03405571145754318,-0.06338896818924322,-0.16034571016518206,-0.0051549159207520375,-0.10587179736838799,-0.21993538272634255,-0.17523975097476147,-0.04424107348518364,-0.14579331952718594,-0.19068960525573034,-0.048428171337503656,-0.229186314129266,-0.06904657326739039,-0.10383358218637712,-0.05163643834404684,0.0033885427126526917,-0.10385168459811157,-0.10024473812008017,-0.1413603681658058,-0.06479756265660748,-0.22439991819985716,-0.03989989849342371,-0.19166040067603124,-0.15200163221193938,-0.21876432520104655,-0.21851009172408956,0.00194942285463459,-0.026064484358248173,-0.08557868959404986,-0.15801233623380195,-0.22844247387898772,0.01108057868370694,-0.22502540663813517,-0.043850149443384834,-0.037687526831287975,-0.1241414632437125,-0.0983987695423956,-0.0935064249149525],[-0.2528315176421168,-0.24271375696330383,-0.20154252814712792,-0.14603330088668387,-0.2483517647193523,-0.27317658785853505,-0.13971116784653884,-0.12149032825437862,-0.20763403663429153,-0.12023411937882193,-0.3065408093503741,-0.08601218475159224,-0.2510404784422106,0.10479788632550506,-0.088483580456726,0.0947957454896239,0.07507285015658334,