{"dimensions":[4],"layers":[{"type":"relu","size":10,"weights":{"W":[[0.05493650503034009,0.04702733738975103,-0.033734012082324245,0.028088265722656103],[-0.026690689905008197,0.05628132166902398,0.01918732735236729,-0.1905318130262179],[0.18816859320768048,-0.08679094007359107,0.07511561905717826,-0.5715444777610852],[-0.3837550369501156,0.034520484846970165,0.023961847674050043,0.5884958397828929],[0.02376586023221421,0.16303401530852232,0.4964358575177085,0.0021350079075500294],[-0.325518389996906,-0.5861229676116695,0.1322204890869652,0.1029601287424917],[-0.08025053036939944,-0.031742679274412405,-0.2559692499886185,0.15715556745810524],[0.6032531954222804,-0.06603516442622932,-0.03451391333964499,-0.03404176295776588],[0.009163575705319605,0.3772865818134428,0.004600217645288766,-0.018112728298868952],[-0.5360325399945695,-0.320343198148905,-0.5985551646948917,-0.4235465742478359]],"b":[[0.42675620905101047],[-0.47479155570812964],[0.1488482290396253],[-0.8604922428534394],[0.45523093678859605],[0.11953733698607234],[-0.7796495678528195],[0.7090170425612852],[0.3585988492199934],[-0.7567759368150345]]}},{"type":"logistic","size":3,"weights":{"W":[[-0.13909025687997761,-0.37732128234843143,0.022598468761097758,-0.6278790023179955,-0.4601276793729881,0.6230433481096369,-0.270474475757988,0.6288054945282968,0.007419972600121733,-0.2610762084114093],[0.5388779086776628,0.8342798360907925,0.41815715096274503,0.8780837110342719,0.2698103645435666,0.37681357999430654,0.9107921275496333,0.2769304962908956,-0.008652004010685702,-0.5794281722378338],[0.6028852705534721,-0.5575222894759421,0.636947924744091,-0.3297442929402608,0.08259941526725877,0.5905812601794201,0.3710455839533432,0.5994792748507091,-0.3919984959798952,0.5690665274491417]],"b":[[-0.6460664495138616],[0.017940116001711505],[0.14086813994331832]]}}]}