{"dimensions":[400],"layers":[{"type":"relu","size":100,"weights":{"W":[[-0.037241249359170114,0.14129460365832575,-0.22201082789388663,0.0805497456501794,-0.20792870153644177,-0.06138580338633361,-0.20500023765161748,0.056718243389091594,0.011920156787479283,-0.25512085307177645,0.10336097966425051,0.07210085663204531,0.17729245644104838,0.10069625494427155,-0.09574809036581806,-0.13953721997339827,-0.04968078058242282,0.19469253926746055,0.16637625460757458,0.17201596352597434,0.2167160637996136,0.12683776872041136,0.10120136316804171,-0.15672927440881992,-0.13801203101304907,-0.13259644413352076,0.0800038328142985,0.1944281938720843,0.18723794713953817,0.04989987611198136,0.25356153782501073,-0.12710510706546446,0.11515646607586826,0.08277230131408604,-0.06827258758500285,-0.1981014319682635,-0.007042516122825497,0.20760251091995327,-0.20520299089776714,0.047514805600928606,-0.21117886750120965,0.11127441474366967,0.20243174064852995,0.18859882107443834,0.0763818841072712,0.2291733359375455,-0.17256711237734704,0.03061078649968176,-0.13219047005048423,-0.06723165005679103,-0.11648975115358058,0.13568198631740117,0.10647373140183355,0.1430965320880684,0.08391281453111898,0.21740566041858372,0.14944510162929908,0.04861839040101884,-0.16266517451047663,-0.07994686565186451,0.04580756118757057,-0.12386187449818768,0.25412933351481104,0.21846711075307834,0.05687643718649075,-0.00330437440364274,-0.21658842380039736,-0.0781201036701458,-0.2145504092446429,0.20991099722855697,0.02618481990296508,-0.15393466147434942,0.03106279667368694,-0.03453805386154801,-0.007119680529953357,-0.09994993810179302,-0.0595426750647694,0.056526086555039906,0.07508853921248647,0.15990427689500947,-0.05039792065059682,0.042021501291895455,-0.13490775492589666,0.1506404258939535,-0.13584645068162945,0.12070322724970206,-0.161787485029298,0.03602662891702407,0.04079016141519073,0.029328269806109954,0.1012573026950068,-0.07537301804652205,0.003990881955969674,0.07206335555769536,0.0769094972344361,-0.20805461404643297,-0.17732306298862785,0.04354843108396726,0.098674815071578,0.19883002426474367,0.013967897363182297,0.026529231776612632,-0.07224446724084553,-0.10728216519898505,0.11435296365630095,-0.25261035374333546,0.23964931345449722,0.23760355724204285,0.029283667570028746,0.21353604929119618,0.19281763769140828,0.06412692705238576,-0.13412192881409307,0.05125333086533982,-0.24048849195952593,-0.11968934973058137,0.06945243516648004,0.11586599990845622,0.06683946867101981,0.24241381226930314,0.2096518582713206,0.2023493477693859,-0.06721332031705293,0.11582710959402769,-0.16505307999324328,0.1877057512645962,-0.12696052350251708,0.13521675908745004,-0.21415167694430404,-0.055270908831353736,-0.13660535742055924,-0.15186207122661727,0.2062121257756245,0.07146110811762552,-0.04499742697275242,-0.03853392463427532,-0.16737837762804,-0.12186406848045099,0.016223539833098797,-0.020481553259210743,0.2241763297770813,-0.04662819902637791,0.19853706061299556,-0.20122171046603185,-0.15859418325609004,-0.09424954351793703,-0.19582214430252048,0.013525760701929374,-0.014864935103383386,-0.01323816580491587,-0.16099538507393482,-0.010968759359699385,-0.0665542252917437,0.21452668469969893,0.22969318981133663,-0.16875005148290245,0.1306745302071016,-0.08601068550647827,-0.23006985905709018,0.031275665698351475,-0.15091664627243684,0.07275338073848546,-0.13998125642208178,0.05658834390321323,-0.20492784883914952,0.060429591855563576,0.029992049882283562,0.003161173904639058,-0.19922072892254802,0.18768225724406543,0.17294069773492204,-0.24174195154915545,0.07249297804386402,-0.21073019814199662,0.09883095911796137,0.18519922066517988,-0.20755375849963967,-0.0018692298487006946,-0.08045305204855026,0.09032769781040567,-0.020448920192110823,-0.11467560785948665,-0.03126040487599294,-0.05888246351165838,0.18487694549807,0.21651875794784262,0.2144621309263979,-0.03449835629860012,-0.13125420805727914,0.18920063813334548,0.036928252131385814,-0.02780442942384073,-0.17977733685860744,0.13033999778470892,-0.12260978723133542,0.13656188687491186,-0.2384801631910683,-0.156888301307251,0.1500025819516789,-0.10791961148495795,0.035589014298537065,0.2255206767731634,-0.12238191737280363,0.24937912070592552,-0.1922621243742851,-0.028312136957786706,-0.05539898572396715,-0.02157104515858668,-0.19963156179742167,-0.05256874425212201,-0.14062239346928654,0.05081734479641234,0.2373118524897275,0.18655455703220405,0.002989598538002582,-0.025639528279714253,0.03015963202468253,-0.1491166225463181,-0.05831368683686506,-0.048904872250889096,-0.06004643161472872,0.08619614367771206,0.22743230142857385,-0.14417305858574803,-0.15342884878343332,-0.061383083120429345,-0.17457819244028597,-0.15152714129810457,0.008637506506111222,-0.0662524389957536,0.2030434407864229,0.005777893460890078,0.11306904421423966,-0.13662337508891248,-0.17683034247784632,-0.20496822506250897,0.16914685583439937,-0.024044066698153493,0.2330381173335537,0.057350216009890514,-0.22427429600254475,0.14745133848526734,-0.19063897839571367,-0.171227942126006,-0.1875174236735083,0.13923253764401372,-0.06300492314317946,0.038810936294675906,-0.18485994463940733,0.032068057860230224,-0.2268285949904079,0.1907106837899246,-0.11326408925265502,-0.20684009395554834,-0.0015078593824854266,-0.0028465876411713476,0.010973920907463477,-0.13298681611948612,-0.22824499853408917,-0.18846021244363922,-0.19438629593978482,0.08093086759601303,0.07149318167067571,-0.22841833035240017,-0.19536651392404905,0.029420289239881593,0.10531872549749106,-0.06153160255699752,-0.1934986975172945,0.21115563137335805,-0.014971918576631098,0.10897075238511782,-0.10382552385560592,-0.1884813373942879,0.16027671488461992,0.08363716678420931,0.23236443567267356,-0.05441585878723058,-0.13382762911021653,-0.03890304713781906,-0.23396218727550497,0.22966806904072729,0.19846967414218256,0.006508783670719975,0.1800963327334366,0.2398613113731065,-0.10368476392678472,-0.07399527208923219,0.02551314775018026,0.2217423475074379,-0.08237498382924005,0.2220362765682121,-0.0479663218548875,0.21091423589065322,-0.09675112362106131,-0.09945743162602304,-0.15026714496703605,0.06729784085089673,0.21310849439125398,-0.07117246241471747,0.17149020499531903,-0.1685702059159653,-0.24626018798975638,0.21410328085574176,0.06816968781809907,-0.09624789804337676,0.15022390539027528,0.23167529736100892,-0.06276110809563287,0.019974060619032938,-0.03661261009211205,0.23618075278122894,-0.10047130469070205,-0.07671860994778562,-0.04808075224289117,0.05842525660763468,-0.11568843190498238,0.2500370029119316,-0.0010412187519825604,-0.03773152566912199,-0.13776105837089614,-0.20393443656637944,0.022181895016398896,-0.19633554307019876,-0.02692793297227715,0.2267461209147877,-0.13460059608883101,-0.2497039104092037,-0.21519250997186518,0.1792876712905194,-0.024410782513786547,-0.03272870158156527,-0.24722535752802222,-0.20411071864785077,-0.028130862774998433,-0.02090743360752432,0.15669376374723057,0.24630321961251508,-0.07032173525480019,-0.24667683704403645,-0.2017453210215028,-0.02708807144803972,0.18017510489759964,0.24062864635430659,-0.023760420552054008,0.2492203000032384,0.203316139478148,0.06129771508517481,-0.2316552267934161,-0.1995978492572052,-0.22318057998555388,0.029982621225176028,-0.00381574386048495,0.03764117802863916,0.05910906904635861,-0.21130300781275507,0.11588478255532474,-0.221816729998484,-0.043463530767493326,-0.11079460802598742,0.07501203346385593,0.08898114484211907,0.06743316588890592,-0.18837374385352734,-0.2385033512110541,-0.0640982408495462,0.23938555379918777,-0.013662769683925833,0.19910397167481378,0.20299598438996605,0.005106717587349787,0.21760390878546712,0.022902344063513484,0.11667976094542942,0.10081894331707596,-0.1569695625136916,0.07187179866762494,-0.03391554185769631,-0.10733934397667318,0.1980831072867838,0.13959642350905577,0.05550630218899207,0.16593248677449157,-0.13349918510897527,-0.2300046478815501,-0.14064906300516383,0.04775577783478584,-0.167101458585753,-0.24238808597313713,-0.09653783125910782,0.07733719550174309,0.07542114256338145,0.23726466282518818,-0.09947499217325051,-0.17639858312723308,-0.07506562340440057,0.02735004244057975,0.1982698475539054,-0.139178040655363,0.11157072972924593],[0.0012965663485963673,0.24637336206277588,0.10796272017199877,-0.1938171162165555,-0.2497864150023277,0.25551716188861484,-0.01366644871913684,0.1979802696362104,-0.05201800234012846,0.1189070485900202,0.1965988211105192,0.017178155221282486,-0.11398015630825943,-0.2545178948940787,0.03552670167038934,0.02059003352805907,0.12317019100008966,-0.03442452894446662,0.09862620648824073,-0.1699067770303026,0.07394664864617498,0.07464065819433549,0.01180944115660298,0.12095116128806672,-0.18639122482456066,0.08047309047385606,0.05013787137260655,-0.004290129949959728,0.1783737149600842,0.12635173837857006,-0.2279020370895683,0.08608835150192144,0.08089776327393979,0.11354399668036233,0.03547146010215876,-0.18623435227026472,-0.18322047610339054,-0.018583680195996693,0.14963785824314987,0.15881056596132218,-0.0759769719262129,0.24203340052797268,0.05080992852035758,-0.06996613515951533,0.21395497253888698,-0.1133277090247832,0.11496414190663529,-0.07531546360858726,-0.0638194003960906,0.23393638995532798,-0.10381824203277285,-0.022046529369979306,-0.2255598875355618,-0.24615221624325245,0.1069999194438773,-0.056543628321293164,0.1266251767867517,0.06987355511926752,0.0342787515836726,-0.002846026055409223,-0.16171041564194122,-0.2222415034703863,-0.23290933771002462,-0.020947319745987635,0.14833764061693874,-0.09390854955959077,0.253762997558345,0.22043724390217492,-0.12285174193807566,0.10562173604726512,-0.15926977089900732,0.10704577101816197,0.05796496780283469,0.12871811129993593,-0.15543019742967742,0.2054139038895699,0.1511406322054964,-0.13431519700169234,-0.08469942353993558,-0.006775512435924828,-0.12114177861574024,-0.15823098964560345,0.06797147316545485,-0.1823004452318507,0.06262262549604034,0.2305992407413548,-0.09797231006345589,0.06103647474318808,-0.16805190099586884,-0.014592862002429203,-0.05053410213160841,-0.25490308008800655,-0.057159039923170785,0.06442189217855526,-0.237166927883421,0.13161495280560745,0.14700869538061548,0.19185132169803232,-0.04299828832255693,0.1734084766719839,0.03468254352098779,-0.2011136607193391,0.22041125860273406,0.16089399375914606,-0.19936326242363792,0.1734273138026625,-0.23051295824029808,0.08440703170729852,-0.014718005225995482,0.22420714866534375,-0.1254809623309334,-0.19448371126832092,0.195078138709461,0.11385006761199923,-0.1274820769531801,-0.051552522064316576,0.04590572724938698,0.1413596365412032,-0.05442458541769652,-0.2551443733930777,0.17725889220879207,-0.144439003435513,-0.12022180025645916,-0.22104194963213894,0.25197727301290146,-0.22302443625754792,0.13972668061802632,0.028553701522145945,-0.19049634870013468,0.06998152956736772,-0.16976834616860575,0.04753681544750666,0.10738752120981615,-0.12115300806314112,-0.16767610129378718,0.11243256750535097,-0.22718274945397526,-0.16497816176929675,-0.12586613020826873,-0.17447807536910698,0.2426765348708276,0.05642788570619962,0.0010053809719606885,-0.20922151715927595,0.14419080256805392,-0.1999778540531364,-0.07064908576767959,-0.00419268917379417,-0.17589180660365308,0.21908756264519685,-0.16912990213706414,0.2545777552032533,-0.11029911997052662,-0.011882581773828504,-0.12366717395237549,0.04256019174367919,-0.18582230589220214,0.1307076854042622,-0.18585667096851827,-0.04567164927336792,0.019074091104158693,0.033772664780699985,-0.13444723441572237,-0.23430948152459097,-0.11383565018322056,0.16027432768009478,0.24759570514305282,0.14981324021764636,-0.08326228991061138,0.24402458691119314,-0.24582380940034068,-0.10152807725384128,-0.19366664553517976,-0.03396702556826146,-0.058285299752104,-0.09851450483872957,-0.19607248648612371,0.043104033456308304,0.01656213247680318,-0.05136105724544842,-0.07765603372691918,0.1481258640355096,-0.07529177997095954,0.2208201438518001,-0.024167747086259538,-0.1779794207265131,-0.020774292468426936,-0.13779531588430918,0.19809115572998343,-0.17593458597139178,-0.029454133139555354,0.0541852111492257,0.17143534174118474,-0.17434785577248196,0.21031489941080028,-0.13907677271073987,0.251834278725617,-0.24819043206030494,0.11793510079158649,0.23113564702044323,-0.25411154937314945,0.010670971187274277,-0.17607921623322853,-0.14766356170021702,0.20732472424090723,-0.12546791816407943,0.18134174847308726,-0.12877018669329565,0.2417305513909355,-0.06694568028457323,0.17550437406950511,-0.013360725189968784,-0.17590587180979653,-0.21095342692695254,0.19457392933880435,-0.1121738203460058,-0.02189465514886658,-0.12832729580728774,-0.1152127805922587,0.02153579703054092,0.25276022196383147,-0.11565460011254454,-0.18328588582346175,-0.14420699002757728,-0.041444902698622305,-0.07953657806913814,0.01978366275228497,0.06344088404505874,0.04308786214634573,0.15571857970370018,0.05380421721854027,-0.13060292561205217,-0.13668563638017178,0.20258792175756574,0.23971502032376094,0.14822214294816002,0.06484186730741243,0.2214622336953427,-0.07755740628533249,0.028440566764523244,-0.22871571659228518,0.21047291636728638,-0.16838604403289587,-0.21967043120670138,-0.0038786283830724534,-0.19646936119133104,-0.14205562971387078,0.16725635014307094,-0.078797796095126,-0.03899868033095017,0.0523975735249081,0.04658300368000935,-0.12380404445656872,0.07998148845396316,-0.16462998464880893,0.09090825819058579,-0.1702408052191639,0.17570834799755355,0.10548268879445104,-0.21160020267804303,-0.012408916452813034,0.06917437321753345,0.07484868715242048,0.15836387645309855,-0.05211703014168088,0.037007073023579286,0.0014279627225257745,0.22094208719257205,-0.04984064765748889,-0.08840360648801646,-0.16476926841664125,-0.093605764747142,-0.18890190078905136,0.007575638601539684,-0.008971123494725362,0.0422052980427638,-0.2293625251395924,-0.17637459551151408,0.1380236037433188,0.01231130353870223,0.11491507735321484,0.06277129626840129,0.025935210572481583,0.21213175344883853,0.13904367803670642,-0.13815137343264283,-0.08436821810036826,0.08465514963384943,0.03332491728696884,0.0897573700287658,0.03578925046803886,0.07646938285442921,-0.2275992786797292,-0.1564060418591753,0.09303608926719062,0.08380996064458578,0.21605994190991637,-0.13383044854629295,0.16108393309446886,0.2050185684976628,0.12196502571786492,-0.007370429880510342,0.08474543417927313,-0.25024928438027705,0.0228382823299014,-0.0928394071780472,-0.24489156942565724,0.22520872273356524,0.16936885105320315,0.09467990227994143,-0.18576468129026572,0.19948075602896273,0.05402702906269415,-0.0024808526315662125,0.07425448302553057,-0.0387416855457474,-0.06603786090124183,0.009871228692713578,-0.07693292630844145,0.10451153992135635,-0.021114009893703347,0.21638328987649044,-0.197824740946202,-0.0781174520867225,0.22247110797118017,-0.17128359907184315,0.2218079993953352,-0.09815070092632507,0.11987606128068755,-0.18404261222426277,0.015742551465267665,-0.24591057839257482,-0.14654198939686477,-0.18063988903032283,0.03517607420417993,0.12889954983763366,-0.11738122259494728,-0.14188744206648998,0.2501593039629389,-0.17226919754447187,0.007170017346417003,0.03415315799059078,0.06622404348352004,0.03986766534211662,0.16317085028139355,-0.2528403708171966,0.01161106183841107,-0.08327526122465036,0.00006231889937516208,-0.2446176641067031,-0.10450048255418172,0.15974584747718715,-0.01968568822872167,-0.026621447451227673,0.06838607745529775,0.07273704845307614,-0.1937739292293538,-0.08563224280158968,-0.19873684308612896,0.15759589320704823,-0.1091339280823602,-0.10049205354875622,0.18587421960677655,-0.12445293598347652,0.08002308526892844,0.05856076555354194,-0.21751148561194752,-0.18965831655127655,-0.09857047984402956,0.2520345015711676,0.1023518583422533,0.11238315027978628,0.09778516115884102,0.11645526688104317,0.21285553843129132,0.054070866263847786,0.2327673328876127,-0.17088657846595182,-0.05048330445433471,-0.2212590522767891,0.0259587215481523,0.04785343069721136,0.09051033503913185,0.1848626731495475,-0.11637472938522994,0.09642498267684535,0.22799633598915006,-0.1306558233663759,0.19548762570498998,-0.046790335564605795,0.2145456961130982,0.12180971781017846,0.20177283775356925,-0.2183222179679456,-0.014531310283526964,0.13966294870125265,-0.05771229592383256,0.15075965687785925,-0.0613604219595696,-0.09180929737597654],[-0.006227499488812325,-0.11367035521277137,0.2236505882952824,0.053317811468522755,-0.04304559914078008,0.056082777485344175,-0.20513804238542108,0.16419084833078523,0.07628271904672071,-0.21306951146912903,-0.18355094743037303,-0.014300436111352552,0.05036239757825924,-0.08751226992126047,0.14505613283027274,-0.137409852498054,0.19583084329736,-0.06695026179550438,-0.19258429755141654,0.06821072724909887,0.02411032797462555,-0.1609247373987716,0.19344317479730583,-0.046171315742058364,-0.18853473954943079,0.21768018691333876,0.19159933304500096,-0.12159904321800032,-0.04016148920203808,-0.0890178933391828,0.05672609949844119,-0.210476722436152,0.07948263471357181,0.069462773684528,-0.057447264025773055,0.013597852804737829,0.0716046724942147,-0.004208607558485585,-0.24527274742344138,0.12127535723379143,0.12708272427410838,0.08947303403432873,0.13295876864435693,0.1627814883695265,-0.08320683298629343,0.1423377511902562,0.04912851561211147,-0.05198869993535101,0.1388755489361514,0.12438050409561296,-0.13094750062266963,-0.0026873991406651306,-0.17145098275084564,-0.24274811544287336,-0.06962509530211886,-0.0035089918836302765,-0.021637068700152653,-0.05470378790269755,0.046502713506034896,0.24564549748564332,-0.0909294675364614,-0.06415562763708069,0.21196639141010304,-0.0914365447302868,0.024295883162726194,0.1479372667415951,0.13195915973307465,0.1824383777305988,-0.11885514647585813,0.16817084129562426,-0.16634214155109722,-0.0633136072805901,-0.017144653285932298,-0.1077623889792046,0.06685514303821917,0.1828394075939242,-0.20434765342762545,-0.07468777838287172,0.20648064799604224,0.14532768784574604,0.08258944442092275,-0.21045105743821135,-0.05800438751743489,0.060993504898242824,-0.21114156640650875,-0.021519569846490942,-0.02351532780781334,-0.03594788942374968,0.03389153340965712,-0.10392838789853487,-0.1776187912746392,-0.004566064549542161,-0.21004200560170638,-0.056690667888018555,0.020038976821482205,-0.18575000995026392,-0.24791618451631078,0.1432370030383349,0.21132218334728817,0.2484628505981718,0.2554178877847937,-0.031837863954249694,-0.07104867376894518,-0.11957808075284726,0.1505561873162108,0.11367808191918444,-0.027763684248170047,0.1911059452561108,0.057892972824879534,-0.04146823068684167,-0.08655356568590836,0.0342545357743311,0.24583442092528973,0.11442082529580822,0.0818895353720459,-0.17970283351844302,-0.21375326085102822,0.037295223294341644,0.22294135486618902,0.15395943630641903,-0.1501495103090709,-0.0750895766218284,0.2099536416190843,-0.1006769243249035,-0.07267850491441138,-0.16994398051851084,0.05304120142233243,-0.06640223709604208,0.2309730915850961,0.23929632934009476,-0.1925058606706025,-0.035379138702800246,0.21655569148601278,0.08772655607614224,0.1570001176681816,-0.1224450086651533,-0.0029381232064512645,-0.024713456169667688,0.2140546578581853,0.059940164199775124,-0.23332869424884106,0.06276479255931433,-0.17991496259093903,0.07883372446122797,-0.2312049725757098,0.17340439477320727,-0.0624930343746866,0.2537468210015185,0.18595283584442127,0.059122755379299806,-0.05248300862640066,0.1815319800239406,0.13839200012752154,-0.15507069722879968,0.11932477883024431,0.23085522149966092,-0.2400923245656945,0.2274126408415554,-0.20542683873762718,-0.08397873830135336,0.07603409899179588,-0.046289002970534406,0.016869861105073988,0.045620761036325196,0.2524715281384436,-0.22788934577116532,-0.1129020028608033,0.05828297527677067,-0.12484248514833726,0.24163146037126806,0.10443579519516391,-0.13185640820122774,0.21238829593036176,0.17192731194453775,0.16914038819286106,0.01192940185158004,-0.05915692869750824,-0.0737355288566096,-0.02816565133401149,0.16575427986457125,0.24963741233559128,-0.16950918236205817,0.1814646724778195,0.23702962720925724,-0.06102760040397555,-0.029615087008933984,0.11205455213932564,0.25174714703411205,-0.21963567998688516,0.026247420540621676,-0.09690635202751369,0.13256027396224987,0.1673073855351748,0.25494414802125126,-0.24786310980275736,0.23860223541139966,-0.24844242418270418,-0.15519757739525683,-0.016089351254305675,0.004105617597150201,-0.22019633736851404,-0.2274954028759254,0.1351584562211744,0.05199325003562238,0.239646712342033,-0.15305765348911324,-0.005236243102791116,0.04939032999970107,-0.020784943915669617,-0.002419191028311379,0.1858896569498994,-0.10626156648232082,-0.25302566141664956,0.14122511334852622,0.004734190035255715,0.03919611776099539,0.10711670096128363,-0.08114760015192146,0.1609644112515775,0.23544447610222197,0.2264849783812158,-0.024619784778699264,-0.1132636509287969,-0.20805284132569152,-0.15319027837908616,-0.20907646422993637,-0.007354431701348265,0.239946729499688,0.21654591589090616,0.18973437358104103,0.14078581126141135,0.0021662838677539657,0.17763518106510734,0.012323902485341032,-0.05238342266822998,-0.13283821697662127,-0.1908096098519305,-0.031157458102676165,-0.23118033304392863,0.004740335836194628,0.10514269500995597,0.08837336972077005,0.21867705081859604,0.17365957666489987,-0.24475822339736047,-0.24348230904775184,0.22853273655180084,0.252257976362543,0.12767530759880535,-0.08632032917219924,0.07919123773846956,-0.19991847377336872,-0.24379637239879576,0.03282165052526567,-0.08004358939251459,-0.10652274373359619,-0.029466904480885316,-0.01653947672951155,0.19513181532198476,0.11711837430157719,0.16311274034159978,-0.21275520278522042,-0.13290258409809474,0.10891220379668246,0.24394990403830022,0.183219511043104,-0.22048444442408674,0.24662575496279737,0.11649990835623901,0.002090082045464344,-0.22465841403506967,0.14493917763288963,0.1475978234876766,-0.09916433944676954,0.06407411560548364,0.08157909954617831,-0.23827444571383058,0.17881921871742787,0.02665513879436037,0.17900337470277286,0.11899495632630346,0.06823848190992347,-0.2219659002553951,0.029210853679961405,-0.23535178884076943,0.08625286016211704,-0.07138633539353416,-0.17747193225755725,0.21284005564765365,0.08344178719499006,-0.02464573413036342,0.2107686338160591,0.1959631539195952,-0.19453518577041604,-0.11843605603014772,-0.2553893762340085,0.17020219529322833,-0.1374491921243917,-0.22473348546937982,-0.20843169965822606,-0.010822243151879192,0.07040961396896435,-0.22382371866459627,-0.03425981076329479,-0.15567805905612253,0.057228097965599016,0.14604293305211355,0.11964979708593021,-0.0311451579917396,0.12373123656689236,0.1437176516639274,0.02951000598909773,0.13210481045319877,0.12216134385074391,0.19849319664975318,-0.0815746871971217,-0.0983150556052321,-0.1900592304518836,0.052284097248812555,0.08801394448585223,-0.22818309475740237,-0.20994880628326765,0.08874289917228338,-0.21388554235808718,0.09986398845076273,-0.13019470624403537,-0.12130912658424416,-0.17061297139657258,-0.09517068101476313,0.01875253973297898,-0.13725662334939961,0.24087430184077802,0.03362157842187473,-0.21562547174181199,-0.19814776345535992,0.07569428038500654,0.19012400809448474,-0.0486195583822236,-0.005446872988316542,-0.11315866444062925,0.16582316511185957,0.08338607262787971,-0.046691648155000806,0.24061948824746973,-0.21594270075451566,-0.1874596626866776,0.006613863551254628,-0.11218570596010582,0.19332821020553767,0.1827314855916288,0.00014294800400241738,-0.05814208220556677,-0.07824940635141205,-0.062413859819258025,-0.24630624050161484,0.050436364125165487,-0.0821067756280699,-0.11260552956115571,-0.10783164440316259,0.04150507045760265,-0.21196793529368022,-0.19636067848351518,0.11839605409135075,-0.050916893621316614,-0.10435740952220082,0.13683741986108658,0.2083080500101456,-0.14582244519159385,0.10591872870582755,0.09691538361625969,-0.08173301021481781,0.08205979815070666,-0.22075458478706173,-0.21920322839283132,-0.17782856007289435,0.06593231114303158,-0.24589502610771952,-0.10087444367175294,0.07020332038368016,-0.19040559186143316,-0.09573896231086705,-0.010794440227338971,-0.17632179675189535,-0.19445896378340696,-0.01715819489257965,-0.17575670014077727,0.07440798650488534,-0.2413171780026669,0.2204811791097282,0.07352526462416589,0.18551615256552484,0.15085815595863095,-0.034138409682702264,0.0945216529950212,0.20592969022315163,-0.23811468605573213,-0.028862756836366008,-0.13337600194844554,0.1825281814324549,-0.21539705474941132],[-0.020764859042246904,0.12583783359576706,0.19171709747549937,0.19213100580803918,0.06448558595752409,-0.23301232998875585,0.08603782272343274,0.1494085432178837,-0.21499461225267952,-0.17032737156308123,-0.10072558865385976,-0.1324103318860944,0.07202200579050759,-0.10098006985441356,0.17706177241660429,-0.22285630068443646,-0.17974610785600906,-0.17270678923884672,-0.05899930615409085,-0.020157702468479356,0.05579545307588538,-0.012095729051670737,-0.12362969787560943,0.055790454351714064,-0.09137750165154089,0.18588832926130142,0.15092347967794983,0.21874728326062026,-0.05336623140645905,-0.12796242694861587,-0.09211984736989341,-0.1418265815782199,0.22227151106686252,-0.23939040482117552,0.1532030304749153,0.24373407217067294,-0.18565602479989574,-0.13669587173002493,0.23517254990792213,0.026983102337745975,0.09009133463528748,0.23691301077508947,0.11990643389241509,0.11754993914689296,0.0950612097802435,-0.21024100139591959,0.1429763764358888,-0.04322592997364251,0.1917162655011189,-0.2327729915145784,-0.1626719173065159,-0.08828013054514754,0.20566191164275907,0.07267826474677302,0.09687448641806827,0.09742301606597947,0.19219137504308256,0.011377028602139442,-0.042143945649551255,-0.05520107487779581,0.19515506486606493,-0.12601627096372908,-0.24015551800272036,0.04075951007692702,-0.25013971283695613,-0.018857927691784647,-0.03604779562561401,-0.14367010804328598,0.17857564095976844,0.07333555897187029,-0.03191226872114148,0.09263367276725744,0.00753197530809792,0.1926307583246187,-0.17094234781014245,-0.18402771958741118,0.019367997017504253,-0.0614196085604016,-0.15723122880963877,-0.024169067501963053,-0.07369763734518646,-0.24252806756100273,-0.02530502981062598,-0.18316710230597943,0.1267889172828437,-0.10081294216790938,-0.1786224793951604,0.19683961483984072,-0.13197298086820655,-0.16869423515219203,-0.12426350514164776,0.09494656300214543,-0.22822826882878414,0.04043620138452601,0.05440464584967164,-0.1666580051064655,-0.03153458646002227,0.10853470604950428,-0.017979773337746703,0.21994336297697964,-0.23926564219779892,-0.14224731575380778,0.04269418461936258,-0.18293595437129787,-0.021142006484566753,0.14452067757715853,-0.08746356556832931,-0.12350807499883741,-0.1371852759496541,0.10282064298601026,-0.22851544006025323,0.04489383969857839,0.05768513673345502,0.22899976684821552,-0.190540715232089,0.18307651289041876,0.186828492678013,0.18114035227391087,-0.12896833650085682,-0.09195990417654275,0.22344548870659217,-0.11662808894389945,-0.0013682081061869946,-0.14442374182398868,0.14649257805584703,-0.11560007941032932,0.07893886019387164,-0.016539214857710025,-0.1460131378805626,0.22425209164097887,0.14567198561664682,-0.05153679481940179,-0.21954113962184155,0.17130002798064375,-0.0017129033889643009,0.14423253930417804,0.08800418266755279,0.08262326505419648,0.2502645877328597,0.08888172962889401,-0.19167581761824487,0.17864366237123247,-0.021922435150404672,-0.09003874780215769,-0.10288956606779957,0.1363503058074094,-0.08760573966432919,-0.23889892461630535,0.03442337884093353,-0.11982346563030709,-0.08062973959135022,0.158608378830287,-0.2156002065582783,-0.14965167715450103,-0.05291006345449788,0.0738188600315059,-0.045916628090059385,-0.2279134254866355,-0.07115835875728016,0.2534319328809678,0.053398173039323954,-0.010946369149140468,-0.012186034680301746,0.06935088676148898,0.011245751534746525,-0.06533799625277495,-0.013574549041251894,-0.22936305728885156,-0.09891472135664504,0.19929496904442145,0.2102928834376361,-0.043624396561266564,-0.1986844115600607,0.2043151893082578,-0.13774129405713145,-0.03544484391744307,0.20650932958561022,0.20074827437572954,-0.22877558650214772,0.02064728530199132,0.16183257859076774,0.0011754342682866422,0.000523397669440946,0.1531850074798523,-0.1111401619971,-0.19312186396238226,0.16265596148039546,-0.13044345434479607,0.1395338036506272,-0.047106354476550906,0.11666665595873371,0.23509214267121026,-0.18883099426692274,-0.17624028331877273,-0.2401780727819074,0.007488059291033352,0.2488670707805667,0.20402377137950067,0.11592892530142222,-0.2180534348588521,-0.058008358212579714,0.15639599493522335,0.24322873006523182,-0.10273483572704384,-0.10841536135994122,-0.06098109934866321,-0.18558414866360862,0.13338056404163623,0.12393912413344177,-0.010174632896555203,-0.02822279853563974,0.23378586813935184,-0.19977662836996052,-0.09153186494850395,0.2108914288613274,-0.05320047067094174,-0.11434671232011286,-0.12659297177395434,-0.03353275267670281,0.040441236540654894,0.08169467005298674,-0.12238531282261175,-0.19684971303738927,0.08293361034977062,0.019653177196756615,-0.106928519187946,-0.16408850506271025,-0.1633787876752796,0.16089867273526484,-0.03573084190198896,-0.10624887205058002,0.18294934976080565,-0.09824391553487878,0.17798271752283998,0.015264596849007063,-0.09217490942064276,-0.08543206960767621,-0.21016179704259735,0.20375120867653593,0.20027188932561024,-0.19713789038435459,-0.12084289518350666,0.22711888164455757,-0.14908423789149103,0.2417635081170938,-0.0626970194025799,-0.04946661210215434,-0.081543246109709,-0.009983744694666438,-0.24657191600930814,0.09128062798196361,-0.018291196178171504,0.20533428572316748,-0.08897644537390922,0.18008948107711326,0.18387543386790076,0.19226819644766524,-0.1567950633441988,-0.05493313653033733,0.009263499750600966,0.19058291232915373,-0.12134108158586451,0.2176333128173538,-0.10780152978046288,0.05426572282625533,0.1387442915289154,-0.1348081390173017,-0.21416297478588184,0.18499557286794802,-0.118847447148422,0.1902579343567074,-0.14809903827585863,-0.09486707826993118,0.046313885841031834,-0.22713990381999144,-0.22995655021344086,-0.11301588887330942,0.08126147915906877,0.11605875225946945,0.22196193578981663,-0.2088012148082218,-0.08425246705198446,-0.03898810724352236,0.07250018764759816,0.0852923939591145,0.1471227845599457,0.1183529844857498,-0.1433045420762351,-0.13421136468194889,-0.0842196004826269,-0.22704833981746936,-0.04286730136849587,0.021169751173870106,-0.10118009494228866,0.048838763440433884,0.02734848089635063,-0.2505184782184069,-0.08719917957868459,-0.036958475431844565,0.056152412187267214,-0.006048337070117521,0.1898258054797163,-0.0224410061106104,-0.027597848277112775,0.1283418075087308,0.22568335541443904,-0.1351414988005662,-0.06075806273850724,-0.006716932808065329,-0.1853460457756875,0.11858473237378969,0.08104665459999756,0.09387649527855649,0.020483584737221432,0.05931563084178036,-0.11680446950812286,0.10583592805348006,-0.04354493766826434,-0.015321970808001326,-0.030412557673247586,0.07673219041643164,-0.2169671095125175,-0.04783903642451456,-0.22046313528137976,0.12931424191052363,0.18388908472378995,0.14158898054917804,-0.10442936442613213,0.1468592182474354,0.16829605203972894,0.10089186982753778,0.02027443929376258,-0.2483425205417262,0.20134899275216342,0.1924932383196674,-0.1818491942370182,0.20839158749768694,-0.01780956645284695,-0.2154644427907655,0.215470854408675,0.2519735102571055,-0.010768361608117914,-0.08693589129179274,0.2096923182932147,-0.13956402627802394,-0.1848894083488573,0.024287607931353112,0.03702470825751815,0.21296476460320934,0.12592654742843976,0.20442771380426014,0.015602073474845263,-0.24675263568689082,-0.10917071047532392,0.17757538129280964,0.14087931384232127,-0.11896516222246474,-0.18085018207988648,-0.2390032759650546,0.11850594007459615,0.005422830027724083,-0.23873096772505067,-0.22970607637116033,-0.18742913143374043,0.11786128874981858,-0.2103612340058857,0.1369662584313125,-0.026705356797076578,-0.13687101222612785,0.13900468236004065,0.12041052366405686,0.13426948255381646,0.10214645982715505,0.13563304153123734,0.08706236063972672,-0.2307320347040618,-0.19264805526980913,0.11609806746546769,-0.06080290520904275,0.1258619065307457,-0.09183928247349961,0.022154543385623917,-0.2144717923890194,0.09380842728821207,-0.004829801456600988,-0.14245959288015747,0.22377523741648322,-0.06896622109590367,-0.19793242674780318,-0.25024547520055657,0.02404567268338057,0.05668542690627053,-0.20749996708747892,0.21103340316285565,0.13745548532668816,0.007311171877496767,0.03470033985329327,0.16979180333608807,0.04135723804264636,-0.18027705935994473],[0.00410101519826611,-0.2210780583627322,0.15827006652729772,0.20696150243683592,0.12557123029440764,-0.1397783284728853,0.03602596286145476,-0.13158066122287024,0.19056449741023518,-0.0950437969364375,0.11067802916872067,-0.003196188010483181,0.23761235885970478,-0.23136618306871104,0.07060264591039751,-0.19246207549230027,-0.11738434091615559,0.05963170534612385,0.1436089842680261,0.1654886436726794,-0.1347465248812485,-0.0000036263468685906124,-0.11374970225856947,0.25128350863349175,0.05361392566287158,0.17264931412457268,-0.1766413846332067,-0.13168919779589125,-0.20093032437004163,0.161764947731083,0.013103489713898485,-0.07133105031735308,0.05358818378064198,-0.16483591066891293,-0.23651355397072493,0.19108061683100017,-0.1928532534543796,-0.05295543741950722,0.07294874368573635,0.07965040136626968,-0.044420491030828374,-0.22440826925041596,0.09634130765632838,0.2410031093359894,-0.2137529095925756,-0.23085190468186215,-0.036215999505205924,-0.007833861112031543,-0.23994369928802856,-0.21992117706734532,0.253471243133975,-0.03855217796269105,-0.1073152836209467,0.17939153481508482,0.11571631102217458,0.013751228039172394,0.028825494349171914,-0.12139232421770829,-0.022192793387497425,0.1309260978818348,0.15751077076999576,0.13518249325767615,-0.18225422735259966,0.1060690090070034,0.02441454795687341,-0.2287598990770875,-0.007351402374152702,0.16090689816465678,0.0862311281372161,-0.16899313851625886,-0.24831431325177933,0.013038589921544575,-0.16519324574968794,0.06390619807686576,0.04080755084659138,-0.1384069085447344,-0.1520872144689996,0.1552603976730241,-0.23134730263709705,0.2253357339096939,0.17172999036012399,-0.08234299568132772,0.14296879640114674,0.09267533351614457,-0.07185200830515222,-0.25455327651991694,-0.15510851258924374,-0.14536243859803846,0.14043635156626705,-0.05574522750636708,0.22936717496774978,-0.23856637733857866,-0.14455506688041572,-0.07675030752563326,0.2333212559027536,-0.00769482019680394,-0.16413172299243892,0.2367404419115925,-0.016366468890022388,0.2510139154119099,0.05792866172650702,-0.0031983527561344535,0.11941020640294338,0.2330391463857328,0.035261276735689066,0.23974024579073053,-0.16172551543004454,-0.09885057004302789,-0.05576490947120606,0.04983123465189964,0.1672913877053861,0.13737886887313305,-0.14537323233564015,0.010880383726586108,-0.10331813277594813,0.22872392222536853,0.1601996307297975,-0.04755912260021153,-0.22032637977716346,0.15694924003052205,-0.20641338093693123,0.20879788968626925,-0.15981142550469254,-0.16298182690355936,0.08713685424957299,-0.20186080556175404,0.17142259793870582,-0.2288997753468227,-0.14846360791942861,-0.20467969025637844,0.09592289028991134,0.07792217915649352,0.23154621548090804,0.2183862871389794,0.19128659839234152,0.14969316309442915,0.0012101980342884083,-0.06394553195461397,0.10752806287425026,-0.06715137406711667,-0.05260562904789267,0.12133489597236206,-0.07184051809968606,0.06989080884294198,-0.15920191729371136,-0.13372066485320994,-0.24088605792179466,0.18483484912999917,-0.13623067374845865,0.24547739877680233,-0.22602370717240075,-0.20854258381808505,-0.23097356136852512,-0.1800234795376961,0.23669755994207167,-0.18845155531877583,0.18710282117899962,0.09521544060828199,-0.1734219771826048,-0.2527145364355204,-0.13149801268808073,0.12397177068116186,0.06416033168858808,-0.07669979228212558,0.22837208329935216,0.12831725672572275,-0.2308862963303944,0.17455998405123935,-0.025709852553845874,0.21312629986716217,0.12173667356696127,-0.17084916154744367,0.23842634176269234,0.23489401873487406,0.21051942062425827,0.0965337472699789,-0.03620094331032638,-0.1877026219138986,-0.06440091260325106,0.009628516479651865,0.10866067748547166,-0.2504952856171065,-0.2424522180985901,-0.06840389448002872,0.07877971577514901,-0.015791265792465464,0.12398921406032146,0.05498439581328617,-0.14542778531630127,0.10130101943124989,0.1866373975222213,0.0776727831443762,-0.022690332984137276,0.016015756751814086,-0.09871937560908833,0.01898345234871216,-0.1824991077396943,-0.0501996290475209,-0.012459721130426267,-0.016497428832336042,-0.07271417951758909,-0.1463477459299567,0.21009166271730007,-0.085504922759721,0.10696021485589338,-0.02691623703360331,-0.22691615230818218,0.09289759480410767,0.10510174307148436,0.16940049936326884,-0.059429139846102166,-0.0548302538793263,-0.18982883205560303,-0.1151864230683662,0.13262480874724455,0.03378332106572647,-0.06307096449194526,-0.027694093382465573,-0.19250293508148666,-0.09635113328869757,-0.12163958102258972,-0.08087870077224485,-0.1827432819076297,-0.04892995707630962,-0.16232604207682724,0.07274494837849325,0.10551813728046537,-0.10285358334926695,-0.2472536763906893,0.033362651262606825,-0.23219900621641532,0.12971272566269068,-0.01802419122630093,0.008775992105700332,-0.03725170213864966,0.09900115750581423,-0.22789548274137889,-0.21597295560397534,-0.20750204231179795,0.07807091629659466,-0.10587806809529424,0.23991936518609014,0.008873865790463122,0.22079043582808153,0.12922063749281013,0.04699641904128475,-0.19194026660421826,0.15115700701742935,-0.0034101165850165824,0.08792577578765433,0.007816071580500222,0.07205182617787012,-0.0752166243678092,-0.15167472467613266,-0.0018240563606817576,0.03223620577526308,0.06623725273658741,-0.09486686514542178,-0.2494695332385567,0.00616783197609033,0.2260054174019062,0.06847120689242958,0.25309725150970397,-0.13790362233237857,0.15796312846455343,0.1790810882236597,0.19911547540475974,0.07075673053531728,0.03344721972878579,-0.21685603589131375,-0.19472101304473205,0.030449954989969667,0.06959596819502639,-0.06720592954937327,0.1792230741729996,0.19098453616483663,-0.09805510194041037,0.08836639137359795,0.2530338805862289,-0.0773720985747528,-0.06775401875386582,-0.21090956797865937,0.21099558443885158,0.12958671767352128,-0.20708839358357303,-0.1920973068266142,0.2529047591427146,-0.13664059147969654,-0.23948254536504326,0.1751205395333513,-0.0106027469961244,-0.01327317149285321,0.22000088700061654,0.17625177064649938,-0.14717746973595994,-0.016588577389544553,0.09378821472205515,0.18369962309082793,0.14121279699390216,-0.09582631055823475,-0.18462472830348106,-0.07584762747435853,-0.08597557391128799,-0.07674243984268796,-0.24685364164067664,-0.19738060993371345,0.027585121351471696,-0.08850172831641409,0.22058368200184528,0.21791514561040015,0.12536640315867828,0.25162977840966394,-0.05136370159365486,0.17333451807411934,-0.09183706546587501,-0.019786672320532283,0.153097698027049,0.15851084810830654,0.06839278823692282,-0.04799529168480192,-0.06769566328698289,-0.1331964430464566,-0.11341867420169907,-0.25538619564680176,0.08545052380199593,0.25432197607938206,0.06964110691402489,0.2056390375751136,-0.019736866826571428,-0.221818758049202,-0.08244558191880383,0.20665802534022074,-0.09862307141926763,-0.10370096313077987,-0.24827309638334083,0.03104098642706061,-0.026443690956505592,0.21719530577971718,0.02412630713613317,-0.16466058370800354,-0.12063969715573489,-0.1914709288914473,-0.253680759077018,-0.01334495777019978,-0.07139505164274779,0.08282997723303494,-0.24192214289010452,-0.05715740586768086,0.1303081530856863,-0.017016906895677,-0.22405198937842358,-0.06748473734503067,0.1765095228856373,-0.06576839136656203,-0.24906977215910814,0.11155153903087267,-0.08054831908838216,-0.16262036790827109,-0.2308511980908899,0.07095411678126949,0.009770333341258416,0.14905491619790245,0.003322641545688764,0.1738796686471513,-0.1924220727546061,-0.1278946513792614,-0.2077299883699837,-0.23148890111918702,-0.13838726145188515,-0.11381423281947935,0.1991180784895081,0.14133536196306437,0.13634787362525258,0.02097331130744038,-0.22885752051358035,-0.1001801925229512,0.06683008122270528,-0.010251655180357134,-0.21490324757156842,0.07257152794936561,-0.056822356650785326,-0.14701376297417662,-0.19288812484425424,0.035090296295564705,-0.12868465674898313,0.06757987500118315,0.17115393139227758,-0.06494707466189502,0.06890725978735031,-0.11460018316542323,-0.030027158639217556,0.178575359343243,-0.2240195936166664,-0.10506594426926334,-0.11261831401584428,0.16692318843417964,-0.12513517266606244,0.18033665395602427,0.004748152451504985,-0.13704412933960997],[0.19206906340740698,0.18517649460168778,-0.1565533108897545,-0.1217390028266612,-0.24466161893509036,0.14895604470911128,0.05039495453913077,0.0033904938920075356,0.22999239834541224,-0.18937161657189738,0.1985908602977045,0.20780543230305304,0.1390870686511308,0.10844938279203996,0.15578520865681986,-0.19788216554148913,-0.0674953906088225,-0.0015625857094690317,0.044934267385711865,-0.1714710362483037,0.16888701180624344,-0.22553891425275227,-0.10370641239434648,-0.24533727856149137,0.2536387241953223,0.16013280056188994,-0.22208957037883514,-0.1122490649922642,-0.07824635797242131,-0.025945212003621182,0.18187323974636277,0.23924806523461545,-0.06369980563467563,-0.1719977414648353,-0.17972649501918614,0.1405790123049935,-0.11725439358813618,-0.0010662836290807702,-0.1022003834637884,-0.06771231611069688,-0.006727592527124064,0.11984960954969304,0.12227968958204975,-0.10154976288942234,-0.22253825515242043,0.24142769224285873,-0.05408896745960334,-0.059788656592778586,0.12030106977869462,0.21565324523130877,0.10887914824756234,0.029311324606343864,0.17754812428168804,0.08604923234647431,-0.21210976429689857,-0.09788579878464751,0.04031401937512798,0.05358946559376858,0.24803567406078683,-0.14341534539843823,-0.06490006442106666,-0.2052119005101904,0.10487926481303932,0.17734155429091467,-0.11435132696493568,-0.10964627862145458,-0.19090084868566795,0.07485938397431798,0.24311823647538902,-0.11977280687608181,-0.2554509802980105,-0.1500529588909206,0.011952843253488348,-0.22748551009218432,-0.05786471540450087,-0.13490418482267263,0.07706438793987984,0.06774512300347882,-0.08539437237380589,0.01789765454762787,-0.10978297395909085,-0.10441434188739683,-0.031343499596574564,-0.22121006713181585,-0.0334073221769329,0.1978451897525932,-0.19237177664599087,-0.09488667738239999,-0.09550787056987027,-0.20858626012614426,0.0457423908404446,-0.20965269560619923,-0.027049781479406083,0.10601680797986682,-0.06122112707515687,0.2082630087013037,-0.07265008122425416,-0.024356781432358327,0.04080496262205463,0.06733282941929312,-0.09964502567523148,-0.2180996441558284,-0.12451149455253252,0.21427980195519244,0.0400987148763299,-0.24936644164913904,0.042622327864183435,-0.1576132110951181,0.24868523065819326,0.011976127074931618,0.23262016048372328,0.044286698937420044,0.1808892452037945,0.16854936410965557,0.030749246176857578,0.21091364189092768,0.12412573871135192,0.186022778960759,-0.17655694543413475,-0.17687767866857912,-0.0921747104905368,0.11997263273245971,0.2290640887816648,0.2150320834773229,0.002817097444312911,-0.11436218759224878,0.15419437570098418,0.0966776609005504,0.19713732514349389,-0.1385895821454953,-0.24531069987938425,-0.05932886615591377,-0.006746466668265304,0.10810396700634413,-0.16514429444895412,-0.12298454512653326,-0.24811180119219264,0.037819986629266694,-0.1827355619037553,-0.04582844453643215,-0.04086769585897995,-0.25529658927943083,-0.11755706909520472,-0.19806991989634498,-0.16540987055809622,0.020619055186527693,0.1978745795281939,0.1009378874980063,-0.19357975823229429,0.14180111166791248,0.04116091297192971,-0.07835429937171047,0.16623346056849325,0.15152450180332291,0.12630045591589661,-0.06724804906484463,0.06777569393463123,0.058035704758982384,-0.11668077744660355,0.05019017438244091,0.13046835309150767,0.18515852416467898,0.001810185952025244,-0.2215450455927738,0.0020149275920916814,0.0872990709117884,0.03896369462894889,-0.22527603368738977,0.13178232154326533,0.13248028275784784,0.25561424678662337,-0.13580842391837633,-0.07000961740089087,-0.027987980844743035,-0.143960615345979,0.24095267591901248,0.16349898952715466,-0.047126664332633704,-0.06932632555743991,0.18007590449297492,-0.12322721691860283,-0.13719409535926616,0.20721908181334708,-0.2236490854938971,0.11753598661200708,-0.15555881254436515,0.023891995828321164,-0.102642303848629,-0.010855781151548161,0.220460039424504,0.10345494328148805,0.0012870972455284269,0.06618968255593616,0.0850663334305464,-0.20694470407138382,-0.2310554676729022,-0.11205138012163864,0.1626380271823825,-0.21176653390905967,-0.162899150955896,-0.2203793126894875,0.11280390154492563,0.13589936587013296,0.17659843179378393,0.08513236355245897,-0.09255528839929038,0.23058689983693037,-0.19933338748261076,0.04260551565789333,0.10397750325277783,-0.1670812896513428,0.07281837135000675,-0.01253521751894752,-0.02921421514093635,0.23885984862415124,-0.006519794124551016,-0.07500163924911904,0.13175330990826575,-0.011492491339073757,0.09028550806765946,-0.19611293611119876,-0.08906979453793579,0.2030311409865307,0.06789186156960063,-0.08451115778149616,-0.1449972640068119,-0.11285059992640435,-0.11885112928311786,0.23696701886206958,0.11593090275054785,-0.05771929432943444,0.09740091382936131,0.0559083804527629,0.190122150436207,0.1700868110584032,0.07005509274830606,-0.1367187885769034,-0.2387824440420477,0.043797261266358856,0.13970582334555598,0.11129532998585305,-0.156028633907809,0.17013609835386787,-0.1285458727847054,0.1671526360094281,0.10635066793117275,0.22727721651119878,-0.014028727817488196,-0.24473636033023818,0.12803134767150579,-0.0791116148621759,-0.012885706457461791,0.038011024998517204,-0.24024245121857332,0.15340397206609166,-0.2239301291619155,-0.22728164554976757,-0.17511504169315575,-0.1383425398224586,-0.02130775242937637,0.010758978800291431,-0.11001739501242216,-0.07797284541094977,-0.15113420891690332,-0.16255999359827175,-0.1848245294672195,0.05101942351254542,-0.22295611668231016,0.14878023552381364,0.19126641786076104,-0.01443466639360336,-0.054540057593563444,-0.1772430297362454,-0.02109121269409268,0.22428101032040493,0.02813601677812552,-0.09443847220802508,-0.05897189056942767,-0.1367869613855481,0.010824820979410196,0.15022203266616943,0.17122955127229028,-0.23447048094877512,-0.18564919705186705,0.006989425123880889,-0.1479193471127875,-0.19520994395602673,-0.19078876852884505,0.20201069404797412,-0.012199572332313877,0.14997173128739574,-0.1167151613479511,0.1102143566595191,-0.21686453238236542,0.035789526901433395,0.21711319826311903,0.11048341773982208,-0.21502464201039148,-0.10560306460499323,-0.18029267487030348,0.1637086508513638,0.18488886529947443,-0.008446883875047629,-0.25408278772792764,-0.03773770854194963,-0.060445003539722215,0.02112347504656407,-0.06469888335311472,0.2401505650087855,0.13992079067883612,0.2107038714951217,0.059883580868552284,0.01651258537792108,0.23104855093760726,-0.055493374807928604,-0.2516633826292757,-0.1142327719567545,0.2533743965164514,0.20139066384971685,0.10709467627930255,0.2347588331350708,-0.19035076327633582,0.22434449999115946,0.120541904708298,-0.1501823143747497,0.08298902457517165,0.12960075885252806,0.0035983860529237095,-0.14119802021034059,-0.18581256420184916,-0.12225810003803399,0.16423346066030906,-0.007785424713042813,-0.16023569594019588,-0.01613512256545261,-0.11058538705652772,-0.12370079167568299,-0.06145453333630379,0.10036351121030937,0.07257034887031878,0.00378965696007756,0.12591476062607412,0.014008223156975788,-0.0343079857665828,0.18321637497855264,0.23127934257036858,0.05809192158851162,0.2209068505136819,0.17863373678210068,0.004835994034106834,-0.007098657565409503,-0.038479257531505946,-0.20542060854222902,-0.2521838097564064,0.1973452336757715,0.23048841925174499,-0.1287034614922307,0.0967341787000079,-0.08034964836684906,0.09331455641719878,0.1960032812744058,0.02082084302170203,-0.07101411486336308,0.17723084381784623,0.10150897309968523,-0.20706848637034317,-0.2050518386141266,-0.09002811041710207,-0.10890373310077392,-0.17436033208546273,-0.0738599748025485,-0.16866229905698352,0.13436234968999822,-0.24266832820409184,-0.21977745446637234,-0.16619945282534568,0.19172910567005585,0.06094728470954374,0.04627824876316921,-0.24017373742305462,-0.24162031027941205,-0.03262938548832633,-0.22500010048981986,0.06642223208720836,-0.035225787659281596,-0.09649114616614353,-0.001222648324645351,-0.1812439635180199,0.1805398560214363,-0.11676258650825438,-0.21662743814275248,0.1853431038237477,0.0965264754154667,0.050871173786620184,-0.04443435190673543,0.24848580718758073,-0.21258435308820048,-0.2040085451229598,0.19808183569191498,-0.08961988212120706],[-0.171583135463093,0.2387867225325944,0.22969178081103472,-0.026273911176062908,0.017609806968627677,-0.08327215833654,0.014321098976958678,-0.227595090059049,0.06493135245038399,-0.08507826086317581,-0.19626956109595894,0.01974796903943086,-0.19788356075179564,0.18497027044418624,-0.2326906758921086,0.07215469589951745,-0.19534479130128854,-0.20184103527112335,-0.25054032622067157,0.21187547727928488,0.1636301506090576,-0.2217727719246727,0.04642575913759909,-0.03350410497483673,-0.10431096811763142,0.12226181888590698,0.24346887866027883,-0.01670264377565516,0.10254877590831812,-0.1171526246738699,0.08578181487898377,-0.07036619954855955,-0.14915784355953207,-0.13818727910420414,-0.1440430426480101,-0.06491277351669353,-0.17132828584439294,-0.05801285509883555,0.060154935063778066,-0.10149488376495402,-0.17828577618879005,0.18389412753351708,0.1129899286360378,0.2461900527687154,-0.15354511891654246,-0.25443637684093656,0.14303034393930134,0.03907209883037237,0.17318784447806854,0.007562753272655239,0.122717822189716,0.009241222726836928,0.1985513002883835,0.15378754851754936,-0.060943029772088396,0.005084792068793365,-0.1826029053168394,0.16722904442867806,0.03604886309647892,0.014474279130027683,0.20047775376507984,-0.2340365643745242,-0.23782163982050905,-0.22605450650053663,0.15394980192356428,0.2556992599267219,0.05661553808868983,-0.028833685132851866,0.2160324282955599,0.2335358430960457,0.19924129523919554,0.06399482695548699,0.1349291301935336,-0.1263952898035207,0.1441360649725588,-0.12913323680836372,-0.23906627150261994,0.1472098698366237,0.09883446308293517,-0.011565704577458365,0.0772184242239831,-0.10281677732080725,0.19748075727308295,0.11501075999397156,-0.18079314030199525,-0.017006406578360646,0.01683963160014232,-0.22684707080352373,0.06435644386802453,-0.1995474401456055,-0.15490879437316407,-0.22768239071066165,0.19169963468952103,-0.20885823488639374,0.22664090249235133,0.025312388452347522,-0.19871907041928444,0.11828548333442897,0.06501872149766144,-0.07165924944216615,0.19622386067472727,0.14912450858244417,0.15230282064404946,-0.24014170636713036,0.2500522612926192,0.02944871369246889,0.13125008501174507,0.09695820554036666,0.11889957706661344,0.0019421019072618142,-0.14414806445387676,-0.047128729834125964,0.2552836923851106,-0.005382185605113297,0.235092954903448,-0.025948167574827787,-0.19225449916425333,0.190766358978388,-0.24070479075742476,-0.148615842414598,0.042958574280598585,-0.09691775498862841,-0.16933266301293612,-0.12353893256777732,-0.1438859773574386,-0.12137817249569462,0.20150392842466752,0.2392406177065772,0.1422908639390502,0.19157510062626698,0.0011313638704934382,-0.1251063550850159,0.16311856890256335,0.015669999459919134,0.10754524271485931,0.020709909545700213,0.12546096641043986,0.15237867035428845,0.14952339683335084,-0.21025259174698208,-0.10369774959888999,-0.05831342001452725,0.07873172864629394,-0.05653259481054585,0.10700423335308357,0.06149014970061534,-0.025010731991556522,-0.2147919414453909,0.05192958732637682,-0.2183785780070397,-0.10964988372337091,0.1971003545777249,0.15139472494144943,-0.21707471683114377,0.06748288388451873,-0.012769839425129614,-0.25586778525976095,-0.1342891302477427,0.06821925341606014,0.09072343839992246,0.2477885548680904,-0.18992217242505216,-0.20054989496811043,0.010299696521322925,-0.25259743792621925,-0.14505535639824693,-0.04785993454381319,0.021798470714301743,-0.2529221573959332,0.2543461463300329,-0.10074345155979761,0.229292424445833,0.03213200770572325,-0.04437664199705615,-0.03259178933823417,-0.18606666994528132,-0.14221005900680844,-0.2477662772175672,0.025390568698951135,-0.02845410047156529,0.2292601956714375,0.1353344549114902,-0.08576614839665643,0.10323259454329835,0.004179181253164151,-0.10177136723393251,-0.23954228319897172,0.054320676838345815,0.1953977022465411,-0.11396477573746151,0.02110929744992427,0.17069488370885896,-0.21058945631858356,0.0854191901962942,-0.23710097277794645,-0.14936503733540088,-0.2189474722095391,0.12190614770326313,-0.13957000257793417,0.07964385602349473,0.17331590725832383,0.1396422649233817,0.2443945678046914,-0.07979453684870597,0.14330074003444268,0.24961593498427045,-0.23086054847050633,-0.1863020344287856,-0.012255488527695651,-0.03799296883052724,-0.24089899182866692,-0.238983324747285,0.12202245279560182,-0.1665704776909499,0.08138390096005439,-0.09409984592698006,-0.1014920150878979,0.03496696927069763,-0.14132228720494805,-0.07999280789755507,0.13882279626996147,-0.14532231184372724,0.09879430269905191,-0.15596512145547967,-0.10009725531641474,0.12420950207177049,0.0349911831936304,-0.04546127690492017,-0.05492752886094853,0.09968805645037226,0.08950157741395347,0.21807755136414378,0.14060572224808146,-0.1900470377487593,0.18507771907377027,0.2064803712673431,0.0016548422123953202,-0.1962449363313013,0.061645789154062366,-0.17414477259448333,0.03674853662849578,-0.12850507252211169,-0.17260518561330265,0.2520766238320484,-0.15586241786752067,-0.07267291590623004,-0.2059923189217695,-0.007487028990119924,0.09837227872606036,0.016537192732183646,-0.06399189097143647,-0.23239522423246894,0.1217420897090635,0.17219672744777387,0.17640031118804866,0.0982618314778403,-0.030372120351965643,-0.1406375429892029,-0.1718904331932603,0.15220500824142366,-0.19759919150633876,-0.11953962900607129,-0.17154238496871793,-0.011581809116609786,0.12537318817315468,0.06711970228629034,-0.0230464484668126,0.15660963988560211,-0.1777739205974431,0.10117503271188114,-0.1442578604204513,0.07834814734747228,0.19122189254553076,-0.12845230705017824,0.17088825525797632,0.0213470954544917,0.125328031981657,-0.0690617216125412,0.020776583080372106,-0.15647771923492876,-0.11019945764204743,0.13934065683691604,0.1019936989651374,0.10358885359500626,-0.03595704212031723,0.06943068960833855,0.11138957142587201,0.11100584107977642,-0.20624879147196565,-0.005997085823314643,0.07942160730084229,-0.1655327288210638,0.0648824166861536,-0.22844917606724371,-0.01364208388059157,-0.19933468930304585,-0.0882222401823555,-0.249491173036738,0.22852332094734348,0.14702744107499363,-0.20230309120077195,0.13966919701002867,-0.24725838255288085,-0.2024756046420497,-0.01990660478049512,0.05399674045724329,-0.16924865210232626,-0.11696594407498498,0.0976249980578686,-0.16053344067067077,-0.008044995603407256,-0.05208309623509438,0.0075920319333911725,-0.2479544689920564,0.146603799711757,-0.08824570837902035,0.21241832056082832,-0.09499881347114777,-0.011971792685869015,0.16616535583313205,-0.05863982906381409,0.11780347210289409,0.2235254648709999,-0.19441930044769173,0.1153479549725574,0.03424596458405735,-0.14287517517061535,-0.1490532358480075,-0.09977030819085263,0.06876012740724133,-0.1650658960639793,-0.09644152361116139,-0.0869835215726063,0.2263378702891425,-0.17282527413831864,0.003109783847196666,-0.07682825489072032,-0.22161903042382003,0.07426489719002154,0.2139516279249924,0.11314898272323236,0.14963212282805116,0.01860066865485695,-0.027987668445743,-0.030160606178794656,0.12973197063258074,-0.19184891730722298,0.04609749198878728,0.23943306358159835,-0.04592203545204132,-0.18018697696352454,-0.036018322323786156,-0.2278923717908669,-0.08892044476480779,0.10436872832129895,-0.015377254318684551,0.0917218805593942,0.14029987438340735,-0.08543989614497552,0.0030562546521215104,0.12110143516761757,0.11831055774369317,0.25340772708354603,-0.193885453857552,-0.09683381028235649,0.16200606175553575,0.2357485862904008,-0.06855136652081184,-0.23110660670117936,0.11826372023048726,0.24131167744965487,-0.20304828575171377,-0.02311404565186208,0.03348127862183121,-0.20244173156118112,-0.21964963762688894,0.058139813007354116,0.019472674088483917,-0.18986964955617902,-0.088280465066191,0.17875912834754695,0.09258703481216986,0.1515810338496349,0.16135861618211958,-0.16963614968928753,0.15378294460153616,-0.22320584337964572,-0.02779433484036383,0.10486137987710056,0.030008234967975264,0.19249792618616354,0.1405912080597911,0.24025201848843736,-0.25051334383814916,-0.22934830326462952,0.029426445355379933,0.09305632329699544,-0.20695317685959103,0.20423060368938276,-0.11374904899889789],[0.2222345816479783,0.14575498930730113,-0.007458526996486893,-0.13966793732109054,-0.11653997679047769,-0.2482296225438215,-0.006469256283467565,0.20111378086930765,0.010036671938601157,0.07010165527985744,0.1614895756147857,0.12729370932650005,0.2380791647003909,-0.14655097194254035,-0.15247923240100247,-0.2012775688436931,0.01912832795190585,0.1789808474174805,-0.12414856453594263,-0.008453813832559328,-0.23602800896822088,-0.12010186892053686,-0.24378517220503518,-0.24403931342050442,0.07200857131305063,-0.15770889202858684,-0.003840941632216731,0.11413447803549609,0.16098148975573706,-0.24337475922423413,-0.017826805910821624,-0.07461995256740506,0.08345070738788149,0.1580191544353821,-0.1590943107489322,-0.1730005602758945,-0.20570062072389772,-0.048170759981897515,0.05889327696755967,-0.07479602173500283,-0.04126293583192356,-0.24466694335089154,0.17698211500032,-0.09193971706395207,-0.12215464855258462,0.13215815695680555,0.06572708089893599,0.05698715416847735,0.1939932242925006,-0.01289771879101905,0.19390704337377945,0.1801213826835242,-0.12845781439588042,0.2317056000127298,0.030629880978066733,-0.06190150595888623,-0.06708680873377913,0.2028082548563826,-0.22605525947794303,-0.199996209947237,0.11177020879989405,0.20574097124431134,0.1882919030549385,-0.0301443915834673,0.0064545149648685615,-0.16104165594639308,-0.06956795231928967,0.15390739175638196,-0.20552015900680642,-0.20484778989838098,-0.08036511648076812,-0.13745672616090004,-0.17363731349188644,0.20367404081202328,0.212737119915935,0.001993662582185413,0.1196557088810981,0.09125413215045934,-0.2090863047052751,0.17537977511222008,-0.013421510683283322,-0.19720753972005212,0.13017171765385369,-0.11433561861350527,-0.10293574758268344,0.2423501141112339,0.08523245861197724,-0.01587988412508121,0.0058655201271842995,-0.16390582449243268,-0.11462537226030069,0.18022092890788916,0.20446058907365702,0.12950676859699456,0.15320917757437005,0.24730016892945583,0.1397239213266441,-0.12926483430553765,-0.21156722467398228,0.07126079355388053,-0.2343843443214417,0.03810185151062973,0.1668155788732769,0.20428602805565588,0.1819030159936713,-0.030617704168080382,-0.14414815185959276,-0.1456401653078392,-0.20172958791594112,0.22739060404452222,-0.15890073158827794,0.01314321069207521,-0.24312554789294194,0.15855635816860916,0.06443584358034532,0.04699619014452126,-0.18748874999523912,-0.22813296959925214,0.12188716916737896,0.11686288562102773,-0.19347360043792378,-0.18682552233969713,0.1634789913631103,-0.21569201649495226,0.23262074866632987,-0.2180424732101748,0.006459653694858629,-0.19023139355389218,0.23018200425713758,-0.2473788322387123,-0.19681688861638408,0.2367892121627207,0.05854526759870982,-0.1301359625687453,0.15669166714986715,0.015014449125266801,0.1567323110312851,-0.2475467245083127,0.09854475395813171,-0.1373452409792966,0.1622892963598507,0.24702297214489174,-0.17761299038571995,-0.2312108751300416,-0.0364241071280296,0.05387170321379087,0.19873876013617228,-0.04239069989900109,-0.06041226181991211,0.008018419491007083,0.201428533999592,-0.08764202416739678,-0.1589523129395357,0.2349861802093437,0.00876281585392007,0.2032849078065171,-0.22645640605233763,-0.22389582970933522,-0.09018901565759772,-0.035574172326836906,-0.0732350216338293,-0.20530100584888167,0.2167089717075611,-0.18334060589481752,0.10415324904113483,-0.11918534568658078,-0.03256689192965405,0.15908706374542697,0.108740955928084,-0.07369212094358427,0.24834552877289584,-0.008489388732362966,0.1274349908164638,0.23390901326601837,0.09058118786517515,-0.10856869408658246,0.24173207642486755,0.08344836318986731,-0.17008546541824032,-0.15313219756750182,0.060910558410634155,0.08124580588294586,0.011503326952862492,-0.1972540022371756,-0.03927362248350126,-0.003939537516758618,0.20164227608732618,-0.05507193409475661,-0.08903355386845477,-0.08351350088992934,0.008181455284889757,0.12965645011618268,-0.17976744091421898,-0.13557815263788112,-0.010941960225432581,-0.07835649129167564,0.06587372972074625,0.15801292947806808,-0.18180635012309174,-0.13892661861231653,-0.24213636635820396,0.1666554468704886,0.00013865243609092245,0.165031437035545,0.10610815687180634,0.24132371678832157,-0.24270125554157368,0.13240835421785718,-0.2440081990507671,0.1605142427177099,0.19485115275389525,0.2062237147307361,0.07455391985526372,0.07602458190381028,-0.060137775463531884,-0.25266393781911856,-0.2101642748269018,-0.04306937356217217,0.16720190530137216,0.18553798515521258,-0.023623488180679785,-0.010055408293738577,0.2252038627155121,-0.21854698822688748,0.15310094862224477,-0.189202373856989,0.2125126287190047,0.05916715141966051,-5.9079943189152643e-8,0.17132007753971,-0.05139044852934974,0.16635386388645326,0.11560787568726992,0.20709649333695881,-0.13191883366811646,-0.180304969507103,-0.24640637749826794,0.18521108915372586,-0.14574246155032272,-0.029852707729373228,0.050722163489097104,-0.011601243638009082,-0.23821331091897552,-0.04705885056352095,-0.252074836856618,-0.21419845266861123,-0.06252911218409213,0.19444016113739565,-0.22227553223168503,0.20771676991756757,-0.21243349400478528,0.2032484505506178,-0.08203429539925253,0.05883319242271951,-0.1786046563199856,0.19124685376929687,0.1321956465852251,-0.025430527735516247,-0.20571046547658248,0.13581212579261379,-0.04616173353004502,0.24177870718446734,-0.14180708642836096,0.023149184436206623,0.1763010793678395,-0.24289907225718882,-0.06370173124767006,-0.1416242951922541,0.17170981731736124,-0.154268761689659,0.017271427755270036,-0.15288081412149757,0.10188189505114836,-0.010081306378390479,0.24204552889412076,0.12798671484960275,-0.20424937002503082,0.018856474900842014,0.00529511267060565,-0.1452366071655671,-0.12395557203061698,-0.13037069974715487,0.13072625157828177,-0.05577793145624102,0.03874644053425452,0.03506336810371497,0.24978578385267883,-0.0037537378234793533,0.10482168039192506,0.1209545080297631,-0.2045168748548808,0.014458253509747297,-0.09086914855455999,-0.21011489329938424,0.004303802477768591,-0.1745997159843498,0.12122021687648518,0.08811426537568305,-0.0812927099203278,-0.24181871562326426,-0.049783097059988436,-0.24448308554322215,0.03321182186860854,0.05481432083036857,-0.022278598115185993,-0.012715729465953802,-0.0402343786681671,0.07089921233605473,0.19151079759718903,0.05504501910556048,0.035759849517226695,0.07706705458049153,0.2558226705926265,-0.21950071200048815,-0.031878308647840366,0.2515229938630328,-0.1443363844335532,0.06329676217738042,-0.23860103468028956,0.12242019401144483,0.19803560896639055,0.06831366989908216,-0.15354438634867607,0.05238990730949155,-0.09891193444414989,-0.21096981120118313,-0.11242012212046748,-0.05583946152801851,-0.07119422083303918,-0.2511915552239528,-0.1175554873722772,0.21112854511718415,0.15012903845571102,0.0895843832295993,-0.0018614583787205825,-0.08329120507376674,-0.20603279367445926,0.19430796195972205,0.22078527836750647,0.1856457685896627,-0.12225071124198812,0.24926447336509772,-0.06406612009138854,0.14891570357960857,0.08570333921138408,0.07824354149396734,0.1767887576019902,0.2057472138004438,-0.11488197854633347,-0.21897465466975485,0.041850683419294,0.05266302633222555,-0.22723123404510337,-0.19000099012606717,0.14069531933845703,0.17495904430035483,0.04146046179159556,0.17051698629831177,0.20080674264035267,0.11555854205463664,-0.25517001706769915,0.047153506247789266,0.08798167502030162,0.20189878862545146,-0.1868807502639915,-0.18196636317112197,0.03146144575779574,-0.02374299787084363,-0.13358709178014977,0.0029679444214994934,0.13570380948196276,-0.14394887669655465,0.015069061110954032,0.22665097555521815,-0.03091444952779792,-0.21922349177316303,0.002343252675470335,-0.01868115829247435,-0.25315469088340936,0.07767620201575141,0.11552892314229439,-0.10236410205483822,0.17797825553629854,-0.004242743286171437,-0.2304770870139286,-0.17676165521400825,0.10760630499603482,-0.19254653214941406,-0.2192323305828055,0.1442773498472396,-0.022286702140294212,0.18524888256537098,-0.08806556101016769,-0.06775177076714502,-0.07615026473879971,-0.09086307504313028,0.09051716515556356,0.15333025397239328,0.23072654105199306,0.08486320830792815],[0.08161077906630561,0.09157756619893936,0.03050151682437788,-0.13109261024484878,-0.008460836755890884,-0.07573035399895603,0.06398291575505745,0.0791600007625586,-0.11827225166450286,0.11635456651391109,0.18489813861077808,-0.11869871147549554,-0.11270533363649257,-0.0005169724930756391,-0.1996093459383436,-0.17209423795261092,-0.0892013783255753,-0.18766775965886628,0.17530705581153008,0.11290700767443786,-0.14556725485644623,-0.24910644185004396,-0.1851390223656899,-0.06604659220935186,-0.04404470405184542,0.24095310734762174,-0.1480065379067626,-0.2496987850329715,-0.21998825134550687,-0.06587996480624177,-0.03400309390213,-0.09863280369398275,0.198613532604939,-0.23981272119242522,0.06451082708191144,0.0556285487360606,-0.014163941152693996,0.18181327675173914,0.03868151666404912,-0.1332380295156659,-0.02565272761196454,0.21288469040942012,-0.16972514340543451,0.22536685299949719,0.026537190319178575,-0.03563763659142132,0.18255769121538232,0.17623987932182178,-0.19549944531159588,0.0367822908442983,-0.1764876048253822,-0.15546240876717857,-0.21916824309917213,0.1734593394806922,-0.1676232568019261,0.06208483423784028,0.03847045263151083,-0.16259819854639943,-0.17479980211723678,0.19565632283689172,0.10514222288838514,0.13662011514314504,0.2527572539930399,0.24696895244716335,-0.07319528710864807,-0.15998097674365278,0.0009542517837681473,0.15082945895100675,0.07533172937870188,0.08566291618285345,-0.22353770871585718,-0.2210147190478003,0.08706381350314654,0.013275616212695927,-0.0532251575048801,0.23946551428950047,0.2547778443772701,-0.0905020937539244,-0.028622760035807392,-0.022577410782579764,0.04547542405375197,0.0022160612412005214,0.13521282089235215,0.09925575977927555,0.18868767024069763,0.14240007508940775,-0.2230516477078645,-0.007172823563069485,-0.05946977473603153,-0.039983837597977405,0.24410650629992797,-0.13724290703438505,0.039776729718031485,-0.1315871289888936,0.09979571442686883,0.14254966734710395,0.00018988459834158404,-0.11412978162451416,-0.16997096959893018,-0.08416902245587239,-0.171005864209171,0.08984805682162934,0.028641242000346647,-0.08762797439090246,0.04021160121955898,0.15276961484771653,-0.21504984314637976,0.1898199956612691,0.2511818194359755,-0.026756752483133427,0.2213217628133048,-0.22926448946323927,0.17374186589606735,-0.2479246938459181,0.18694435970670326,0.09299025898531463,-0.19185765713905958,-0.15448214835865767,-0.19052979996162808,0.015334066628776163,-0.14113113585793327,-0.23088425517131128,-0.1414271670438937,-0.19725009892703266,-0.1451648602549075,-0.14021071820962094,0.0537442869202033,-0.11933733597952695,-0.10613615730913938,0.1634075310632337,-0.05948808500405177,-0.09269741398121656,0.1007982580360822,0.17300257657958,-0.0030093822868974256,-0.2377974324673268,0.06173309908658569,-0.12081939729430735,0.12608352179039192,0.2107124905834459,-0.22745941907418477,0.03683263817723073,0.06812276156179667,-0.07037939616832961,-0.2093270247911589,-0.18928313558777823,0.19306606006670202,0.03504334894385427,-0.1515906131243345,0.05435108661287977,0.19698762931641664,-0.21354086983829665,0.07401834911124759,0.0323888272316832,0.104880275089528,-0.16458902605941664,-0.12031539047389958,0.0670810425945041,-0.16747035289981355,-0.14126323363602308,-0.19043650316610325,-0.2477501077113925,-0.05896941697326111,-0.09835531633163666,0.12222026389929593,0.1555185311526961,0.12907511183761242,0.11885893445714446,-0.12304999402508976,-0.15724923314444572,-0.05127333825109121,-0.22398355065559017,0.1721457392499263,-0.1653821990609165,0.24809986944129395,0.21255193634948263,0.1384903816960619,0.163033811178652,0.23297139752457044,-0.16356356375459027,-0.10048980805022875,0.057940798708968025,0.23625831119720403,-0.14302160157994967,0.17647020003178163,-0.13292724184504226,0.23190677508481247,0.23987635480370353,0.19680168407528076,-0.22421152739538072,0.10204593776519261,-0.027407841672381698,0.0542983977681721,0.1926961123542771,-0.19902978468534696,0.21092727243908313,0.018096754940438164,-0.2105458179369519,0.19813184280842822,0.027879951854171955,-0.20272275045997273,0.23067704471862852,-0.1624982124043304,-0.2494461071818821,0.061080075610176136,-0.16937606053601065,0.13523110386227516,0.14494728385900016,-0.16681079233822296,0.050065041604584644,-0.23453103069300538,-0.10566567236530115,0.11783220761404306,0.07911313752401565,0.18941207690958675,0.15350363612064544,-0.08236363078978165,0.024141013247678988,0.22838228023519327,0.04309350051315213,-0.17390542272296064,0.15894529306469038,0.14835365585119822,0.08506268108974059,0.08950135309206188,-0.07724089089272446,-0.17046704586536068,0.22291018736381835,0.2539554978587147,0.11669945727747293,0.1102206855079171,0.05449639045222464,0.007696010221408163,-0.0803662777458929,0.14076861137047594,0.20175769059849613,0.1411771132321789,0.17392636779356738,0.0702616397973932,-0.1274896363365945,-0.20444323207794918,0.07631686276005903,-0.10244326489402861,-0.24801432647085542,0.12069600629040825,0.07793737461403433,0.2404640557963403,-0.06308499567678835,-0.18843893806742862,-0.10997624995727057,-0.01712684321032465,0.030619228948576743,0.2375742721926917,-0.081145297327307,-0.1641101287561702,-0.08927803093818211,0.2511311681763691,0.2308890553557831,0.22402951786689176,-0.18190789211768113,-0.2243920936400936,-0.12319715727875861,0.0710205908867551,-0.18321137339830573,-0.24555985636406816,-0.024059041655938425,0.2123285741915717,0.18932204630412458,0.1285238950282096,0.2366220832438337,-0.08694128694286703,-0.03906733101866191,0.173633664781706,0.20639435227124173,-0.02427138683881142,-0.2054237500670606,0.1461471043716756,0.09266967388826741,0.2045714595699195,0.1674404185410549,0.21072437532271834,0.11715146577550854,0.1377814037646893,0.1508441832985768,-0.1454688411366841,0.07314079528564509,0.18684168213991023,0.18950457278422667,-0.15429778622578902,0.24298671900862126,0.09241028215176511,-0.13745117548370822,-0.02722392876056745,0.17448423128378088,0.054772169089481744,0.15231756294085777,-0.119132672495114,0.19013474366703892,0.007643193973656092,0.2515076786910319,0.16422589264585719,0.010709241754682885,0.044060924689602876,-0.16722051993977652,-0.1931308312582161,-0.11218402458200033,0.1408857986830628,0.16391291142892986,-0.11976961998225617,0.21255146456051902,0.1357933790915883,0.0444590031502789,0.04449622484630564,0.14007817897876954,0.08890253762812535,-0.10123583603989715,-0.06654289406990521,0.012971098582127416,0.0056276758174207304,0.0720661091991611,-0.1070234115726849,0.038833068685538895,-0.08520306825514685,0.22412532866662918,0.20317322569917198,0.18892076505470246,0.2316643945415043,-0.07565753905429488,-0.006160897477053707,0.061587560283421224,0.21428500765531927,-0.218305980511717,0.12310780772811078,0.2239950658806919,-0.19562915578505724,0.05989186459262989,-0.0037066373541915112,0.08440006655983365,-0.19435477457176512,-0.09825495337148425,0.2526907523719003,-0.149109438553485,0.16373936459038618,-0.15628734841186667,0.06552969675086238,0.04626672774719387,-0.23251070773058324,-0.04379405081830188,-0.1197897667259938,-0.19887096840497126,-0.006368094413406912,0.11318100983469861,0.24069295413761083,-0.17991876360771492,0.10492389715973693,0.2370594260779756,-0.11415638474759948,-0.013981283505959941,0.2451487979763558,-0.18810182136713113,0.10005877976258375,-0.06435858259660523,-0.09548672069599584,-0.20512418196653098,0.18949145029001133,-0.13617025960981086,-0.2032496654235306,-0.18543813552548016,-0.089388945587968,-0.04765670171907512,0.19801776174486715,-0.08396646610470924,-0.2054067188461175,-0.20949522390838418,-0.040841870171342456,0.1343056671711298,0.04789456920801569,0.15095407091622404,-0.18861126630305947,0.04640264249589088,-0.08374417814069092,0.05774727332539846,-0.22210533676828628,0.23606649153033327,0.2149203973141508,-0.09862343312814184,-0.08296363636622779,-0.003942079484486828,-0.11236909231695151,-0.16736227375782034,-0.046048465439785996,0.20162315704570652,0.16298959608675584,0.0427603263672654,0.04791766908767358,-0.06271662391442867,-0.0166182379171026,-0.025357980353652217,-0.13941485530630862,0.0332741760171792],[0.027225396655041516,0.23281574373805652,0.10078509576477636,-0.10573412163583834,-0.040339745584914564,-0.17361706988471487,0.1497127230045651,0.17394920378954512,-0.1838570345104371,-0.16180760972716784,0.22771583493560718,0.17056509612607773,-0.18236156713615312,-0.00011797410679470637,0.06900359546921107,0.02390336500436997,0.14711040403924233,-0.24688145113906346,0.15967540283338447,-0.11253425992847561,-0.0609943696697608,0.23600439625338338,-0.07160503438149349,0.19084340935479285,-0.1607551896680945,-0.14553458398641103,-0.08889776124269273,0.11022922061507577,-0.019671799092012034,-0.062287837993816,-0.22316355460807635,0.004230897011835868,0.07395830106272082,-0.003584336402969135,0.11734531114161718,0.07231455766771687,-0.2254165662246541,-0.11870708307459575,0.14948622396781217,0.11463709562096594,-0.22838455904992128,0.18848300155505224,0.16310562975101545,0.1491622366974067,0.09442980083761165,-0.025953896849394115,-0.1355516697914579,-0.14705064630605505,0.12222832100304676,-0.15183538854757275,0.1322340914842104,-0.19965817389428134,0.2018081992736604,-0.16500847356887585,0.1731718341295239,0.19175572530618973,0.1492785359135019,-0.19218021370203378,0.12739625672143695,0.05818622628467592,-0.1690320234839439,0.2454517826458222,0.17040327571231814,-0.24563517309198116,0.10843552080411109,-0.12704025747141826,0.21102380477060248,0.23787034873517043,-0.0037447496818329754,0.1837093440755234,0.22599644105003297,-0.2347758101656973,-0.12738209137541798,0.12605420743876092,0.1613025702491377,0.22303892774228556,0.15836272649038924,0.11778208899522082,0.12353154540357895,0.12282593445667997,-0.013249701285108889,0.23183167039765804,0.11116617121222191,-0.2298954287420076,0.017454893071947357,0.11563046358257671,-0.08806272963351923,0.07028297064032722,-0.012944121424196455,0.0700949869749849,-0.03423931873353797,0.14052630881513656,0.023157351455634828,-0.1153176091308431,0.09641548406246288,-0.04368662031469412,-0.1587096815486533,0.17259017942200516,-0.033281352434880736,-0.11841626979616625,-0.24307517845090773,-0.09270557868916941,0.22102121096305577,-0.17268334486605721,-0.08015599546324813,0.10593846002253188,-0.009025566792624614,-0.2395516187880171,0.17319273427951346,-0.14357054176430256,-0.1924969622254025,0.10489480174567951,0.0036635628331803272,-0.0752222948738994,-0.06468541010999711,0.21937899421035556,0.18257979130634555,0.2174872617772057,-0.1472820535768632,0.25371087293585315,-0.15265898814735898,0.2186920101805452,-0.1849272974415691,-0.19755142410445672,0.04228799174902338,-0.1551310710713571,0.11494589979224566,0.003595831473385501,0.22434929820462404,0.08472599635115607,-0.15399695621784643,0.227795184161035,-0.24907561548119503,-0.23123557632945962,0.13289012286602342,0.04044481331972067,0.23178276045880944,0.10011854181440004,0.25118575629407053,-0.09009182582778875,0.1818505117475264,-0.1174112602785862,0.09779684303661695,0.1525218942010994,0.24160640502108202,0.14744539745715102,0.1138498050093016,0.23998742587326963,-0.024391351030010555,0.20433800163495278,-0.05025026413292531,-0.07216352484789944,0.1374932411424597,0.15717400463865652,-0.20832943545494448,-0.0458654324187724,-0.10580977374779581,-0.05285545197147208,0.009226635676705813,-0.04728312491541358,-0.2491377201701798,-0.03409926391414089,0.030500012471421156,0.1308242695062981,0.0610620214520126,-0.16884473503490954,-0.17829714886163656,0.1997413925641768,-0.17038729182774656,0.004863487712061889,0.21515915983270503,-0.1993747137916855,0.16283014395096532,0.22613335869752946,-0.19497798099533173,-0.13144024563766052,-0.12164072406740571,-0.0485189032967763,-0.18756734422427676,-0.20156537357570406,0.16908516777978444,-0.012637741336010396,-0.18877210502480443,0.006123840789165446,0.05715338135085029,-0.23182219471820073,-0.0667302756597699,0.03032903985581031,-0.10237134564240451,-0.1499358951598935,0.001339884166313843,0.15206055522999143,0.07961620225886323,0.1600867666525794,-0.21233022191471249,0.18937817200843124,-0.2052775965503989,-0.21721489848087255,-0.10803105553026493,-0.06526205659711042,0.18598331611705365,-0.02297282797906385,0.19566330183508915,-0.17682387123839993,-0.13168363552205614,0.1734279670005271,0.005734826599053709,-0.1056089091401422,0.13289239535907113,-0.13227442423202382,0.013476012519579023,0.10863783400043828,-0.13222906700440884,-0.0642730949765831,-0.07157962367868295,-0.05784406280882187,-0.010296705330977776,0.12077543269311687,0.050228805659744816,0.001783828340634329,0.2243416789310207,-0.1050187400338486,-0.14551855051723633,-0.24034803880801847,0.20671954419705033,-0.09898095886813962,0.23139875875677976,-0.11820551607519376,0.17069111806344525,-0.0185693127316211,0.07800699084661965,0.21255712306247165,0.04371575357211544,0.09551598205463106,0.2298891482949668,0.06199821123852848,0.13291720759439093,-0.01138221598045641,0.14151677417428832,-0.08519755439684798,-0.11920692547794005,0.06697664688329147,-0.049515761053852164,-0.08131459779822314,-0.04430297507621891,-0.08632769199953683,-0.2108786259267777,-0.13321221665251867,0.16154016023279885,-0.019323935481905852,-0.22808684336323257,0.08226753360814947,-0.04150504532412767,-0.004487677593832068,0.174788473484454,-0.010298807943403716,0.09622288949619244,0.045540638677413,-0.18633899926626118,0.05114753592340306,0.11956645139612133,0.028608758541026354,0.19986683898991647,0.05510176905745414,-0.18186760738465305,0.0594862613181182,0.053879596779382304,-0.23556025719220847,0.021458496998592324,-0.22141274307502418,0.2129658317790731,-0.0881034728133808,0.07906967976927577,0.2300235239848398,-0.23386187333664865,-0.22719749381432292,0.19685281700808996,0.1480132981555464,0.043466612283118065,0.07903129047506484,-0.03426832295541295,0.030357926196992728,0.10820804375486685,0.22670415085324316,0.022052973019822366,0.034502830810597816,-0.0471427289114184,0.18225436739922413,-0.07593794888494308,0.2442042275931741,0.03024094989852323,0.18020567368252727,0.22587955061314055,0.11461637163929349,-0.023891187181167724,-0.018444725123035972,0.18018634104411832,-0.030703033482001114,-0.05186022298160443,-0.09568804626132776,0.05585348876820382,0.2446391436276074,0.017519066274165447,0.05670250331431016,-0.1855137883130385,0.010459992178609831,-0.17390937353146005,-0.07641083235605696,-0.12733581219449774,0.21472463429236938,-0.05209355383655078,-0.04461480236957919,0.20041478141801117,0.19227665022873758,0.006886174866704768,0.08897257510149112,0.20044272055412585,0.04481303466182153,-0.021852174614443155,-0.24189822724042517,-0.2444173652467615,-0.2273993958142649,-0.015002189546081889,-0.11986225267092,0.11393071315732366,-0.11828613583630282,0.09496563441482132,-0.19824860284707654,0.2412227125828776,0.034086174503068764,0.20893452409328622,-0.041598386466511664,0.2537766101600592,-0.15025528180935474,-0.06075751393945854,-0.015705556386572356,-0.08943227556197055,-0.13648949885057188,0.2003153008912925,-0.07368959589312224,-0.09991561086572646,-0.1590454474441959,0.23853014223875996,-0.02016469165830728,0.24223049101931923,0.10089782275401436,-0.24690372043476522,0.005587944334371681,-0.11834702893441217,-0.17558257581096073,0.19054693963859362,0.09511915606535196,0.005414150485568655,0.09683340114484049,0.002900759074452547,-0.10578223854784735,-0.13486826708144534,0.23745549818005246,-0.22054871602113232,0.24872664707263786,0.24886936502732646,0.05639306331454689,0.08300816327685363,-0.014640608441051308,-0.13540522433155713,0.03398582308849813,-0.035612333670284414,-0.24855499870048575,-0.04139739149118658,-0.12409805133504097,-0.11510713621142069,-0.18023747495074172,0.2306776655546107,-0.003765478682055882,0.08060488435570362,0.0019298246842984277,0.02507583692563308,-0.10181336147830422,0.012572268935644209,-0.09270457000085829,-0.058503582066633704,-0.1665084518943565,-0.1885839946383326,-0.22972288842621505,0.022724768209998348,-0.22627487267244822,-0.06160399766879337,-0.23013259810367723,0.13696340600509704,0.15386371979404684,0.20055921102232974,0.0015245041724583316,0.2411343173892532,0.003329607605211983,0.19675016731861664,0.16520547062676214,0.16222519896094797,-0.11046986672107671,0.16415807903040447,0.1522295046282405],[0.2529202514890536,0.00748879492771397,0.1059574971678508,-0.13541418686628778,0.1299350692394402,-0.06037902507674144,-0.206893470780017,0.18528398426876455,0.07271397889971228,-0.15420375219776414,0.1883913449239203,-0.24370813015040863,0.09744362572306696,-0.020214600146080827,-0.14975925075111676,0.08796786574915698,0.17598182669047732,-0.10475599898435731,0.018002154425299864,0.20584298349911542,0.0635093843666183,-0.20823685235242181,-0.2541419210235298,-0.19625539689780974,-0.1658656884231007,-0.037985881759681525,0.07428063772164371,0.12105225791713893,0.09610259617442994,0.12393315792036237,-0.05533190461601743,-0.03284817776297713,0.12516827455829613,-0.25338487465988835,-0.07369646793772487,0.2464840377193415,-0.06314476213317877,-0.15365963575828334,0.001617261199116849,-0.21048851129938895,0.18817479339343138,0.12014224125731304,0.0730865157496375,-0.008189272018474917,0.07180195534331751,0.042864463719367085,-0.2205980613397869,0.17064388649847018,-0.1642878509350583,0.23908921750275147,-0.1359428522187694,0.23223164273282948,-0.2400493375079532,-0.21238095710088617,-0.09961403631296757,0.057019480431044364,-0.09299538546148638,-0.07434864272210868,0.24437663060969375,0.05894400407004977,0.18963179890360915,-0.09560238970110782,0.14483813239608825,0.15759887143022225,0.19513199833895087,0.19505871035657202,0.14389287838212864,-0.0900232822559607,0.009417828555768589,0.14596578953095588,-0.057619041859856134,-0.015082649281358978,0.001212762160997594,0.0946026416957385,0.12187911486196043,-0.2385789781891125,0.12304409137142633,0.07097105417092858,-0.08927002908927811,-0.10233234783838598,0.009950545131046132,-0.014920838611920319,0.03368235785600631,-0.14891843245460756,-0.004921079736043451,0.11719762232464787,-0.11470417091714978,-0.059191195015285386,0.06484643766846877,0.10720449463806274,-0.08211577762751104,-0.14060283097447146,0.18993017315622132,-0.12693563028487181,0.1077316076790452,0.12800947094678453,-0.06687847755275941,0.12849484881643844,0.21818399749462775,0.14089905765765393,0.12979995414771847,0.03452843835291476,-0.1330233104637647,-0.22190551096329733,-0.06920254844142211,0.21049408165336803,-0.028337141965732424,0.051553414529032004,0.19787541969575176,-0.08489543980312136,-0.1902169994625875,0.08051938151947642,0.17421238288338073,0.24124609681727852,0.12035855608930143,-0.00229613987010963,-0.07371460809062799,0.25073758866523127,-0.2458945912829389,-0.23906298013215155,0.19564228993021468,-0.16772455434827874,0.19880808241355374,0.18118661731812732,0.14833466589822553,0.18733711422650298,0.07150066366123585,0.16124341341410875,0.08068577611047285,-0.12665210801085605,0.10392058097358572,0.05389553940480481,-0.03879217426298151,0.19194421003421036,0.24701371057947766,-0.04308396801901391,0.2491839936824808,0.06749440047863932,-0.18404086377350318,-0.18580725438199025,-0.045768980351911424,-0.21239465704655022,0.005933474180271181,-0.009257840816120895,-0.12373226193532733,0.1495436688086292,0.04260445625810279,0.10920956042352839,-0.09112282028158496,0.019113854047350907,0.07967048142054911,0.21968907694930534,-0.18705617641369063,0.09376023485977196,0.05067037251041408,0.08118958421157187,0.1435123225388391,0.17182167351440525,-0.183421369157856,-0.15334349711209638,0.060007462657861305,-0.15151757103525898,0.13926265789954279,0.23708716671932395,-0.04632644061364013,0.1779317664779903,0.16604645771316145,-0.16070964200732005,0.023483144493364937,0.13094314814032043,0.1371626830941098,0.13878631269444083,0.16429753676857484,-0.005399484222466121,0.10668222264730778,0.09744106681388856,0.05874553545727352,-0.038435222298975724,-0.05244606649686902,0.12651890242023925,-0.15152015838810157,0.1071050834333162,-0.014247919026294069,0.08195637884622622,-0.10460440759867017,-0.07985407016455079,-0.050081702457500356,-0.14690709874871505,0.04197601464820997,0.10385905770658145,-0.025021349954383897,-0.1968659500590909,0.1482816838074247,-0.04315624724992482,0.11205836193308918,0.2147835940060665,0.025531713676504038,0.2134991323698713,-0.19018852348159904,0.2100848055585863,-0.07398058546606333,-0.1387752508611137,-0.054799488948055614,0.10192228897233087,0.23646406085223914,0.21651194453543415,-0.04384002912095818,0.21763190791878023,-0.080738088089251,-0.050745915267885564,0.1430869078734409,0.1990375743816021,0.24499717519444403,-0.01098906513351197,-0.196838995408764,0.10280319437841202,-0.03314868680630986,0.2014994496488944,0.11933831784944353,0.1337671786508051,0.23777962713562437,-0.13045199065047114,0.18176280587577762,-0.02434245190974073,0.09522332239905754,0.13370440071676856,-0.08308626466647998,0.010320217970145798,0.1675687626215791,0.20362716295400543,0.2266549093899372,-0.1867705039130291,0.08915774453928361,0.2329105997153357,0.20060557308947888,0.06841170756716215,0.1502223433290518,-0.08077345227186235,0.1496311306188504,-0.17723329767827486,-0.21104503227875013,0.24197881164780535,0.14761656174992752,0.022920700465536948,0.2097221490667624,-0.19736534063784714,0.1465669420929224,-0.005453652793080349,0.211742851124135,-0.13393007870062282,-0.14958364551399053,0.058442216083671554,0.0804278634687227,0.18874339434654985,-0.19784183182453058,0.059062447192850434,0.15689680098524278,0.12102049700618966,-0.04644708808074769,-0.2449894450711767,0.011016297046723078,0.2323462464690436,0.08727226093144502,-0.04656319770443254,0.03463508055393725,-0.00521105552912941,-0.10093169505359352,0.036313816285340965,-0.024824059094746335,-0.1321413963450827,0.20777184297303036,0.08506760844214194,0.010836409451043675,0.19751631632928224,0.035287397856301146,0.23304984509821502,-0.15500558148150706,-0.16040499519078552,-0.1291992933391836,-0.1396760154831276,0.12648735721039822,-0.10166743622799672,-0.012670944987783305,0.027831031230028756,0.1305523798355705,-0.20038675913035092,0.04287898650735358,0.25545117460044675,0.22393441863057426,-0.02941221245252772,-0.025540878429575583,-0.00873372684572707,0.20878688414375268,0.17320503686025132,0.08165191249923835,-0.10922962752790032,-0.1502716220510938,-0.20632505083269273,0.2553766344765907,0.05303190095845438,0.15572693173305557,-0.2268372221062934,0.1955511424750848,-0.13097095915568316,0.17072288745592715,-0.23042844083846392,-0.018257953098951174,0.2398706392636385,0.12789671264343494,0.21658852054325725,-0.18978427136268625,0.04187634742417409,-0.04230132152681228,0.1680533133888168,-0.13786438081801405,0.17431408981836333,0.13941536829300916,0.06590132103918236,0.04393170065595267,-0.1911821460640274,0.059216076464219544,-0.08620465027118858,-0.11207546811735918,0.11399967200747979,0.04536735152637043,0.03443881270815721,-0.21333459070387412,-0.0692189373937094,0.17611583884689289,0.008681342024950234,-0.09076357215397654,0.021498845288708456,0.22980856734592348,-0.2464459556450327,-0.09053716104847714,0.13304393473741516,0.04885723096933424,-0.12116266590324229,-0.012655624123510213,-0.04582030143831051,-0.1944724005186039,-0.07865266684038534,-0.026460884994537432,0.04849812178914906,0.2181950769117289,0.020655010602779498,0.18405832864809624,0.03949314725351523,0.0750985190020325,-0.13214260541869013,-0.013820679435317262,0.0827567182388096,-0.09033202431521749,0.015014850858534615,0.13568364864332852,-0.21535370988641947,-0.0894896793892628,0.08940458661649912,0.12541408963319492,-0.08734870826842844,-0.029526507302042804,0.24442531831423656,-0.16995622099192714,0.05551310899104882,-0.19488130201350806,-0.20248086628248307,-0.22358402374223404,-0.0621543446450301,0.12926267997279856,0.0894567645831114,-0.1503272387888839,0.1477049255180443,-0.22532248459637347,-0.13600410838107355,-0.06011056477123864,0.012488038967377563,0.06983638183525648,-0.17784540877642155,-0.12751132429465653,-0.08719531452772515,-0.14772277603831485,0.2508788307092736,-0.13970190059314916,-0.20884047624968197,-0.14366047053935266,0.14654532136147447,0.01938239526839157,-0.2222161166111367,-0.16389875347757776,0.04304906436926038,-0.2264131889464338,-0.18542893973268723,-0.006103206201922259,0.07364276490066896,0.18167841475481666,-0.19265155401994638,0.15522514577195093,0.1679489026739933,-0.20454872836370966,-0.015466945899636935],[-0.14684862504504057,-0.16353962441669098,-0.17534373695901234,0.12915419602023107,-0.2162430618461044,-0.18373129263940535,0.21117706542028108,-0.2351848323349449,-0.03313259075918588,0.2158175578683733,-0.1432132326059943,-0.125357414741288,-0.10382407780208311,0.06514378629490411,0.1307933977072993,-0.06456473390263631,-0.1685504391907264,0.156609367312329,0.14681076457969552,-0.13514124357346372,0.17028124707373404,0.10262761755558279,0.17356085612101826,0.16512309819369742,0.25551314039354367,0.038944353074070584,-0.10695806791618025,0.16018477955318614,0.15433906679925707,-0.10793549736898249,-0.017224970488321553,0.10551644670734081,-0.026537127383802067,-0.15886088022356953,0.18836134415862482,-0.04293324160030304,0.04333434977336288,0.15662593677555256,-0.16201381323927164,0.12666508004492533,0.00606973139302443,-0.18047697108613103,-0.06523905582929874,-0.2263664649720698,0.027524914196628766,-0.04007527467957319,0.10800070407008906,0.24146055022202126,-0.202587787139872,0.23254886339085878,-0.019415584671818538,-0.1695214687868367,-0.13670615189103824,-0.10497711834090141,-0.16272473485764807,-0.18779529045590046,-0.0566296869196876,0.07082344028589582,0.24353728937456134,0.20976705993736855,-0.18096962098646757,-0.06946095046176481,-0.04797027310791373,0.22758866126341876,0.08957539239473589,0.11473458204713692,0.2397455732699198,-0.022553559916492622,0.23363072886767763,0.08945689422550106,0.0072863484696323805,-0.20905608780261167,0.18218005884762706,0.14446914308142567,0.21628668812546425,0.14388177978589053,0.026809347880064973,-0.0320279525290434,-0.20555802361364278,0.17994384713335745,0.20921524596397187,-0.128911394349457,0.052933406953942795,0.21974091245475486,-0.12100779667784553,0.039574146163841,-0.2116685839890852,0.1293570487072895,-0.10664324992261848,0.19120639559631553,0.24499299952104173,0.04399062899718716,-0.23391153976467532,-0.04269152332577883,0.1488392644093998,0.0042958922799001134,-0.01297031883443441,0.033072303418169476,0.19723095185857778,0.20772644115064837,-0.24187033509343173,-0.15980989620192432,0.13552987623223606,0.2016977488920592,0.09738609732124041,-0.0973768410650532,0.03955847580544415,-0.2440248766982444,0.10594256919304448,0.20099105776188406,0.04194269902204375,0.19105704598516435,-0.08574828684948735,0.20808374806238528,0.1709998687338395,-0.001278852210418902,0.07172358120154199,0.23346462003737803,-0.17768002522187915,-0.12530280402284855,-0.011137721057136844,0.07608503338651064,-0.0574410190352923,0.11761111127924663,-0.21430600764819208,0.14515152649504648,0.08147891956783038,-0.02533475199785331,-0.14108395293190745,-0.08581510094904095,-0.14173577677028348,0.020407578235723166,-0.016931486194902926,-0.15215847133703173,-0.04163883423124664,0.06793163793830857,0.048842909563600906,0.025341816758133597,0.2499615707669317,-0.14287778533467288,-0.0024931349783466265,-0.05432928017570163,0.25573462917374645,-0.1244212653637077,0.01777531650170985,0.10914658467583369,0.08118634831893347,-0.07677252530456759,0.0013286855922531949,0.08368397316529377,0.020593482929137027,0.0760994279162446,0.05629696540331087,-0.21013756673352635,-0.1255234300583679,-0.20509250045471178,-0.05257141729249262,-0.016159779635915823,0.24399722089574286,0.18175269321890103,-0.07580233302734211,-0.15844494002936554,-0.051079975539272945,0.02787735167123956,0.25202672227860207,-0.2131847114641008,0.12204634963352204,0.044655937171107586,0.00833791543533899,-0.043474348636149934,-0.25592159753539573,0.24824842042657305,-0.1346818102228088,-0.12904553726986678,-0.19915330138250117,-0.03437077510906781,-0.19824808634069466,-0.0036556842486795095,0.16267079955985958,0.19937378387063925,0.1847173310302181,-0.24202237790862088,-0.006712385838822556,0.19991942168543045,0.2344387208819489,-0.12648558387873424,0.07598218600457059,0.010932122189108117,-0.05775400857288663,0.06948510330717723,-0.13199921772562648,-0.17020437487464593,0.047538730128955264,-0.18000265092968412,0.06291295177236518,-0.10468157447071856,-0.0033048562649153237,0.15311069879129102,-0.18094909538732537,0.08879424883693206,-0.12709853928533185,-0.02932014537954429,-0.09474470752426481,0.22570480651339048,-0.15603066348489575,-0.2363705263375125,-0.0013972862740889223,0.11760435661875757,-0.13475558882116734,-0.05536718313637274,-0.05636762867889226,0.214066496799463,0.11492070415328526,0.09315735690804855,0.09804258944933125,0.029350299169940905,-0.15553456073767224,-0.0517970664654462,-0.22087141298317714,0.2389313918654936,0.09681007551799592,-0.17558388730712202,-0.0821968367769348,0.04256722358154245,0.14794568400733632,-0.1585466116239686,-0.13793624515738173,-0.051976789262721215,-0.05145845667575272,0.17149853063400375,-0.08390337188882774,-0.2034569664503236,-0.021387025382471798,-0.030928416452786447,-0.048044145891478277,0.2062686299515284,-0.031753934967931836,0.076830093739269,-0.24547526680677084,-0.1322802261500813,-0.2514900532207332,-0.15100607812288974,0.14247941520603483,-0.11069810682596376,-0.24414693085873387,0.2445358116067264,0.022281890141605445,0.16073299780321937,0.035452745328270245,-0.08039136963436191,0.24648340372382008,-0.18228892377116607,0.13554532309823245,-0.1750196346534815,0.2283146080458703,0.09649638865411646,0.056056200885324106,0.15494341800684513,0.15337781204365994,-0.04790545106740159,-0.24171872888228835,-0.04683315097279726,0.1231450622434052,0.05390822493834595,-0.09192373658183484,-0.2175972941601388,-0.1847150540137105,-0.20064481318021674,-0.23877874469654228,-0.00353966669047602,0.19787032697785595,0.22355574378056733,-0.05311218683958365,0.22546821259900265,-0.14980808380241836,-0.053254791029402726,-0.11344003345490444,-0.2274140934656805,0.05779178379377003,-0.19130243524432725,0.15458967237921162,0.030109224988190846,-0.19195888305455683,0.018316516976026345,0.014653383676268547,-0.06653248646683367,0.22862403268375955,0.12922111073943443,-0.01576632289313577,0.13725206954435154,-0.005090836223188225,0.09602433348450508,0.017044249263673632,0.07689119849152781,0.16550654934712639,0.045258708188059805,-0.04754119055782045,0.14303829268710408,0.15172714991496894,0.000431305939179019,0.17826341537570278,0.09636260734054859,0.1406136640214962,0.013939225702622156,-0.0779955125620299,-0.21135141402927882,0.19411598083247272,0.21705173370683295,0.08074360811080365,-0.0040500303846610335,0.07184265264745088,0.05278531508426316,0.17514354556762696,-0.05538701878599976,0.01502401295221742,-0.10832727168250998,0.0782274103878483,-0.10237390725566879,-0.2282787908144266,-0.0660679710303485,0.11623952150804231,-0.23182745240720184,0.21344798804995999,0.0863063187267768,-0.13930055475529093,-0.0594843644027569,-0.14673787248258252,-0.2502308261740395,0.01580744841252588,-0.21170953906567624,-0.031763457267943974,0.014019216074979654,0.20151432914282794,0.030358637061598845,0.1432151491872902,-0.0509074707938649,0.09834026954391994,-0.022742632356323452,-0.1508936289949204,0.21590244029405117,-0.1312987419750369,-0.18988858050100885,-0.005604749293344274,0.05252388560273742,-0.2063881672578117,-0.14634856359017084,-0.095401006138966,-0.07857547593486716,0.14692978443003676,-0.24526574726660166,0.045684884000866705,0.1634419130963414,-0.03380862877230888,0.01616022247475242,-0.08061099618723074,0.024410176581156778,0.2548428717862011,0.08873387801450286,0.13134190902755313,-0.021593882855696245,0.04088022137918807,-0.08846750142624019,0.06690931396598548,0.046364134578450095,0.06578959117834686,-0.08685073663078687,0.09309880240102493,-0.09562914051556985,-0.1713861565789015,0.24316534387461136,-0.1554540889903602,0.2359132009964844,0.06455708530963115,-0.10539528655516844,-0.09018215557768419,0.07025761437431033,0.12091398272991148,0.23973208991759748,0.05963720054318297,0.0032588237500115152,-0.11686237331585589,-0.16870088717477677,-0.1043092324156338,-0.15645731382100544,-0.011475338164108026,-0.1490623346918002,-0.1273746272933181,-0.24230566865858794,-0.01778741527661555,-0.03135377748655041,-0.23393621229264255,-0.0697689924248141,0.14651918860445187,0.0989084594606443,0.0640101501904626,-0.1444292883561425,0.08471546366841574,-0.14212321953831053,-0.22372769386700586,0.15322790859126081],[0.1180684285855893,-0.17328058562016585,0.24286989067165304,-0.0320201054682458,-0.017075053647298413,-0.14591201422147618,-0.1539793197756208,-0.15289767488375422,-0.14771550990606885,0.04111864390587744,0.004909179827331811,-0.2532490162938603,-0.0679489158500698,0.01449643268779953,-0.012153571677464803,-0.24229788783549125,0.07729093883967321,-0.0037418520548974303,0.1145723660783423,-0.08632194647058786,0.1806583349001032,-0.18661640631237209,-0.22109622380351412,-0.13283539874912245,-0.11774761304512649,0.15295795516932428,-0.1484237706499473,-0.22861432310504948,-0.04228567348622592,-0.057271861764363656,-0.0910441737721706,-0.036543547745739924,0.2001827894627133,0.08147798449015613,0.012560157594728484,-0.0635684344164363,-0.06946051323097731,-0.1583457030969486,0.06422450252591454,-0.014214851599660122,-0.18878550298121982,0.13817441947048392,0.0022115465381363584,0.12535451964089744,-0.13906816677278153,0.01779792502713526,-0.003379777713504588,-0.10105451727056809,0.2257095627130463,0.22044536358298586,0.06535118903245708,0.20343123352561823,0.20857880176333343,-0.0613946138467124,0.0555961405695107,-0.2183939981647928,-0.013581730939222252,0.0900689986264463,0.021596169071203385,0.21967272575556163,0.0453402924716695,-0.028674735991726426,0.17783431973687638,-0.08111992560934048,-0.04327716681948746,0.13254633116673706,0.12304696200779114,-0.06141617168137319,-0.03947530195827748,0.1658363428104178,0.19379391050405656,-0.1680919823180748,0.22447325232575732,-0.08692382528401786,0.010819956058329383,-0.14477008703301641,0.01078652362901339,-0.24449313399761194,0.03290015115635,0.05416814444380364,0.020173185567370435,-0.035106574676776366,-0.00277119994118495,0.10966705453266169,0.014235427774290921,-0.16444788800445498,-0.20928511618220408,0.1576470519239329,-0.22714136486390432,-0.1669195398045929,-0.08104612686127405,-0.1752318223869502,