{"dimensions":[400],"layers":[{"type":"relu","size":100,"weights":{"W":[[-0.06688661625497835,0.18311563826694469,-0.05163303841398226,0.12480428321056021,0.10429956868073043,-0.09930324203785956,-0.04785385345213938,-0.16794433592782243,0.21677046945802605,-0.04541035348097042,0.20378158800340548,-0.15256385523255467,-0.046709476886685884,-0.2767229083891022,-0.07806723142350883,-0.11809708932701982,0.0767632549105942,0.10215909311181906,-0.14850367917581717,0.026629604790700083,0.05938594171412471,-0.12985314281024457,-0.1148456165768625,0.03315105118152285,0.14466735751638515,-0.07720278906620628,-0.2674822385211945,0.1216968609113868,-0.26046457780914256,-0.14868366786504628,0.031059171953306756,-0.14120745540593932,-0.20476286828490092,0.13676663163023797,0.24302280414786587,-0.1814890464011118,-0.14046507712845857,0.15682436633669614,0.1733611880412431,0.08760379360273086,0.023829953255557822,-0.13376639855410996,-0.01064279348350701,0.0647677741258595,0.18228272141834664,0.235796011775149,0.12971496757525153,-0.250827478440926,0.19846322149641663,-0.15144139478800842,-0.08088891632343653,0.21712780783216937,0.14117716644187275,0.26662768554387123,0.1499892543374296,0.19782699619449695,-0.031165140087160353,-0.17219620924300016,-0.011483031739930151,-0.24209064838607958,0.22095637109264368,0.006656006762823081,0.2747635843348355,-0.13537372898062577,-0.27361013265346007,-0.06332088821805089,0.21150481810815908,-0.04658097931574361,0.1433716477591987,-0.1710895964795107,-0.10131572709254434,-0.28295409281010636,-0.2696199283801898,-0.02463950890143938,0.11088935192364925,0.01782624894078788,0.009454841372492672,0.069233003257942,-0.10223968618332027,0.012046035677680518,-0.122051747478279,0.03300117116217856,-0.01341897723656175,0.08151091497083883,-0.2671178324434639,-0.27345862726003833,-0.03559874659427346,0.1949143484023091,-0.03961792069305747,-0.22927744243737672,-0.14194523046635335,-0.06581116307669647,0.15109663942432416,-0.19706712538607507,0.07920120566710004,0.0956272247567031,-0.25937859392893814,-0.16627516318777644,0.1887872185786144,-0.14304674262238032,-0.258785309098004,-0.16626870847395456,-0.21993406591617876,0.181894396853345,0.20777785851668293,-0.25657074983232475,0.28196825728326785,-0.14684564430863226,-0.03001862682914193,0.17210982820755225,0.26814968788899257,0.005404100186660817,0.032226754527877,0.15554586342727666,-0.11313714263825526,0.0595957464362246,0.07457748448944734,0.23989026614844006,-0.23819942918110687,0.18823654635907938,-0.10055853744243595,0.2061355106381633,-0.019151264064378778,-0.13200365358047583,-0.11471062724153905,-0.04898763166519122,-0.22560690729409838,-0.23155045792534382,-0.059342723512836926,-0.2729753558519711,0.24782647650579745,0.16145448688573846,-0.26509612375281216,-0.06441824868685334,-0.24442468227131312,-0.1532821204258733,0.13501541406764664,0.10375474382165567,-0.1438764321530088,-0.0688146875596444,-0.21265763999455217,-0.07028390934299629,0.22119646194962478,-0.06668707060324189,0.15311168632147465,-0.19900915824051071,0.07819857370758469,-0.1304303085128525,0.26612104704745837,-0.262235103831842,-0.07236374242267282,-0.04603191131693685,0.2783084031622553,-0.09023878631893488,0.12640589208484856,-0.028024340091686202,-0.08814510273454627,0.14206400321700685,-0.0834045830295585,0.1302790041220288,0.024059776675336812,-0.13758987932825717,0.2562120775771052,0.24155813143638216,-0.2109538441185369,-0.12680730561949563,-0.18181205692880148,0.030135964307913796,0.20089718195500234,0.08591384077623983,-0.05485037884035146,-0.2135721489729233,-0.172708397306832,0.14505479953899025,0.001953148771136621,-0.1504451439503922,-0.2645590224881683,-0.14644625838717606,-0.23158625464272636,-0.18577143342720095,0.16552112914073935,-0.04601375581821224,-0.06225082322157429,0.07360878701088082,0.2641926006938081,-0.16479357767882327,0.1961658927430683,-0.077750368211345,-0.08597278597034927,0.20370531949563078,0.2405410700024038,0.00695387912632128,0.04027643103686596,0.1116299529641045,-0.1285673974954619,-0.03943034357049721,-0.15130094554739812,-0.06589627547356011,0.11660038272339864,0.1328346069205813,-0.18229132170520979,-0.1336332069019878,-0.2335086165444777,0.12413403047029517,-0.047317034359474645,0.23657089438345122,0.0694465580529002,-0.10609133308433658,0.1532981037142799,0.1325877129402718,0.13978403647992632,-0.07675669262676821,0.18936493607258595,-0.15262785133047096,0.1819189699841658,-0.2594632146376036,0.03856980992115246,0.0551296413674953,0.1916273799531216,-0.031333492586215525,-0.07493451061422815,-0.03477974239470073,0.023639970776471397,0.19373439337789253,-0.15582408379844737,0.23639163922896142,0.1516552227647233,-0.2124801262847472,-0.0513599490196108,0.12214131162543923,-0.139068549685753,-0.015888466766886385,0.040069480238813404,-0.10525668779559372,0.1175455307483895,-0.09134167841100481,-0.20226338820276415,0.27562447355874564,0.23350732940516458,-0.11959746300027776,0.05591436390648533,-0.16394449889970164,-0.2555202297263832,-0.19131693317041906,-0.06523008934245571,0.12710286514905475,0.05905947187829409,0.2616813944405635,0.14476437372928408,-0.04713979347432757,0.20143605240672188,0.11276498331081324,-0.012517882992246864,-0.0992189411084695,-0.11363530557006105,-0.10446380634990711,0.08099753692801963,-0.16677669485367483,0.21849760006292437,-0.06187575145518066,0.2568434141178843,0.11784391041644103,0.10735482589158832,-0.09073163151388426,0.24153627795116908,-0.15323395332573772,-0.24350734165689528,-0.0053374473308139105,0.2679597957172344,0.0035898320525544593,-0.04414398745335159,-0.27646988260648103,0.17891672810266085,-0.20167251034250805,-0.20753923214540737,-0.0041896874939709805,-0.09503458083290237,0.16584592473199508,-0.054254020826398054,-0.10017024298889403,0.07688200877673464,-0.1329471255204301,0.26031030521718845,-0.22979289132922184,0.11001109498347143,-0.23279354635134797,0.023631048749893267,0.27702715520329313,0.18388841954215276,0.20435143698809125,0.023270800127809212,-0.13339623873431747,-0.05861829587048345,-0.002800642141989271,-0.22263335226429015,0.25597717878551496,0.1006016523454435,0.1884751053780563,-0.16147706837170334,-0.15540087183771759,0.23624164886516386,-0.2118120715054897,-0.20310787530495367,-0.16798347708282016,-0.22764965690147154,-0.0357717881436122,-0.0186602912490859,-0.09780777877825805,0.0376654362126964,0.2659521242652095,0.14037699155772285,-0.08718310711619655,-0.2747063853375618,-0.1279830809000129,0.20070964069186,-0.08240437695002074,-0.0025120427612164956,-0.11932483251960235,-0.23164383686921824,0.13056727907336377,-0.20599374293591996,-0.19692205960081807,0.10455221708281638,0.08346956765220655,-0.08985835629210095,-0.2079389823603665,-0.16945413877816567,-0.19160693624258668,-0.20195432762761673,0.00955700165287203,0.20268353251929452,-0.1461727118408624,0.05310522315019537,0.10593931523516617,0.02574590504324211,-0.0161554393619744,0.021426999989515673,0.09997526752562569,0.1473229166909251,-0.15082229217568205,-0.04933823855376892,-0.01022899270839947,0.1638455471068566,0.1897897760204776,0.2572156582032082,-0.07104922778076267,0.03252955514387687,-0.11044544849929126,-0.006622312761921738,0.03192359911495588,0.1414914898256249,0.10467620477381052,0.22972914021528343,-0.07980663392267028,0.24857198253992613,0.1068540335958455,-0.23039032979539237,-0.06345949370039554,-0.14697475478088495,0.08349655359931966,0.04597983425473799,-0.23919309757205767,-0.1953482540748345,-0.04965952348145289,0.05244721900888522,0.15372515532802958,0.2275571230857382,0.24919522119910598,0.05542621619058992,0.10709938157436372,0.031320404726423695,-0.11645021456278395,-0.20685306483142918,-0.2016481513357292,-0.08703891591181943,-0.12782921194854394,-0.23947961396988535,-0.022344016357765957,-0.04179652987491572,0.07341828010621251,0.07599043833757971,0.10196699609211173,0.251539563277623,0.0010129727862465256,0.08492385821071367,0.10899223292697528,0.003925713756640456,-0.26087151284588783,-0.15280611262487206,-0.14425293164045372,0.15663354901232043,-0.02216551878604179,-0.24178940206703334,0.10765383421281395,0.14478795288546403,-0.1269079358382375,0.14372008181999563,0.13047622438927495,0.21322581530621562,0.06357134265072614],[0.07176869182714748,-0.22466631218121558,0.04064282401863531,-0.2000499671074997,0.047686283383005255,0.027759154032674416,-0.11909702474696301,-0.2301024946861106,-0.2145192938934255,-0.10103998223575844,0.04854983527622617,-0.07204950877918655,-0.19424102222240744,0.2727191892097441,0.04475070790315837,0.1797425410448992,0.05865000165575732,-0.14580329305074685,0.2461871323444093,-0.17423579453655247,-0.027581509855313734,-0.1101724242545041,-0.1228994298552393,0.19016970727639038,0.13514231289969716,0.23198069542380903,-0.07979815364136578,-0.0027451311868187584,0.007689612830714312,-0.22614419201371536,0.1588323380668944,0.11736667680585874,0.15247317246386,-0.18305198086238675,-0.004275293244145451,0.0489349550305691,0.21124721937676708,0.10731838080981458,-0.16739169680178081,-0.19999838355711694,-0.2247812238543377,-0.18206708029343927,0.21519032639404465,0.1991476727991648,0.145795531545784,-0.07181562993670125,0.014923941749791017,-0.012629213820842372,-0.0498151083364266,-0.20897396926511644,-0.20630680295830675,-0.007153166221729559,0.21186954942391406,0.19703021851083508,-0.21729980685113626,-0.12919304005356813,-0.15191530458554844,-0.2021332062633571,0.08503795974043735,0.18660057395211785,0.02550357879796965,0.18896663030291913,-0.11705153657616883,-0.23947486409492066,0.03786970663274673,-0.020386707965299518,-0.1974694879073877,-0.010810315266710066,-0.04155318902362238,-0.10959248929446971,0.09821873355473919,0.029592368119161203,-0.031486246402333,-0.2616102659873049,-0.19777790849190988,-0.22817634404264037,0.058845803610048986,-0.18373097566421878,-0.14705301675346052,-0.11335607418441508,-0.15825175988957277,-0.2604344079886043,-0.1387683457396548,0.034050978899673005,0.1760895196912136,0.07213807407960161,0.217938433625704,0.20165050123229247,0.03363262512695902,-0.01524559573601838,0.2334856236252893,-0.04223798460983313,-0.23176918125689455,-0.00007727790596061241,0.2614395462986393,0.1382366178296382,-0.251197154994519,0.05641103797059743,-0.07989699972156615,0.16936236082056122,0.21891080416830855,-0.014244940311244302,-0.04026322545189866,-0.1021458781667513,-0.19422963496391188,0.27856312081906426,-0.10842234998476609,0.22400990517618102,-0.07666702722557185,0.2382596901837245,0.18266316529291615,-0.03482048293549607,0.13097284544525403,-0.06807393164709515,-0.2029444154390862,0.2281767939236538,-0.2758669369430796,0.12921719915850252,0.1558590056573546,0.19218926876701947,-0.18052784687994042,-0.25575406463220124,-0.09067921994783552,0.2100736549701471,-0.2789103421436326,-0.1077606083744553,0.07017433811271062,-0.1404289955585177,-0.12074260028357649,0.10456176971015066,0.15176299518691383,-0.055490509380848284,-0.277745993026616,-0.0690804634728173,-0.05220230520229718,-0.11722089529981752,-0.0346198009522327,-0.005998267487417822,-0.1171239619286189,0.11940980501827554,0.1929661580490967,0.1965812688190362,0.14007247953758076,0.14134769507312878,0.19334009753568318,-0.10091575415710517,0.2321936912361128,0.13388983621882738,0.0481053473400709,-0.24536351754274333,0.12351505420376392,0.0057098718283830775,0.2290826783521715,-0.019393365977558013,-0.14280748077942673,0.004332061809215814,-0.004057062468086209,0.11450370318093986,-0.24151578192618542,-0.02842186325828304,0.11395639940393845,-0.08521319968196561,-0.06694681478325842,-0.039765320565809455,0.04140483284904021,-0.022649415655599907,0.10878281673291469,-0.14121418643457473,-0.048152565902002196,0.1056937185398127,-0.0894415370665539,-0.1819245393192868,-0.03974069682330832,-0.06544788266172764,0.12299576593444511,0.06710559090925,0.1868281039624242,0.12390954290215302,0.13794603585617313,0.12548912552610664,-0.22084968141406258,-0.19581868730842772,0.15098832013388494,0.08247023457722567,0.1538303766646907,-0.24317004178480936,0.057174882951214624,0.27265457078058586,-0.14483193114678972,-0.06029029882205013,0.15010498220935775,0.04195939304580917,-0.020158206511323218,-0.12228951704296553,0.17394576592820862,0.2229933872007911,0.07636028684651769,-0.13062393366823366,0.10274359098086215,-0.10790384351347775,0.13740254212954234,0.25455730431155793,-0.13039081891301188,-0.22968496030331478,0.1081253042370585,0.10047406427996936,0.14405752389482224,0.1224261518980381,-0.24548023695056992,-0.2449294522648227,0.15706242929447287,0.0597533896039301,0.21490143165530962,0.09938813444385969,-0.023248104480578662,0.12990973889101542,-0.21488413309756285,0.13664674015064607,-0.11670164610031504,0.270730136039441,-0.1062455320139097,-0.04784528999843439,0.21142815287414546,0.056534919180255445,0.22078053378832366,0.16100637618451877,0.06480537648206325,-0.04424033153764203,0.1230253463314997,0.06856077633153045,0.23370431257009563,0.23952694067352068,-0.1555645561965821,-0.17190015565914735,0.27753084352712337,-0.06888075247093026,0.2755865479037214,-0.22381519214527032,-0.022672347551114167,-0.20548611664832298,-0.09077094145689689,-0.012932978055228818,-0.0905072395150665,-0.1383024492793344,-0.16297834649991438,0.17338663948880642,-0.25081921321132694,0.07741795561730835,-0.043603496650134424,-0.26981711718869383,-0.21566356248297414,0.1728735818766895,0.059687393019128974,0.18710439989298028,-0.03245688904941551,-0.24566997901549142,0.1621031236288802,-0.010841956162878492,-0.09842679425408568,-0.09846533122835467,-0.12874183456835248,-0.1706345124031917,0.23811120262060442,0.17540454475610012,0.07009110795912822,-0.19336725197757387,0.0890309296226016,-0.1946883465918313,-0.13122849442974774,0.022906446908532028,-0.20691706749718525,0.11725402139920986,-0.2673772258184723,-0.10068249881683568,-0.2530490667764147,0.03179333582235356,-0.05834894457605317,0.1037121233642866,-0.023812243413914906,0.020856855530034437,0.028603855644552197,-0.19984511308588923,-0.026849207993438425,-0.2214131718071936,-0.016549368943890586,-0.12161588801105758,0.2690662168856049,0.06592060369051708,-0.23766972946232118,0.09888699122917217,0.021558982344767726,-0.019223587307296456,0.18504088603673097,0.014723190061207266,0.04421438008941282,-0.23879802157059274,-0.21013720371538375,0.18524845532714476,-0.09838937162382701,0.07865548052020772,0.0010179845704977699,-0.15661453566315164,-0.13082769115275056,0.15247786185416526,-0.16186990173262256,0.0682818202982281,0.09104548215234562,0.13986117294256456,-0.18543129550031678,-0.0705178707634378,-0.2510328107737215,0.13273167958738458,-0.09420496011463045,-0.19353863330420795,0.20309912542683753,0.2508884892014623,-0.20946477796118163,0.18722330013671848,0.09870470769435345,0.14342505334898487,-0.25316198109569826,-0.27796045529080887,0.25401820439623607,-0.2682937443424762,-0.1783957039159785,-0.11305818457994642,-0.02238073773077715,0.0818587162168695,-0.07576483094127398,0.27621209385078865,-0.11216915336854937,0.011532833534864444,0.10819045621788793,-0.2550792924885323,0.014488690029065242,-0.044840902915832856,-0.05376900049026701,0.24382701709538596,0.14223109040205123,-0.22473992348263447,-0.21558053831354732,-0.08261206300470993,-0.01628055219991735,-0.22804535078281826,-0.03392486718946244,0.16890527411592168,0.27445828613251183,-0.007708144562531329,0.1470912048415197,-0.027491259792455883,-0.27197427509301475,-0.0760926341318546,-0.21909929103167244,-0.18020577890768397,0.2780640797848629,-0.20057022950213224,0.023482250645049923,-0.26001947395183234,-0.2087675916270509,0.1003808796714203,0.27385441785978776,0.08184236434137376,0.11185303431464584,0.01451798740996241,0.27284423782652095,0.25082367534674577,0.16865458785200596,-0.1706206590219687,-0.15620806739882104,-0.11391456461041251,-0.15656702681769463,-0.10446849561571175,-0.18430197575373083,-0.24558227513927827,-0.12036097079970716,0.16698709267746287,0.022553352149358743,0.13181402661264413,-0.26458336788469344,-0.20761592698048842,0.1698118563031233,0.2632196071902792,0.1090455177122291,-0.1862282641173465,-0.16222526816850727,0.18379458738512505,0.022702080737440296,-0.12613758966082123,0.10448001289444579,-0.13927185212400645,-0.2076991008189108,-0.215941154128511,-0.08818290627128889,0.14101695882995793,-0.07626606236446869,-0.21991192628641448,-0.03620824848000559,0.10407698214482204,-0.11162535327866163,-0.08692008470698497],[-0.012872331411449655,-0.19733442965081294,0.028589296148677994,0.25965042181100334,-0.08170063635335197,0.1011345741946844,0.18125478144264298,0.25722259915701867,0.11237870402662746,0.028112939899740057,-0.06829125425859885,0.19756486446283594,0.27167239249221453,-0.2545439852338879,0.10521270767436791,0.06499283989869874,-0.11150667155003313,-0.04737852015443096,-0.21942642776216725,0.24777449480461058,-0.12206534079798617,0.18595815289219436,-0.09814393419003004,0.0256387417876153,-0.20673129299584514,0.17528559484257622,0.13427457949118082,-0.04798570471207792,-0.2567080551905455,0.21836324314088743,-0.0571612971020604,-0.03948193194402906,0.0014507681512757492,0.14128502431970302,-0.06599826798477054,-0.14089021891654707,-0.04855540054448583,-0.0517327842817436,0.02775388986389573,-0.1066419817148032,0.2029320106848364,-0.0633014938138948,-0.20167480559829762,0.22294376985395614,-0.20124067459338948,-0.10786523773542925,-0.016771766892471757,-0.08100475218810266,-0.12728371927180035,-0.18703459863407673,-0.2667366929665939,0.024503489033090013,-0.10914917142361845,0.20006496879237654,-0.26712032153217813,-0.014132292010423446,-0.09195417506545818,0.26221618857333445,-0.07866103829951117,0.027253293646698772,-0.25290942229047547,-0.11466842919314496,0.270434504970883,0.20446888106519887,-0.21318521518219655,0.2820892600861804,0.09447214838010055,-0.031031362274708096,0.19968800999549535,-0.24780887166257676,-0.2472556164071623,-0.11694647947265825,0.1766135833303953,-0.2723214330995676,-0.2651513341092973,0.03447600810087326,-0.12314344380000412,0.2692627748109619,0.2297367872292607,-0.13703162417506964,-0.14641700210709988,-0.15626430267861188,0.26633985130231486,0.17891189039858488,-0.06389525478412736,0.19225029735911317,0.23374681881192577,0.04767412243046408,-0.25022710053987973,0.2493579759725298,0.12012703914648128,-0.06925109707741282,0.04758539284476319,0.20833009394818822,0.2551674674310453,0.21714211928614843,0.016468220884443743,-0.11865847270683777,-0.23830704056950566,0.23832539004694564,0.1728391619694991,0.2522382320357162,0.2400380826301164,0.20010499817603686,0.1538841441809886,-0.19653017380088375,-0.12685484884154727,0.01144882509858456,0.05752195720415891,-0.24240222943956127,-0.14177239492285065,0.10858594839268244,-0.08324353188795917,0.22311796520585855,-0.07595135520993901,-0.043346905416371186,-0.08484114552589346,0.28007740049791285,0.027226620291067625,0.15881606027499995,-0.263933338825117,-0.09733256769042214,0.06230711564520086,-0.013029313311226951,-0.19500353940852128,-0.011638733315174213,0.24643509418442563,-0.20843686774230344,-0.23131176439366183,0.26402299951041613,0.15408347492164481,0.13700673743272523,-0.10952031717393194,0.14758242889686654,0.04821585767085628,-0.21898743327983058,-0.20465631292960607,-0.02363488894205952,-0.07993789587170509,-0.10827458916902981,-0.1352953547875039,0.05888311891178844,0.18446109790349005,-0.2376782969912285,0.042665807063105785,0.14326940796628432,0.0024882837220797016,0.1835977719853277,0.18365216459281644,-0.05960498379793644,0.039798648933710774,-0.2204502593530407,0.24285628062897097,0.08767977562579025,-0.12674922170144157,0.05094703827658199,0.005116709948685085,-0.13298708818359287,0.23962885558386754,-0.1283248165191125,0.05054023863301715,-0.2285024064682119,-0.19512955970996582,0.2275156149072182,-0.2641696053476422,0.17243832425483757,-0.22303308572603844,0.26265297702480617,-0.2531383555460886,-0.025499332331823724,0.014692061250209153,-0.27676418718401424,0.22473257629916274,0.1677561857827121,0.06842976523347569,-0.14095529128611547,0.09032839367170334,-0.022080471869038245,0.21136517724903786,0.08899320351115243,-0.14150362970152203,-0.28329199623387424,-0.21711452028843406,0.00608686929341851,0.1958176666610881,-0.252644925815692,0.16027492955181374,-0.0460665022032087,0.12381172062014392,-0.11898225586466944,0.15911082196956447,-0.275582363794025,-0.11515175147693318,-0.16267376218012358,0.10076227678982283,-0.09610894505534309,0.2750781494519267,0.14242580166647478,0.24456361559967515,-0.2392718535770483,-0.13387554687315625,0.23694773133809197,-0.1428404881940908,-0.26491321788709904,0.20910884977068095,0.2633944947363232,0.07331194325353277,0.01875277399633496,0.14624428681731666,0.17403833261517657,0.20659177286375346,0.16717847196884425,0.2799263633188101,0.11984744662740439,-0.14890193626627476,-0.07260210033619034,0.1504883267339978,0.2508243664535718,0.1868233680690788,-0.2314118675536077,0.10532084664662478,-0.1701232433670453,-0.2517039934085899,0.18920662047226178,0.061569026646644424,-0.05682995534123542,0.06780861320718613,-0.10376497102465014,-0.2580301662679165,-0.17055330201602723,-0.2614823826410477,-0.01618832423233693,-0.2479833069646174,0.19962511989598378,-0.16664683899525365,0.09770015793028937,-0.11868545602348525,-0.04686516536118028,0.10075240836352635,-0.22643598969186196,0.028615238892734488,-0.08296768795871161,0.20756408516645958,0.24081626423732858,0.24949356014751595,-0.14035065837948354,-0.028805446899922062,-0.09877850312588132,0.056911267494349486,-0.13518523466861757,0.024724297534994073,0.042976393124985406,0.08833648816644399,-0.2509199501237928,0.07362413376161975,0.1524255668021543,-0.2514756729805911,-0.06003771096472804,0.009079641454433027,0.12779414917798237,0.2645494036125612,-0.06528403313029552,0.00946708619081065,-0.08039013977194247,0.26453245764627653,0.010408921736270994,-0.09955816309513035,0.25472340412448397,-0.11038892457760065,-0.24546308290803834,0.14617811233776357,0.0046601234741659135,-0.18147248085710493,0.07876110375513568,0.20299788848319325,-0.019025925510473666,-0.17820054959777215,-0.05906901998161229,0.0781367046822824,0.12390699820828523,-0.09763012587617143,0.06355226268361958,-0.04413680801160774,0.03423723357913249,-0.2347046160576094,-0.10468162481999957,0.14783488628555316,-0.2584147751802995,-0.21874290633211055,-0.15768576960386327,-0.28324725476734536,-0.0850533748782832,0.010780009721309929,0.1986968603726856,0.16951664930369423,-0.0017389977761777537,-0.15778270795615812,-0.1447274861956401,-0.277687193391016,-0.20415245237635618,-0.12494057639599457,-0.12851951754477342,-0.11889885874725903,0.10622590403101832,0.05347217461622453,-0.1310162532646616,-0.2409777955511871,0.2243805354622543,-0.184392999349679,0.02814099779888597,-0.04347287143722764,-0.1581977712782656,-0.13353807469350662,0.04835264229574206,0.07278757609180113,0.17408860010055088,0.02968067973312813,-0.23445232369180838,-0.11100467930873789,-0.24281078307852394,0.12681103624113582,0.011696511879557087,0.03271001112590488,0.000820440151207703,0.28143218363108125,-0.22702647707010676,0.13618212256005194,-0.17699990098096732,-0.1633348504297637,0.27221306790871946,0.18001603811366068,0.15701829959692326,-0.15819189410477277,0.20220037876370592,0.15736208278575675,-0.021419996919536964,-0.24944805238041878,0.08353839111748959,-0.24215317267814362,-0.144211311906512,0.08307989616305489,-0.19529323077306063,-0.05144603037305694,-0.264007693314069,0.03814982419897545,-0.2385468033060657,0.003097107331164361,0.05192353536580385,-0.20748295807322573,0.22650202064335737,0.19551705787928447,0.19102034656836567,0.0423659094194781,-0.2665479247872598,0.23610277793503467,-0.09312624561285637,0.2794260847540512,0.014660721931009965,0.2543486948223965,0.006370012367975789,0.17949294356753515,-0.25795276875815965,-0.08339057472017503,-0.05707589971765703,-0.2676043378954616,0.11170445870883088,0.26089183429158475,0.02996883990535852,0.13351822227680882,0.17867833076773773,0.204230247822617,0.1772937149977815,-0.20923937671434434,0.2040282036095289,0.18365411525740874,0.09832230949819362,0.20105499206163654,-0.12603316789734972,-0.16840179713603323,0.008888406227140908,-0.25648623565602763,-0.03924617143697869,-0.11275110277080747,0.10932550678308237,-0.20038342613895185,0.0033999801267358826,-0.04049601091569681,0.23730946241268724,0.1913227517896353,0.20931656506921995,-0.25285640805717136,0.00600888083749598,-0.11874226754934628,-0.2314637214485421,-0.16377572625029088,-0.17301090680420622,0.01927527087022908,-0.12389667556747562,0.06587212006137153,0.2539718907841288],[-0.048112873867806535,-0.1880273104321861,0.11758166004500138,-0.14393513452140375,-0.0723046326679104,-0.2723087940310571,-0.24835643942879873,-0.12548920617419843,-0.2619838161513997,0.1524195126529103,0.18122279018275775,-0.030960610021274367,-0.11737256354797448,0.06983534150326451,0.002118485832323701,-0.013061652427885397,0.014028869208839015,-0.13444115021028258,-0.09254266420131324,0.2781285606045244,0.23134096459517953,-0.2772262051831092,-0.2660861869924732,0.10515450294599907,-0.1892220812343835,0.027078032868466998,-0.07407027294549104,-0.25882243425283147,-0.19159728979031623,-0.00042017779916933963,0.21276713011724266,0.2781488431024467,-0.18433008737918624,-0.09216400442786159,-0.04522700201970737,0.1327349166520825,0.15038536270016797,0.1680081399311525,0.24496996668504925,-0.12384696608957052,0.2757739012453109,0.05550442974107338,0.08294935087704342,0.20518028878675176,0.06908907616634649,0.10504033802769662,-0.09215926414216856,0.15120094556318653,-0.03060428630265713,-0.1846220481607787,-0.058289081872428476,0.14545627423171562,-0.0003354328692041186,-0.19393439241998653,0.2775337476551775,0.22192333972251468,-0.016118866872127144,-0.27880175015146064,-0.14439165032992402,0.08675896947845743,0.19992025566516608,0.17320673758397423,0.11850914662557764,-0.24583172987878285,0.0020094576525859654,0.27347981970795987,-0.002467383550481131,-0.07882516539305082,0.18370494011014082,0.2757420781920252,0.07353601515669571,-0.15310511504405913,-0.08224624997569406,-0.0756205717524224,0.1330584685035787,0.1713600538400101,-0.03232962258777114,-0.0888494561760479,-0.13402427491380967,0.1769369629221517,0.09850372825682836,0.0011350944079574247,0.2341323754296315,-0.1326958096754227,-0.09551479498597445,-0.2407681976445213,-0.11463281078773516,0.21844094489823607,-0.011550466793901253,-0.1218200169331381,-0.23825248709166533,0.02204628090247604,0.23024165298709606,0.21985430554139976,-0.03337558363270246,0.25926746259902184,0.015739652935834313,-0.01915905003523393,0.04768484526655249,-0.24027725625897148,-0.17883852767586977,0.16405656360523385,-0.1866526859826053,-0.23884364407290506,-0.17241035675511956,-0.1919208284755098,0.1917558731631426,0.06194855789032771,0.15965401250791902,0.08893167620716286,-0.2669323669103622,-0.08042047408368673,0.054063299013354126,0.18039166907933296,0.036865958232887255,-0.09931944118315258,0.13961174177809416,-0.25207859531445187,0.14592073373195677,-0.20486604091381,-0.1702155101902833,0.2686653900286575,0.16115336747022824,0.043502425329554756,0.2690977267028856,-0.015436754943724864,-0.21967867435533428,0.12989046081194175,-0.0592537125545233,-0.15606809700393134,-0.0990820441147424,-0.03409195580760581,-0.18112882976138728,0.13103061266551425,0.037346271648362725,-0.22917685558590312,0.23568751971674273,-0.05302190563513359,0.19793316417086887,-0.007484039593321259,-0.03708600672309752,-0.10982781842410737,-0.24446772574530024,0.011595705078982535,-0.19134798065692676,0.15842571675279496,-0.2830961444410305,0.1623217819112648,-0.140198717336439,0.012464320224019467,-0.09852070054105538,-0.0008977607659371759,0.2632551475584861,-0.20719119682490095,0.23706972838495727,0.024270285620674525,0.0914487464319754,-0.280471762688313,0.07717345325829494,0.24300933051953622,0.017345454141336848,0.24032393411261715,-0.1591624393442781,0.13625126443358127,-0.05510280663293162,0.06983308739960604,-0.2615880626355884,-0.11494719560167985,-0.044192571805188534,-0.02006464321419649,-0.26042592595001884,0.04583938163645989,-0.16173903720142424,-0.26210044303686086,0.28000654604389436,-0.2702412163557182,0.27842809700663396,0.11455775403366492,0.08035236785381085,0.184303304290333,-0.06641438049828342,0.25985135007994653,0.017913544029912076,-0.1379094520224399,0.028532154182161325,0.03110679464408999,0.06986189198319423,0.2605343497132489,-0.018540642082654765,0.23787609094418882,0.051773615469935405,0.14418935279199638,0.02111722396520509,0.05255462718007089,0.1330983067027429,-0.23345213351437663,0.0006924497046873726,0.0630536865670892,-0.05647835681084372,0.10167763350570143,-0.24771901481461242,0.12040809276255177,-0.019247681845998038,-0.16345390061239495,-0.026082887301911717,0.18405886390046958,0.03072643164707605,0.04877645462431243,-0.07156425867317552,-0.2561339350771765,-0.22393904947896248,0.04142233587293358,-0.11634990678180934,0.08023055003034468,-0.17952177332658703,-0.24780604400594128,-0.15116437221268836,-0.07381245187143276,0.25661850136770337,0.24710634285076494,0.11555834657916848,-0.21987480043304647,-0.20070700947319542,0.2080463308957239,0.0699348336729605,0.2324412704343246,0.2431082947078722,-0.021701363162878216,-0.08376554165340358,-0.2725870463083929,-0.10590873782151257,0.0626969661147236,-0.20405293246883754,-0.08161471922678386,-0.2456902430583219,-0.13536391433994616,-0.03611814132409443,0.2542726928327853,0.26422242185670397,-0.23656500344212977,-0.15911364310908166,0.051481964671068504,0.07930984100978578,0.1571234561723253,-0.004955485318267178,0.22668030955019933,0.157862118667477,-0.030857609242723866,0.2164321177295548,-0.03579829310101322,0.0914108134245693,0.1542012290996909,-0.04999876666423862,0.10980078573728813,-0.05082147809370269,0.16604731577835222,0.2019092013685338,0.2294241399481713,-0.25688946689597375,-0.13614106827450315,0.0017266082569548078,-0.2121213078227523,0.1355472457362022,-0.06783676415692397,0.11387232153492037,-0.24529831951251388,-0.0953699005873309,-0.16310792148795555,0.27373015920237925,0.1976304007760905,-0.13471780039610587,0.05856483641432274,-0.07299153418168405,0.1563734659307444,-0.12206358943812164,-0.15208599745319804,0.20559674328727842,-0.20476756980436858,-0.06868709599932707,-0.15673452271517954,0.17776271183231152,-0.22017933171444706,0.019110283818383467,0.09104967657479036,0.10099843292308683,0.21636729219689682,-0.2064841416615051,0.15621231250085293,-0.18082074973934206,-0.22514562154788548,0.025249620407713797,-0.08452752457880582,0.16908226515098526,0.2562553606793224,0.2717580293243984,-0.28281822952913194,0.014541725319092863,0.07020068310992694,0.09298212417965511,0.21533664259350532,-0.03758736906723014,-0.06392606392326876,0.08644541449729029,-0.27198324532065704,0.18690554396600276,-0.16343812963665372,-0.08898121222271563,-0.001699302883771028,0.1861967841166642,0.05928889707407805,-0.2069732633192049,-0.03763284742352266,-0.08304249019337068,0.05657883437697004,0.005719089453561,0.26324712632574593,-0.1530323835542421,-0.21011349694209414,-0.22815299244198492,-0.08001362094965472,-0.03587108630032277,-0.2047119100335387,0.10238429531025028,-0.2594620827232782,0.07280771232880302,0.04130045993253812,-0.15886088694442763,0.1723591908255155,0.19063538152905538,-0.153428201763144,0.12362829774989685,0.012667289554802915,-0.2315254427263222,-0.21107195711599444,0.028742307906667108,-0.21979576305572857,-0.06877742319542804,0.18934957883097892,0.13335581957471382,0.10278771096534806,-0.23178324036074274,0.00904250270041708,0.150302106203346,-0.1180445540792814,0.26694314043013445,-0.26767656060371764,-0.07921420342992343,-0.2525447830067802,0.002670386509356677,0.12830126682162415,0.12996606573639974,0.2665524018255941,0.263378102564051,-0.27401794145111746,0.18097348357275103,-0.2587574073677805,-0.14836416359907623,0.19531221631923587,-0.26687953002621423,0.17384906415651144,-0.09264428592485086,-0.03026408116349429,0.06665522008188803,0.02835414462411979,-0.11235866000356888,-0.19585620927250932,0.251593219674847,-0.1708465594460409,0.21974092336645001,0.15298877246620857,0.06698297910208909,-0.2828464078043347,-0.15786318878426125,0.248555156083127,0.018240022659748382,-0.23162839815133393,-0.1997486333386968,-0.03341680112497952,-0.2730124665805973,-0.0071926298787283,-0.08975513847080295,0.03371775321968193,0.19345657575819433,-0.11638105387563621,0.27387505875060614,-0.2574637793990769,0.038939282230627204,-0.18417051434970733,0.12809286277393633,0.2645909330058364,-0.16629321607597636,0.057480955453508537,0.2634345700870785,0.10889243540371348,0.10803877794457925,-0.20478987820371708,-0.20254391748336414,0.28184226441017673,0.061179341622941,-0.18381165111896744],[0.2596467965049728,-0.19779138134206142,-0.0633874575231443,0.24148880877056164,-0.0009867995812410965,0.16831170419963618,0.038487087616934236,0.08516064775128818,0.2420323805574719,0.006715268593860865,0.03473410934199881,0.14855709020867713,-0.16786353454748829,0.09609327324642487,0.05594316164690079,0.2666492546090487,0.2785659740121415,-0.07436500090725308,0.16725956505109352,-0.0347263652906479,-0.0255572600357558,-0.1512176304084384,-0.050593765638360225,0.16113344606800606,-0.17329082670938054,0.15858579483663138,-0.10294888161273329,-0.05197034638659893,0.27196237584648353,0.17223717158184662,-0.048816165511934184,-0.2796444486977843,-0.08154018184386576,-0.2501653547345074,-0.1533826855010623,-0.0191461375001588,0.022386984419826384,-0.033820974072288255,0.2006710936154525,-0.24497483449957413,-0.1712650744067664,0.08007488351788795,-0.13049847133084308,-0.19549256573218365,-0.2818544703626718,0.26480470785648835,-0.12069190001099551,0.11844573466842698,0.21862663308884422,0.2734353862670898,-0.10670804828704468,-0.22681727455342185,0.15244919573765334,0.0957079543775785,0.24639694578192464,0.2583553629520956,-0.06786700226841029,0.07458867167291508,0.03215108688248858,0.10882840335845474,0.14971246362292662,-0.19997674280782693,-0.07702617280130523,-0.2674736698946528,-0.21960906929494925,0.1204238134634205,-0.0567941048320918,0.06188384406563161,-0.2779738859057913,0.04030276902542444,-0.20646634427811258,0.21814215922828134,0.0034477595750898268,-0.18621951036248968,0.13752038119820573,0.2684303163994743,-0.2671823707929748,0.006915201457249312,0.12313847066331811,-0.03214810208694905,0.14873352795639658,0.08590334669575925,-0.1501664434507545,0.23107304590839708,0.1687213706803283,-0.12715912217522438,-0.09887005384153527,-0.24662933965822978,0.06343470697068579,-0.06330928184694218,0.2765635264723918,0.1388897597140941,-0.23662069444750633,-0.22045845394877878,-0.05999207342659354,0.0746151394781397,0.12213814148714089,0.19040711229909188,0.07442315666558796,0.13497118811479603,-0.28182196905000734,-0.03615041258247678,-0.18902477091739672,-0.19818342355945806,-0.23035173292936764,-0.020292427950739916,0.2160282884552723,0.041295720814728994,-0.26306780208868263,0.02612593646631146,-0.13181320288210369,0.12286772447823024,-0.2506059685060052,-0.10772752787567458,-0.22896515041455873,0.2257172786130097,0.2579134072065432,0.19616291123152818,-0.21909360294878705,0.07537230396776269,-0.12721290299878169,-0.17835616149263028,0.024296680961339488,0.2034393032510681,-0.16874392910625124,-0.08369528445448896,0.24345348860725485,-0.2785163878217703,-0.01590660829333565,0.0914847907246625,-0.2738803273683017,0.1952336667059015,0.26949290124537956,-0.2789640884496684,-0.14935784365841467,-0.1976143049633911,0.06263621595582078,0.18680469832376861,0.0938796624266226,-0.02709345904257859,0.2545019995857679,0.03099725899785913,0.11405137695230849,-0.17330716778313346,0.043069692151550695,0.2634525987559674,0.15506514263409482,0.24397922115495851,0.1509649342713901,0.24989158816145512,-0.005919010723709379,0.15112654590895444,-0.0035187686879601227,0.1279360186567082,0.07824416020288691,-0.077221940381045,-0.24504335400823146,0.17992009029048936,0.20923852528051315,-0.012449753551645789,0.12446160966200252,-0.11359699844927224,-0.19312913180807917,0.07338484480231937,0.0018243667779316952,-0.052408568159604554,0.12354153727445995,0.015630853259800702,0.22000905972758347,0.143780702217357,-0.1633174722354313,0.016089431519653613,-0.1836933448952259,-0.1214299608545123,-0.13738904245194283,-0.112684798691921,0.19797575214668384,0.035302465995439784,-0.21802408156553355,-0.0027235281377803624,0.257170044528736,0.18357873078451165,-0.07938281013036814,-0.12917260197605065,0.13933055310144649,0.1696048085519979,-0.03513758669693031,0.020814943165257616,-0.1847418210876508,-0.22598121277380348,0.027815760286662057,-0.0009458655396949824,0.14662509032455295,-0.17708059053627653,0.24146681541960538,-0.013265011427885711,0.23896837701473972,-0.026409388163661916,0.025655767334429404,0.16112532946769376,0.16595069425543887,-0.15557270635894424,0.10507675672534147,-0.11813854534886747,0.004668723926649644,-0.01674110759353174,0.21334613960150228,0.043084183579139616,-0.2566126947487361,0.11288883404519597,-0.011180227649513841,-0.2315830159252288,0.21441678879079115,0.16638645088853887,0.08176753114697748,0.03776904008913757,0.017687415179257558,0.16418167469775735,0.02934799795236961,0.10219815665607421,0.23091645780957518,-0.0004974420088169611,0.20646681522826174,-0.05216110046033975,0.16589392728212177,0.05882740836064921,0.17296867456072854,0.20210902890361274,0.030664502013500346,0.26045152095639745,-0.14228906603051095,-0.2495174197765331,0.0909726081451134,-0.02825483434091402,-0.11909425681769709,0.11913332850504602,0.26577661377193307,0.05571100602332444,0.016911863149065037,-0.20507820587523884,-0.14502854779256155,-0.08395282662738597,-0.08203641932813388,-0.1991174620617687,0.12174894125944423,0.2543585905372865,-0.2782338850416351,-0.04726976494706336,0.20282834912968498,-0.06031388953881942,-0.18145403301383237,-0.00902042807693891,-0.10627327084157294,0.2590019508028394,0.03200284896347563,0.19696337050418328,-0.19752379553032273,0.06993020679472285,0.03309216649459704,0.17506172265939285,0.020967268843605738,0.06672091664540668,-0.06018857846588522,-0.1334008060401765,-0.2283356665973095,-0.1172001804742203,0.2115483425799867,-0.24612647957797099,-0.24045893186835357,-0.07953868555293302,-0.043916553661408037,-0.2718605352870592,-0.23131025285318824,-0.2811453388753627,-0.09485460383367268,-0.0810587973781358,-0.1293920174511478,0.04457235419417523,0.05412969704250636,-0.25103415193190476,-0.24518762725001567,0.21250793667493278,0.2405050474803067,-0.07533913896954944,-0.25731751353803217,-0.2411421730334596,0.051487471287128585,0.07868289772196563,-0.21237669101302,-0.24394680082772535,0.03136250334175634,0.02234521247492674,-0.2608971107691387,0.21793095084546538,0.22276144232804548,-0.030539744311019645,0.028883574142992856,-0.06933767841998725,0.056641848505486266,0.14427805593614004,0.1232113393051319,0.17314258080011838,0.2089272263853254,0.2677624185418587,-0.14670593092288187,0.21424766640383006,-0.046167054919345654,-0.1733330264089648,0.27419264947905664,0.10095363758199204,0.010069320532917465,0.11250537400942767,0.20863108333530914,0.2677935090991239,-0.2462602006232769,0.010586858029403772,0.063581837738678,0.03527832701606744,-0.07090461099254615,0.03661011543677431,0.16615628105939345,-0.2727137886258389,-0.22099246260153219,0.11040231295312404,0.07415880845851537,0.188845922569626,-0.0506848920618366,0.0705113222123814,0.27645321221400576,-0.1889189935380829,0.1832220519701172,-0.11389202015059904,0.08447933047345049,-0.14526594748998573,0.22577205455477156,-0.262270984663654,0.23912934643063094,0.2652798795103173,0.02685448189550579,0.09740532944215445,-0.12235839190661954,0.22450771012820203,0.25517285835733416,0.1586069220123349,-0.16808827239402283,0.01790591654353823,0.00844898092526632,0.03741540785700679,-0.040144200767513336,0.2664736784979399,0.10780663336337017,-0.19852335096617024,-0.16513003744702454,-0.1649411245322885,-0.1970226781218805,-0.0018110339989745184,-0.17408717490073253,0.10347576789129234,-0.0796429942791561,-0.2578967536236632,-0.23963546955792353,-0.19499749661343663,0.14434011744662828,-0.01624168932543218,-0.1245003574940407,0.23912545254738382,-0.026514236388792998,-0.28021899601951394,-0.16185664263750718,-0.14126232364304853,0.07190490538852895,-0.1271126965317258,-0.2748053751568316,-0.09314489946601884,0.22374487553486866,0.07339448028298357,0.03587022975191518,-0.03416358412957318,0.10194282494222773,0.12925324491849885,0.19083176642667263,-0.13492490973622787,0.21674279287276135,-0.14231320130693406,-0.2313581945857491,-0.14303842137330483,-0.15603265877168457,-0.2682357574167902,0.007110507651349761,0.2577740645926065,-0.10297869617321864,-0.24136003134764447,0.10342327289517168,0.21960619863186812,-0.24689991068378137,0.17846159577277654,-0.18074632291449466,0.14643420439398463,-0.16676136988604306,-0.14540167766179155],[0.17955327351923242,0.02231166440437229,-0.14362108768473308,-0.0738988692298689,0.1928419107185003,-0.0678764215404447,-0.1451568430541207,0.06993177355477713,0.10135465216468337,0.03519069079870924,0.0441303859054171,-0.22266863141065923,0.0465952234725828,-0.11379735713700179,0.041729924843459464,-0.1309594499744703,-0.1208369709714373,-0.03427260159153268,-0.21749358429333404,0.2538250886288257,-0.12321695519531421,-0.2514144920420238,0.11948874767586241,0.22439640575754294,-0.02080156066436342,0.0809356321445714,0.0903296808008912,-0.23098418044063657,-0.11304053564538316,-0.22353260370709038,0.06271913700650235,-0.18226897924892688,-0.1428209719260523,0.14460210076754212,0.22382234943409185,0.10714586325387905,0.28260112039512736,-0.016492590635784638,0.06271229563202259,0.21352062560338414,0.044070452213431394,-0.1912333217131299,-0.036432323193652395,-0.05575502120723258,0.05840864688769459,0.19359560418227756,0.12250370100675512,-0.007612564894869844,-0.18785514341095239,0.15989840534254185,0.25559316154501227,-0.0009863331752864414,-0.22838083095716313,0.11068318626029361,0.05945967205495907,0.1597123394568319,0.2637239242170016,-0.1096482141072175,0.08526134315852449,0.22487009173140707,0.18257090861009215,-0.17497028468686707,0.2459750572652867,-0.2390368240373402,-0.13220352877578975,-0.036572230096034324,0.11266283317429299,0.22083261887407987,-0.09924234867814255,-0.033086712690144314,0.06632644900800641,0.026530648371730504,-0.15402436219746307,0.18128772719285594,0.178808690071862,-0.11932163078541215,-0.12711796867477598,0.003096430955657088,-0.18933406322472174,0.18842760429540473,-0.046983441536626216,-0.036766331679670305,0.14384158147372578,0.14670561721652786,-0.27389693191710945,0.24322273559719673,-0.032691277842513605,0.01100237259923713,-0.23528717880755565,0.15964048434155934,-0.1770998720947015,-0.022403259445711737,0.20003310076595396,0.033529980196232934,-0.2507692544158048,-0.10841616013631536,-0.11872812367001559,-0.078599313307522,-0.1162226528758827,-0.2491234208721741,-0.08667571926441943,-0.1723302833593363,0.07923421763178971,0.18163933025695805,-0.008112058950674482,0.01608895723123855,0.15409988024175836,0.20841976344630084,0.2465533938042754,0.25508508624832993,0.09395668599367991,-0.2741696785915372,-0.1576991562361681,-0.26376939604084765,0.0686897871744363,-0.2419451821965886,0.05584664267941603,0.13364536401174118,-0.24608761739339396,0.11744190703183802,-0.00022438121770304963,-0.15018592190062163,-0.2014393744292298,-0.09524086774253489,0.26225355008316076,0.1904558971156147,0.04199656906976566,-0.24335073190916512,0.23987981237785044,-0.09817862706771713,-0.1608198287135146,0.2181034293558336,0.1318462077379918,-0.034309195868353876,0.11741091902502424,-0.12552405190898006,0.2542242472215754,0.26061949300615456,-0.004390258193738392,0.27639014021536557,-0.23063848087694885,0.14180502744341636,-0.012257629652920684,0.046125577896086005,-0.2392988695213584,-0.061917806820510034,-0.08373718718811911,-0.15215265622730972,-0.08497475299676496,-0.20797617623356868,-0.23025524148654958,-0.02936225084113183,-0.19587935360754685,0.26442051443238385,0.12798041940131333,0.14269514729052485,0.01813118366177976,-0.05871878430637894,-0.15707032280789227,0.08843948762808589,-0.11534435906338371,-0.25357178739314357,0.14468912366440262,-0.13261656173416286,-0.2078055715248893,0.2286353076482037,0.005053477364121309,0.20439443519600728,0.1120918038317484,-0.022271532047941606,-0.18028350972059742,-0.2119366857189597,0.2590572214935057,-0.26483199577469096,-0.0018229703915202229,0.04569853158179487,-0.18886231199544246,-0.08183052651598562,-0.2714558128872821,-0.07014600253113065,-0.19714203906688418,0.15071407939015907,0.05248156585981937,-0.22304533118732006,0.027005087527807885,0.20208152051034872,0.2764656988468157,0.24522942185705168,-0.19042445431142854,-0.18866210889622828,-0.06521190378986576,-0.12379514911106418,0.1538632619693806,-0.03304847091602123,0.06067325066067202,-0.2141014032553115,0.1549974556314035,-0.08752413970387361,0.27969367419231145,0.058589535165104456,-0.11717364730655862,-0.20185531750959645,0.04449151769895453,0.1853071093736962,0.014071479630078388,-0.044386677629633345,-0.21533864799463448,0.0958980132645145,0.03427622640927415,-0.13357719132918824,-0.026111084861822516,0.07450774182667297,-0.016100116530495878,-0.2703406869390963,0.05764154916490254,-0.07888475208345054,0.17082011722567472,-0.012959358338744833,0.05160743740362512,0.25731573113444295,-0.18455392026902429,-0.18336272645055193,0.24840346583361578,0.07792357871275794,-0.24485038197018988,0.1784499476994494,0.24374947062633978,0.1299725164992425,-0.23943757285881542,-0.2487992984700288,0.10629821493066216,-0.21419543278769798,-0.021891037776559347,-0.09209080229211726,-0.24942449123489732,0.1942526448147198,0.2531222722097323,0.10353987175353097,-0.06548265280606999,-0.06396482660576776,0.06517624045450324,-0.1754653722288755,0.037889072751622975,-0.1571241499355939,0.1399225164008608,-0.13326931964907449,-0.27478465100941374,0.09133757331114759,-0.21693345169154518,0.054988245083220845,-0.02804392343004754,-0.24001987485309548,-0.049516553371796994,-0.22469849306450188,0.006467884409075153,0.1558158707275603,-0.22166157369438555,-0.06346833828997092,-0.16915531240708276,-0.0847662490634334,0.28220044350752344,-0.17131183387537213,0.12074458743109416,-0.05521905930065359,0.15196109567560614,0.1350784172163464,-0.16498264653695743,-0.23191348260733016,-0.11269705709050934,-0.04771504692522551,-0.24294480527603804,0.2592291129209729,-0.20699411973082732,0.21610335101476322,0.27308912711610706,-0.2764343830414474,-0.000584990230123921,0.23369567879921188,-0.09484391746718972,-0.23859307524757048,-0.20723290104250303,0.09613230133251224,0.12877731999197733,0.2133603118985468,-0.26257981424545135,0.2528629505872938,-0.15791286239261643,-0.11864058246721262,0.06135893450004713,-0.0220759309602448,-0.2629729038793449,0.0708817953948658,0.12364239762148356,-0.09304326151354987,0.12066099814678835,0.012874464905375027,-0.2179841833441477,0.06035317253187077,0.0037871214632442867,0.052296301462189394,-0.23052852986053723,-0.09548478500210107,0.043102206558015846,-0.18088977586535815,0.08262977535008453,0.07002156202312064,0.07536620024460541,-0.12010781673060902,0.20761308920819294,-0.2171703647010395,0.09226040684778974,0.09007920094959788,0.26153828079861097,-0.22640282956625962,-0.1426712520414839,0.1185627224647927,0.2292417686128183,0.2167470253129141,-0.25630886185331553,-0.001298071910619572,0.20720476417632447,0.2243189724380828,-0.2157611844768868,-0.21946902721729783,0.041040594471145435,0.10265369219993084,0.1552664206123927,-0.11301393585117404,-0.24133080745047292,0.2202495343051123,0.24590166326707494,-0.18965650047684043,-0.11985531279231157,-0.1725874230625987,0.23077914421777743,0.22061158996983807,-0.19274502181906275,0.1781025619689181,-0.2280375908196416,-0.19223473413203093,-0.09064230900770091,-0.1943424104111167,-0.272100110773497,0.15262133011683307,-0.20648827886808643,-0.08174614578632002,0.10435557685227387,0.12378717320100548,0.04790830343715729,-0.19613131472498602,-0.11811526003760438,-0.22710520584662397,0.15774809439521892,-0.26827927477473495,-0.15302953426607285,0.09474795510913202,-0.15322049796633166,0.18425758066689957,0.06207756601235955,0.24096989302525335,0.04592242056267531,-0.2332928722378179,-0.1237594591846029,-0.07831317029710684,-0.10826884704940355,0.024700033086146326,-0.23854825461280027,0.15299335737493047,-0.22802966399941957,0.02606113577768834,0.1768772801132574,0.0589422710359759,-0.2495349439190774,0.006556241732673167,-0.041099087018272626,-0.12888393274063722,0.07624066896115668,0.16638120502570858,-0.04518785045278215,-0.2597468984077089,0.09663470470965713,0.04439247352938774,0.03635545178581097,-0.2324928918782073,-0.010526437122810046,0.2425158483072955,0.15902343145524198,0.03994476330262546,0.0792810249167571,-0.13158217940106148,-0.18767585213774082,-0.17696866164836086,0.2339819850204934,0.2514247082475585,-0.2813454087237695,0.21129009055524955,-0.10803057035174972,-0.22464923317917251,0.12911153710594298,0.185113339686872],[-0.052027648799182105,-0.01517522571026681,0.07339011693888978,0.03969436454311211,-0.11642478517152202,0.06832433301568716,-0.18861062167755135,0.1852440301860416,-0.2701419599248594,-0.1544665797144721,-0.12416754246275531,-0.12375866115590672,-0.24534687342916645,-0.03724957189839315,-0.026123801437438497,0.16043562193871408,-0.07284868773370276,-0.09283164920959863,-0.007046993140173082,0.004171404836067879,-0.0009358466555507499,-0.17560414487700596,-0.15455990262599453,-0.0709155933704121,0.0818025843054197,0.12759838186754266,0.03403782388698775,0.1934655693277576,0.2367820659086727,-0.1062105879879739,0.021828294004769707,-0.2215745072471391,-0.1591108132405584,-0.05011237182022476,-0.10528911654139957,-0.05876299291067615,-0.169939755083851,0.14960978278515222,-0.24729804785744178,0.03202114499188712,-0.04654769878737671,-0.19753839350282534,-0.2034021512312742,-0.19313937913805443,-0.06083965647666127,0.16634411840879923,-0.0014518748497829106,-0.19584136602970326,-0.23185430734018408,0.27372846612104434,0.2252145092733549,0.10042439510225186,-0.22626277638345765,0.021023162438868998,-0.21760357697402216,-0.14813526232517488,0.1362220650100181,0.055931104432220984,0.1810655361624047,0.0836359719342988,0.015864010518609226,-0.053034348556811745,0.2461279093878695,-0.04452789097750398,0.27667819596058135,0.16747870481184493,0.24555084644236932,-0.007625339830462504,-0.11029097212146065,-0.28107748408923966,-0.1015039425522568,0.11981283205400074,-0.11223172024768537,-0.1507517337801976,0.26790703100233515,0.0734548162443022,-0.23379954140204112,-0.13540580099103647,-0.23937978110598285,0.274612462823097,0.24228341081861188,0.1645610581389884,0.05774102459353846,-0.06587439521509855,0.22170921832451482,-0.11910576287795713,-0.03179412419024191,-0.22851481538986146,0.26185764490170294,0.05893856258678612,-0.09371441733204985,0.1380959923641037,0.18851413464078196,0.2007501613081544,0.08026958906037464,-0.21698536589696635,0.20414036900999888,-0.003778064512529665,-0.12235488531311063,0.2581713403416331,-0.08453641864672208,0.1073997662523684,-0.015908187078549865,-0.21886278155198943,-0.24080773454849386,-0.03896687685308294,0.10640753275710677,0.22371885136526384,-0.24076360712831918,-0.10151092104375355,-0.09192657816619851,-0.15223669897854503,-0.19723624024214534,-0.23869257735001254,-0.13807634002521532,0.17226016565427268,-0.2256020459931284,0.19629287909296328,0.2239052041246079,0.0508331978145099,0.04332298092704374,0.10380816165669349,-0.08091350769892647,-0.046524183876128715,-0.06386204574458795,0.14120675101250457,-0.1843168426125392,-0.044877257456857944,-0.17263021825225075,-0.07388965037780182,-0.10015133347342503,0.05375496704298752,0.22764133549621451,-0.1073922448969532,-0.007455941973163648,-0.13269905931846177,-0.22719156608990326,0.07954979848886574,-0.12431301445330437,0.22826498916860818,-0.0071393528615108625,-0.03684290512723936,0.27159664759448426,0.17746422684968347,-0.049194997310511406,-0.17223559103371336,-0.1945979198856266,0.09714747631773303,-0.14067280487148034,-0.1952881775166591,0.2773015643336866,-0.1954707959052366,-0.20792945594028694,-0.05352454090652693,0.0074073832652075235,-0.20996560554652813,0.2542855902120708,0.20828995978526907,0.120683128923449,0.000735055579645536,0.22998358459158005,-0.11650581577204414,-0.006801627698851806,0.0318813138798617,-0.24576994394591478,-0.12455817499398077,-0.07064247213075536,-0.21171970095889459,-0.2310056988324468,-0.13973684921599772,0.17461610380536507,-0.1854629127019303,0.015776423396085457,0.26288521376858354,-0.049807973231778845,-0.0983986361747561,0.03227975983277117,-0.22392424166527647,-0.23757195048397,-0.2432125651908405,0.0917554642444302,-0.22498785446535427,0.04671584717678393,-0.22407696903572852,-0.005920539401177382,-0.23964339083208497,-0.05647197761788229,0.06589201367823432,-0.20658027970215856,-0.09735971863070692,-0.16627191279942924,-0.09612585682703008,0.16795058539015664,0.1340381352174037,0.17374185829647756,0.23766628156112826,-0.24195837885312477,0.19092659080499508,0.15605895243563225,0.04673259773669227,0.15903265570514852,-0.27998186095900557,-0.030346882944912952,0.2028199322397818,0.03534335748946037,-0.052228278856052496,-0.028301640753516825,-0.15173374585810076,0.21806035153663278,-0.28297460610553915,-0.07801960862926614,0.071808390317422,0.12125289637712597,-0.04169673449161735,-0.19315290344371122,-0.00342860645568408,-0.06901636727574341,0.20916141009616077,-0.20984227896246238,0.0704799168383928,-0.060154898877860234,0.21185173490585632,-0.22924685083593616,0.2673442394635256,-0.22651781008262875,-0.2753556741583739,0.16497236667192408,0.07990971126701053,0.25880256281684805,0.10166070048028115,0.16110455611863267,0.17621562103156355,-0.0033431900615909283,-0.21937189741273552,-0.189618522727997,0.26216102723966794,-0.09064613797369242,0.17919081906061368,0.25230217969432595,-0.16985767323745826,-0.2740785143383087,-0.2423486045544253,0.04575653795285069,0.2811804846089184,-0.07538573562532416,0.0503259987669,-0.2589257371335623,0.07641864861401804,0.094128401655289,-0.12778500798245726,0.24238870067173965,0.1891781645010298,-0.08494673489531182,0.03073039140984861,-0.2002326442284128,-0.19164440898448443,-0.06447133880545004,-0.20856860455759293,0.014636957848354268,-0.27985566554350333,-0.2623426892389604,-0.10339754546043907,-0.08865530045889031,0.019885872456639406,0.20699416407083396,0.15720514086721596,0.20677673780594824,0.21903575532336925,-0.0763646507999655,0.18601368953090774,-0.09420282567918256,0.033678863338275175,0.05682350125585896,-0.14009417804240698,0.11363571727148718,0.2791712832354463,-0.010290278802017218,0.09420162920410824,0.09540657552436303,0.22570800029592913,0.14091414511567021,0.22883895532297763,0.041402827725937674,0.09772605118714961,0.09038897385655593,-0.233421600084361,0.24564783648855884,-0.11632304353710238,-0.0543707798596292,-0.08131250520791511,0.14186538898659407,0.24906812869047712,0.23406930352498073,-0.21165181655407858,0.26900276396692496,-0.03116350356131854,0.05410797639858163,-0.20573949848913137,-0.10889013264124707,0.2671819931949947,0.21358959177660175,0.1770040900766421,-0.1168403596772814,0.04385180284663717,-0.1596864801471068,-0.04607948556597545,-0.13688454344574816,-0.13525490795200693,0.22990306042596628,-0.01980593670095815,-0.25633327200325623,0.264767385036525,-0.007618337531345404,0.2433860790037816,0.2299540138709959,0.04180586381418442,0.21901234494667554,-0.28263927116892024,-0.2441408855330509,0.010424088491115658,0.1404191213911193,-0.04912774031804946,-0.20949400699126974,0.09111929294546085,-0.0184944266654024,-0.2815798872866591,-0.0004971358891736449,0.21618556010646464,0.04617821295274017,-0.07078323648329204,-0.23957597089614013,0.02683709754935174,-0.20535718811867343,-0.07507852155242219,-0.035499387214315704,0.27954749413499747,-0.1501868724504686,0.16613598279401748,-0.1028817014243111,0.1967495004841089,0.1770389231134393,-0.22321032533746363,-0.27299353674669335,-0.13063460583806863,0.08969885579308633,0.07228242791475491,0.018134225730663565,0.1002942328131889,0.16058951365050828,0.0037300019733856014,0.2116086244508306,-0.07738136140067904,-0.002169210705797881,-0.006837742878358156,-0.09115282523283215,0.19596691887740517,-0.11883903817677634,-0.0970982028009454,-0.021927487829949834,0.11313145732113662,0.08796080194135901,-0.14560217904308936,-0.09526947197194552,-0.13675651015720927,0.11347146405431496,0.02068194875608196,-0.010615224165425458,-0.08289869331592366,-0.02766120976923397,0.18772771735265767,0.12935524091180997,0.2678396518374355,0.14723544064666477,-0.1582075038737664,-0.06869046304576001,0.2113892016779171,-0.07575889381086831,-0.21285906278138064,0.19979696798189292,-0.019558289049619048,-0.1553199767587962,0.14163337856574676,-0.2705781415256513,-0.025258885539447357,-0.10768579251974573,-0.23501861746176103,0.021160128476031503,-0.15060135703849903,-0.09651512374571379,-0.19612165824422537,0.2001155733068922,0.13294793361091897,0.09860123635071164,-0.10768684433193583,0.17227354405575757,0.11851834704952464,-0.10670934592725946,-0.22261981403022493,0.07522079018775193,-0.21934809394130295],[0.012910393931489234,-0.2749109985252709,-0.055979520542211295,-0.18912274112732036,0.04257887307053964,0.07040100909415678,0.18430925424873554,0.13302887513289077,0.21000443584968662,0.24787382964025736,-0.03384002172476106,0.24995089198001363,-0.20012497656383446,0.25001016933738873,0.20462390315832243,0.2106253865619489,-0.1641329202872097,0.15299473152375231,-0.21148178851308513,0.0257136384904761,-0.04132971927805336,-0.08400906779590873,0.019426514082733718,-0.06294275885491418,0.20621683136666905,0.16929275410819716,-0.012616775654481386,0.12532005277514413,-0.076438184145652,0.10959040173025743,0.2470520974642596,-0.11507487855843708,0.09891594693183958,0.06400950658816647,0.02052134528895946,0.17501862955520014,0.1410050548907563,0.013929824261140677,-0.25091367427284844,-0.03537815538929375,-0.165982206675052,0.04347628703019507,0.27407847135483393,0.20335446815466654,-0.2745132368960961,0.07504999615955622,-0.09126043252533214,-0.1335555228225291,0.24634726827673867,-0.019905124509851265,-0.07710981670801166,-0.21645354726474061,-0.2246542086483856,-0.03854706589706791,-0.15270285747432175,0.07800368450370011,-0.10716584984087407,-0.07562312916619664,0.25858581906192263,-0.15438087133136144,0.270957186313956,-0.022841738062452894,-0.06896520508933857,-0.03493017094470338,-0.0702373943594867,0.20180935558334948,-0.09444425786979972,0.17227449630201203,0.22866431829802983,0.26897062010303263,-0.08483304531555803,0.12899178799532673,0.09274489078122931,0.012084270406084884,0.0660390082457679,-0.07345295387078525,0.176722311395222,-0.2676645031221712,0.009885830063734743,-0.19069255106719646,0.10517891588937255,0.01718366381046247,-0.21381237386390028,0.15579494315515888,0.08032775588228268,0.13861529994772276,0.09750547191478358,0.18201244278057988,-0.011457485025762933,-0.007331447772032281,0.024091565492576426,0.15283253174131928,0.020198188914956453,-0.11918280413447357,-0.25708611830144534,0.030520248921511114,0.2696948748719333,0.16943938344079829,0.004071251656187419,0.05871670882229136,-0.25046107374016596,0.19869047128174092,-0.17752061253893472,0.26486630385093757,-0.12327781804032117,-0.03857060588212932,0.08433236528496524,-0.137668342113102,0.12197721233718106,0.011127670689577734,0.27272623386994066,0.24423076306714714,0.07538493890312413,0.216726418050644,0.2388115202892003,0.22397158422464905,0.22098935607726064,0.10877762231461081,0.21436288769419096,-0.06917956610635856,0.12770016096752398,-0.20444723236409817,-0.11951118672985682,-0.055494666842627216,-0.2566657579471263,0.024519564558559102,-0.027714983396034693,0.005285059299123125,0.15554023173506715,-0.033811520840352154,-0.1591588247354345,-0.25268686631254156,-0.029101757772141343,-0.043260672797025675,-0.053892568478520975,-0.22264084292303207,0.19489206968156597,0.18066006996637546,-0.062133822464408586,0.1519803807004105,0.1601194140676605,-0.08121656553328631,0.22993728118152248,-0.08195406065225651,-0.1398191897642244,-0.22578898858753807,-0.16761760970537523,-0.04715464351855884,-0.28338278796463207,0.027349381430806577,0.12058033752444705,0.261673643447017,0.043017016494117606,-0.050545858125077385,0.0028619259359704643,-0.16837745722760358,-0.16765741841079568,-0.10828259114019555,-0.23901363638939713,-0.14478785704444064,0.206654299327609,0.21856635660175153,-0.12034384990881845,0.0017623990597029546,-0.10224829409643686,0.24895268107283566,-0.22502121461860314,-0.06708783249812082,0.2007231171297801,-0.031026911083975452,-0.060782599619117375,-0.1774424902566121,0.08328410220258844,-0.11463468689007801,-0.18347150794163547,0.2651720077941794,-0.18098185437031566,0.13992706908831018,-0.25090127329322565,0.10452214486657975,-0.22345775928736594,0.09240837271481331,-0.1742917958093857,0.14781133707249836,-0.19159993416424126,0.010093545919807947,0.2066614807255493,0.053004364546763605,-0.00470143554443885,0.09151659887071549,0.15261774763572614,-0.208682526325743,-0.10447941140061001,-0.196356175072951,0.0015310255284950436,-0.03869553408875764,0.07775299024780297,0.10226137895209599,-0.23711847017277493,-0.2071095065969482,-0.2757471162804309,0.1328293038925257,-0.2505305909244176,0.11028723087614689,-0.26753439622120123,-0.016007182827900774,-0.15616526095542607,-0.2505516919395502,0.0024865712858957124,0.23767046429980876,0.0746290619330683,-0.14245114540515358,0.09887769919220132,0.19203877299505645,0.17359626447698967,0.0849647506770057,-0.16280168301329054,0.04026995576784323,-0.10541324214494506,-0.0155897425705659,-0.023478845126236846,-0.13984063446425674,-0.06806399954628414,-0.06199263502410701,-0.22389882571983485,0.24545437429189368,0.13952140783040134,0.0014687013478290258,0.14873547286956285,0.0029329024950016285,0.13267272948586692,0.00017346571363765367,-0.03492364359708295,-0.1902046156405417,-0.19790263587584828,-0.06124678339654302,0.1490919105592239,0.25686290421465646,0.24875385488721194,-0.2576220373595992,0.04467760063217262,0.09416648331704251,-0.1269513911798671,-0.21933560268543645,0.23062518696896636,0.16304082394175626,-0.2456704685852976,-0.04949612767929533,-0.12819500674775403,-0.2463223717072742,0.08050330305616755,0.07339603447655398,0.24493798252624854,0.009994728724422692,-0.24300971399387478,0.03076143286407174,0.2757959439368333,-0.04389988933580735,0.1500572072931782,0.12880239917692948,0.2215751144623212,0.029154182155741604,-0.22241602814386194,0.16212897053923506,-0.10764391788723901,-0.011924290026495745,0.26269262573306823,-0.07670165743815356,0.2541233690097196,-0.19719290205715284,-0.08663481542528174,0.009496667390749355,-0.0792009655920735,0.25827676130064303,-0.1585941712905876,-0.023779339436174777,0.21817868742544805,-0.24406092946678853,0.24897152081509846,0.24805088087007976,-0.2050811450134934,-0.03577530304753607,-0.034416467792915614,0.25620843898963613,-0.18598643068380702,0.1735422351491084,-0.16238868644419213,-0.2646183393301673,0.06770676448982844,0.18683965551385284,-0.20435765732151456,0.23380575301230638,0.09817858723615033,0.13791153470305195,0.0416993743748623,0.016107359151327605,-0.11952877942962475,0.11960093316443683,-0.01481050925546877,0.07638049694509674,0.2521572790238711,-0.15977294784276488,0.1982457044878406,0.15147152601099673,0.11218215641396186,-0.08196831153848005,0.2286955037602744,0.04557197637207534,0.0950433717879781,-0.02464269439653257,-0.049821470855216377,-0.022638949997878372,-0.01010010077606051,-0.12420176660334002,0.1193882941896702,-0.13120498455979512,-0.11954221252060337,0.2128423568227582,0.07370987779880844,-0.0949764487413577,0.06640741326498814,0.2610994444268399,0.16676636593203006,-0.03339090884900214,-0.12926916388800952,0.1501153647512861,-0.07859558110785513,-0.05827059984730678,-0.2662286606650982,0.1310926231183192,-0.14155795814352617,0.021076153949744693,0.05258383536664743,-0.034268397766087484,0.1108161142709087,0.1789291718891901,-0.24451608203636443,0.1430148195892607,0.2199502320170131,-0.13021604835747794,-0.27572452970418293,-0.0010883110289276656,0.015632371864983396,0.13179818338648355,0.05181742306411979,-0.12330304273272043,-0.2673538586098606,-0.01388661086300594,0.11833468230802366,0.1158919204486746,0.17375138860003814,-0.16009970700912735,-0.1660841295998608,0.0739927842924631,-0.21867843562713887,-0.18714024727060277,0.004439187161581598,0.06279709641023762,0.2526526181841004,-0.10883199921808172,0.23625265872040724,0.13930895686190345,-0.06996465945692554,-0.09293934338076032,-0.17706743708929173,-0.16782858149064733,-0.16930357427975634,0.09229632688161479,0.09143554924824301,-0.1285952260690079,0.19343730960782185,0.0845558291121432,-0.1951977158054245,-0.2606196719077057,-0.18366175643331187,-0.2427105154280943,0.10244559701714018,-0.06428128910885493,-0.15408928196797048,0.1341451346231727,0.053477731560183726,0.25781458957193015,-0.1689284173966883,-0.0757289146552209,0.19204468438769431,-0.12716163043810505,-0.011742470193136668,-0.16500319377668365,-0.16491710036849488,0.018411840098195173,-0.07685040545321581,0.27399575088189637,-0.15157711838788718,-0.09364767846001773,0.25435113818564564,-0.1830318530694507,0.1765016436218299,-0.15783564465359345,0.036734490690503344,0.09660922198691975],[-0.2575917943811187,-0.12849460080776162,0.22742838210722657,-0.2230477512713759,-0.11531456368849502,-0.07285961036430273,-0.18627656848048507,-0.15516880583806844,0.11559856248274185,-0.22930771902168065,-0.16335914475216248,-0.13338222406357195,-0.05848966686262012,-0.15408125811360482,-0.03684743264333087,-0.15412218250655066,0.14012893461482026,-0.1368824954776024,-0.19142815503045132,-0.1590210374055195,0.19351447390362167,-0.27741186194530076,0.045534039633758024,-0.1779127755811331,-0.09034592069665216,-0.06956400039203872,0.1426280369083548,-0.0990008639531293,0.0862904300388481,0.20247557444128939,0.2159556086674028,0.17794022729428952,0.05325019789613146,-0.2572144680252344,0.13789412205581952,0.20116071092458845,-0.17507322865609706,0.002102702756208623,-0.2583920722270344,-0.2752903144670578,-0.0736320346432304,-0.21995741562456805,-0.05539889657725212,-0.1387145572042591,0.2704819472251904,-0.2537721059113331,-0.263997826470784,0.04534386216399302,-0.1805967360430272,0.11129802545637218,0.23056137655459413,0.03135030567500035,-0.1825385104789366,0.19850454979253013,-0.09728162438354042,-0.004885872255660424,0.08631210183919412,0.006624571286053153,-0.2619306250739798,0.0605365085758958,-0.09200570713287802,-0.26040243209132635,-0.10239279069215196,-0.0660190955856923,-0.23939667519338012,0.1642154177642234,0.0973076410880523,-0.200122430821523,-0.11709603170484896,0.2357804883859144,-0.06637747838682605,-0.03428093621122636,0.16098014307110173,-0.1433331947510375,-0.01824032378960874,-0.12138067601751552,0.1596339476634722,0.25745355312383256,-0.06170376090762182,0.026495861984361584,0.206692931777142,0.11785963946964481,0.18642865061584404,0.05436399131624282,-0.007222034833379177,-0.2617277291928979,-0.07762042839030844,-0.13351063458778067,-0.04236943027414005,-0.21472415821534027,-0.1881719685275437,-0.11871030165409628,0.2220959105399468,-0.23869816222843826,-0.17601778598561932,0.27832297308272863,0.268819445579581,0.15526045588641138,0.14053306822404898,-0.11371021266905,0.2377850468183757,-0.2340343871444802,0.11503804517141052,0.18812577809418496,0.09237913306891672,0.10716997046177404,0.24052333044038463,0.2665482299773581,-0.01691185629565618,0.08686880966859278,-0.0963750727809613,0.18412493048313783,-0.10744575720130752,-0.1889399650789513,-0.006038532172832475,0.04946102126733122,-0.1412866087276212,-0.2696354033843226,0.04052744680806626,-0.21095017995892051,0.22897959176127491,-0.20842009085733132,-0.2731497342971598,-0.1689829574858818,0.10256224555192339,0.11438641773224077,0.2210587965096891,0.1268149612609282,0.04607998693648304,0.10080365505866318,-0.02464182616946126,-0.2776183983963378,-0.19097358643264967,0.05296653406250435,0.28090410641333957,-0.00869087549036227,0.025423859164907022,0.0078066474500089085,0.0745512973133942,-0.08323643451117962,-0.02837727935452406,-0.004049852796384685,-0.12924603579061295,-0.08371754847260211,0.01158967386614893,-0.004256733401040376,-0.18636620023421763,0.00362145399325094,-0.09231736212599886,0.030679019506758394,0.05369942589777958,-0.18608138488021764,0.21163483062060928,0.08427721714013232,-0.16380361206346628,0.12342020105055336,0.042448408807149715,0.049354393356664895,0.225407391781656,-0.1266884930226854,0.07793413923206884,0.1174619903698696,-0.27309858416753274,0.13242182279542317,0.11157149235509449,0.13902594561767487,-0.18120778857101308,0.09937237098587276,0.2075263216490787,-0.2701782668533828,-0.2671818364855671,0.1435542247686173,0.15323588712606517,0.011400491474919627,-0.023805374504902818,-0.04616787457734879,-0.05983699149577296,-0.22670845122187896,-0.18922390948409987,-0.03388199971859614,-0.044256151296980135,0.2249671595955218,-0.19887281466462065,0.1551249550314646,-0.0034810844621357166,-0.02980520320967333,0.06230026509080951,-0.19867932298315386,0.09936929320687188,0.08392599578310363,0.2740521388502226,-0.20695482531226744,-0.1686856670390204,0.11130035542270941,0.08432523615849431,-0.07110190375169452,0.24067294018700325,0.23674264243850826,0.10443396701822598,0.00044280664912028537,0.16093445894293085,0.2568322611119768,-0.008678623968578767,0.027465584538108184,-0.14230189840457594,0.00408323665447638,0.06575850958684759,0.2777714109688874,0.21803845808641656,-0.19331365279828305,0.05746970128943764,0.05703183524404949,0.0885824135097851,-0.015669200551863095,-0.2756119801694324,0.023539607210582184,-0.14958204250609256,-0.006182558444312624,0.0670887980304485,-0.009480542957011243,0.09632596706992362,-0.12424219919706724,0.06052044504685409,0.2806303781082428,0.2215138839302267,-0.27728737946106696,-0.008703564850678726,0.08979298493638989,0.07489229734918543,-0.27429870936888523,0.0855941368764796,-0.13726341411513526,-0.15454278163904753,0.12631349034215114,0.12580035168401096,0.17433141841731545,-0.0061809268733804875,-0.2660830235308502,0.21058568340109102,-0.1314072877282825,-0.021345848047019753,-0.026091307680168884,0.024407733076552852,0.0639148760654021,0.1843742601531062,0.22568575380880693,-0.15526184327537226,-0.18119216925660736,-0.13795041260044325,-0.2557783033789858,0.1885984222559687,-0.24816752478616527,-0.057795514764219874,0.04932554729414165,-0.2466714650031847,0.08340390063695072,-0.1361665117728785,-0.2518421511186665,0.26428322684933475,-0.16953452918580766,0.22464992292432348,-0.11757743862485533,-0.07657048634171403,0.26194350415727935,-0.20561163258940154,-0.24317940928265597,0.22562876870148058,-0.09201453514237933,0.18266436296694163,-0.17934687505704017,-0.15007519542178857,-0.18674511941190955,0.04119998159239811,0.07474365890011028,-0.06961951722818355,-0.27586837223584876,-0.035970807935709594,-0.15324292031860276,0.08844410747154507,-0.1690524252483576,0.028278712366541354,0.14607855704362224,0.1697144089977189,0.09965424781107737,0.22356033582545656,-0.17004553309034529,-0.0479649220933237,0.1851653308444866,-0.24613428873498225,0.24487227724160693,-0.11890940406190036,0.25860498346300204,0.1353284534017416,-0.26546138084297793,-0.0430946482536362,0.01810123286906504,-0.12501782354310545,0.1571319511291107,-0.03908458265968089,-0.03058536095368369,0.15012986849521864,0.06357536685293831,0.27765935898837507,0.12175195211440488,0.10684348370208425,0.08817433481974782,0.24047428548408162,0.10783202176649727,0.23241013136495103,-0.19549153841727188,-0.12786566823088047,0.045926774968028126,0.19572911659855058,-0.09122096482066136,0.2521209060615569,-0.08897925770798991,-0.055208032702301325,0.0034879561731812315,0.013280631384067017,0.16665234065259624,0.17848480767090796,0.20598597454708722,-0.23378556037199777,-0.26058755199063427,0.12147862152867123,0.22688555911240676,0.16625282972763822,0.011025983862216922,0.13435798529117002,0.2790290003022892,-0.02483598198031609,0.06496014472466642,0.1914067612503826,0.16461143185937396,0.2793870027380186,-0.03013093738888209,-0.269758774735684,0.16021566550525432,-0.13107471356574674,-0.20155706317046898,-0.0000728272867310978,-0.15621784776446643,-0.15914196398327515,0.08714761192147051,0.1446844277976324,-0.20958775665416465,-0.28200833711533196,0.034059877783041065,0.20913790193469486,0.18440822734130868,-0.1625355997285347,-0.007354684331497076,0.20346635871991958,0.03068903530071927,0.18859800661125528,0.13616489648867114,-0.040991120918929466,-0.04564248605295205,-0.12326773805448095,-0.25879907309515443,0.127516569235693,0.14205716622044498,0.008154629273636646,-0.2426668960631274,0.07043983332023877,-0.06727834036740267,0.127298141647294,0.017939607665976295,-0.2550357626400704,0.1420146093222261,0.09039147980672368,0.2709740896682614,-0.04505165450007552,0.0582388045861827,0.02747644981913028,0.06192998440172098,0.02684269965937133,0.15825424255892653,0.021492934986265217,0.06470757407096404,-0.12091496673862479,-0.03723575025531961,0.19865963123203734,0.06841877422058443,0.19804227367904867,0.24803255890890602,-0.19357302700605067,0.11672164182307605,0.23223265155596706,0.05250138065222996,0.17910087159718974,-0.09378172236404893,-0.1680046664136146,0.23760798228437127,-0.26643133631810306,-0.06291433370316692,-0.23930811976636174,-0.13059212848900476,0.14867880154245874,-0.20321206561553812],[0.20220120201621547,0.04168380607322834,0.062323359994337406,0.048135143346386584,0.04723165853539694,0.005959564642637994,0.10903194560874627,0.03815063130365753,-0.23517378424756397,-0.1969860293033463,0.05569473074437719,0.26939532798993787,0.12149431283249879,0.1338203742210573,-0.21550810803257017,0.27561919027506193,-0.11774328231908299,0.2681979273058044,0.08729877666152348,-0.15379709011368106,0.024367526394971733,-0.036652497770474135,-0.26500004599023846,-0.17196498533115154,0.10571595486254272,-0.12077153756810503,0.0880938230112963,-0.21031001493273926,-0.015578093932962785,0.14559875506853318,0.006851811289921295,0.05506669646973884,-0.23794770657998585,0.189195981454526,-0.052140427455674994,-0.10810387380329159,-0.18742639723435778,0.040902419417808186,0.23050998731699882,-0.03628219336777957,-0.1284279703349775,-0.06707592564428819,-0.05673730658241392,0.15927510085752264,-0.10301639608423424,0.23133498891615745,0.2763855990572029,0.20126867240249519,-0.23358002277058396,-0.2285940303568336,-0.11417404643193697,-0.07680309311078065,0.15785279337136499,0.2710911555644398,0.20940239338806474,0.00830981271037426,-0.02887241817816229,0.06653269801269746,0.03507442705693935,0.18962441800087476,0.04270217529567141,-0.00874259716950026,-0.06185494172380646,0.0451485984503387,-0.08846629800124241,0.025520780673935543,0.1443468872373068,0.124775583092743,-0.16582552927035887,0.21268954562562342,0.008607609337885026,-0.09697736956063013,-0.27095575115581183,-0.04103848799721854,0.21530261953037919,0.05689064333895439,-0.17020812396723375,-0.08087478241756407,0.04045718105819245,-0.22163318910715513,0.18617103495234807,-0.22587038265435908,0.27658681781838634,-0.08508499608225033,0.1640410995200099,-0.11894987609888136,-0.01281117264381423,0.13789067139958153,0.14313552427318338,0.24977498343349958,0.12928416719734082,0.23299130286461875,-0.15766925838385942,0.11038196268916585,0.07550932934324885,0.20935253568327342,0.02266311381210699,0.17018331924408242,0.2531878128525817,-0.12015005053277188,-0.11961859076162579,-0.16808511063600481,0.2332534286943996,0.1297630387271473,0.14767160197962523,-0.13658394630336532,0.20415916418181618,-0.028891497626644766,0.07998852325293797,0.1961735417299498,0.1539097898098669,0.2148149639720705,-0.2692279314776587,0.24887017364668632,-0.1637501989032541,0.041336036149010144,0.01749653841414496,-0.1262015683452606,0.1802782443607482,-0.2182561814088439,0.12657566144517302,-0.195127447916585,-0.22097723376393263,-0.1785293059567118,-0.21262139515742542,0.258876783509523,0.00913161308034031,0.25704675042729985,0.13641464450190696,0.20651198096419096,0.23346483166652093,-0.1974485143971224,-0.00571400616959431,0.0382349052425436,0.06342923678481939,0.08806129438462647,-0.022812338884165707,0.06604113172635251,-0.2134360942327162,0.19150808745708348,0.03992480402067027,-0.10489606938873752,-0.03900584627806435,-0.11527980410064213,0.26732382424175616,-0.1789106930566193,0.24669718346215283,-0.0501240462600868,-0.2176246529454315,0.09691079124696665,-0.21222511220172405,-0.1634350591353923,-0.10124708370815093,-0.09417325038299634,-0.015263090761385335,-0.1502719275553742,0.07518759155399239,0.26721429794136103,-0.13333624339770514,0.14868450946962322,0.24036121044986847,-0.20823828170984485,-0.2408382562657001,-0.2508524008219166,-0.1924409470433276,-0.01506779832815701,-0.035585682016581674,-0.2846577646727884,-0.14147330360085528,-0.09701521957463838,0.1968251072984988,0.06856859438581354,0.15314082845378743,0.11667688730752515,-0.10815288698304788,-0.06826120975601671,-0.22733617363427186,-0.01973995782036346,-0.03307305791297054,0.24622448076623304,-0.09133761977814311,-0.04895478372375747,-0.24801652838451116,0.2679757820928487,-0.2704507144512055,0.14889462349120117,-0.26610768762207426,0.11911329497714758,0.24307261291594792,0.2626575458117005,0.053140689248749616,-0.054570633249641384,-0.1400192629402764,-0.02151482818985253,-0.07565965466637752,-0.011062451299376573,-0.17659471568997445,0.03613517519403491,-0.12786807004937342,0.20959860409722586,-0.12889991090380584,-0.13698915811502016,0.09547918677014972,0.013533585075098213,-0.21302544461185563,0.05444885857773802,-0.029247637177029696,-0.2639457937964584,0.26815750617364004,-0.1110575506262727,-0.002030144217038073,-0.1896325959767463,-0.16726678855839316,0.02047035314495182,0.25119257655422444,-0.07101670917529025,0.076979070579687,-0.27483964821248724,-0.09965816349689022,0.18733558769643907,-0.2705306044387834,-0.0727381014964109,-0.19010296609267632,-0.024930304779509194,-0.11878994117616841,0.17824263718505381,-0.24670259387520016,0.11467927005828926,0.26620984344896736,-0.05959179941560992,0.26681609360775527,0.0711473369009173,-0.16566591170449782,0.2252408294672012,-0.028735726352006604,-0.011112574327650764,0.212648814787693,0.20206751746488533,0.18148175990988805,0.2550313322046457,0.06224119118006705,-0.0017221350896318482,-0.09215039473347239,0.11911022038512738,-0.15789876738771266,-0.2317134443490865,-0.03929194079983922,0.09547524264305701,-0.18800237855440888,-0.07079032750692814,-0.05967888374562886,0.09684613893916656,0.10961685319880722,-0.09718973178831031,-0.19693506777091527,-0.06400910259807112,-0.18748980759263417,0.03793916847657256,-0.03212218407386528,-0.12031811421680201,-0.08083524681077027,0.06528926209801926,-0.11000325496203758,0.1807469761028312,-0.1481161190439425,-0.0320845902189513,0.1732876897762706,-0.05074547384241465,0.12071865753896165,0.087895254239022,0.07409451483017508,0.12951055916251378,-0.0004757322940683095,0.09814193822335031,-0.0911879839940394,0.08605656752472345,0.257630352675587,-0.07566109409807442,0.2136387668945129,0.07053676235004433,0.23670067437578474,-0.03177132658460721,0.20666072736878416,0.0169317380107463,0.18120416586233223,0.08979767217108146,0.18953038277229564,-0.23697224491071792,-0.1917559187319606,0.09029791417240494,0.06928059901157492,-0.22844306873546566,-0.00012030472985591052,0.08946157062101967,0.22025307200753108,0.02390752287019496,0.0948448095834009,0.037084508609623174,0.2634407075503781,-0.23957908807877587,0.1765959093438432,-0.2175576877798707,-0.00810310638341862,-0.020749872646541868,-0.1202942958333191,-0.2764239324746261,0.21086322125620693,0.14454222077097603,0.09483644002309731,-0.0832643463162381,-0.05273226537282512,0.05064571930333803,-0.2507517003396068,0.07887545402172016,0.2565827250869924,-0.0024535354359551467,-0.05818048858251346,0.2785619499477317,0.24343973908719227,-0.0353964485284778,0.2281761237653069,0.2798804309970604,-0.17987082735586704,0.28081234638730757,-0.1281526231856943,-0.13137540431110958,-0.12790432071568683,0.04484273655619513,-0.10017504261934533,-0.11078714123607807,0.16678831341637274,-0.20647031334072066,-0.2679968993487149,0.008049224172818519,-0.26648219675693524,-0.1942200527705674,0.09894089559355378,-0.2353645378235299,-0.10878631334075077,-0.12458298865946323,-0.08108482836533232,0.14225437328440732,-0.23097043815374024,-0.2401733946520529,-0.1187703427137666,-0.06487225600270684,0.15701341362026222,-0.22681832019168074,-0.20641946203254766,-0.2749754350010807,-0.09518243383216496,-0.030698757066760195,-0.20397385503110813,0.12959391947703652,0.04275987325980463,0.1675736565072653,-0.08580800036625716,0.1146491242556283,0.24482060719185386,-0.07187383150919155,-0.11553329030407777,0.04331310377132057,-0.18437129806900443,-0.11696882350210377,0.1984364994350944,-0.08067467580084664,-0.16931012183192137,-0.14075938995629447,0.17080210348616331,0.026148270055799675,0.17379010580731208,-0.08832744541381836,-0.15506875552572635,0.052397725622785475,0.160465938956429,-0.060508516704631296,-0.28313785056600516,-0.278236366733766,0.16106812443061705,-0.17111881722497416,-0.18803184336820591,0.11645978243455013,-0.26299742685867583,-0.26325646397083274,0.23931273240380047,0.14808306091391973,-0.14524914936473432,-0.047086931692405236,0.1780794850386657,-0.12594591653629783,0.2060655171594201,-0.07310603709716319,0.061273052421784456,0.12798222427897205,0.09143770302242402,-0.14459416948604148,0.24085189533623644,-0.1468499156079739,-0.1060370332357472,0.23369820468283573],[-0.1957347145202441,-0.2703226557085922,-0.2725647032227828,-0.09892121433002247,-0.1316622449798675,-0.000012206980165747602,0.2645299224957905,0.16953508739979625,0.22754345970284529,0.11811415258186382,0.09861978714849798,0.0019023336291756824,0.19449086606782784,0.20975460043732438,-0.1685597913506365,-0.12544721207717147,0.0021531494616524377,-0.01814993731445276,-0.04495898666825915,0.2674656761555241,-0.2770222509172756,-0.010178279527709787,0.2636538989337593,0.24966873835610667,-0.16600679424603787,0.23029772313623975,-0.1890838690868815,-0.261447011566437,0.2821409012402227,-0.12241574170316961,-0.25034557045772154,-0.08958506627281909,0.060964427840761226,-0.04871012460285058,-0.11289117821505082,0.05491730834774426,-0.12628941073408345,0.19199602313259975,-0.2750924681903729,0.2176655662013038,-0.057227339226519625,-0.002393238682791122,-0.20786073536647426,0.142884103611384,-0.171233061259708,0.18447140558067418,-0.05474210078299151,0.02801850170851322,-0.14872399790039703,-0.1878702106268537,-0.04491392027302653,-0.07084590895894104,0.15008999966128383,-0.15373230308818012,-0.2382020491270942,-0.18439718192605256,-0.1760300393682832,-0.08472888964877758,-0.11152714234773753,-0.20990548541054876,-0.17183030642704603,-0.19629234669515747,0.18768260973921724,-0.16757101984616118,-0.2383238507767574,0.19313737935953668,-0.009671153923098714,-0.28125251668275597,0.06734356300310516,0.06904871136728898,0.06262810325782649,-0.030201629493042174,-0.15153872304353394,-0.22123496012384827,-0.05096415878658355,-0.13761223131406147,-0.064205822025714,-0.14544609833148892,-0.11446745251125935,0.09803993510998409,0.268849856788949,0.016264043842147982,0.03968535601805686,0.21243652482248143,-0.03542303237689123,0.05817120347124949,-0.09591406500067347,-0.17235929995986504,0.0748566552961823,0.030919909301987108,-0.1305435932233971,-0.20257318682209097,0.11276421841119667,0.07777778243486605,-0.2375397333203767,-0.12309579049176556,-0.2695131295794715,-0.02874287818395404,0.1526624970369144,-0.07382360958275191,-0.18163382049628565,-0.22707103119263586,0.1959148828098052,-0.22566524422484563,-0.07578976571151622,0.1269275244636289,-0.13396655710779234,-0.09394975727915848,-0.22850097148601772,-0.08442159652410021,0.11103644368510752,0.024697503951977784,0.21428549481125886,0.046076039931323406,-0.11207243937140529,-0.18393590579814162,-0.01709288097291019,0.06717550117311817,0.10661525370837464,-0.123517639518314,-0.019736350134955217,0.27441541262398805,0.1203149099821088,0.053561875725914775,0.19420787443503915,0.1275734761077173,-0.08050677812169267,0.17464286272438223,-0.2037135482255112,-0.2634004807085787,0.12081512395803352,-0.1181412810142793,-0.1439302067955079,0.17592512302528654,-0.15195485950063317,0.12952442839307768,0.11241582204634507,-0.028784385615399852,-0.20949266816840614,-0.06340627312438245,-0.02753810974200034,0.1673406808598231,-0.06437496429022499,0.06129298329050511,0.27157616667332163,-0.16931657909967682,0.1592912112030603,-0.0694670301448701,0.024941021475984735,0.16894019847280523,-0.2239840320103105,0.1217406740408306,-0.04101179579277202,0.2597601274917309,0.03834097143652343,-0.23633216589857806,-0.09874401319727712,0.105397740020724,-0.04288202844604616,-0.04721493390270526,0.21435495857211548,0.008820065915004055,-0.02786042102223675,0.2353106763169939,-0.052017023547911594,0.1714632791337475,0.04025910256359774,0.27935360104679685,-0.07831664492641402,-0.03743512153216298,0.2628889734007544,-0.2693201937673788,-0.06900943486900142,-0.16305252716602844,-0.06895095863145083,0.20479904918181416,0.25360873448715104,-0.24489871786813386,-0.05015665796888669,-0.10434665804791401,-0.036381095893705834,0.020115195613865648,0.21313408468936745,-0.026622966894355265,-0.018486254396143133,-0.2572051981327075,-0.2041617201060594,0.026489403217503,0.20817338931701526,-0.12688365470977347,0.13299590676413872,-0.1590433238308879,0.06451256684205676,-0.10879212039347633,0.2008317748032104,0.03477029823214416,-0.048977524338901776,0.26062702388557646,-0.26226449539722124,0.15817304318372397,0.13685825166884127,0.21456831714166705,0.2364564259474628,0.004766497224983124,-0.15550121356693955,0.2596403466506527,-0.18245074265508035,-0.10062869033699642,-0.12887582748221457,-0.25091202289936715,0.2536586556123962,-0.2568830100956446,-0.06439373277817853,0.10913345775896735,0.07114923665734671,0.21723846463757898,0.11727127754263217,0.21941202242589453,-0.16648474025332194,-0.2173657743890952,0.004140432885113743,0.03089065223040097,0.21150869343790415,-0.15691316187214904,-0.220012457302581,0.16286397996807725,0.28033380826534715,-0.1907395025643858,0.06662427337338746,-0.06401311059065952,0.19011856577997743,0.15990754081261066,-0.1623181966454961,-0.10914306608422651,-0.24055958573512684,-0.10452246812482893,-0.03387051323152327,-0.1299666358214638,-0.26422643492455605,-0.21203093656397223,-0.27582052164647464,0.25354090735310786,0.06662859394941469,0.07449671859015448,-0.16126157197090188,0.07367267955261964,0.11808110823132466,0.20629982240211886,0.1602811981675047,0.12958843545270385,-0.17484771276793018,0.10977028639908613,-0.14421377169180782,0.23613302806073508,0.0829201727321268,0.14726850993045543,0.0779327422899011,-0.14999969085011738,-0.03768522298383812,-0.13113282866191767,-0.22572232640604442,0.22177664069003633,0.11378917394457826,0.1525989124439849,0.17893144214743797,-0.09453260170389398,0.15464985013577257,-0.14106249238280927,-0.24276934563191618,0.2698036383282192,-0.25608163033287906,-0.005289324758854208,-0.2291751059100374,-0.19980424689946835,-0.2213989287726348,0.05683020902105852,0.001016212734726917,0.23143332356410887,0.12326345680005335,-0.17535558854596886,-0.011505903127856543,-0.22451635711324874,0.2539327154782481,0.05540246856067622,0.26543853558470043,-0.15208121306378317,0.038371434030133475,0.1139308293315971,-0.13192999016133217,-0.27821946858272795,-0.013618704916631304,-0.028574461523810685,0.007886010124336505,0.1326690179264634,-0.05666528919605967,-0.24670921410418475,0.053956750111114754,-0.27436998165578236,0.14020946699385495,0.04373832009869932,-0.07402656837972604,-0.06822873172432446,-0.0037909261784042306,-0.12125757293373174,-0.03382336870858982,0.13800123104870277,-0.15979243252195688,0.048038712810847914,0.005033561058251524,-0.01152955651561617,-0.2055907641890874,-0.016504422493094736,-0.23157491756905751,-0.2141351882433368,-0.26355048779361834,0.22302546268449192,-0.021786274773993308,0.2107802048871123,-0.2740962954860657,0.14227492975796246,0.061289927634121145,-0.11509097089345442,-0.0017269543361080517,-0.18786281349833875,-0.24259063420003646,-0.21789738897565297,-0.12184378417513024,0.27416228150065775,0.264959038395661,0.10679230596722457,-0.10172737728776125,0.08687245340134685,0.0049656660087275045,0.1781256121027396,-0.06691019362272252,-0.07312146802861014,-0.022870001484742327,-0.041624063361448714,0.23634629775006144,0.26211664914576693,-0.22744273520688427,-0.18328310566441017,0.23783706111475808,0.006046004642361841,-0.020264358193302554,-0.06751526153127353,0.04609904572504488,-0.10262040370378622,0.092739193919572,-0.24704758688663178,-0.23277635841794367,0.04321095220594593,0.0004467697991227226,-0.13807866284925024,0.11631854202010093,0.08281186401651768,-0.061245513967633246,-0.2699287817845192,-0.005546010321328939,0.20213677510768113,-0.04104303535308928,-0.19347335666534782,0.06589810704016798,0.1792433842241717,0.2750053001175134,0.06885734870995185,-0.1257514941578743,0.09928290199064778,-0.20449719479260248,0.19202496133964186,-0.11085171029419576,-0.17266316601079207,0.1047242000862779,-0.09903180510633368,-0.12284586669488705,0.0938471904086611,-0.27796594935041014,-0.1248488037342533,0.20623195295827781,-0.1366590446787954,0.2110105624537869,-0.1644289126578624,-0.24154154614872314,0.20404938159164962,0.13650413870979972,0.032670992532566535,-0.2226714039695121,0.03823060997089169,0.27577112664468784,-0.13530123234103233,-0.10070030901809837,0.2263151636095479,0.12710323384270752,0.23213038887639173,-0.019899482753972103,0.12465942442587939,0.09100665562620103,-0.15947444059987445,-0.09921978319774985,0.22436105247980423],[0.10950182674289442,-0.1074296602871305,0.02073796364553639,-0.016956315945584163,-0.23519143176589824,-0.08652864314224888,0.15212035767725204,-0.022738243243635825,-0.24161274889017031,-0.08789347492850132,-0.2201521801397616,0.23781600364060576,-0.03603825404375533,-0.2234110167703751,-0.23626720654758254,-0.0030231631593610094,-0.14832326541924543,0.038213174874468195,-0.25269646578465055,-0.11762312347706981,0.19009838969292708,-0.10571279091801655,0.16629658326441077,-0.039688422979801095,0.2560214379645999,-0.1691890586251656,-0.14298584078182927,-0.026513875078737967,-0.1063765141671979,-0.19393806272206712,-0.1448653025233747,0.13181764401872056,0.05506427497833782,-0.24569293847488802,-0.04575242556965359,-0.15516489455987956,0.23169152575205312,0.061177361522391796,0.17344867964717606,-0.15436527321654991,-0.18597658916518423,0.17583669135778493,-0.18436227506193084,-0.17656612543270325,-0.21589608048886005,0.019412186118883065,-0.07787728758522401,0.24994046278667614,0.24023471020441994,0.09304832120277624,0.20996403693517496,-0.254979412952691,0.27818403422061194,0.2712021591758241,-0.06603588500308796,0.08468174362655953,-0.2129808450358943,0.01276496649987288,-0.22400286513766313,0.16185222425797108,-0.2139084944053293,0.1117516179153716,-0.0727428678251016,0.009332300696525688,-0.14952289160128027,-0.12824535552338356,0.23773083504065742,-0.22793972253886668,0.202190079443497,-0.14300560209549776,-0.18299507453811514,-0.044127063862150456,-0.0819302182719168,-0.2802912900794667,0.1704108535188211,-0.06328909162051757,-0.16285828578050252,0.25501023247287774,-0.0950559706809189,0.155346379896924,-0.10246545898351968,-0.2023874427140705,0.15733533040241376,-0.018680970720976225,0.24933287646318072,0.2547256228234593,0.0386414653686669,0.1335046410430237,-0.04904226398388035,0.22071493238220255,0.18000015126272959,-0.27987170628653885,0.20444903692454436,0.26619296468211406,0.02765058938866543,0.1453609001771619,0.026609874622839293,-0.15166333918298577,-0.22612792127935843,0.07504069536865571,0.26106399447358347,0.1420379147652123,0.0036701479656521692,0.1790398492893131,-0.15648235127002053,-0.06773312035038628,-0.25576982165098744,-0.12592341025475498,-0.2759051850176934,0.2203999213042495,0.1673085286663215,0.24497850926286052,-0.27894888030180903,-0.003948244416597958,0.20383717090264283,0.2324460009942265,-0.07282947786961358,-0.2153864387107379,0.029591188953632802,0.2717109045983407,0.17817760785883552,0.008699852308125838,0.15159081649403602,-0.22483649064840924,0.10661038034049697,0.19447104743408192,0.205299071454763,-0.2596082613376646,0.012455568513847676,-0.1860321240423808,0.2758915794130161,0.17551998037070896,-0.10605651827064959,-0.23936245863994343,-0.04475870720733907,-0.04516619712939653,-0.02338001202937505,0.0831234965593424,0.16963609507235314,-0.1544367318234707,-0.18065679434444493,-0.18193456017145018,-0.04663116632456958,-0.05970820011091414,0.12852325833673797,-0.2507046516516055,0.056892301487495876,-0.180206775575557,0.13769464212714946,0.18004341714716673,0.14779549008588636,-0.19124717786643025,-0.23242567269406275,-0.09653075426313593,0.017603559128040798,-0.16502980911995097,-0.09155626119168954,-0.030230186914881642,-0.15961937698149814,-0.14732052695261416,0.26975921822952637,0.18950939404324732,-0.16455201864866034,-0.2427754891141589,-0.1206004156433911,-0.07277920237668542,0.13835725563578544,-0.14504192144318936,0.21159761240348457,0.007639603010238315,0.13919076922117674,0.04229837402446156,0.01625442934404654,0.038100352515534855,0.20165353698108365,-0.2122892496765638,-0.16406011261190748,0.1427818910155904,-0.03072766374973643,-0.1935588121939775,0.052056197458962616,0.055574660783537726,0.0875891753848523,-0.18171404484517897,-0.12852312709232563,0.2582645289980409,-0.11070456859585508,-0.018476271745999424,-0.16733620114954684,-0.16110372176826587,-0.13607481786570133,-0.21057275598106348,0.03728865749932078,0.22363404050256816,-0.18903674219381297,-0.26583230376593525,-0.0217539744287745,-0.03845962125971634,-0.15295977322317844,-0.14544538611545973,-0.01106925855280725,0.1483078530709051,-0.1426963297553037,-0.08195553411297664,-0.1913916465652632,0.21750805767554127,0.16567614172363027,-0.025925176495099355,0.060403459080863905,-0.22119520310553495,-0.2766803818596908,-0.16269844271591768,-0.27196722450527194,0.0662403737234483,-0.20093016574404232,0.027930466896101392,0.013980589529716437,0.08300642891433872,0.03735725084286258,-0.20607921217663586,-0.18887066766528937,-0.08705126955212063,0.1981078326434234,-0.0008894019697983503,0.11875950267297593,-0.08561917442797658,0.08203360254165772,0.10354953709290143,-0.194115310238096,0.009002660598452915,-0.25996630648093827,-0.026533011970292605,-0.033276221248777924,0.08906361153338362,0.07902885321646985,-0.10124493119884106,0.04921613060716691,-0.23937105501463307,-0.2679710351928331,0.03915919194582798,0.07340637245980558,-0.270917870383359,0.2519427455967798,-0.20494476088706204,-0.25084646054661025,0.05310941344185229,-0.06799241237185057,0.042742107731747206,-0.23245103166103195,-0.06252577482711365,0.16051524575675846,-0.15683157807889136,-0.09817628451758144,0.2424208640520939,-0.17359701462102242,-0.15328278363612446,-0.04899501933294088,-0.269646119228051,0.0020060196151201466,-0.00813003621024386,0.2823754024153023,-0.09061476927858178,0.034901052656978446,-0.23202111259921815,-0.26954233503065234,0.20659424383117286,0.23169571847952927,0.10548894985909875,-0.21786119038565704,0.22530290181651538,0.11214779641075506,-0.15448100106984536,0.034687712032408294,-0.207296802885583,0.11242957073860399,0.09685393868920543,-0.14699306050789482,0.12879940683216276,-0.12095747494880538,0.15557828205692847,0.16700063735883638,-0.16444522385406035,0.2241323711758907,0.09296385784183829,-0.0888319638127362,-0.07774214445381976,-0.09277494941967346,-0.09166164840132913,0.1252331391591495,0.21505400952789955,-0.0249170576131235,0.23787439731267312,0.1213201467156425,0.15312542764738,0.10239078410357164,-0.2019719629979128,-0.26618311830933244,-0.15640781804265066,-0.09166273313601174,0.2515427393902019,-0.0588436467587495,-0.1837021244290103,0.06315199516017844,0.0541268143667222,0.24645972361487611,0.0008573367313618026,-0.21815037946314186,0.0659092320163463,0.20829632611454885,-0.23127198760496345,0.12024643418558349,-0.07653137738046453,0.07623296898377663,-0.02992587407371576,0.1352323895097175,0.029918714538123923,0.11732294899426753,0.07230683525549521,-0.2623957270319578,-0.01634349234298003,0.24958309790169486,0.08942403676742602,0.2535571749999509,0.11684651687083805,-0.19436030708902272,-0.03564619557418686,0.26187726479278123,0.1378446724534459,0.24605418228517306,-0.0390802951895685,-0.0956831992584917,0.13137538976488694,-0.2268662328632276,0.20534355530267603,0.09721362305029406,0.25097820360781764,-0.23524937402257512,0.005650347317416219,-0.04369453999502335,-0.11510275987778326,0.02666158536197298,-0.03828396486034143,-0.2007400066631453,0.06786369072203872,0.25157077119259147,0.05934173416083728,-0.18867320906320004,-0.14965657238407667,-0.07685377912852588,-0.08835498552276799,0.16121145790952054,-0.17750864935478589,0.0971288155768845,0.01457639898888042,0.2314384758483377,-0.131671114063028,-0.08613394220691083,0.1562370081598528,0.1010687315803757,0.1609722079429647,-0.1323611823775691,0.1291798698493181,0.056266326127131915,0.17595542416033194,0.043112015765469844,-0.25209338994729025,0.1997196313780199,-0.0953667596948001,0.027556114952725724,0.019335202526845244,0.09027960992948675,-0.06151240178238963,-0.23924705415114106,0.025715253138065976,0.15816424543185542,0.0023658097814255223,0.264657296473315,0.10509527024776186,-0.060193848773630564,-0.07067374349536303,0.09633394437887817,0.24549112758342806,0.15942287136806374,-0.14855564942192617,-0.08524543218635672,0.2264861993630186,0.134646608536448,-0.06991732859449923,-0.09225489469959341,0.00536108604198405,-0.21770370204306488,0.24113452264375815,0.1998356821567819,0.13593159586149875,0.04002031015862562,-0.20894591600542245,0.11307865832178819,0.2515382925517734,-0.20222786932236697,0.12890965810226054],[0.25604911655027474,0.09974580435128814,0.009909385936804955,0.22935335246662777,0.18982433725691772,0.27093593338212785,0.0954226835131299,-0.27908726142735757,-0.06610467664623343,-0.005420922613436661,0.1803367650765987,-0.10467190060824373,-0.02290514057499065,0.053409364098418996,0.07217696108156015,-0.006506305484146502,0.2431933391763548,-0.14182589121898173,-0.0823243726305948,0.20010309772824492,-0.0922279030783873,-0.14000762976945197,-0.2015052568129439,-0.23724038839202238,0.11211822771655525,-0.055928735380170264,0.1253286075282482,0.07898503822330462,-0.07065541895563439,0.2526067232499584,-0.11437167569636238,-0.2547706402851633,0.006216838176021921,-0.1441010793284475,-0.12720389965741788,0.004953661131624506,-0.014727677122238807,0.2107211814780701,0.17337227615600057,0.23111172096139723,-0.21043610605689198,-0.003659517626891415,0.06790169914355237,-0.24952850203754484,-0.20501099031519762,-0.14758792214720315,0.1449477130273099,-0.09593445573744472,0.2696531102530561,-0.04246463946859236,0.2471181843305326,-0.13184077933697186,0.07121685602923666,-0.11008372403189354,-0.07324987219388004,0.037162206149866504,-0.134103152554981,0.030132838808008416,-0.1476921551783707,0.025482991942381423,-0.1450310153747163,0.15760658584834952,-0.04416904069852401,0.2116521342207974,-0.02770610693896197,-0.24596201006258228,0.24620925814077269,0.20471417338846865,0.25133811783266213,0.18569539092692772,0.1727319728704846,-0.07003567113556473,0.13179653285410967,0.27322231164792843,0.10252206471945866,0.25116278624656524,-0.017061870269781308,-0.019902100683590208,0.002179974404436181,0.0009987157612274481,0.27058116504736385,-0.06453232850644076,0.050756052762723235,-0.11469115190536838,-0.04361376456145442,0.016289397865194833,-0.28013640727152916,-0.03791904185976528,-0.028278070015053197,-0.030662593002197217,0.16115715663622596,-0.1172962252546819,0.21800733131443778,-0.08924564686948908,-0.0647184215696629,0.17925074041116962,0.05240905809869625,-0.13664439861654348,0.023519959251649052,-0.03206210215549002,