{"dimensions":[400],"layers":[{"type":"relu","size":100,"weights":{"W":[[-0.07115986630388549,-0.06782732716953478,-0.07447929486988843,-0.08744189131669743,-0.11657300291349645,0.040847989613856016,0.07138906916878136,-0.11212362843838754,-0.0297458750807186,0.10900823535976688,0.1393474274938715,-0.050030106898834865,-0.010379091139351839,0.10466014654678957,-0.05202609242936505,0.07609505877537394,-0.001202670382452882,-0.011816427168044838,0.06107301257246268,-0.06721044044517799,-0.021801294728326932,-0.09419111809681022,0.015097664668908875,-0.09249944294918028,0.06471896726246314,0.002415249591783581,-0.000996521100306084,0.1023514888832407,-0.08002794292291207,0.022166056107454146,-0.09826371650331031,0.0008757211849786366,-0.04968170156228952,0.07493718794927885,-0.1172570991695024,-0.08963986088821292,-0.051186627983235894,0.04309391159935281,0.06563031692385575,-0.06560169847812367,0.022541560785625796,0.04395149797254851,0.08554450694536538,0.07986370490338808,-0.013826945685648129,0.06932011555193214,0.0400497909253808,-0.03672106830696208,-0.031879412778074365,-0.031902290933309846,-0.05848943264513403,-0.012774062416079162,0.11595884212965576,-0.0950757502999698,0.047871886061272795,0.07342538699971889,-0.1368203758952326,-0.05678457317127611,0.10143577404882073,0.03289059815168603,0.08841638407717227,0.024760094840702438,0.026941110669675465,-0.12984989899204563,0.12189474997231733,-0.05532248053554086,-0.11014181084052521,-0.018014926638502654,-0.05680350368984292,-0.0909903318041796,0.010286495505083345,0.12711695334449266,-0.08749124953103493,0.08853075430904499,-0.13349899307154445,0.03718004621598276,-0.08777425948702768,0.036090316213993674,0.09632091060069249,-0.1328483503009182,0.11686825631460293,0.012952800484443711,0.04290247225520926,0.065761824351614,0.11850026694827447,-0.06588054179285247,-0.13254127960010087,-0.1038120448544341,0.03862297469371456,-0.0673998263697046,-0.028029679606971836,-0.04149412719787396,-0.07841147950872594,0.05961746510998274,-0.013377886597420589,0.05050472236076785,-0.020208014892507013,-0.05098179154533936,-0.03513304480294235,-0.09092694093093671,-0.06159197380414936,-0.07887246511213336,-0.12407526552219897,-0.11799804705678398,-0.03098247236676059,0.020380150267316717,-0.01335000914950248,0.07498015187189909,-0.0975908560305936,0.06064679461700183,-0.11260210224442553,0.012146727204476697,0.11101893814753801,0.059716750258690436,0.04301351643027001,-0.028738538115458137,0.08622145471275634,-0.06736727303501545,0.045042815169773966,0.13877785847465374,0.10846439929338883,0.010909349678451728,-0.07119335358778678,0.03691372296180988,0.08495999573980244,0.03125559453219012,-0.09269235563049599,-0.011025432715113515,0.13876216147830028,-0.05656837101172673,-0.078086919857438,0.12979135086823185,0.036073313584179034,0.012823193206631039,-0.0916563942191391,-0.07696203666281384,-0.024192201539995965,-0.13397350252752968,-0.1273807610756658,0.06618856797873737,-0.06981674047911367,0.045360264678010374,-0.12931323057385563,0.07023398260305895,0.038708928482289184,0.029366540856031572,0.10674344660811061,-0.04041610513989455,-0.03963750697079719,0.04973513218418308,-0.04059694223975436,-0.11025317694244788,0.06277884238448692,-0.054680327657812555,0.12651025093281282,0.11841485775883195,-0.08935509241578929,-0.01650169761263758,-0.035780233310316836,-0.1282523657451272,0.0033550142054835186,-0.08663628157907279,-0.05781809114037228,-0.07972808910393119,0.006900336754019569,-0.13310393649446373,-0.04655629659851284,0.0015661810056187592,-0.035177876858015725,-0.07146644356013264,-0.13694065708925707,0.1267754160929187,-0.040418464441511294,0.0298508167331724,0.05085645511368416,0.08003994996802612,-0.015062944225450847,-0.04313775330982359,0.12996284219172788,-0.13214002281757106,0.032757204010746284,0.05892449318849915,0.11340486332311753,0.05328119376357225,-0.10003805217194761,-0.1305512346364475,-0.0603635159598492,-0.1400543168697133,-0.04414351781034475,0.09830939334489548,0.09972883908052314,-0.060348685345254054,-0.07566494353264108,-0.07149366794477695,0.02138437217940421,-0.07053304357628346,-0.018273216265103132,-0.012774103137606446,-0.07443198315338496,-0.13811349221855634,-0.032585932589799624,0.005140600368750035,-0.10968780490334777,-0.12779691407187352,-0.03806146146456382,-0.09236128348974554,0.024358670466934726,-0.06386823021498474,-0.08994766037946093,0.13042285861214103,0.13852752258883264,-0.08906132562211824,0.05831164736473016,-0.1164948658359838,-0.13091230809170554,-0.11742260083345642,0.029995786682053424,0.05401574523671682,-0.018349345494983717,0.03211728944498375,0.04288404037981116,-0.0013445370376085862,0.11621943845474209,0.015483763391098878,-0.09583303966950316,-0.13969001424713862,-0.08819090575688593,-0.07017137053561522,-0.06766337698917992,0.04793856401162777,0.007412413340203156,0.10819571452770683,0.09439386367202819,0.03281400354616542,-0.024891458895976395,0.08274214350910268,0.014900648651498285,-0.12094748247308415,0.1054578900713147,-0.09705578101596708,0.05743623599438141,-0.09093063747320805,-0.09016797152236887,-0.0068452378859986795,-0.03558571427266631,-0.022606063323140066,-0.08150521159071807,-0.11377752136023844,0.016651691035527508,-0.09988742564046968,0.01796106368218568,0.022202844475911598,-0.0777764852724285,0.12473381961189252,-0.07451975543411545,0.02131813042830941,-0.08576008695067927,0.1250002613401031,0.036951370456862115,0.035384264570568216,0.11500313290262115,0.0614612845991649,-0.07849246802937393,-0.00023747968179240405,0.06608828827248996,-0.050197325198547776,0.034724113523799366,-0.02629579296347116,0.1079847645861638,-0.03974781050576627,0.06681934646943882,-0.09069456271062372,0.06099192435303871,-0.1327485575493075,0.06330932277141893,0.10946647685926879,-0.006481093948682093,0.046513603689887,0.02187241347340235,0.09690820072312922,0.001832959450240071,-0.026548254227576232,0.04860879861468706,-0.10683467203068762,-0.02268306174826741,0.13795834764533024,0.06901982162837125,0.012499351557728494,0.09040928900541219,0.1389272901351233,-0.04916382897308774,-0.043997458616096004,0.09405981571030175,-0.09502796762986832,0.13951393588120048,0.060628981979990844,-0.024699854684643325,-0.07825262793129506,-0.08904905828450074,0.04501946244379695,-0.13769548415042437,0.08913012603261897,-0.055264795027410954,0.0328394306004396,0.1029356421449822,-0.08079469948007659,0.04954853714397236,0.03395684453484045,-0.022076822480961652,0.049776911016413745,0.05977389657947993,0.06829685108740952,-0.025442087478526308,-0.019001696275949734,-0.1305012927348721,0.09630706134948007,0.08942284286092744,-0.1360859501127129,-0.028649558219486518,0.10351583543608472,-0.14025239507730294,-0.1372473555625346,-0.0820705747710604,0.12326582630670276,0.11546520901586946,-0.11521302136581091,-0.0031898515741358795,0.05163262842425655,0.026340058794636727,0.12068338836180172,-0.08955476196451195,-0.10335086530365047,0.11025370769907009,-0.07080590377641664,-0.06908703525973996,-0.10880323657242753,0.12276055978737381,-0.050285457197137055,-0.021147247260723024,0.07629167561924174,-0.07864207622534398,0.06516995640775693,-0.051853345346341305,0.02796033027215925,0.019580429487271418,-0.06972404183939511,-0.12255413955623924,-0.12467117715027592,0.013140761021233667,0.006299305057678246,-0.08641368543199333,0.05307194695725121,0.03924030170676177,0.13251441091064997,-0.07261799463858574,-0.11467605479883475,0.07376311112400283,0.04363653204122981,-0.1386488894255306,-0.10881099370730109,0.10124541463782359,0.07077245113594278,-0.07316646383543891,-0.02078819005723593,0.0674324640618505,-0.07775037753280582,-0.12453213925656972,0.12004619146467078,-0.139170979993929,-0.019637091978774664,0.09027925899411753,0.04019427078892623,-0.10012682668377904,0.0608606966695291,-0.06720832022092207,0.07522031196070302,0.07687172167186844,-0.03140040880988149,-0.11006151169558478,-0.05235521591470899,-0.07437481274002528,-0.05569834900497899,0.062400918003508395,0.006732020688638889,-0.013230091639577257,-0.11571598994916732,-0.04135142002871269,0.10107051318249846,-0.0023946874781505274,-0.07102584905468798,0.07607209566480712,0.05672426033233483,-0.11736124345773039,-0.01740406237372499,0.13652938673962034,0.029089250697197866,-0.0019466132714154834,-0.13635507758059315,0.08594964077251076,-0.01291753580420615],[-0.07477181633831971,0.06870692534333316,0.04401246533588156,-0.024672082865169385,0.021197379897177997,-0.12571232385158626,0.025292822654407045,-0.0006493556592583658,0.13232542328876398,-0.07219686928945651,-0.11396706328348187,0.07030351572141819,0.01965583712037072,-0.006419679917661193,0.13057540208384738,-0.07842736202718795,-0.0383293031258431,0.11042855538639434,-0.10318090224735128,-0.010393561906421787,0.0579146589421651,-0.10405463134443944,0.09051066233991896,0.045479239526873036,0.05628487927448927,-0.1245198320127384,-0.07575655919806297,0.10213262001791043,-0.04008441019001928,-0.04945822299772254,0.09333957608266327,0.0794941794139505,0.1118679816224067,-0.08982239013247842,0.13639744082958172,0.05140893538865233,0.0437480559583156,-0.06255601977875279,-0.05350606393363622,-0.0765622998237587,-0.13942277222152438,0.03657342643071199,-0.12433379949466976,-0.10238575538629066,0.1393682002979277,0.050315261644950746,0.04856596068997118,-0.069595123422936,-0.09425011525741465,-0.0913303411980583,-0.0931482382001774,-0.08661778109851058,0.09567666579784877,0.09675571950968886,0.011847077494033803,0.05067123159517987,-0.10762381334236648,-0.035690126297938655,-0.052233699618889504,-0.008358015610699527,-0.02579723961286594,-0.1015487953700081,0.051722976577956,0.13298600621900075,-0.0345918235191302,-0.13991256100658592,0.09429725827835285,-0.06277490613311223,0.07595365070399183,0.08703867839787979,-0.11496703458537591,0.04179147868514323,0.06527613124408628,0.1158932477857626,0.13710701551007576,-0.11973025901551645,-0.06676892734230484,-0.13266270982886844,-0.11449106362510059,0.024974726141969165,-0.13731565757266764,0.022973812048649893,-0.023737249855308045,-0.12187250153214586,-0.0659724212966693,-0.03533460583520258,-0.06357813192544141,-0.136398099805656,-0.07018986835492408,-0.026898282195840895,-0.13540518450624411,-0.07953380488288436,-0.06600951604849842,0.013602238500964545,0.057121104351166706,0.0743245660302081,0.04074134878763934,0.12704978937173156,-0.0603571295151435,-0.09548655554674759,0.11498908981644336,-0.062307951494017355,0.08144310934315517,-0.11829833011733037,0.13793921421842106,0.11758192677328956,-0.0539896067557082,-0.11206324580479063,0.12574931249333107,0.007799070830834395,-0.10232659345740368,0.13966101586939753,-0.020866940848544093,0.018231441532742743,-0.01731349362302599,-0.013690722630641264,-0.1043770555075743,-0.04641662182048658,0.03609683393197545,0.05567853930587035,0.0166095320016529,-0.048589520302356956,0.10982928815982755,-0.10335007158348487,-0.07435708185494004,0.08682750247568302,-0.09357679749680872,0.09127406410703333,-0.021344217266312582,-0.13063544744470246,0.02552798892622882,-0.09860569777450064,-0.043009402136631354,0.04384599755780052,0.05365212771746601,-0.08532477168922867,0.11331286465733678,0.12777657841316223,-0.1021980137588705,0.13031619077429996,0.056189432705797494,0.0432761079067805,0.04644554563063308,-0.08291852963207617,-0.027129606160882277,-0.049263900539432026,-0.025814179690839073,0.018274369337838915,-0.014408821828308604,0.07649631177456419,0.09743839626628378,-0.08095661204281131,-0.1296664023385108,-0.06421271268106486,-0.0032860327420914702,-0.039440159390317746,-0.10495964187079951,-0.07144546871490838,-0.11534016701381505,-0.024335092112687164,-0.002383971145194961,-0.1010963712823729,0.00032755141230131465,-0.034656465632824256,-0.04014116839598938,0.13415395926802337,0.05258791436853755,0.11493809818305462,-0.1043763433615271,0.0254340425247392,0.0024439177471296345,0.04060073837602654,-0.009151762603638404,0.1075578271156666,-0.09157557027104818,-0.10424764071188711,0.07192068587739443,0.0923848359604968,-0.11284549164997763,0.06402167566232621,0.07466017247097825,-0.11604532701917823,-0.11400068545649093,-0.06887501444390633,-0.11033262714495037,0.01447346172432041,0.13391355526072074,-0.06497907262082496,-0.07515254677497685,-0.07535212929088277,-0.12910933180465495,-0.04522981365417525,-0.1296117729501128,0.07436677890998683,-0.017893393389698038,0.031741846821756944,0.11987515599349462,-0.05409475473719811,0.06384358719489994,0.11657773173139765,-0.11117837103325891,0.06182314113271077,-0.0434607518902796,-0.05295070560228167,0.13194073675532633,0.07606171239950883,-0.055383909104378286,0.07659945220113214,0.05037093836298624,-0.12544382220443234,0.019156898933297303,-0.03444094515472002,0.13203305984649463,-0.06154014937903986,0.09334860229273843,-0.05503872544549267,0.08709594016089797,-0.010635084787983697,-0.003460406181377904,0.07690556044277293,-0.04042421685264958,0.10326638611519005,-0.017816300538063684,-0.10418845047259725,-0.06258619965813561,0.032756485893285024,-0.04453679156409444,-0.02491521673955413,-0.014181630204090143,0.14024311362644773,-0.1016740821259561,-0.033381135194735574,-0.08269343165088171,0.09944157408712932,-0.06759705902738233,0.026710064703652683,0.017907957514936807,0.10450212339845842,0.11205887247833679,-0.05545098023742566,0.05922501509974871,-0.11694806673157897,0.05184962470461023,-0.11976898070515886,-0.06360151722184446,-0.13321013249331398,0.032421057161187934,0.11215892157746712,-0.1155631677184895,0.059918247269528824,-0.11594676879720928,0.02183383594756781,-0.05571356305743812,0.09167444562783642,-0.0269933533404348,-0.10609267075699078,-0.12847540288358109,-0.12941053172206501,-0.007930505280244058,-0.02140092381697667,0.045697009121354354,0.026379038575344314,-0.02377842460998247,-0.06149434654625079,-0.0029150085541773518,-0.022730059765355786,-0.012863869882065995,-0.0005190806471714312,0.0005806579658468149,-0.04785919205970368,-0.12268945435652587,0.07596132458193804,-0.13584646814843152,0.08864122300852588,0.060575405437181755,0.015029525529265205,0.10682438162708391,-0.10032104426855785,0.051763009453255855,-0.0065512858047905905,-0.06357762218457506,0.1139299856561454,0.07837596538781773,-0.1382270134695484,0.10321163202473736,0.0551783704089506,-0.07175155819465459,0.12330342079120513,0.11045740859640545,-0.05007430903804061,-0.09848264364655261,-0.037269063214754955,-0.0916935196255212,0.0029460917615996662,0.13976237546648942,-0.010997965393006275,-0.03951518630525646,0.07330543080035523,0.04990863853167243,-0.05599131397366766,-0.12519982871967508,-0.08388967057860575,-0.005370004472259892,0.0814711405462877,0.016119812366444643,-0.1369581250723553,-0.05865460067969601,-0.039981062528004416,0.08662561969763759,-0.06580463870813129,0.014498950558309113,0.03084564386553771,0.08314847767181752,-0.11912426269260012,0.140391262388597,-0.10668036671039448,0.10890106108723188,0.04405359091361599,-0.04539437141889935,0.029661730268660282,-0.042922585097373935,0.047657778971956305,0.11820261807549909,0.10376968612132192,0.09544374315168257,-0.12195798463447269,-0.03168264988225708,-0.02038704780895353,0.06324301072175159,0.020266981807299935,0.06922322719155158,0.01513044139519705,0.028517102200163603,0.04461696554801677,0.11243626082825152,-0.0035959750605295154,-0.016748110982933776,-0.03615425637417377,-0.12504595555728565,0.02498096300001336,0.03154715590247977,-0.07884343740879535,-0.052616175706550194,0.0855767101706002,0.06356652894808927,0.09689737788761904,-0.05721018770437173,0.0926074951617455,0.08823264022673963,0.06107063394614763,-0.1387902988622107,-0.03407291017292762,-0.09928637416732647,0.08943997141976769,-0.04519936754894864,-0.05610152645130381,-0.07321990602858348,0.09798723220617664,0.04495187359789174,0.09710348121977104,0.09099745391459962,0.007825394844614994,0.0551044836651255,-0.03888851747323677,-0.1037892942580596,-0.015420839133621536,0.027386599774612556,0.12991871694676987,-0.027254200207340012,0.018227401107007907,0.08601063551953687,-0.1137012412300344,0.13197389562677767,-0.08905072211208959,-0.0649589019639698,0.13291244232992536,0.05391976909057921,-0.04081033254018482,-0.014632168568435676,0.05961993587930388,-0.042361198462655986,-0.1114570825822259,-0.108585547502646,0.0647764828959073,0.07999181253903295,-0.10917425499299399,0.037846475859867855,0.04958436004058929,0.04526437256662829,0.021125562298719248,0.09300622963774025,0.1320813028862769,-0.02480707065034893,-0.08880822182282777,0.12362428713121845,0.02384943572848009,0.025558661591709372,-0.11260563256193498,-0.11813545613577973,0.036018104177636345],[-0.012851970149757995,-0.05710248282116029,0.09254017713088171,0.10065106292920407,0.05606112723270073,0.03162336702028706,0.04192113630188546,-0.04926566143546989,-0.09284091805068873,-0.04624446745157663,0.0645592630645001,-0.0814893444781597,0.0750057063491106,0.007866043329423866,-0.004085733302443042,-0.05563839036357067,-0.014899528576042412,0.036426592550302235,0.024575636613746645,-0.003379788921186949,0.00002810832620990522,-0.1217563066583137,-0.05804536177104879,0.0710431016068533,-0.072933686201015,0.1227523014952631,-0.09171409103266803,0.09815588042716876,0.06310024771218663,0.09093336460018135,-0.022338155266162972,-0.08287036643511414,-0.1179715915785603,0.1017166862394287,-0.01823159735273614,0.1329459519320714,0.05535161503848633,-0.02609258612642122,-0.11018654641406972,0.11231192038511881,-0.07346794704628179,-0.09865444390446947,-0.04561895288080416,0.04959955536001607,-0.08493142868120374,0.10991866989879524,-0.08795664259923314,0.04699971963040948,-0.00163587103782939,-0.12439945895296231,0.11387874384932752,-0.10241045956488662,-0.07130195903165998,-0.07917430930658545,0.0842027343498169,-0.014942581906704047,0.10377306005967177,-0.12101591362468098,0.12119056997934106,-0.0569983735278068,0.0563614368134939,0.12016440285286037,-0.12599047640208458,-0.022427543661664363,-0.03560965048180263,0.13383176279767783,-0.03969694017544682,0.06271090453001589,-0.0025340330051563387,-0.13435709915619132,0.011613262010494185,-0.1041995973430812,0.12204452355256055,0.05184216804750626,0.030723104319433855,0.12080021949395642,-0.04042564667981905,-0.09406080550895324,0.06522703300262414,-0.13896773337127685,0.07964610803771753,-0.0010874533928365373,-0.08220691825196086,-0.09733208416531437,-0.09962920118113613,-0.01599178807925338,0.1383478227328041,-0.044798102986928184,0.09579519441454933,-0.06002369133782248,-0.13583863971102061,-0.11252402084864244,-0.004621932557994292,-0.13053546943115515,0.05514948310796157,0.12302538368222812,0.10203077501826784,0.05722851144048092,0.05470637179088531,-0.08411644268256731,-0.13645521274702213,-0.1394187296104705,0.07359788792608421,0.050672217458017706,-0.022005040073365123,-0.0646052966692349,0.015600913652782673,0.03867129053543643,-0.13060462625308963,-0.09125984140018409,-0.018969932814230095,0.10049248651134447,0.06679654338297983,0.004891634941306318,-0.09452433133562142,-0.10364668808225552,0.1300145482994318,0.02588297952157219,-0.031637566044996325,-0.02688587801764782,0.10281120302541132,-0.008425680115754505,0.13063561621386738,0.08030007538530144,0.06312654160512596,-0.1145477186362375,-0.12689320358212583,0.034834651820132914,-0.11992646851516112,-0.12748278756456655,0.09283842916774387,0.12098697978327545,-0.014945135220500052,-0.1141016536063852,-0.1240120464149991,-0.05962284944969536,0.10510709896314255,-0.0980869404803622,-0.1318273234343935,-0.12074931992056989,0.04549673223130279,-0.040493799639850774,-0.132245023644624,-0.12366915647894591,-0.1285183125238322,0.09831425896085816,0.0743737925245094,-0.052130590333212316,-0.052146547040296996,-0.07724547164269181,-0.12268293447743091,0.08147011516898765,-0.10277487716749475,0.07701952462982649,-0.07116778643187022,0.10770887770700582,-0.05299568049087877,0.10718660971052345,-0.056908257788471556,-0.025543133761407308,0.13263804077066793,-0.009012771604841855,0.10015450757845952,0.0036795344032919787,0.04396226245080579,-0.11331197394641508,0.012735272422477293,0.12353553949878074,0.07391958274017534,0.09984508690665851,0.0033700077912532903,-0.13829508264989332,0.07959038277931949,0.08603691505186677,-0.13395395777869692,0.13421257373517287,0.07771297870202958,0.10423849299621973,-0.0762148893221526,-0.07455324468607391,0.13256494311545847,0.057351249203319146,-0.11933953788319455,-0.04668203116042138,0.11781366919176886,-0.007493809673400161,-0.13567057617273293,-0.07362949806213864,0.05439414191426485,-0.05147070460819325,-0.021059624574013187,-0.07833694057729367,0.08140631611137396,-0.13569571117041293,0.10003281276796942,0.057778792311234825,-0.12471219651617842,0.07315714147255628,-0.11399251357505201,-0.021475509759017304,-0.037238222996799235,0.04658607959151795,-0.018738704505115927,-0.0462952520154301,-0.12822962754643066,0.0870383525833157,0.12590085368639997,0.02766589824207301,-0.016380031327666494,-0.07038332046174596,-0.010501200635168828,-0.006276561544159893,0.06382368370595957,0.0005482675846634223,-0.06717826180809623,0.12840433532362255,0.07158435765831984,-0.10526372185254114,0.021525509149304598,-0.06207012261847863,0.08326602092891854,0.13617021521640932,0.08326849428565392,-0.02976989797888325,-0.06031393669430043,-0.1123968224749143,0.0643571826082344,-0.10949557209400874,0.0730412117797779,0.022520962806356255,0.04418313512421612,0.08224979556937997,0.0914485065419653,0.09812178035348078,0.13354914951790392,-0.11717152024701695,-0.026073687533143902,-0.058709502312586405,-0.03083310053565346,-0.07822985217252011,0.06961016330623906,-0.04534914239506254,0.014081632128179233,0.02363402384559256,-0.03258669873039113,-0.018298403035000414,-0.010555003198837868,0.11390360362283557,0.08898586261494182,-0.0628769412209571,-0.05502503046868883,-0.05904680115328614,0.05637947342792829,-0.012842433536853527,-0.022262622858413066,0.0828884948760352,0.058670602119852346,-0.1014872768870024,-0.015368539524230897,-0.014240101724040595,0.060466286706754205,-0.06018918485380052,0.03851079277735957,-0.031080013705260767,0.05946372051569551,0.02959107282380907,0.06211789098850146,0.02247359484496414,0.09137434617665705,-0.11692717234289676,-0.1097921497349164,0.12135963006950902,0.0074810258688845915,-0.10969019999176027,0.006306173687319741,0.1269834822865401,0.13081523885765506,-0.031867063085451765,-0.12316914065543819,-0.07686075240633854,0.050693017580605314,-0.043750307187016696,-0.09423314780325684,-0.00871431635030689,-0.0863147308970405,0.13034263170447602,0.023429427394119975,0.028171943313400408,0.03287714744070223,-0.017605447595222763,0.045865964568187804,0.03596512073505692,0.05948084115338161,-0.04221216442139128,0.12180073973036046,0.08660692121206094,-0.000871114641957581,0.12918495253962115,0.08807981353029902,0.042188283325934814,0.12447109743335401,0.0566322957495186,-0.06082107462228085,0.12198889767727344,-0.07732843571947652,0.13016061679776766,-0.076573994499469,-0.038611385836488835,0.13362049623615335,0.009952954610173426,0.13925259910840204,0.05447769640925641,0.06653920393564669,0.038446176212656724,-0.13508965112637325,0.05796388893934106,0.007803115626001892,0.11331940885177476,-0.11139471508904736,0.07198185720376853,-0.047377170995112,-0.11317339894207795,0.07440026276422043,0.051787321186593765,-0.04616443544748037,-0.07666491464349999,-0.060775530479590154,0.05637786785799723,-0.02492392524545457,-0.08735380389391671,0.041006359050838645,0.13404277643319013,0.04346975787816796,0.08745447777303406,0.056293186195876053,-0.03894016178120172,0.02941045658793675,0.019730880090319845,-0.09716700883032048,-0.0950644349037637,0.12801100583509567,-0.10754379866039043,0.006376235593109113,0.11338014053579044,0.1378224326953092,0.09581516216750074,0.0699495292462452,0.0919415827404238,0.07954023311934812,0.022599127153720068,0.12846713570187043,0.06888352584865945,0.06191686070566118,-0.0164274717089842,0.07879656608631329,0.09285813809738522,0.06547639566466984,-0.03350867107631699,-0.11828010693059263,0.026940074615002682,-0.03793848479009913,0.060905842927554875,-0.11258280064438465,-0.012809138719765805,0.003668341661764296,0.04327183613142564,-0.09917735396210069,0.09287866317176868,0.03954355362189538,0.06689776222238392,-0.05801430472019139,-0.0986964070011255,0.0008168780195386902,0.07201963447261787,0.12819707614604917,-0.08776115227584994,0.10972691967462866,0.02027093307800834,0.00024715570187019655,0.10194154786917549,-0.05722298173719203,0.08585704129636992,-0.05246827402435392,0.1255745773198667,0.0786552349224103,0.13117946989364185,0.029906686332174394,0.12861761775642738,-0.09516989254942876,0.12179716341310365,0.015025084720326603,-0.04429667796346352,0.07939418349452192,0.10059966261269455,-0.021195075388492145,-0.029646084981961578,0.028016221770573967,0.055690963470135,-0.028528454799697196,0.08471654809094466],[0.010072295864859708,0.05786473364996429,0.08730373830021745,0.04340800679180904,0.031096471580893556,0.12601740258648064,0.10116364098894055,0.014830879869986675,0.13813542404089987,-0.0872182429882886,0.04361550197180705,-0.13837805167688377,0.07581046815344152,0.06357230009351036,0.014941325481353981,-0.05534426101795646,0.04302307331535583,-0.012168429508539507,0.04504091771636997,-0.1315550575851795,0.12013959758062932,0.09496018854371328,-0.12042327185995653,0.0777870080689402,0.1119360653804911,0.06693060525178271,0.07856851455623347,0.12132921548638186,-0.022505541055375382,0.09236268345707083,0.04199994656717346,0.13317744606499607,0.06503647006912046,-0.13843358161514038,-0.044440072470592486,0.1386968760989204,-0.007522472111731775,-0.005476163297501606,-0.09140939951996686,-0.012501396874933565,-0.0687763060049117,-0.09654421264653026,-0.11670539185186637,0.07349723856297363,0.03770536753435346,0.06367062596538971,-0.07208082762799886,-0.11695951118673478,-0.0041244394934984736,-0.07897312293280111,-0.03328210470353201,0.09313600695087679,0.12594147387062185,-0.034640944769582585,-0.03813812604078403,-0.13883658142259936,-0.0037991677886419556,-0.11397779444061913,-0.05313566372993779,0.001240065631471735,0.12304513849741702,0.1187989464734599,0.06585119853187964,0.0843420960741421,0.014164729594039173,-0.047832624271551126,-0.12474355719184746,-0.030875326850426443,-0.0007367135149443582,0.049867668635266586,0.021153879865018866,-0.12058547562757974,0.09217630325697396,0.10536381783753536,-0.03729383421561834,0.11431381323300063,0.11153159750665773,0.10654327246974024,-0.07565396877478583,0.02381420964377424,-0.017859485324717303,0.06539628646373097,-0.1231658505110231,-0.021139979918874494,-0.0664596061244757,-0.005603329851497475,0.06376946397622621,-0.01687800910018958,0.07993802051795847,0.028407787324487285,-0.02929641606210082,-0.050527489280521455,-0.08108359462834556,-0.09515673174421672,-0.08213245786346744,0.13750630410742368,-0.12328087606094403,-0.1295457512270952,0.11539987069831975,0.1242986983301453,0.005826074066087483,0.037543745407669284,-0.0995966266770805,-0.12825948462700165,-0.026520258755669643,0.10492011904659829,-0.12480031951725586,-0.07697331161924537,0.139613547686078,0.042457703600141804,-0.036774988169664506,0.02733682657875835,0.025710497663337065,0.07459328151822353,-0.06695733686808128,0.043936318591188975,0.07666193235743995,0.024480829338475462,-0.03866960063863681,-0.03320781623530485,-0.08164129594459377,0.11761463332901297,0.04691563988450986,0.0939818198320248,-0.037901539713592995,-0.12004128726109016,0.1228901800438675,0.12269082196750224,0.11122167417530748,-0.009663516630601167,-0.09043233860266592,-0.0075308995800292735,-0.07190943950876522,-0.09339039746206598,0.11597759900346245,-0.0017565946576970596,-0.10572205709518766,0.12009989210574255,0.08345987304037915,-0.024974230303917565,-0.11793038748040252,-0.12126934293496981,0.019290552813891294,-0.02082343809338287,-0.012743591947498242,0.14013245538941682,-0.06596510275187645,0.14032657197972145,0.06662509609298567,-0.09789963207023555,0.12853363037638021,0.04696288864525336,0.0828178989427477,-0.025463897976198312,0.009443438085491121,-0.0870815025707105,0.11007658376979935,0.00793974048830722,-0.04501320207841875,-0.0406749346441942,0.05203639303124046,-0.0761632320220843,-0.07451645013736047,-0.12527777907399976,-0.09895001802849294,0.06563019213876832,0.030352692420499254,0.10506465275171643,-0.11202920336654247,-0.03288705890411179,-0.12898729691446495,0.019378767068391374,-0.020777762618257645,0.09695502231651165,-0.0431105279893261,-0.02365692031475314,0.11879051664598592,-0.09588208355870081,0.007265908108422424,0.05729404455274874,-0.01873479484560915,-0.06595985166323311,0.08507774940069723,0.1023281560837019,0.1267699271892977,-0.08548054764391436,-0.1182472232212054,-0.07388349120228378,-0.032698881718571694,-0.0004858042908601253,-0.10093403300294325,0.06418499873235092,0.007886289871707466,0.12890181581273827,0.006498174744361634,-0.047449111972085845,0.005226740052566357,-0.12171157580289636,-0.08329954824312288,0.08728073274034084,-0.08308469881208498,-0.004624072300676103,0.026224619171456694,0.11768489551407366,-0.06386145759475331,0.029236591036685838,0.060490319195314786,0.029644261390267393,0.12183427682472153,-0.11066403303995533,-0.12796804464012235,-0.04513016493532257,0.0817064464159788,-0.03510261992553735,-0.1294268893125121,0.060530718074713025,-0.13217645284453444,-0.08615620621891379,0.02512119536976913,0.02443013928664005,-0.06506653481856972,0.009519690897783964,-0.12475507890736802,0.10204021459503312,0.05046162901104228,0.10620103809092157,0.13782029193150966,-0.020165362593431924,0.07937651227478379,-0.10063640388898835,0.13633980703314513,0.05406145862688954,-0.1312061233940488,-0.03238533741914932,-0.09501324755170021,0.10003580906465882,0.09489730059700731,0.006997497340070071,0.009337043638967474,0.10358455098966513,-0.13015380252077588,0.012244612710629325,-0.05847568704152402,0.07362692858095442,-0.12441440447442631,0.0564303309855557,0.09664903969826144,-0.002830465198452377,-0.06813563355110817,-0.01281602233916599,-0.10809944447195449,-0.00977433286622344,-0.08422362545316964,-0.021237546441839006,0.006395537629646939,0.07602336219089487,0.042209894515709875,0.07883197998578506,-0.00409792640360443,0.08095281530519292,0.04752272203194971,-0.028836799078007635,-0.07037457743556491,0.03240769364808568,0.06556022484205072,-0.00949207631743135,-0.014013216284164156,-0.01229822979663446,-0.06396264982373108,-0.04242683716552355,0.020928364842118324,0.05941476538206178,0.12248351283153827,0.11265981117747591,0.05897400326444687,0.12186917524614772,0.08584784055692578,-0.08428652067657699,0.11512673397154247,0.00482461313863925,-0.04699618339490191,-0.03876264047581999,-0.05100929079508669,-0.027293436319666586,0.06755196124060511,0.13802021631062475,-0.10330634634803276,0.1294427209761888,0.12167062240778953,-0.053050069161629264,-0.03290587371918458,0.11068121345063346,-0.11201061028871662,-0.09425812867484477,0.1338278109817583,-0.04084360171278551,0.13750267055452545,0.05283771787272665,0.008944992085214667,0.08991199510215933,-0.08168223578577798,-0.026028481037219414,0.08422784180385402,0.005373332864339194,0.02635283432888014,0.05240664500356681,-0.13613104903815307,0.034503502425854864,0.014744066246936681,0.1322653116701103,-0.10222747618395267,-0.09023469950306694,-0.03044027588353655,0.06701007807662392,-0.011228625946634933,-0.13284870654623798,-0.08094294655459684,-0.07465928685406246,-0.038509263126399504,0.039841422160117206,-0.0593776573984909,0.0545586506104644,0.11515573177584798,0.13756017439222887,0.12469794080375489,0.01274884404527367,0.039741672138968946,0.11743749540046451,0.0644602526580317,0.03898021297033373,0.03018025810219331,0.0714323502009916,0.08749586634266976,0.13682283238928503,0.09842677239048338,0.06594904240827403,-0.10541665674889215,-0.11017585785929436,0.018936811379488796,-0.013966295455365573,-0.1187901880349452,0.0294109093231349,-0.049081241735832414,0.07596013731512449,0.13726502518253292,0.06092235514190704,0.04623465805954179,-0.10888284448919616,-0.11339955619360635,0.011963943264908353,-0.0448369487240535,-0.025477805536648652,0.10348409652863268,0.13535406692281637,0.053885731956183944,0.01627628874388781,-0.09278663082701506,-0.10009350239183408,-0.11129695043867913,-0.09555032842687171,0.02143808451183669,0.10221983277312277,0.04357051387994178,-0.018476094577631143,0.031077330461772353,0.13400097314268128,0.13316532688770283,-0.06365217105259563,0.07391314614209679,0.11424805079241959,0.0902872028666817,-0.037213938404117373,-0.12957998883060123,-0.11565000150757782,-0.11424609301595749,0.12684292776984765,-0.10950273051232526,0.03428464876184939,0.0694925065583306,0.07403216681162816,-0.12037447440308972,-0.1317488049664716,-0.11885313824674594,0.007987800546054863,-0.03607467884702187,-0.12366937362472245,0.034797358758673264,-0.09527840428144907,-0.00335646639475674,-0.11184168598849839,0.13477484382228802,-0.06914871486515523,-0.1024410720721206,-0.020948368460530064,-0.03567729655426513,-0.05513363621411239,0.13521920742158808,-0.13159484145821118,-0.09548426910883805,0.09387608510319766],[-0.04192882666862693,-0.05056293675076363,0.12618433466428486,0.07094200148549604,0.009151161254218318,0.06377460183348686,-0.06982747336457826,-0.08322165497584962,-0.08994537126256245,-0.13867759618883307,0.13102835248401615,0.016376199677100627,-0.02814106620592023,-0.1186768381252567,0.12331383603012623,-0.07755857409216127,-0.08025023965477113,0.13245661637451864,0.08349954553547527,-0.03754765490002561,-0.13024490928860197,-0.08292682887168011,-0.09497059310540695,0.10385474436269461,-0.023730665614596885,-0.04962350544775241,-0.01097465036527659,-0.1211994321405066,-0.11891065156700198,0.052217115982820694,-0.030179375573715708,-0.08396744002785446,0.023732586874391882,-0.04953684299778081,0.05776308863092789,-0.02253717516053454,0.11081369722917865,-0.009916885735412105,-0.01391496524693606,0.026133026994077695,0.08563023746707472,-0.012547136834635436,-0.03546426712620401,-0.07072824735441204,0.08309476063216958,-0.07248045647238903,-0.13435407882694245,0.05256007227447056,-0.11103279593944342,-0.040053429531771684,0.04240082924572001,-0.09161749103480811,0.0633188382222974,-0.13896317881001374,0.04003129700037623,-0.08212353741883414,-0.1165207179466017,0.10418917236764683,-0.12500317310922682,0.022883543764711613,0.08717285625980323,-0.11858146117021696,-0.1264597938798519,0.12370690349161417,-0.011267996217298059,-0.06423003457219273,-0.08008863727339592,-0.06231884499687906,-0.12553044621165577,-0.12246531582694099,0.059731109716200534,0.13210757631088044,0.09996987661195197,0.06968539607059046,-0.10572574223571338,-0.12692876392409455,0.11431895819631106,-0.05623798469434809,-0.12512596831816652,-0.012296965082042479,-0.0517783933453081,0.06130194808972309,0.10824494534950248,-0.06074174477800541,0.11522689519275271,-0.0035115355753512615,-0.06767624674339544,0.07136340426284593,0.035409586284190574,0.07984659329968495,0.03551873743112036,-0.07246617335009807,-0.00026748658553940244,-0.012131144385116857,0.004571635879910769,0.042828387723846575,-0.11086812945631397,-0.004028321975852569,-0.06455631947650463,-0.13658032401249276,0.08432913478615305,-0.12242166681557852,-0.06850873909443089,-0.06599747362349169,-0.12587248227849765,0.11108203180119948,0.10435520131146263,0.12022122013032957,-0.07359102983994373,0.12204067187900224,-0.12485734022706958,-0.08314888994564716,0.06278378274971565,-0.03277179176828956,-0.04970783421847182,0.024124966936370344,0.0771606268947471,-0.10059220418431704,-0.028660949527419665,0.002266898081921137,-0.05869234226784277,-0.060450708807855205,0.03901104266980429,0.050136041446704305,0.07728381287178575,0.10373305592835265,0.012163082647616338,-0.10718029453976523,0.05468715488554205,0.022421855691853013,-0.0967224599095576,-0.0035605602716386867,-0.06490001584040626,0.01795769586530812,-0.117255651203274,0.11192297891165792,-0.10142350528956612,0.12500642037866874,-0.010329907794295318,-0.1262688011662662,-0.05173482853249362,-0.03601603840615273,0.09346467794417723,0.03212736285137713,-0.09368564112028487,-0.01843926840551416,-0.0030250118361111232,-0.13154446724061206,0.06273945738686017,0.12563685515451936,0.05976068823452312,-0.03156576814152392,0.04255849766890605,-0.013465192732331937,0.12683181736463983,-0.03613786359236823,-0.0021382603716011204,0.004304490614217825,-0.03010079316651997,-0.054480327183954534,-0.12063339182829519,0.07886559829376358,0.10311770246910353,-0.13650361295351668,-0.009490591468399609,-0.047024013007198766,-0.040793342030357095,0.11048462410232639,0.09468176287967414,0.026653831201400843,0.12914063325127326,0.017708440490375267,0.0606065950038312,-0.0511028789768441,-0.0163376557727692,-0.01205593178684734,0.103538208237612,0.012212894070741836,0.05584106565463333,-0.017574654647047827,0.07103170015744595,-0.06281611558510736,0.12066977864566439,0.015447433117356064,-0.08714905937148541,-0.062431732647132705,0.036775686918396756,-0.12110296851855346,0.004842890587880013,-0.005883282511494324,0.006319077616900534,-0.10538809399930008,0.02475824202656633,-0.12105312480481334,-0.08897474821291393,0.1284464123671656,-0.12046648078624454,-0.07344942619891788,0.1389390490683421,0.005990075092438813,-0.05273561046169231,0.1269659294593758,-0.13976689412501334,0.1347591199625464,-0.11143856782507165,-0.09595809246407126,0.12267832485040046,-0.00011727579146310087,0.10161621858041289,0.09683626029829334,0.028653085473190152,-0.12433672557486228,-0.11568870235901532,0.07137223943186366,-0.014088729792128309,0.1155347981817578,-0.1307613244827544,0.02405273216132858,-0.04236949781384481,-0.11201679803414465,0.0714762006725226,0.0018410147299466556,0.12646912012353803,0.026450682666556903,-0.12428813475381159,-0.10403163249159847,0.05460091805687849,0.12228539294082914,0.060932446013758496,-0.05832733640178824,0.07060978610676406,0.11157647177709434,-0.07136993046917321,-0.033753294148092354,-0.024391282435953784,0.026073223439807672,-0.12682782926902364,0.06005178445117121,0.027559162858029278,-0.10152288258470957,-0.0825235227037215,-0.12823692994147146,0.06587691171915303,0.008879912089554364,0.10464852492163605,0.07814331312656979,0.11341046169153012,0.09488209211029804,0.0028607960326837013,-0.0724668739756651,-0.06779836367331464,-0.13846344312141085,-0.12711726629790587,0.013622850084227457,0.12900413694290377,0.05529220005165503,0.09428510700329139,0.04180998315275681,0.02925332403756201,-0.05386229122298812,-0.07124372960151365,0.09458992029218456,0.05795636446350622,-0.13471919027464518,-0.0037384693519126465,0.08060350203486219,0.05261041814769434,0.03289719242370768,-0.12224786789811753,-0.08424393798029345,-0.11835359406719248,0.06656105847217617,0.07840724212181423,0.0714580589607186,0.02831059520191788,0.028947394831237264,0.08097743871024969,-0.01666984776827807,-0.12296082320945789,-0.08787439060639186,0.03813010028702968,0.013295545361945469,-0.13484607495151774,0.06350652448171715,0.043837668275047266,0.07192126963978354,-0.038759101869215204,0.1047450082305852,0.12243252601611028,-0.040971621076951764,-0.11507798838531076,0.07314746712469075,0.005092361832893789,0.09899343838514983,-0.1068079365415331,-0.12470397882379666,-0.01903009961122153,0.09635862999328734,0.04811588379088875,0.022596460007034767,-0.00901748652890703,0.09759888579623217,-0.002018851028850713,0.006382253374236098,-0.012922497172767245,-0.08858969075573692,-0.07085873023272435,-0.040171487485725695,-0.12077727131896256,0.12711261300740972,-0.11033246927144923,-0.05985037517815704,0.022863034190998395,0.07298133057388173,0.12095381329315487,0.08289860997040273,-0.12672505489570163,-0.1220026293907826,0.11859275321333988,0.13779944096894226,-0.010762235159080315,-0.08956706528838033,0.013731019379629927,0.04197338983322601,0.019187121038859382,-0.12027556758793274,0.0646166057334744,0.11472621859620094,-0.0975904912443958,0.11937230389780999,0.06927167663449277,0.06583222159160207,-0.04695181184113398,-0.1360344862551226,0.01799038105696939,-0.07704805904146493,0.02643016526752768,0.06447053764068819,-0.11103023331913954,0.04082801606379269,-0.07615972567155199,-0.11007337328079925,0.06826909076021408,-0.03465880936638289,-0.03407997878847279,0.09618604956999305,-0.014454923667901026,0.12040018179040086,-0.10861370410284489,-0.03668880806097711,0.04252857645627124,-0.13153697193723846,0.030443645464690586,0.046937364299583166,0.09293831973279505,-0.02427495755784799,0.09653395042510005,-0.13104795625806107,0.10832042915894714,-0.08884163950933639,0.00042377004174690814,0.01884133264938337,0.06220994564382278,-0.09511391389179198,-0.025193269784978177,-0.09837653347149526,0.08895192049024117,-0.04532667978865699,0.11429272064310703,0.010244548466481098,-0.06773564024988565,-0.0690732412883186,-0.09950282891389739,0.1142506330417876,-0.032678944615756975,-0.1069288753683716,-0.10647920426061924,-0.07155583767547058,-0.042175827054856396,0.07921750070973664,-0.11854046724565095,0.0420835396948783,-0.025506196012758272,-0.02495724061948377,0.05706416795592914,0.045036485235685896,-0.06213004850355313,0.059112520371971164,0.12966911201728604,-0.105674513368185,0.051673430804181644,0.07706507445250686,0.00858743863881436,0.08776709851810442,-0.09231963073350428,-0.1355849438793783,-0.06581677378470105,0.0030810995358486687,0.1298883143126545,0.08086780522648282],[0.028519780398598395,0.1228287716553337,0.021525859030483506,0.12615709673473596,0.01618062613688788,-0.08741671048660858,-0.08865804484853113,-0.11085186230106607,-0.03829374691560985,0.04907919147159026,-0.004814905214582667,0.03913101552879169,-0.05121123579564327,0.040495146612738946,0.13054033935692672,0.13988290202848744,-0.07369670520101777,0.006240279141884587,0.0402214282169751,-0.08761110191860502,0.07149176570264017,0.11825683154454276,-0.10348322839075488,0.012598886470784488,-0.11026808594052358,-0.0853728740186659,-0.08909719268450136,0.1031999674655529,0.07677685561775957,-0.06922406643521858,-0.05536849427168222,0.08479057293424411,0.09248604465043814,-0.0765208133855781,0.023046692619754713,0.13923688645256738,-0.01239009134950351,-0.07710752859096291,-0.04848435250558628,0.13049327869146804,0.07210649570516778,0.05615836192799778,-0.030335979402886213,0.11716286260875174,-0.07839240303537097,0.10398929890092799,-0.13120379081724942,0.061181828760509385,0.011409993665368202,0.11211887618478715,-0.11273778839879231,-0.06781427768778597,-0.1184056275209349,-0.11540703028634336,0.11032657156835962,-0.025718101398747025,0.1020986122403729,0.018379630369801347,0.12893332365704277,0.037784873019621384,-0.06621231674971409,0.07051270784749075,-0.10773326442651679,-0.1281068811385998,-0.10743794124065047,0.10354985927919266,0.012700282183181363,-0.04692788024896122,-0.07931485678370673,0.05522094344996048,0.1337485069516775,0.0036827690420935763,0.010523139412087195,0.10515160919592541,0.0997931721742444,0.04570156098509736,0.03598291577973172,0.08467518220728056,-0.11979972591879291,0.11234465718867037,-0.029677134959327705,0.014778690061710112,0.012048990975889302,-0.11795793324882177,-0.05689292344022753,0.09439948453278114,0.10391326050981833,0.1353390871145775,-0.13018582136527684,0.06414824499029613,0.015215749843240207,0.13443420154530486,-0.03349447219526423,-0.12815507601213044,0.015305211875354269,-0.03690813297964934,0.02245881329333777,-0.08160951934291315,0.05088215966222326,-0.02864178031349147,0.008244726048857091,0.026677398699691022,0.07723931282650433,-0.10526976886569363,0.07805094538364926,-0.030183371471069524,-0.030903169230518536,0.005866454229421325,0.10359400757165234,0.09585593906276227,0.031849884291431776,-0.13916942597065077,-0.09090218367557555,0.07250576174733987,0.11675017909668368,0.03536375777397857,0.09199615982010763,-0.00027662266489936454,-0.09830674484526522,-0.07615531003915506,-0.0778908750508855,-0.08527591459092317,0.04239502876354702,0.07068238588975684,0.019488967704079277,-0.00563980109445344,-0.019873867821758803,-0.08080164212557037,-0.12860717294834761,0.04605627058893257,0.0702521987214247,-0.10166739821407804,0.0399001060953714,-0.12324354791269522,-0.1327402846294837,0.024102329639382962,-0.1403275149868321,-0.11781285947118922,-0.11256672413201584,0.06286800540248907,0.1344432946371417,-0.08190092869046763,-0.10360933883383644,-0.12455221177598952,0.04652921867068972,-0.024410550266034007,-0.11447919293029657,-0.11680270314123078,0.06611821637434545,-0.13441091318434228,-0.05161800594154082,-0.0908077546822952,0.0832779950413332,-0.0599247113261659,-0.13408681121347113,-0.07368829258579836,-0.010618564589413163,-0.12093204509338927,-0.10862800346143907,0.06364031663262755,0.0057356803767656265,0.043615307419279346,0.10081406090224818,0.03383977441142762,-0.08031223974752942,0.06007127116632206,0.015810949424326228,-0.06049219957702212,-0.1058797970411257,0.1372786285454372,-0.017599125381605515,0.11704885191110555,0.05996110643874293,-0.06197414792225551,0.12111248136363872,0.13489765931954867,0.08246064569696725,-0.08449650889778461,-0.011951918377470592,-0.11126730624860985,-0.0733730298667296,-0.12263227948449895,-0.12470955933952797,-0.12694626357243843,0.056056203287198486,0.0038367842414625364,0.050213437952273905,0.11526913784982179,0.07067569507380045,-0.015237260865133068,-0.005560687627249714,-0.04253717504016613,-0.07915174296951641,0.08934096016666912,0.07624255761676219,-0.12110541107604406,0.07683675680257906,0.104854531916858,0.04298769201929619,0.0017082318693345709,-0.11211349048067971,0.0421342955236881,-0.1401924618533136,0.13676223723334635,0.10107270854674633,0.07995613281246347,0.059540977473966424,-0.10296680331632532,-0.04180677164261332,0.05188558044891557,-0.0490887828273387,0.05095747743731661,-0.10849542081256965,0.13496148156777815,0.07191910234097841,0.11325130021662573,0.008107781278769259,-0.00222286857445282,-0.11085678955007522,0.005230642931208144,0.02634410167298058,-0.13753992367287315,-0.13780792614542883,0.04141018361934513,-0.028101833435252754,0.0031323489851579926,0.09874462819797242,0.10367997502539457,-0.017459359476141016,-0.03650161501801339,-0.029758949354579706,0.03013174149824633,-0.08667297895185888,0.09155464835214906,0.09527786622236527,0.01935002313117568,0.11571573150973984,0.013396335308165152,-0.04882185042058512,-0.136036430395568,-0.05250203253903541,0.029178178892436797,0.13647871019767138,-0.13051631512587672,-0.12729113400016756,0.057196086265632023,-0.09533262200558297,-0.08582928097747995,-0.08455714787705282,0.06770811115570353,0.02325783997872519,0.027818594133944965,-0.1145804438794034,-0.02538005474438546,0.0071298801758120705,0.1272481421826325,-0.03571754283940201,-0.09859582566459173,-0.0013500031656802209,0.03717865681593339,0.01007729200800127,0.07384716015058472,0.10765983982628112,0.12401436384326633,-0.03653321324620319,-0.07846135377845039,-0.02739109387825597,-0.07938696799407043,-0.12143828322016202,0.07327519220965967,-0.02261083766860691,0.014640029074464267,0.0735111734573675,0.05026052765198667,0.02599692150804269,0.01928563350973141,-0.07497571887855041,0.12809674197020823,-0.10957630315470479,0.09399051468179527,-0.08904542820336453,-0.05872254578001842,0.06377546981641691,-0.05917269103785682,-0.01822694393756428,0.11053903272474074,0.07107131953164733,-0.10768827298156597,0.1189704119626869,0.09552291178653424,0.052691233648414146,0.009569536956282343,0.028397825329529208,-0.09328700057894664,-0.06045859524680235,0.07129963561816051,-0.11211491958666871,-0.019420165530448636,0.12886852210137806,-0.08406174587827454,0.09039941658938448,0.07352255818447426,0.026321884048395115,0.11584468644964052,0.13167651364630806,0.09701864717831829,-0.050729582489114286,0.031001376969873873,0.1292373223848333,0.08474157995865945,-0.1255254997998576,-0.0521355034646142,-0.08990397976944328,-0.08226910815767453,0.0711517707922766,0.12772798675571106,-0.04161558146531974,0.02657917664125296,0.08043059440587604,0.1219959519130085,0.11035697184104822,-0.036557924628941765,-0.038217483761967465,0.06746681421332702,-0.11752748036495483,0.019716577658568643,0.04372810450710601,-0.05680225610298164,0.050504817884575254,-0.1178840009488166,0.035393646070454005,0.1203147288077282,-0.12475040749573957,-0.008197414125482704,-0.11459644091716864,0.031161232558027982,0.022123751455619834,0.0976544913302007,0.1298538087283005,-0.1006395000778949,-0.12322240740036902,-0.03457661830840825,0.09646504726194297,-0.03459752842365307,0.12973984153076634,-0.027436368593867777,-0.08779658918950228,0.06720208427994621,0.049011059204747326,0.09348895207700775,-0.02983480004774084,-0.058025199169093954,0.10969349000459726,0.007616264967950947,-0.09706122501183703,0.07986660932004545,-0.08583921970996142,0.03860508774287079,-0.04862483670651143,0.0030322335782570512,-0.07371988657736304,-0.029600912021231423,-0.09902337130514798,-0.11611980121452103,0.06840972787603905,0.06392107179840768,0.13593399329171882,-0.13516200792711305,-0.03907843160238137,0.08550419236849158,0.0015074220114115343,0.07174981283455066,0.1319916275679369,0.042505495778913854,-0.06811396073624494,-0.11603412496784332,0.043528222517003626,0.13733386750183305,0.0901040890748623,-0.04613817416826843,0.12135974850428251,-0.03284419040001843,0.12033455326554869,0.10975649723089047,-0.06893505493223535,-0.029828918537398757,0.1197478996852171,-0.03294173195445378,0.004557453943025831,0.13273615885505122,-0.09908683098923009,-0.12831529536670988,0.08199135157601284,0.0016977266959879367,-0.09177649436640165,0.1133345597736991,-0.12420688621224901,-0.06167336135624128,0.12536761334513682,-0.06852774753617549],[-0.0542490313616559,0.01595130254093315,0.14029928073890885,0.09066721944748231,0.12474465222418116,-0.0832800108190462,0.10340537953368314,0.036194928505062035,-0.06674319149537077,-0.05768904829821453,0.1387246457548476,0.12781977903949993,-0.027188860485666676,-0.04438114325241424,-0.13134411904549279,-0.05322182553237187,0.07502590548600481,0.019422871853941946,0.1381927842711052,-0.06045350012167939,0.06592632034530765,0.07480877427890338,0.12508565838851526,-0.091305898440019,0.08830164528152183,0.034030056303929676,-0.12198442895110935,-0.016390381994563424,-0.11280084121381523,-0.13263514803242427,0.046002296341839076,-0.11609022065969654,-0.14008688008747475,-0.1065052986890106,0.08765553340570682,-0.003980842100833445,-0.08016851742106282,0.003934111744039317,0.03007989078360584,0.0396332080513175,-0.13257826321821234,-0.13437113305869713,-0.03029247118658571,-0.10185170381369775,-0.11666457844485237,0.06845429653676338,-0.1296072758465945,-0.05072611822440158,0.03896990064279976,-0.08102396497264075,0.1010549330974094,-0.10995850340452643,0.0073789887613909,0.13441965556596866,-0.09172847907895827,-0.03791207386618136,0.08137598196003185,-0.10713561678372073,-0.012992915149193533,0.003402733489119586,0.07798538258438364,-0.12808620476372867,-0.12317181407765032,0.13054284851318215,0.09776862056699781,0.12357349483730244,0.07881012351613094,0.06427295432127382,0.03701176107863767,0.0705057671650629,-0.00454730322099905,0.06751229692009415,-0.12334027919966367,0.06449628565868076,-0.08339013095028253,0.13315055459230604,-0.04248948291367321,-0.09638032035651233,-0.0847164688763951,0.07756549608524752,0.01788100500935251,0.09069879220074002,0.10636562178731743,-0.0660596773274044,0.04122639405225267,0.011450805934643062,-0.061246496554098806,-0.06133409028318699,0.04664233778187839,-0.04754569875677158,-0.102759946255561,-0.004630282148631956,-0.005649245093987419,-0.09644033894535424,-0.09550966393575518,0.018205184583885148,0.00996794713030741,0.019837039852565304,-0.11039341207383854,0.13998361948818053,0.003054165053867509,-0.13273098226426946,-0.0008086102121569419,-0.05048340600746599,-0.08556710784907781,-0.10652447324709935,0.02585064855178249,-0.11016307916338904,-0.10661082969154098,-0.1312602099560047,0.1180394058711117,0.03608472649880077,0.05731182186813275,-0.06673612263641465,0.07129925328305331,-0.06448805451812932,-0.06025527704603019,0.08473183937177917,-0.1352257901527011,0.11978404263993347,-0.0533454681418357,-0.023641086134718842,0.11734564596087284,0.11255401477845937,0.09081864886311451,0.13911447903963856,0.013645389910372691,-0.056206522175338725,0.00007230380725860531,0.05813759178440602,-0.0007455127766204574,0.0186137015639125,-0.09495684067504925,-0.0678067352793165,-0.05390335456663018,-0.13246394933344446,0.0013761826561371963,-0.09704048501633038,-0.11029155769934916,0.11691666321121964,0.02377188659783661,0.027453373882050033,0.1188877590536339,0.08372549654937707,0.038256709211117575,-0.06863633340107814,0.01820213357160436,-0.09491712027932783,-0.031382143391278865,0.11526782712446038,0.13740717297647423,0.019415083692827746,-0.014894577485786124,0.07678013523051622,-0.10149128800836732,-0.0795011735144433,-0.024071653276105963,-0.10904570995737028,0.08754476000696626,-0.1376604482399002,-0.01639782094564974,-0.0012844090537458283,0.11134557145569758,-0.09929178297124396,0.11867965617163669,-0.09056738107193742,0.1137405341343789,0.03139952878535773,-0.10406995221100472,-0.06046767070090773,-0.031064057716667922,0.06024825901613861,-0.012641350070580903,-0.06796155516185126,-0.11378921100595207,0.04316540809450587,0.0344347540863083,0.015809364127556652,-0.01281149806045223,0.13711298754593854,-0.0032011546705429314,0.1271161196902593,-0.13937421496992788,-0.005379807009387386,0.03162082037768543,0.008697386561829012,-0.024582008305194535,0.02154181807637891,0.11348266051766917,0.07707365465137386,-0.009687865774205339,-0.07743803682882325,-0.07867348926780551,-0.0373332819373439,-0.03711469249910849,0.09436644363174193,0.12736803292500687,0.10682739211640185,0.07823296256182868,0.05429596409227812,-0.12779962920668594,-0.04253819399564653,-0.12004173436479847,0.014678960469057043,0.022318567864893474,0.07870598133440534,-0.008108725504508718,0.010397175497188313,0.10946844265447143,-0.10170071644929474,0.0011710323662127982,0.043063613069226014,0.08371760040597676,0.09330213528610766,-0.10560437231856518,-0.11647814595288107,-0.007885300463672838,0.07647087960558627,0.12701592621610688,0.04403451361654054,0.06875015361666324,0.05250351955951473,0.1022734565066107,0.05602861340114412,-0.13880275741382256,-0.05952644973877968,0.06740544227573836,-0.1071234152799519,0.002480983589033639,0.1176084960675774,0.132603973078715,-0.13287739441265317,0.040826085124883046,-0.11003281540764095,0.06260364770007536,0.0768470140984048,-0.06748409323149238,-0.13125138663584082,-0.07857296605952428,0.03959298654462859,-0.06642321582130552,0.026460948679371758,-0.030668803889153273,0.10902439226087907,-0.08127266459635889,-0.07402336673743751,0.10527821832284429,-0.08477515048611357,0.017533458105595666,-0.13452215069421722,0.018752356955166322,0.08274830893728467,0.1274042708712067,0.08754657547265772,0.05187257968335231,0.005347373692295371,0.08161283044805966,-0.0670446015765354,-0.030822898715051488,0.0011764694023766204,0.11835531029524288,0.0813923864408964,-0.03877114797249441,-0.09276638340876735,-0.08223053390809865,-0.020768772186291782,0.11360795124981625,-0.09675910425073969,-0.022439259333316065,-0.046287130690660094,-0.10275977051107313,0.013808911805104835,-0.050554099610876785,0.10362932780139365,-0.11862310620293476,-0.04591870544851982,-0.10584522305086973,-0.08749077456538187,0.11340459457061772,-0.04634270295979172,0.12614355834275848,-0.04646625009194868,-0.08804907752377142,-0.12580794196228248,0.11614197313682509,0.0060738259160906995,-0.06830861040287411,0.11386741055772831,-0.034762169329069934,0.027636045185559618,-0.04637625001559628,-0.13635072757569444,0.08032064713387095,0.04996895267358901,-0.13764897677226956,-0.027917159504576787,-0.11871378991741538,-0.031096503602525177,-0.037065236045891486,-0.04184060583290551,0.13051806907182398,-0.0724944271474162,0.11539137201230602,-0.01091992377746001,0.07309318055798589,0.07570067069351881,0.054402117597803994,0.09911994934945098,0.037247028222196235,0.017672039309360003,0.03179051763142474,0.12223316853698515,0.13834808685694264,-0.01136810272591693,-0.13207600223192273,-0.06350905617248044,-0.05306089423836231,0.08078308713596527,0.06799516583163813,-0.0639217660943176,-0.03709964349947322,-0.0780948694689243,0.03676044906678362,-0.05227402591276501,-0.10212074145679445,0.13130466442622044,0.09573537297423278,-0.13819403020352936,-0.02046802927482559,-0.13076343972398063,-0.0596659185918148,0.007422035263204082,0.043070122168847216,-0.09414360116358735,-0.10455514714186916,-0.08623172532096128,0.01571603686486673,-0.028483565838566337,-0.05478283617728623,-0.007152473178091606,-0.005803105706893609,0.08265412783778456,0.03061167455484778,0.022860723369767553,-0.09640002257561107,0.002500442531304896,0.010335526037032947,-0.005505581731247619,0.07707702030830581,-0.03891579268319915,-0.09500824349956527,-0.0005608483894266036,-0.1305151066694056,0.01935838257535076,0.12338572574051085,0.022595557548705136,-0.033047509072064093,-0.11467116386294365,-0.04131884097625962,0.09480322172476181,0.08302539893966697,-0.07991541184066626,0.016536996780738035,-0.07818346009549883,-0.016692563016930017,-0.03332988804086104,0.10922345814928663,0.03931919358892741,-0.07436751228579337,-0.10543592402008709,0.011283921893335535,-0.10083952103670052,0.04239571038328408,-0.1340801475627351,0.001187804576198444,-0.08572497238065863,-0.004399307333107444,-0.13533780596934009,-0.017830962252736633,-0.011676647972579479,0.01474723137077691,0.09397407122105278,0.011360508744960049,0.11027452939943734,0.07675855444119056,-0.07059748488444412,0.054320197760228305,0.028842662658290528,0.09959220492211797,0.13027897441398942,0.04811228265389953,-0.0626836066254007,0.12269457027514878,-0.010348551575510572,0.11614453966027025,-0.01539124173532509,-0.0596366975355676,0.06105006914183852,-0.037306317268728885,-0.1337528794702152],[-0.04370854436436837,0.09765970546498014,0.041501783327163,-0.07467106592717003,0.11103906345916982,-0.0369852282758078,-0.00483582654161424,0.11854834631264209,0.05678087952252962,0.024815778876828867,-0.05217398198618963,0.04684873466683803,0.11511236816178708,0.11698888560235117,0.022892562164548432,0.11279113268352954,-0.00459681728943876,0.0021309577001777944,0.10438064794694157,-0.1116142199897032,0.03620722120764149,0.04579121525930143,-0.09219915818976407,0.043324268880481104,0.06411884236523308,-0.07093836751603276,0.001741518022269513,-0.06645884046279554,-0.10471573704081996,-0.0012138815160543152,0.049361810604354614,0.1298279047291058,-0.04995149206049019,-0.07980432653813188,0.05892260551483055,0.07148449700095885,0.09357189127247476,-0.07327284644752108,0.009783457529337536,0.027010837926315333,-0.06766501305203398,0.005853222809286218,-0.1215549275489728,0.1265923369944056,0.010830787094990883,0.09080497963559189,-0.13374559880623624,0.04549106458107408,0.10403361354403379,-0.03403449378688056,0.07695269707475721,0.12540101850843582,0.07183019171000275,-0.13640388991661478,-0.10009643594448574,-0.08080499280015259,0.015291272421804553,-0.07041698439112236,-0.07784856953555072,0.0615378595323982,-0.11501497010659383,-0.1372167022120965,-0.06816428259347498,-0.00908281946947519,0.013630425238031065,0.11620131883527725,0.012898638450230638,0.0018756903689119038,0.10515944488917524,-0.03369096014076412,-0.11346395001488015,-0.0967897204200485,-0.12354486262142951,0.12097320333332673,-0.004256329973985841,-0.06737548026687884,-0.03129258579063185,-0.04631497883100489,-0.08812205716916213,0.03513861156767029,0.07836898029665675,-0.13440905277659082,0.07126442125555962,-0.09754366415884935,0.06969245255661885,0.041467966089470294,-0.10771915321837083,0.0703110690749539,-0.06357755408070756,-0.043031939343305375,0.11840285718901133,-0.06478312294534026,0.031386565328529153,-0.025939337748995428,0.0636668572859144,0.039471764285575014,0.044817308201101594,-0.0407983029626918,0.05029891852415492,0.06230968735606111,0.09809499342449096,0.008168767523578127,-0.12452461262143473,0.10377071490095775,0.042046604149279285,-0.0890287378974577,-0.12612354156626523,0.005745843921534862,0.03101108758941426,-0.12147043692327912,0.10203763513953536,-0.03990643943333488,0.08037592120063941,-0.08545139791136667,0.0032453367010717776,0.018111711707413537,0.08101015636675317,-0.09491723858207057,-0.09849767163142094,0.097467408362112,0.10036110740662016,-0.020296425454134955,-0.09976902481710698,0.13882730412365082,-0.02246142622517732,0.06001270556909168,0.050118600930243805,-0.02440111923768691,-0.016142832834438726,0.1308019595412681,-0.017003302861787403,0.036061651309383616,-0.09993915232392442,0.109805619041964,-0.0035283161909852164,-0.005486480267601474,0.08197185990079882,-0.08586826380584442,-0.05647914582032904,0.13043116078771994,0.08915493679123246,-0.06960757508042335,0.1327349298390215,0.12051155647510502,0.06969119464311357,0.008215315336675235,-0.006881007786951739,-0.06874571195032922,-0.11940038794355522,0.08052226319890968,0.026941893947091757,0.007643008558026969,-0.12502526373537454,0.11072268985091782,0.022976574238937623,0.01657066801537237,0.07745395580992609,0.11278092255891538,0.12519647161639144,0.0011804528295065017,-0.041735401676248764,0.059649263027614134,0.07309953646986525,0.06821886814738633,-0.13462398843519738,-0.07231454441386334,0.058145966249210604,-0.13657676428629806,-0.055708332805476234,0.0261992707213645,-0.08216250209640151,0.13709839924936082,-0.04898759090742617,0.027831938799453074,-0.053626583851161355,0.01862615547087574,-0.037880665573248117,-0.09265731566826294,0.08485037756750992,0.08690001012009604,0.04959887963516178,0.12380560676724,0.10888256826662031,-0.11787341730991956,0.00005309027466344942,0.09168654147012638,-0.044630100074344384,0.06304556382295713,-0.08166765499818997,0.05063520608984116,0.010344631994975716,0.1236688607540877,-0.0010769284528565832,-0.0033074381761635232,-0.10685893961531188,-0.008141041234670165,0.10427846933770447,-0.1307691228799536,0.04036743644340584,-0.10739800433128449,0.057213811658522996,0.08232213839491623,0.13379073366536642,0.120600713024925,-0.12606961049533805,-0.05941238299588867,0.1271291211008355,0.13349886467497296,-0.021631527195572417,-0.05383851069690486,0.032330340925162265,-0.047853872483991505,-0.07944996825283249,0.01653714659345256,0.028357056645395035,-0.026296233393641594,0.13518120567025285,0.001708469608234463,-0.09663997306097648,-0.010616304195009757,0.009248039156661662,0.12684862381693554,0.09413334541428466,-0.008413169672338114,0.11918833807346318,-0.059929192383173915,0.07847923432534577,-0.04708128247744457,0.12852696574550862,0.05853314388317079,-0.10428660298740945,0.055292479990998906,-0.09545936006472316,-0.026363188072867114,-0.037336137870200195,-0.12485100016232938,-0.09303270315319923,0.0846036282355661,-0.1333212190286853,-0.10356858733486043,0.13572215892523465,0.12376276513157636,-0.011911637121797505,-0.010002408718068774,-0.10770538771263477,-0.12365930945910548,-0.020967741980750597,-0.033675363748273866,-0.04800700805550226,0.09665166929682911,-0.09131013334722439,-0.13285328936493476,0.03928043092482468,-0.06169033165821376,0.03844626319209408,-0.1342939746448761,-0.03447909231443686,0.07587426612425417,0.054251645595758645,-0.13030140299485324,0.1133300418916549,0.13029800711204995,0.06685375809823556,-0.08866759405061214,0.12864453346867816,-0.13235341952389648,0.08994485199284465,0.03855050987559671,0.03730385440125171,-0.11884121589484538,0.06609040034056558,0.07478480629869227,-0.03945166413071447,0.049990468940851504,0.04793115326976639,0.02350136283334316,-0.10299216023704065,-0.11165485775235306,0.031191526665379457,-0.08062518790480372,-0.10373237771984178,-0.0841016779022034,0.11310316332901714,-0.1116974135879039,0.08290839814856509,0.04660425855118165,0.12813686483148598,-0.13594416105044946,0.03916951959897193,0.13231960703608486,0.03984762485041039,-0.10245158996103217,-0.13185727593364258,-0.055137724270684904,-0.03386244233407966,0.09534302152680031,-0.12196419432107648,0.02979788147886218,0.08910577784220254,-0.08008935861094739,0.018754746409799114,0.09575470864490315,-0.05426014705290782,0.11748212096526427,-0.046788783317451246,-0.12037255766740845,-0.09238375443015345,-0.07899037843923677,-0.003894390420264272,-0.014363560250061785,0.036360896174745395,-0.08369440186205253,0.046612051938746395,0.06633689064795242,0.10827019123347159,-0.03979344456813411,0.09550674759513515,-0.13244384121031286,0.11153504264397238,-0.003035144455529828,-0.12127185054029967,0.12200659261725016,-0.09375152583189089,-0.015423763858753945,0.05573404605541486,0.04385033546873558,0.11411931742227302,-0.026351864269664724,0.08432296411266084,-0.09198651171502442,0.07897792711297885,0.05521446512207295,0.11039808561298677,0.10563399829130983,0.04477581892007147,0.06677263188216151,0.08551339464696273,0.042852814636242034,-0.11026183249954497,0.01302914125961542,0.029429562923286297,0.10520595546517914,-0.04343389192174308,-0.027896897654490032,0.04949088508897527,-0.11438338964389196,-0.016579013086036407,0.058548772885474006,-0.12244346714724057,-0.0014004716765762468,0.035009427221149435,-0.030089444132717427,0.07149226441563886,0.025579096240090467,-0.09939623429127094,0.11521062432592456,-0.14014882829196074,-0.13881221470607868,0.025824190154116734,0.05463247937666195,0.0420460696650715,0.05791133545194564,0.12000922824104993,0.058633796207955884,0.008637698509947842,-0.05764706353836527,-0.031730030557448635,0.09179060476644346,0.05352540794186786,0.03768120092075977,0.04244411943481936,-0.04763746252574533,0.13077835500690538,-0.02578935228427991,0.11159331655541375,0.020237810782739875,-0.0014794246480539588,0.10232630998577616,-0.025089671473100362,0.009540414599728165,0.06165417516388805,0.11431128540059213,-0.08018040877179325,0.11321240223874693,0.06516507221366348,0.007217206569599222,-0.03112693264305143,0.03281814939655161,-0.08535036626229127,-0.04092428776985572,0.1370007624387762,-0.019151575501627573,0.06970068443633841,0.06077189909262974,0.13820602113482525,-0.08865831851461374,0.08287032121199091,-0.131283453142772,0.009346401119061529,-0.1347545136160225],[-0.05110277327576158,-0.09892034462962832,0.010959591628912259,0.10455645742217926,0.0023686294585420673,0.08751585689755313,0.09410086152502235,0.06204573144581703,0.09054004490132063,0.08476689538588704,0.07239927594178351,-0.03670971508564441,-0.021258414850056303,-0.04724879260454987,-0.08100252451958827,0.06067205966941768,-0.03201163738564587,0.12864961408931874,0.09180695520805533,0.1183728824100642,-0.05306483169582682,0.03296500891360755,-0.048819094740465196,0.018271780670392517,-0.04083844274268082,0.020554223382469806,0.02612253937656704,0.07359845798496825,-0.08568309237606912,-0.03196292681479494,0.10866052354586987,-0.0787353282358958,0.023780523025944623,0.012163269248716968,0.07809091777140614,0.0011664296260612149,-0.05689904404099113,0.04973361523670945,-0.1349956306821286,-0.0520713314793048,-0.09332258699069812,-0.021922563068930305,0.11027509537992108,0.017797582590002255,-0.09195149189227445,0.13895175488023198,0.13423005201740645,0.05487212089911079,-0.07576536859535936,-0.07230057446552207,-0.06523978963101738,-0.05761472587828026,-0.11555661550044895,0.011556232516660903,-0.0881009745288512,0.0467163540937195,0.13384042494806458,-0.12186244469816916,-0.03488655265290803,-0.05099660692697539,-0.06583562529733104,-0.08651327518802363,0.04377400308085087,0.06501314019650423,-0.013272802030481564,0.13123575885455663,-0.13071782752501365,0.08728151209809619,0.13814073338272684,-0.020672604268199543,0.06748337051524363,0.12696532383037515,0.08476628795998874,-0.09841277497032758,-0.024585153862187917,0.01750929374583363,-0.12453125632239287,0.03784164307136574,-0.1319055566216771,0.07254994549061672,0.01244334776744667,0.05057559401017526,0.03423382733235361,-0.10005658186711044,-0.14025705600380606,0.07079792992080494,-0.011856512653129104,0.009905306817557762,0.08947501730958878,-0.09307211636535206,-0.10584480305708721,0.04216015744211297,0.09258526565749563,0.04216967592514976,-0.013870090403311533,0.13280681537682157,-0.03038196040451346,0.04761752272825385,-0.07314319750497103,0.057196870463752235,-0.010349685862280657,-0.008518871507001655,-0.0166958541504645,-0.006373862386696987,-0.0009122988862019267,0.11508477132034871,0.009263049833860035,-0.13117648402707116,-0.12735915818265836,-0.04933852935495224,0.04156734284473574,0.012421353925502485,-0.06674951403173542,-0.08629626074649814,-0.06493955930540783,0.07000756664440043,-0.06957796278881782,0.058578188877550307,-0.11725038989204163,-0.13553686646005147,0.09193488659831646,0.081557921954655,-0.002128597034719261,-0.055406360007816825,0.06985235291065486,-0.12606218008840095,0.0010203453270567944,-0.05372311465616009,0.027870156210730208,-0.0034793603521274105,-0.08142448427296016,-0.12986033903190922,-0.05542000652577487,0.04881609501118884,-0.0885739546833841,-0.05624012270066087,-0.0025694106329187745,-0.11395781150065341,0.05935547384685021,-0.07987996970015859,0.03678684737392853,0.12995462204003874,0.0755201210637122,0.08652540111931013,-0.06476543117154296,0.10508103846666463,-0.13633519742049505,0.0216983570779326,0.03628071520320463,-0.020483310321569456,0.02147136051747594,0.055798686074053874,0.04654204437484281,-0.010680642689653705,0.13014705651506922,-0.07483831117261017,0.11024574615763966,-0.13903613411156882,-0.09980096424931031,0.008592317671406379,-0.09105564525750044,-0.019878011632277606,-0.07466603629766859,0.053226947689546514,-0.03378128182010148,0.05562563565467143,-0.02849244417486586,0.1393888055090939,0.025125563119260338,0.1383160760059818,0.006620596823434395,0.09950874864066636,0.04152742757016877,-0.0948864686460199,-0.0426179584913779,0.00265007960068762,-0.05773757210341316,0.10598400449823432,0.04610731678835143,0.007659013261687132,0.08915967743814283,-0.09551271045921671,0.07750553634832333,-0.10888837154626926,-0.139878966390757,-0.01838490111123268,-0.047875078801344985,0.06040714577202401,-0.033551149119140616,-0.10589523599441125,-0.13296799331988898,-0.06549266878096519,-0.06164287016840698,0.06818235919260486,0.09546002697967196,-0.06480910089634852,-0.12122868847043547,0.10840566586485711,0.0834735687017834,0.11351151413402588,-0.05778234857659798,0.022325572209226822,0.00582609879832259,-0.08452172096112551,0.12250736361253492,-0.04004798491864847,0.0823976187895454,0.04979863970637975,-0.0210404877853959,0.11973585793673686,-0.017013114824997577,0.09848725908563687,-0.014149231157078071,-0.04943635226467562,-0.015898200451514608,0.10343541211484117,0.13367838321134617,-0.12658076532386262,0.08713635337872758,-0.12793433183763553,-0.046522351103846504,0.05963461229771057,0.13035155004683907,0.006502923121203938,0.08378865117080113,0.1373071595976031,-0.02457708929395669,0.10885145084669187,0.01654816659214456,-0.043501060946041094,-0.12371223502273446,0.11935708792088362,-0.1393224352563219,-0.014229872234700581,0.07002297047574453,0.07235926682926883,0.08438817511829587,0.05322406257173129,0.0951867674509947,-0.1349055380706451,0.1217756334792206,0.043271701689610684,0.011654576973438156,0.06704997983989278,-0.09758980123762691,-0.07619823051995916,0.051746912281577864,-0.12823416712661231,0.09513790466869906,-0.09887042644969983,-0.004707751573962787,0.0929824418252832,0.023121256485448872,0.11171658237367292,-0.06898542018424804,-0.03726009528742769,-0.12435896803518272,0.09149349692189801,0.07586708252206037,-0.0509694785770708,0.11266247609413971,-0.11863924516318541,0.05477315609359474,0.1400496497285286,0.02691053733578764,0.05318736575873272,-0.12454668511428536,-0.014836658233273006,-0.07649003556997293,0.11202682742420252,-0.13332754860374768,-0.05399378115688752,-0.10794018131792388,0.034184940738126605,-0.10235521407661757,-0.09055423222624533,-0.13513639910036435,0.08110535644341743,0.056021472108672164,0.06893284654796475,0.03686341364070494,0.09290657202498354,0.025595158769390346,-0.12027130913426884,-0.039195398069779674,-0.11364839895588434,-0.13275881598686412,-0.12553287113020314,-0.06798095063005262,0.05325929795377808,-0.1198553327482982,0.08229414551462559,-0.02841264671728074,-0.03718073553214884,0.12328360725135215,-0.010871798015339964,0.01640327493548392,-0.05783269995216079,0.027162969161008788,0.10495395109287502,0.02598191477844021,0.09829928117588671,0.09002201850893796,-0.1278065436613616,-0.043630104223622124,-0.013309470960220964,0.12217868349111519,0.0633426445872701,0.11916802822203966,-0.06864279972119215,0.037723771323046246,0.1017117177098176,0.13681200195322732,0.05693322000275905,-0.009112989400530345,-0.03627921513488773,0.10887168696591817,-0.0006768518017296773,-0.0035644758414393385,-0.00761068428652523,-0.02098646819654691,-0.031668092132994104,0.11153851526095021,0.010956915162648323,0.0022560878280503557,0.018526613936182705,0.055174459172737625,-0.13063020865094319,0.09469030232724396,-0.014323027317245584,0.10186478766627377,0.08722308613150118,-0.06636078392217046,0.053044395636354956,-0.04729375530377526,0.03045239488484305,0.12688717183824355,-0.09763463019041203,0.03566445554134905,-0.04746111041518088,-0.10696747296650554,-0.0062883824029911165,0.018704367199081195,-0.11775615184651475,0.00011519110533351528,-0.11774166931992223,-0.008841600074128436,-0.12444273658090832,0.10426249428606027,-0.08624154849140937,-0.0333091471502152,-0.025629712372100197,0.11723876263778321,-0.06671283638570571,-0.06631398440071305,0.09234304453548399,0.06030004491278647,-0.10248083098804218,0.03740211404957957,0.0007353765776311655,0.08408138810398032,-0.0026316912710369947,-0.08814635022159624,0.129185802647837,-0.09207242116748635,0.008361860917517727,-0.10663473386164761,0.08501866250388518,0.0950099085053419,-0.11803354424760899,0.11204763749377335,0.13195229271624465,0.06431056160698095,-0.01958222029890699,-0.1188786289992449,0.13026929146239427,0.07360265618812109,-0.007965938645431568,0.01557725881322005,0.022202886609870298,-0.12312113970562699,-0.028242665886939983,0.02770515325148048,0.027307326771276088,-0.050491027497916945,0.06721546076819843,-0.034735264374829496,-0.006226385077027388,0.03690574141086282,-0.05966577126179188,0.07580684463200157,-0.06506738815850915,0.10911293693519826,0.0009711535592278581,-0.052246989075038004,-0.07918396193272584,0.12901368402808516,-0.013904524065180002,0.07835710816880685,-0.08244754575236155],[0.02332783482247241,-0.011415403286739425,-0.12380485297934826,-0.12676867644698214,0.0012971475075763566,0.0197931893563679,0.02990487353460966,-0.047254419383262324,-0.13565821296458583,-0.006765519185352824,0.08949365180421873,0.024564518487830273,-0.008339773294388463,-0.0228820440603972,0.012121058826876916,0.04973957319191396,-0.001959262500390662,0.11554246203117535,0.07662386391079119,0.0957812808168238,0.027899557277717132,0.034732329997175286,0.007898659734675137,-0.12193762755522644,-0.10733900802873508,0.04208110087941517,-0.011726250713582133,-0.10187639347761605,-0.0710867662719999,-0.09977215086243237,0.06354407683315193,0.08336049103340094,-0.036652225290853636,-0.1265175301020895,-0.08194342385239695,-0.06427707168566144,-0.009902887031934728,-0.06878188641718738,-0.056364465665629235,-0.04776256341528574,0.127928763421993,-0.1256836699018557,0.07239945512599301,-0.02368006769839466,-0.055939285342101304,0.13510722995297184,-0.06375387757774877,-0.022189083268438946,0.09995023158111331,-0.11352583321896513,0.04769009259502243,-0.0940399112694005,-0.13175822487930208,0.13711733367567874,-0.03293601601171039,-0.02427117822254157,-0.08251131117609294,-0.03782523047333279,0.07572318082476948,0.13902579611932114,0.05394449789679102,-0.03674498390000963,-0.0450217906314995,-0.06177764777866893,-0.05785762494603122,-0.07995900783404464,0.03236446707326092,-0.08459631153073004,-0.1336474760663201,0.006496424276131981,0.05991261950330785,-0.04440272048983283,-0.10256328876638775,-0.03331408563068405,0.09095536037800868,0.07286507941518612,-0.040460702286231234,0.0032476684053171084,-0.09267797465383158,0.09220232679076489,0.08662720418933498,-0.0015329896483054798,-0.026039789224456572,-0.13764681092056305,-0.09961784635930267,0.04308693517918011,-0.03333964149434373,-0.024711656445512667,-0.10610280275494598,0.0650595051481048,-0.11881145895464543,0.1402468788695587,0.1337076076924462,0.11461905410931492,-0.035263708295493496,-0.10019743928637338,0.1092276320879587,0.020304989882519872,-0.11305931826745416,0.13345440214116497,-0.004920382585793965,-0.03643672258807462,0.050545612392907974,0.08320846289826044,-0.05189304642608327,-0.09978874225220875,-0.09550447745353852,-0.11820130560400496,0.0015933351134257805,0.05084894769099495,-0.03610111095800458,0.00016734221770367316,-0.12592292415400355,0.013045165362355235,-0.06886026499786894,0.09310994062372538,0.11836691158790134,0.11426474025462709,-0.023626498793349153,-0.07994908019668995,-0.040017094487995064,0.06395665920270514,0.06452723707058369,0.07404944129711545,0.1313310187306735,-0.11484290276382672,0.11093437225875302,-0.03857977150979036,0.03336736905888063,0.03034560439276161,0.04709590037902644,0.12289386780194861,-0.09342371527836182,-0.03120604713570308,0.00974539714311714,-0.07303477494641447,-0.046570827934262114,-0.134491588122787,-0.12661397656258355,0.025979899047489614,-0.04452744070678275,0.08641624047368013,-0.011215256854995895,-0.1240490708111863,0.061899269864602015,0.021584969378806843,-0.10790177738360207,-0.0705737578987362,0.100018946056612,0.13646126029470798,0.1113583576300508,0.08714809375680661,0.10945724901627403,0.048687396408688,-0.03299154927024196,0.05003190464386467,0.004256997176009967,-0.02045806591519244,-0.03646659753045737,0.026235863524142256,-0.13922489523577503,-0.11753037511516722,0.10855063318419651,-0.12478735193547998,0.11216982288707364,0.10417990424798791,-0.08216564580720442,0.09616098210546123,0.12734802876093254,-0.06549926413000387,0.12583063603596792,0.11877944915664178,-0.11189266081517313,-0.03585049753199469,-0.028420402363979604,-0.04809215926497623,-0.11358697515508619,-0.004752648222133392,0.13564466442408105,-0.02555407892517611,0.01207580306707061,0.06992762217592573,0.020437670228155475,-0.02932115929296848,0.018732409421086903,-0.11240616501588388,-0.019465565750616455,0.014442123866652766,-0.10829594336355244,-0.06319788709770446,0.0341454267086868,0.06348767835223354,0.017928699234563243,-0.04576340304038765,0.036602752956242275,0.0594484106415017,-0.11717829108907185,0.031174569756584034,0.11992760354269207,0.08808096127245117,0.029205364100799595,0.03262357712530732,-0.0336726049151213,-0.12670564069181414,0.056323491056821884,0.12142169366699264,-0.11935765578496176,-0.030389103850221564,-0.013519027249180667,-0.03261124436028528,-0.10458406147232503,0.11298829721650673,-0.024989117888367142,0.1018701739619683,-0.06969348040653608,-0.09933986881287318,0.10082567274760361,0.07562799995355186,-0.10413331056525743,-0.05993217901936785,-0.07053934648952945,-0.03274000901237965,0.13250288272120272,0.02372874605931875,-0.051570780412523554,0.02159803527366911,-0.052348437925712143,0.006908349662590073,0.09783840224213228,0.018584684777264625,0.040091397409914416,0.10441074391053626,-0.04351660040962792,-0.0793207576116986,-0.04572011536164345,0.0019199243858279323,0.00991150611925397,-0.0593169962011262,0.11146944226158931,-0.06343087702106237,0.0311361470721055,-0.12854494032136535,-0.1094085164279573,-0.07235815476957573,-0.023308624637241322,-0.11044898775697887,-0.06187703630880361,0.08636358499962213,-0.02495545848327838,-0.11372004428767042,-0.07357280537981419,-0.06683413283163807,0.11634020071106728,-0.0007062160830850889,0.09309541252948017,-0.0933644435701006,-0.02492214988716289,0.027558182219225468,0.11227721260236623,0.028307523797652737,-0.06962084059631014,-0.09044301358643983,-0.05746494639519603,-0.09558229980886827,0.11757966724610032,0.06401286926578177,-0.10067240247785429,-0.1035814849563323,-0.10320720360474847,0.09017177304185231,-0.09823782165204151,-0.12095915031446024,0.0638559585001505,-0.005936126664326093,0.06325582746740899,0.08630151886066703,0.026910339655091757,0.04145563379665076,-0.03816770833191065,-0.09771055680486936,0.0379053899498532,0.08798826313496935,-0.11791891180816175,-0.1261367929320501,0.027967598518969114,-0.1337320301671858,0.04922834566064311,0.058593419241240736,0.08819555417957171,0.03861122973822839,-0.04031983315914954,0.11622144358410712,0.05347273535418406,-0.0924400764098131,0.1374098495896117,0.04322897894675592,-0.05693832102331093,-0.026035380239878482,0.08820902092160951,-0.06086337027680359,0.029038015132667745,0.11210861680100913,-0.11631810029637225,0.03720903989457453,0.06828928595905749,-0.11610212239441112,-0.0075303410959132065,-0.008439665998815295,-0.046596295177087514,0.1318114790629942,0.04779535830293505,0.12716136471883716,-0.007071009004929687,0.048856453265377665,0.10400306136499068,0.006123973539541541,0.13724624748055256,0.07374726645031981,-0.008158514979809506,0.07115889062129613,-0.048613144657775414,-0.09281959275444947,0.07962944027447601,-0.1369222234558199,-0.1044450720164796,-0.026127539775404357,0.013880362844112018,0.11416211398933945,-0.00005072705804495458,-0.008073673974716089,-0.040910678963545874,-0.0676883171462225,-0.13567544747926663,0.045034872040437976,-0.022017873426173385,-0.11799628225735294,-0.12286633626607542,-0.04212493262558451,-0.05004796147637262,0.13501628585129244,0.10140275335721714,0.0029014456860880296,-0.09371614419891416,0.05288623850130166,0.0013977917100489025,-0.09309165012819634,-0.11704234845150857,0.09274741918837287,-0.030576956307316407,0.009506124754242574,0.11428195779842322,-0.10898087417622837,0.06768016883954439,0.12305763104466227,-0.09030999486202923,0.08660791257649789,-0.034863180491367746,0.08603243971204876,0.1324583031661964,-0.10580929944456996,0.05089167709289131,0.05016985630546583,-0.043732307110364466,0.06449706505009567,-0.017085757466272278,-0.11053676987092592,-0.12815437918286085,-0.042169404077917715,0.016367346760676988,0.040269742952995305,-0.08494112915470611,-0.062059010059774544,0.023631162984410613,-0.08312360604361142,-0.12331885204948485,0.13842491007181348,0.031396451107978236,-0.02400322412835468,-0.019106845167396667,-0.1019800910423214,-0.01659081841654263,-0.04023903658151094,0.10094555753817751,-0.01644851466617031,-0.04803628632024334,-0.12247342423353384,0.13775727328975662,-0.07066637469137306,0.12635317600533008,-0.12367526958406018,0.08037966832238148,-0.007730721115138039,0.04320562763097153,-0.03684251259840225,-0.0543786296377941,0.06100928679910179,0.11934276777825308,-0.06406357996901364,-0.12756241257919504,-0.07613230317356298],[0.05042181853015317,-0.050623288175796075,-0.13550142768572448,0.021829033328552523,0.04122047290207009,-0.06145778921807695,0.09640401949657935,-0.008972829412852358,-0.05752526163824571,-0.11912168711878006,-0.05364843073233233,0.042912524871199544,-0.03442461932410722,-0.09647885485138501,0.06432872089875284,0.02750809420533343,0.11524643503152218,-0.13946188400801376,0.05699539513265911,-0.09567327002111074,0.13221576881369648,0.11156645200290312,-0.1380938752150512,0.018804874245350264,0.03709274040490644,0.07941835670691011,-0.08187015882632712,-0.06836987031782446,0.053524261535649556,-0.09979034667618852,0.11166219494950776,0.10856158861132487,0.10688308461593458,0.0113353538334949,-0.07260905607176606,-0.03419925115787692,-0.06067822372253092,-0.00416843989285226,0.12691762835443737,-0.048711761742860286,0.04759461299810891,0.1331032240614176,-0.051307959686062506,-0.0883620673264824,0.13980403773267444,-0.11578379244039118,-0.05415247017507778,0.13778335586156523,0.00583131785745974,-0.11386642208900234,-0.0003861593888000342,0.1364915149161723,0.0022557220345896817,0.06840132960794647,-0.03256627633199799,-0.06279281993303794,-0.019180021337705477,0.11772493530780394,-0.040419060467474004,0.014893082779734015,0.0688872941727069,-0.015679742369444572,-0.019198627812882094,-0.09994212323132445,0.10805215668687214,0.13586522195017392,-0.07331145593963447,-0.10690519220423744,0.0014942478028179514,-0.0032734189989875907,-0.00831665927204809,-0.06740469757346898,-0.0892233311382723,0.13080670341180817,-0.030547184530858196,-0.03738198851497358,0.0796513148565883,-0.017391804724901015,-0.06589340347279322,-0.06547609007051453,0.09313648489819956,-0.02973535327477565,0.004407879537969912,-0.13473996833750695,-0.11887799963433444,-0.12411385249910435,-0.009776465985466025,0.033786332061431695,0.028851347874263092,0.025961413549414388,-0.09100010720808252,-0.07201943618046558,0.015005104684041575,0.021344107076723944,-0.05876130066389438,0.09028697085369934,-0.0928563796946,0.12534596100861858,0.12196053986740614,0.03128467895741339,0.1340265728736261,0.10861129402729722,0.011226290260008874,-0.02184976775557609,0.04608840715171285,0.06868196277711844,0.08951609040703945,-0.015543025515790919,-0.11493175418108595,0.05927196044617291,-0.008245156462752748,-0.02210855667525339,0.064890465165859,-0.07086808794369247,-0.019058648599509894,-0.13350503919339649,-0.02013959276534016,-0.05452601868522695,-0.1340270186902881,0.13998533524934248,0.1049764232717718,-0.09184578790708972,0.055047235093587915,-0.11065233858945056,0.13811023144896267,0.1019626913145768,-0.07756827685084057,0.09114815836862446,-0.02199099355071426,-0.13914958807958078,-0.10886658872649903,-0.06675524199959967,-0.0699361448168799,0.00029154251328527853,0.03304973208479377,0.033898160450781395,-0.0797143628241791,0.11375795174618376,-0.08726399687521,-0.009558199957417145,0.018001969943470232,0.125105700988111,0.003834863650608176,-0.08511089545541967,-0.07924331098011347,0.13627832455219258,-0.062391698135419275,0.1358072254141922,0.08135152853769555,0.0093370395538428,-0.07760332323987038,-0.061575908955460994,-0.08132618806822058,0.08833471505244797,-0.0016203127550112385,-0.10349915021082255,0.05911384504749078,-0.10014261951964588,0.10572734699034257,0.1230194203287537,0.07590527814361027,-0.03221699519405234,-0.014007755409492003,-0.10777912524840738,0.01183269104694383,0.08258386094801733,-0.111613681184669,0.030440433641295228,0.08867143529033411,0.11320501689539099,0.0077025074135328,-0.05248754990864426,0.07308356077989592,-0.02047337761474634,-0.03296554356961372,0.09260229035619426,-0.1290618590239642,0.04529373328921463,0.035947795733416534,0.026844930100689363,0.1003116741109253,-0.08264769019656591,0.12207317828791912,0.09217488778024177,-0.13943416493258404,-0.015301308892017775,-0.1208931003452948,-0.03479398254035506,-0.020868269060115834,-0.10700266105951582,0.06481619849905262,-0.036884052351076516,-0.05319438068085451,-0.10653014669898957,-0.09208971548334,0.024504291352709318,0.10804755872197386,-0.045011898591986295,0.08687604515014277,-0.11540333666432466,-0.05390876438125499,-0.004236522350555745,0.05105975203853919,-0.07722756711951402,-0.10674648091992343,-0.1260653555934939,0.002803095874711409,0.13759442369974628,-0.016233734415214612,-0.08746732601051165,-0.09848311787556949,0.09450667837854494,-0.11795130930179475,-0.02933641621774143,-0.019293375531670515,-0.05511050493266167,-0.03692605961561168,-0.08868337107506756,-0.017214695912574605,0.1169518522906905,0.02144362315092335,0.00034463258967592174,0.08759117554145895,0.07484736153451882,-0.048026164167765666,-0.12529988321985086,-0.10618604171143903,-0.11931540707798875,-0.06753750054528034,-0.023615789482866197,0.031777928095561465,0.015887611867387536,0.12496502161454026,-0.03157179700440407,-0.06993796311303206,-0.09561535885111178,-0.016763776256529545,-0.0995144035315853,-0.03545341295466912,-0.08611619807711106,0.08916251556482445,-0.008080382463387603,0.025894598764354553,-0.0037203277397869425,0.139196662465917,-0.029579848001497034,-0.05999874336840188,-0.10192139401327044,-0.13900400312250696,0.1025497525920193,0.11094931352393131,-0.13562822871851637,-0.029152518160667017,-0.09738412585961866,-0.1160011622164577,-0.08729744470902936,0.1088209556381251,-0.12482331895574038,0.032121280128813184,-0.07668129217223174,-0.10911420537607691,-0.02817585340856918,0.04942673562909225,-0.04875660771182353,-0.039920635359769446,0.07838652704697682,-0.08076823907437772,-0.044879512979629124,0.11396098214280731,-0.014399639439188539,-0.0892623199455187,-0.09054924701974129,0.018860497469003486,-0.028003985404309494,-0.09503593053283489,-0.04335175260285527,-0.11764443065520871,-0.007951375641960304,-0.008264335940354398,-0.08740181295845668,-0.13835422003690018,-0.04740845197190302,-0.11792933060083974,0.10421799096267564,-0.0036100551684067825,0.020092853886785344,0.01200619649563238,0.015829484827649454,0.10624412637635529,0.017300059883032813,0.006672565657688443,-0.034749500373635056,0.026574598562966213,-0.006480143526958136,-0.06716884708809448,-0.09586398856450544,-0.0711724584529933,0.08876708553169017,0.12909634423170863,-0.09316063196882539,0.09023928756493846,-0.11506575622612852,0.025386491341830183,-0.04959621725397526,-0.054646687315445475,-0.07416443432555549,-0.09851563482565008,0.07818327143190719,-0.07857144578905483,-0.13969562811227337,0.10909644435385202,-0.047752639367888663,0.08540827212934551,0.033668199133066005,-0.03856599624891127,0.07113422943342372,0.04896384274386429,-0.12125038795220824,-0.09946199501268249,-0.10986486964565526,0.0958066270387463,0.065849517995419,0.07571192994127222,0.10125836990262133,0.05281044619540936,-0.03342244581611455,0.08463688626281075,0.002904812070366795,-0.10549312360360444,0.11464606107231752,0.044260298641476764,-0.0019459386892666571,-0.08252836712752001,-0.08826563327950031,-0.13654312601844165,-0.04608653952393948,-0.09289775576770479,0.00371847157265107,-0.0588354861536959,0.08921024412067802,0.0729860596947366,-0.10742313998660154,0.11259613385656432,-0.009425867176223906,0.06563402915608947,0.04762365709226442,0.13526364308560926,0.12834812732735687,0.07033740019006487,0.10297598751050074,0.041660155836881554,0.060040052146138716,0.07042376623340883,0.013652028140392984,0.0032944377543030513,-0.13316486948368486,-0.0620267988365874,0.12403984223698773,0.03978788904802898,-0.11406757247476909,-0.02628594214570245,-0.119774414538137,-0.12511097335663426,-0.05409388169269208,-0.09737896518054134,-0.03856167170277098,-0.11457132533067534,0.05806809346658782,0.038095894638747935,0.09526676730674433,-0.10039410867416597,-0.011651419618827227,-0.033744070120023895,0.05309292976984953,0.060007892570628246,-0.09688814244536487,0.009851055655243177,-0.003923241976507473,0.036638848131377896,0.0473751625602734,0.04978596242484856,-0.03508944625792225,-0.046366575286848774,0.13899744704024342,0.12473649821888338,-0.041031094152614446,-0.12799826105177103,-0.12803051679097996,-0.008040438333296356,-0.12383898982513092,-0.09705332065164309,-0.025912162039040197,0.1159593380020352,0.058213327321663594,0.06742566500777276,0.10156654381538362,-0.11442904380832321,-0.10543450653486171,0.029782250834647545,-0.09181017232101817],[-0.05288275381369853,0.035778551187239056,-0.018043513996867114,0.12009914151558469,-0.01202403227142524,0.1349800694470153,0.08527462402972372,-0.08815942705296309,-0.13687186109309246,0.1263467026365626,0.05909158901858525,0.09745082550007939,0.005732558688709015,0.10892630039343298,0.03199355086747772,-0.09369873580905395,-0.12524873628149066,0.011906720123627874,-0.10616014671543103,0.12900992714598775,0.01119169309401293,0.11274227731727193,-0.12534182572210228,0.08673710212036866,-0.038272275470782276,0.0012143231253240792,-0.014497821655172454,-0.078768577051957,0.11508961680442902,0.1305106757017866,0.004703436547101835,0.03194094351122167,-0.0027784184153397296,-0.07792845598017197,-0.023507465262856325,-0.021664518093324262,-0.0181698915662722,-0.09890400639412332,0.0703774398929672,0.013865449865587326,0.10125803236417198,-0.11435166483504132,0.03989833670283865,-0.005744757697472887,-0.13942855155185024,0.12731867754346296,0.09573042147605801,0.06567630243351434,-0.018081603498951018,-0.14022520800991645,-0.04224314187694074,0.13775154443394258,-0.11461822926614854,0.014442506369092525,-0.021944768166269446,0.13739822039441937,-0.03883131103618831,0.1350862175518928,-0.1277188894321421,-0.07389639340113872,-0.11215046070416686,-0.022948955374224072,0.12773218984901757,-0.012902192949655897,-0.03151859596643673,0.02074774233151858,0.04396897338885559,0.06275876910600985,-0.1317504373968193,-0.009342112221443013,0.09636706628105034,-0.10258529733915672,-0.0034174520814771406,-0.13522124112618472,0.07075372320961158,0.061755172254178814,0.054233252156584276,0.1308509173585824,-0.05148767409077578,0.020196090441894243,-0.1339138868394778,0.00880903246368656,-0.0486842697894049,0.08857682939305626,0.13464715883494857,0.08034787979623254,0.006405846481922299,0.103231973395456,0.036211928698297834,-0.13658282684977582,-0.06967054535181642,0.07751860494992914,0.0722938102097529,0.07146094024214214,0.04547238539158649,-0.042385958495453575,-0.019475587410127143,0.10326667569702165,0.07139201581155089,0.1326693481811041,0.04228757168515776,-0.07968251159145964,-0.012906982093943253,-0.01578840515355389,-0.03544747557238569,-0.11853565427858265,0.09908167204726982,-0.050851900246536234,-0.07701591230913417,0.08297307307766891,0.13625703046420115,-0.1294402964604624,0.09747763288868695,-0.08963781860688162,-0.018848370040823875,0.09713341500642213,0.07554144709578936,-0.08318634940824511,0.04525240824363679,-0.07022054645161423,-0.11606298770266944,0.11445041450753335,0.051076953748056854,0.06790970220327004,-0.09737384814838469,0.1081033833374799,-0.044431445182345576,-0.05644913411987997,-0.10931775426891277,-0.07328214647003102,0.008405803472025375,0.01455487774798161,0.08764930348033974,0.08744466585367197,0.05512952386768984,-0.021706749207283906,0.022142810290444098,-0.0418790392213421,0.08442756438103372,-0.12953200098934484,0.057994306213037486,-0.06401821202203752,-0.002245758201778198,-0.09024587976364447,0.07484817930727765,-0.068308642300171,-0.016003993332965715,0.10068015024408448,0.08052061517373917,-0.08592429757238976,-0.11534094060134639,0.022487256579952642,0.020411464882269314,-0.06264583015535344,-0.11127649994662547,0.06262962804081318,0.09181225167054755,-0.006502225400402891,0.04343758102532162,-0.07474467985808096,0.11668158192224162,0.04420428069400066,0.10591802026879153,0.14003395672446478,-0.03674712063486853,0.006058716019918868,0.0030387600597733774,-0.11634202036242751,-0.12355646849371439,-0.10306401664819573,0.017171554473072618,-0.07861967379001583,-0.07672844344517518,0.03873026606853979,-0.0322418475186681,-0.03589058112739312,0.1193891698726233,-0.0700349664799129,-0.02517509379088673,0.04543912880643992,0.1155230046929913,0.03988301556594266,0.09861793027600424,0.03925368702069709,0.0636392804946183,-0.08633630290960576,-0.028761928721425457,-0.11114511941423091,0.1252414337176299,-0.0798671689799814,0.027598348349446175,0.06938163019585966,0.02477428703789056,0.006294773509669036,-0.041926633582157695,-0.10302387505622053,-0.0576015327750272,0.013395228296409413,-0.07741535162522378,-0.07992460892153395,0.018202574583726403,0.1073950900921572,0.09218548877915261,0.016704634857880547,-0.08122180891222293,-0.07551429180676172,0.03760752997076686,-0.12789362052570688,0.06074972687551081,0.0790637561732496,-0.020850154638530745,-0.1053214697037596,0.09177361549776175,0.10408329719797904,-0.11778132960105848,0.12406805521000412,-0.06960030058933392,0.13604718425776313,0.02337490809647994,0.10350719519101852,0.13480073098476217,-0.0020349395892774315,0.06281196851347376,-0.040396131577406263,0.010229051378869102,-0.1368723989649559,-0.08809702505293712,-0.04086329370528682,-0.018112139372873204,-0.017689710520011812,-0.13018904055339492,-0.08264766163059363,0.009150457478497737,-0.029030686499914974,-0.0071999469123322744,-0.11869850070062862,0.06674091714177384,-0.13335782592972784,-0.07115132275103687,0.1337076300387054,0.020238286488783813,0.0637495502817548,-0.0684675920299153,-0.09490369761442408,0.04271297855493906,-0.09244797243141173,-0.0103081308112282,0.13800690493531095,0.0013168213231097021,0.00439605140751933,0.1022414123686686,-0.12446601194158002,0.07419092778157788,0.0017317161651096802,-0.013408820363971133,0.08027479234730027,0.07449924312875414,0.06333275146183577,-0.09587700577622384,0.12793427093899903,-0.03694832694548659,0.024150469252216904,-0.07050738031430287,0.06983864187135254,0.12685469803213395,-0.07208329557049954,-0.10603667779762874,0.052814963578605975,0.07407608443001794,0.11273705304458105,0.013217412021242426,0.06979272466634392,-0.07647092081474104,0.05598560490958075,0.017214161217056448,0.13888128443684003,0.0639741706516989,0.01943237269565557,0.11737929700948638,0.10447927960048457,0.10194510080680122,0.028104022032526377,-0.1388519167884752,0.05251237621595728,0.046735707253134987,-0.11341665271098153,-0.06844356486330433,0.0784761950180702,-0.09086648170681359,-0.022162506663430302,-0.12997127479409176,0.036321888056276404,0.1109528656505983,0.0818172824181617,-0.010084100135456287,-0.07308575108426354,-0.0297023622808023,-0.04454527980803813,0.08673327953913865,0.03790235552792946,-0.1077582171835355,0.03576429847702822,-0.0032535665618163624,0.029508898198703185,-0.1380764033609666,-0.024365072264698806,-0.03254355066152547,0.12052470173923867,0.07625682759586029,0.029115289300770564,-0.05162744392704678,0.13987863361488315,0.045699931923036494,0.12065217565377548,0.061368128114578355,0.07139004562934675,-0.09315057588370958,0.06504050258932019,-0.07805393269023225,-0.04577742223005719,0.006348626576278555,0.02610585997003733,-0.07913563407568759,0.051350589165235806,0.03829095565992997,0.003026310381276304,-0.05014686653918366,-0.13907236721892338,-0.06198787792084582,-0.021881339676998998,0.09655868068109062,0.03991781282161604,0.11422290806549198,-0.08375683159939075,0.09715057362889498,-0.08981998736215736,-0.013484259757042774,0.054205441625863625,0.08371660057582761,0.11906224197811252,-0.10800136255483102,0.1158132889130237,-0.12588152621549653,0.12266222428383083,0.05448745912408379,0.10689821353603324,-0.015872556669144302,-0.029166768170234583,0.052863285818916875,-0.015554125231173497,-0.1340587423445647,-0.08318637978891659,-0.033361995666767515,0.008137221501992867,0.04863012898394592,0.000187508070338948,-0.016899316844259365,0.00268508875982648,-0.13568780860983826,0.09416075828471115,-0.08587019363732565,-0.07379965193661549,0.028283470468847053,0.023030308561047725,-0.03339048818731561,-0.07142134121388546,-0.06602349053352168,0.0882086433106407,0.029853858286295228,0.030591705477775583,0.08523687032787228,0.06163346705469179,0.0012523587532440377,-0.11471856942664711,-0.06645532976432,-0.09486935246459541,-0.1226047790526614,-0.07576588545210954,0.1229333840980511,0.10059141849266943,0.1067060078868632,-0.04563746627457906,0.11884598504004072,0.03068350002752276,0.04438538396068117,-0.1307605657470352,-0.07614569249594857,0.10477540199299253,-0.058810679995764184,-0.09313810668860521,-0.036974387496812304,0.05292741494784175,0.008052154331785646,0.028801763301440488,0.012856066857698922,0.04389491584363801,-0.004554929781117845,-0.07629475985289065,0.12434014083418664,0.09562165932500945],[-0.022492337020323223,-0.0023449333828137976,0.009125775530229002,0.08030945007466032,-0.037493987567522064,-0.11393660210756511,0.1326173729861126,0.11355080079711714,-0.09135568807763744,0.027613415640516913,-0.12572120573508175,-0.12984773626567342,-0.08100978612078229,-0.12403288112645755,-0.03344353185270442,-0.09755071627228526,-0.10003145770232348,0.10631493315114605,0.001280363214600792,0.05177189620619268,0.09562888764609585,0.021064160760069787,-0.047084958948837685,-0.10507078403477398,0.11712188907771401,0.08948683527080205,-0.1400600772030766,0.10536412073881286,0.05066565018428376,0.1016579842196002,-0.08656082048047116,0.12897063912319578,-0.09371639617042554,0.13155415333987758,0.0584733494888477,-0.1215174407554495,-0.063196445594778,0.08151012124581523,